{"learner":{"attributes":{},"feature_names":["date_time","site_id","visitor_location_country_id","visitor_hist_starrating","visitor_hist_adr_usd","prop_country_id","prop_brand_bool","srch_destination_id","srch_booking_window","srch_saturday_night_bool","orig_destination_distance","random_bool","has_hist_starrating","has_hist_adr_usd","score1d2","normalized_prop_starrating","normalized_score1d2","normalized_prop_review_score","hotel_quality","normalized_hotel_quality","price_per_person","avg_price_per_day","ump","price_diff","starrating_diff","total_price","score2ma","promotion_count","promotion_any"],"feature_types":["float","int","int","float","float","int","int","int","int","int","float","int","int","int","float","float","float","float","float","float","float","float","float","float","float","float","float","int","int"],"gradient_booster":{"model":{"gbtree_model_param":{"num_parallel_tree":"1","num_trees":"120"},"iteration_indptr":[0,1,2,3,4,5,6,7,8,9,10,11,12,13,14,15,16,17,18,19,20,21,22,23,24,25,26,27,28,29,30,31,32,33,34,35,36,37,38,39,40,41,42,43,44,45,46,47,48,49,50,51,52,53,54,55,56,57,58,59,60,61,62,63,64,65,66,67,68,69,70,71,72,73,74,75,76,77,78,79,80,81,82,83,84,85,86,87,88,89,90,91,92,93,94,95,96,97,98,99,100,101,102,103,104,105,106,107,108,109,110,111,112,113,114,115,116,117,118,119,120],"tree_info":[0,0,0,0,0,0,0,0,0,0,0,0,0,0,0,0,0,0,0,0,0,0,0,0,0,0,0,0,0,0,0,0,0,0,0,0,0,0,0,0,0,0,0,0,0,0,0,0,0,0,0,0,0,0,0,0,0,0,0,0,0,0,0,0,0,0,0,0,0,0,0,0,0,0,0,0,0,0,0,0,0,0,0,0,0,0,0,0,0,0,0,0,0,0,0,0,0,0,0,0,0,0,0,0,0,0,0,0,0,0,0,0,0,0,0,0,0,0,0,0],"trees":[{"base_weights":[1.3457464E-5,-1.5145478E-1,8.1989445E-2,-2.7595273E-1,-8.0714315E-2,1.6921623E-1,-8.890102E-2,-2.6900338E-3,-4.9394984E-3,-3.8251085E-3,-5.525652E-4,8.9215697E-4,3.6683646E-3,4.0589314E-4,-2.466438E-3],"categories":[],"categories_nodes":[],"categories_segments":[],"categories_sizes":[],"default_left":[0,0,0,0,0,0,0,0,0,0,0,0,0,0,0],"id":0,"left_children":[1,3,5,7,9,11,13,-1,-1,-1,-1,-1,-1,-1,-1],"loss_changes":[5.754883E2,1.4331595E2,4.4827972E2,3.791925E1,8.240515E1,1.9491534E2,1.0457283E2,0E0,0E0,0E0,0E0,0E0,0E0,0E0,0E0],"parents":[2147483647,0,0,1,1,2,2,3,3,4,4,5,5,6,6],"right_children":[2,4,6,8,10,12,14,-1,-1,-1,-1,-1,-1,-1,-1],"split_conditions":[-2.0523052E-1,9.604202E0,1.7016E2,-7.3E1,-6.8406945E-1,3.3634674E1,9.295E1,-2.6900338E-3,-4.9394984E-3,-3.8251085E-3,-5.525652E-4,8.9215697E-4,3.6683646E-3,4.0589314E-4,-2.466438E-3],"split_indices":[15,22,25,22,18,22,20,0,0,0,0,0,0,0,0],"split_type":[0,0,0,0,0,0,0,0,0,0,0,0,0,0,0],"sum_hessian":[4.634571E4,1.6274404E4,3.0071307E4,5.895632E3,1.0378772E4,1.9909172E4,1.0162134E4,2.8221863E3,3.0734456E3,1.8303262E3,8.548446E3,9.318799E3,1.0590373E4,4.3230225E3,5.839111E3],"tree_param":{"num_deleted":"0","num_feature":"29","num_nodes":"15","size_leaf_vector":"1"}},{"base_weights":[-4.378681E-4,-1.9897908E-1,3.999926E-2,-3.0812904E-1,-1.3756683E-1,7.8705475E-2,-1.240833E-1,-3.6592232E-3,-6.5020667E-3,-5.402902E-3,-1.4194218E-3,3.117515E-4,2.4600222E-3,-7.958938E-4,-3.6537803E-3],"categories":[],"categories_nodes":[],"categories_segments":[],"categories_sizes":[],"default_left":[0,0,0,0,0,0,0,0,0,0,0,0,0,0,0],"id":1,"left_children":[1,3,5,7,9,11,13,-1,-1,-1,-1,-1,-1,-1,-1],"loss_changes":[8.295839E2,1.171582E2,5.452208E2,4.588037E1,1.0051456E2,3.8029932E2,1.5080646E2,0E0,0E0,0E0,0E0,0E0,0E0,0E0,0E0],"parents":[2147483647,0,0,1,1,2,2,3,3,4,4,5,5,6,6],"right_children":[2,4,6,8,10,12,14,-1,-1,-1,-1,-1,-1,-1,-1],"split_conditions":[-6.409611E-1,7.4342017E0,1.4528E2,1.8E2,2.75E1,4.7715767E1,2.266E2,-3.6592232E-3,-6.5020667E-3,-5.402902E-3,-1.4194218E-3,3.117515E-4,2.4600222E-3,-7.958938E-4,-3.6537803E-3],"split_indices":[15,22,21,25,20,22,25,0,0,0,0,0,0,0,0],"split_type":[0,0,0,0,0,0,0,0,0,0,0,0,0,0,0],"sum_hessian":[1.033287E5,1.7483416E4,8.584529E4,6.293593E3,1.1189822E4,6.946045E4,1.6384836E4,4.846509E3,1.4470842E3,1.4215975E3,9.768225E3,4.3913957E4,2.5546494E4,1.0989281E4,5.395554E3],"tree_param":{"num_deleted":"0","num_feature":"29","num_nodes":"15","size_leaf_vector":"1"}},{"base_weights":[-1.463581E-3,-9.785075E-2,5.4599132E-2,-1.3357612E-1,5.398391E-2,-1.3525666E-1,7.6035164E-2,-1.4509961E-3,-3.6676263E-3,3.0949407E-3,-8.341409E-4,-6.336009E-3,-1.2921154E-3,1.864322E-3,2.7089304E-4],"categories":[],"categories_nodes":[],"categories_segments":[],"categories_sizes":[],"default_left":[0,0,0,0,0,0,0,0,0,0,0,0,0,0,0],"id":2,"left_children":[1,3,5,7,9,11,13,-1,-1,-1,-1,-1,-1,-1,-1],"loss_changes":[5.363101E2,1.9798538E2,2.5538805E2,1.1353088E2,1.3193895E2,8.675109E1,1.8259863E2,0E0,0E0,0E0,0E0,0E0,0E0,0E0,0E0],"parents":[2147483647,0,0,1,1,2,2,3,3,4,4,5,5,6,6],"right_children":[2,4,6,8,10,12,14,-1,-1,-1,-1,-1,-1,-1,-1],"split_conditions":[1.4707424E1,1.0079054E0,4.928027E-1,2.2E2,6.929E1,-2.3454673E0,1.2666E2,-1.4509961E-3,-3.6676263E-3,3.0949407E-3,-8.341409E-4,-6.336009E-3,-1.2921154E-3,1.864322E-3,2.7089304E-4],"split_indices":[22,15,19,25,20,17,25,0,0,0,0,0,0,0,0],"split_type":[0,0,0,0,0,0,0,0,0,0,0,0,0,0,0],"sum_hessian":[9.924622E4,3.6497047E4,6.274917E4,2.9545395E4,6.9516533E3,6.3655063E3,5.6383668E4,2.3961094E4,5.5843E3,2.812626E3,4.1390273E3,7.5794147E2,5.607565E3,2.808093E4,2.8302736E4],"tree_param":{"num_deleted":"0","num_feature":"29","num_nodes":"15","size_leaf_vector":"1"}},{"base_weights":[-2.0673903E-4,-7.7990115E-2,4.1436687E-2,-3.4640294E-2,-1.6572338E-1,1.5232905E-2,1.404402E-1,5.8471115E-4,-1.836393E-3,-2.1374968E-3,-9.049134E-3,-4.7292025E-4,8.5526286E-4,2.8502406E-3,-3.1680657E-4],"categories":[],"categories_nodes":[],"categories_segments":[],"categories_sizes":[],"default_left":[0,0,0,0,0,0,0,0,0,0,0,0,0,0,0],"id":3,"left_children":[1,3,5,7,9,11,13,-1,-1,-1,-1,-1,-1,-1,-1],"loss_changes":[3.0994788E2,1.2689137E2,1.6167743E2,1.6471982E2,6.90842E1,1.1076396E2,1.3431363E2,0E0,0E0,0E0,0E0,0E0,0E0,0E0,0E0],"parents":[2147483647,0,0,1,1,2,2,3,3,4,4,5,5,6,6],"right_children":[2,4,6,8,10,12,14,-1,-1,-1,-1,-1,-1,-1,-1],"split_conditions":[1.3850073E1,1.86E2,7.99072E1,-5.9368412E1,1.5235103E0,1.0022774E-1,8.385E1,5.8471115E-4,-1.836393E-3,-2.1374968E-3,-9.049134E-3,-4.7292025E-4,8.5526286E-4,2.8502406E-3,-3.1680657E-4],"split_indices":[22,25,22,22,17,18,20,0,0,0,0,0,0,0,0],"split_type":[0,0,0,0,0,0,0,0,0,0,0,0,0,0,0],"sum_hessian":[9.5685555E4,3.336469E4,6.2320867E4,2.2331758E4,1.1032933E4,4.927907E4,1.3041798E4,1.2465614E4,9.866144E3,1.0742686E4,2.9024734E2,2.3820088E4,2.545898E4,9.401016E3,3.6407825E3],"tree_param":{"num_deleted":"0","num_feature":"29","num_nodes":"15","size_leaf_vector":"1"}},{"base_weights":[4.963498E-4,-4.7018602E-2,5.1785994E-2,-1.3481107E-1,-6.589457E-3,7.6961376E-2,-1.346543E-1,-4.8273504E-3,-1.4997513E-3,1.6991714E-4,-2.3414744E-3,-1.1399813E-3,1.3372012E-3,-1.3460055E-3,-7.1700444E-3],"categories":[],"categories_nodes":[],"categories_segments":[],"categories_sizes":[],"default_left":[0,0,0,0,0,0,0,0,0,0,0,0,0,0,0],"id":4,"left_children":[1,3,5,7,9,11,13,-1,-1,-1,-1,-1,-1,-1,-1],"loss_changes":[2.2782234E2,1.7224178E2,2.1102147E2,8.892395E1,9.996912E1,1.1640062E2,7.770784E1,0E0,0E0,0E0,0E0,0E0,0E0,0E0,0E0],"parents":[2147483647,0,0,1,1,2,2,3,3,4,4,5,5,6,6],"right_children":[2,4,6,8,10,12,14,-1,-1,-1,-1,-1,-1,-1,-1],"split_conditions":[2.9587525E-1,6.308253E0,2.6006E2,-6.5602076E-1,9.1909546E-1,-4.5181093E-1,1.3445956E0,-4.8273504E-3,-1.4997513E-3,1.6991714E-4,-2.3414744E-3,-1.1399813E-3,1.3372012E-3,-1.3460055E-3,-7.1700444E-3],"split_indices":[15,22,25,18,17,17,17,0,0,0,0,0,0,0,0],"split_type":[0,0,0,0,0,0,0,0,0,0,0,0,0,0,0],"sum_hessian":[9.348179E4,4.852661E4,4.495518E4,1.5300033E4,3.3226574E4,3.9607492E4,5.3476875E3,1.7808365E3,1.3519197E4,2.9758809E4,3.4677656E3,4.15264E3,3.5454855E4,4.853769E3,4.939184E2],"tree_param":{"num_deleted":"0","num_feature":"29","num_nodes":"15","size_leaf_vector":"1"}},{"base_weights":[-1.5724332E-3,4.3371625E-2,-5.727666E-2,-1.6270314E-1,5.7046037E-2,-1.22893E-1,-1.8102994E-2,-5.4096743E-3,-1.6064465E-3,1.3539209E-3,2.3097945E-4,-5.8598495E-3,-1.5135073E-3,-1.2206831E-3,3.2828195E-4],"categories":[],"categories_nodes":[],"categories_segments":[],"categories_sizes":[],"default_left":[0,0,0,0,0,0,0,0,0,0,0,0,0,0,0],"id":5,"left_children":[1,3,5,7,9,11,13,-1,-1,-1,-1,-1,-1,-1,-1],"loss_changes":[2.3070377E2,1.4372678E2,1.0576865E2,3.4005493E1,7.6916016E1,6.7200455E1,7.397406E1,0E0,0E0,0E0,0E0,0E0,0E0,0E0,0E0],"parents":[2147483647,0,0,1,1,2,2,3,3,4,4,5,5,6,6],"right_children":[2,4,6,8,10,12,14,-1,-1,-1,-1,-1,-1,-1,-1],"split_conditions":[1.38E2,4.4813117E-1,-2.6863794E0,2.9E1,1.0862E2,-2.8652E2,1E0,-5.4096743E-3,-1.6064465E-3,1.3539209E-3,2.3097945E-4,-5.8598495E-3,-1.5135073E-3,-1.2206831E-3,3.2828195E-4],"split_indices":[25,19,22,20,25,22,6,0,0,0,0,0,0,0,0],"split_type":[0,0,0,0,0,0,0,0,0,0,0,0,0,0,0],"sum_hessian":[9.214777E4,5.0999703E4,4.1148066E4,3.1728992E3,4.7826805E4,1.5381591E4,2.5766479E4,5.5887744E2,2.6140217E3,2.4176523E4,2.3650281E4,7.31248E2,1.4650343E4,9.676355E3,1.6090122E4],"tree_param":{"num_deleted":"0","num_feature":"29","num_nodes":"15","size_leaf_vector":"1"}},{"base_weights":[8.3414285E-4,1.792345E-2,-1.0160265E-1,-9.587091E-3,7.750571E-2,-4.126137E-1,-8.587966E-2,-3.4097955E-3,-4.2961303E-5,9.202618E-5,1.4925695E-3,-1.1565626E-2,-4.1990587E-3,-1.9026208E-3,-3.512546E-4],"categories":[],"categories_nodes":[],"categories_segments":[],"categories_sizes":[],"default_left":[0,0,0,0,0,0,0,0,0,0,0,0,0,0,0],"id":6,"left_children":[1,3,5,7,9,11,13,-1,-1,-1,-1,-1,-1,-1,-1],"loss_changes":[1.5998573E2,1.2838445E2,6.3860565E1,8.172111E1,5.1078705E1,2.903756E1,3.78217E1,0E0,0E0,0E0,0E0,0E0,0E0,0E0,0E0],"parents":[2147483647,0,0,1,1,2,2,3,3,4,4,5,5,6,6],"right_children":[2,4,6,8,10,12,14,-1,-1,-1,-1,-1,-1,-1,-1],"split_conditions":[2.18E2,6.531105E-1,-2.8652E2,-2.063799E0,1.2597829E-1,1.05568394E-1,7.2074974E-1,-3.4097955E-3,-4.2961303E-5,9.202618E-5,1.4925695E-3,-1.1565626E-2,-4.1990587E-3,-1.9026208E-3,-3.512546E-4],"split_indices":[25,15,22,17,17,18,15,0,0,0,0,0,0,0,0],"split_type":[0,0,0,0,0,0,0,0,0,0,0,0,0,0,0],"sum_hessian":[9.138841E4,7.832281E4,1.3065599E4,5.3583074E4,2.4739736E4,6.27524E2,1.2438075E4,1.4513826E3,5.213169E4,7.1984077E3,1.7541328E4,1.3302693E2,4.9449707E2,6.8226987E3,5.615376E3],"tree_param":{"num_deleted":"0","num_feature":"29","num_nodes":"15","size_leaf_vector":"1"}},{"base_weights":[2.1292574E-3,3.2635383E-2,-5.70143E-2,-4.530486E-2,5.4347336E-2,-4.509886E-2,-2.7007046E-1,-2.351636E-3,-6.953968E-5,1.166702E-3,1.3670142E-4,-5.0105585E-4,-3.6291583E-3,-2.8189332E-3,-7.03313E-3],"categories":[],"categories_nodes":[],"categories_segments":[],"categories_sizes":[],"default_left":[0,0,0,0,0,0,0,0,0,0,0,0,0,0,0],"id":7,"left_children":[1,3,5,7,9,11,13,-1,-1,-1,-1,-1,-1,-1,-1],"loss_changes":[1.6390074E2,1.0141823E2,7.846243E1,6.461245E1,6.0577682E1,5.8347355E1,2.603051E1,0E0,0E0,0E0,0E0,0E0,0E0,0E0,0E0],"parents":[2147483647,0,0,1,1,2,2,3,3,4,4,5,5,6,6],"right_children":[2,4,6,8,10,12,14,-1,-1,-1,-1,-1,-1,-1,-1],"split_conditions":[7.686E1,5.2725434E-1,1.2657958E0,2E0,5.5573334E1,2.6634E2,1.5868E2,-2.351636E-3,-6.953968E-5,1.166702E-3,1.3670142E-4,-5.0105585E-4,-3.6291583E-3,-2.8189332E-3,-7.03313E-3],"split_indices":[20,19,17,27,20,21,20,0,0,0,0,0,0,0,0],"split_type":[0,0,0,0,0,0,0,0,0,0,0,0,0,0,0],"sum_hessian":[9.083991E4,5.992907E4,3.091084E4,1.3056947E4,4.687212E4,2.927482E4,1.636021E3,3.230294E3,9.826653E3,2.8403113E4,1.8469008E4,2.8056242E4,1.2185775E3,1.2639766E3,3.7204437E2],"tree_param":{"num_deleted":"0","num_feature":"29","num_nodes":"15","size_leaf_vector":"1"}},{"base_weights":[-1.9614496E-3,2.457127E-2,-6.4663425E-2,-9.8872475E-2,3.3489503E-2,-1.0653858E-1,-1.3713115E-2,-2.9722885E-3,-2.883104E-4,-3.7984867E-3,5.2501174E-4,3.9421275E-4,-1.9056136E-3,2.2244643E-5,-5.4581226E-3],"categories":[],"categories_nodes":[],"categories_segments":[],"categories_sizes":[],"default_left":[0,0,0,0,0,0,0,0,0,0,0,0,0,0,0],"id":8,"left_children":[1,3,5,7,9,11,13,-1,-1,-1,-1,-1,-1,-1,-1],"loss_changes":[1.5031876E2,6.989827E1,5.7317886E1,3.7981884E1,7.2408295E1,5.875E1,6.976623E1,0E0,0E0,0E0,0E0,0E0,0E0,0E0,0E0],"parents":[2147483647,0,0,1,1,2,2,3,3,4,4,5,5,6,6],"right_children":[2,4,6,8,10,12,14,-1,-1,-1,-1,-1,-1,-1,-1],"split_conditions":[1.6144E2,-1.2526065E0,6.531105E-1,1E0,-2.063799E0,5.2E1,1.5235103E0,-2.9722885E-3,-2.883104E-4,-3.7984867E-3,5.2501174E-4,3.9421275E-4,-1.9056136E-3,2.2244643E-5,-5.4581226E-3],"split_indices":[25,15,15,6,17,20,17,0,0,0,0,0,0,0,0],"split_type":[0,0,0,0,0,0,0,0,0,0,0,0,0,0,0],"sum_hessian":[9.0352625E4,6.348793E4,2.6864693E4,4.276985E3,5.9210945E4,1.4744972E4,1.2119722E4,1.7456511E3,2.5313335E3,7.682357E2,5.844271E4,2.6547754E3,1.2090196E4,1.1646917E4,4.7280463E2],"tree_param":{"num_deleted":"0","num_feature":"29","num_nodes":"15","size_leaf_vector":"1"}},{"base_weights":[-8.397015E-4,-4.573222E-2,3.4299787E-2,-3.168022E-2,-1.8992145E-1,4.545558E-2,-7.611452E-2,-1.1735648E-3,1.39606655E-5,-3.4529797E-3,-4.8081027E-4,4.2249289E-4,2.0560191E-3,-2.4951163E-3,-4.062565E-4],"categories":[],"categories_nodes":[],"categories_segments":[],"categories_sizes":[],"default_left":[0,0,0,0,0,0,0,0,0,0,0,0,0,0,0],"id":9,"left_children":[1,3,5,7,9,11,13,-1,-1,-1,-1,-1,-1,-1,-1],"loss_changes":[1.4196188E2,8.005204E1,6.2181725E1,6.1352116E1,3.0952278E1,7.102209E1,2.2272377E1,0E0,0E0,0E0,0E0,0E0,0E0,0E0,0E0],"parents":[2147483647,0,0,1,1,2,2,3,3,4,4,5,5,6,6],"right_children":[2,4,6,8,10,12,14,-1,-1,-1,-1,-1,-1,-1,-1],"split_conditions":[2.5235563E1,1.9403E2,1.2526E2,-1.257388E-1,1.2340038E0,1.0303453E2,1E0,-1.1735648E-3,1.39606655E-5,-3.4529797E-3,-4.8081027E-4,4.2249289E-4,2.0560191E-3,-2.4951163E-3,-4.062565E-4],"split_indices":[22,21,20,15,15,22,6,0,0,0,0,0,0,0,0],"split_type":[0,0,0,0,0,0,0,0,0,0,0,0,0,0,0],"sum_hessian":[8.998969E4,3.9511457E4,5.0478234E4,3.6003906E4,3.5075508E3,4.5846668E4,4.6315645E3,1.3869583E4,2.2134322E4,2.570004E3,9.375468E2,3.984488E4,6.0017915E3,1.4610706E3,3.170494E3],"tree_param":{"num_deleted":"0","num_feature":"29","num_nodes":"15","size_leaf_vector":"1"}},{"base_weights":[-3.0587768E-4,3.1274103E-2,-4.0939897E-2,-4.4461444E-2,4.3478295E-2,-2.597833E-2,-1.4102271E-1,-1.1514602E-3,1.609874E-3,1.6049765E-3,3.407758E-4,-6.762748E-4,2.9910577E-4,-1.3303688E-3,-4.390493E-3],"categories":[],"categories_nodes":[],"categories_segments":[],"categories_sizes":[],"default_left":[0,0,0,0,0,0,0,0,0,0,0,0,0,0,0],"id":10,"left_children":[1,3,5,7,9,11,13,-1,-1,-1,-1,-1,-1,-1,-1],"loss_changes":[1.1460174E2,4.6449913E1,5.8477577E1,4.2030945E1,5.8937035E1,3.5916077E1,4.0287956E1,0E0,0E0,0E0,0E0,0E0,0E0,0E0,0E0],"parents":[2147483647,0,0,1,1,2,2,3,3,4,4,5,5,6,6],"right_children":[2,4,6,8,10,12,14,-1,-1,-1,-1,-1,-1,-1,-1],"split_conditions":[1.38E2,-4.3293667E-1,1.9403E2,1.1E1,8.974E1,4.194599E-1,3.607E2,-1.1514602E-3,1.609874E-3,1.6049765E-3,3.407758E-4,-6.762748E-4,2.9910577E-4,-1.3303688E-3,-4.390493E-3],"split_indices":[25,18,21,27,25,18,25,0,0,0,0,0,0,0,0],"split_type":[0,0,0,0,0,0,0,0,0,0,0,0,0,0,0],"sum_hessian":[8.930583E4,5.025153E4,3.9054297E4,6.9734927E3,4.327804E4,3.3976367E4,5.077931E3,5.637944E3,1.335549E3,9.1708E3,3.410724E4,2.3088016E4,1.088835E4,4.0105942E3,1.0673369E3],"tree_param":{"num_deleted":"0","num_feature":"29","num_nodes":"15","size_leaf_vector":"1"}},{"base_weights":[5.2775285E-4,-5.207516E-2,2.520501E-2,-2.3726214E-1,-4.1144636E-2,4.85952E-2,-1.3263849E-2,-5.7068993E-3,-1.8741826E-3,-1.1708927E-3,2.3590346E-5,-3.2107246E-3,7.385881E-4,3.5173274E-4,-7.790927E-4],"categories":[],"categories_nodes":[],"categories_segments":[],"categories_sizes":[],"default_left":[0,0,0,0,0,0,0,0,0,0,0,0,0,0,0],"id":11,"left_children":[1,3,5,7,9,11,13,-1,-1,-1,-1,-1,-1,-1,-1],"loss_changes":[1.157161E2,5.760945E1,5.4598015E1,2.7888367E1,4.891792E1,4.3652023E1,3.7333626E1,0E0,0E0,0E0,0E0,0E0,0E0,0E0,0E0],"parents":[2147483647,0,0,1,1,2,2,3,3,4,4,5,5,6,6],"right_children":[2,4,6,8,10,12,14,-1,-1,-1,-1,-1,-1,-1,-1],"split_conditions":[1.1074942E1,-2.24E2,6.8175E1,5.490799E-1,2.0137608E-1,-2.063799E0,3.9035964E-1,-5.7068993E-3,-1.8741826E-3,-1.1708927E-3,2.3590346E-5,-3.2107246E-3,7.385881E-4,3.5173274E-4,-7.790927E-4],"split_indices":[22,22,20,15,15,17,17,0,0,0,0,0,0,0,0],"split_type":[0,0,0,0,0,0,0,0,0,0,0,0,0,0,0],"sum_hessian":[8.914096E4,2.8464314E4,6.0676645E4,1.5852919E3,2.6879023E4,3.7733383E4,2.2943262E4,5.975998E2,9.87692E2,1.3492447E4,1.3386575E4,5.5579675E2,3.7177586E4,1.2039653E4,1.0903608E4],"tree_param":{"num_deleted":"0","num_feature":"29","num_nodes":"15","size_leaf_vector":"1"}},{"base_weights":[3.664293E-5,9.0999575E-3,-1.2539586E-1,-1.0340119E-1,1.5526879E-2,-1.9353062E-1,-2.8417941E-2,-2.0320646E-3,1.2505634E-3,7.9509395E-5,1.1503408E-3,-2.0403594E-3,-5.8220816E-3,9.194016E-4,-2.6194376E-3],"categories":[],"categories_nodes":[],"categories_segments":[],"categories_sizes":[],"default_left":[0,0,0,0,0,0,0,0,0,0,0,0,0,0,0],"id":12,"left_children":[1,3,5,7,9,11,13,-1,-1,-1,-1,-1,-1,-1,-1],"loss_changes":[1.0102397E2,5.992391E1,3.9562782E1,3.6047634E1,5.144831E1,3.7309326E1,3.6925014E1,0E0,0E0,0E0,0E0,0E0,0E0,0E0,0E0],"parents":[2147483647,0,0,1,1,2,2,3,3,4,4,5,5,6,6],"right_children":[2,4,6,8,10,12,14,-1,-1,-1,-1,-1,-1,-1,-1],"split_conditions":[1.841E2,-1.3445956E0,9.858296E-1,1.1E1,8.688938E1,8.036375E-1,1.29E2,-2.0320646E-3,1.2505634E-3,7.9509395E-5,1.1503408E-3,-2.0403594E-3,-5.8220816E-3,9.194016E-4,-2.6194376E-3],"split_indices":[21,17,15,27,22,17,20,0,0,0,0,0,0,0,0],"split_type":[0,0,0,0,0,0,0,0,0,0,0,0,0,0,0],"sum_hessian":[8.886229E4,8.287496E4,5.987328E3,4.477781E3,7.839718E4,3.516036E3,2.4712925E3,3.6807476E3,7.9703314E2,6.830469E4,1.0092499E4,2.895335E3,6.207009E2,1.5517777E3,9.195146E2],"tree_param":{"num_deleted":"0","num_feature":"29","num_nodes":"15","size_leaf_vector":"1"}},{"base_weights":[-2.3226347E-4,1.759961E-2,-6.8747595E-2,-7.621527E-3,4.7811486E-2,-5.9452582E-2,-2.8404984E-1,-5.295607E-5,-4.6176333E-3,-5.526494E-3,6.9022796E-4,-1.246374E-3,2.2408873E-5,-1.6774688E-3,-8.509099E-3],"categories":[],"categories_nodes":[],"categories_segments":[],"categories_sizes":[],"default_left":[0,0,0,1,0,0,0,0,0,0,0,0,0,0,0],"id":13,"left_children":[1,3,5,7,9,11,13,-1,-1,-1,-1,-1,-1,-1,-1],"loss_changes":[1.08051E2,5.3472298E1,3.6533424E1,4.7308792E1,2.1081024E1,3.1614826E1,4.0100742E1,0E0,0E0,0E0,0E0,0E0,0E0,0E0,0E0],"parents":[2147483647,0,0,1,1,2,2,3,3,4,4,5,5,6,6],"right_children":[2,4,6,8,10,12,14,-1,-1,-1,-1,-1,-1,-1,-1],"split_conditions":[1.86E2,3.220042E-1,3.1146E2,7.5E-1,2.37E0,1.0259782E0,4E0,-5.295607E-5,-4.6176333E-3,-5.526494E-3,6.9022796E-4,-1.246374E-3,2.2408873E-5,-1.6774688E-3,-8.509099E-3],"split_indices":[25,15,21,24,3,15,27,0,0,0,0,0,0,0,0],"split_type":[0,0,0,0,0,0,0,0,0,0,0,0,0,0,0],"sum_hessian":[8.8437055E4,7.017419E4,1.8262867E4,3.8246457E4,3.192773E4,1.750828E4,7.5458954E2,3.7797137E4,4.4932068E2,1.06283646E2,3.1821447E4,1.179455E4,5.7137285E3,5.0153656E2,2.5305301E2],"tree_param":{"num_deleted":"0","num_feature":"29","num_nodes":"15","size_leaf_vector":"1"}},{"base_weights":[-1.1045877E-3,-4.073931E-2,2.9965544E-2,-2.9985702E-2,-1.748806E-1,5.8639348E-2,3.5280294E-3,-1.323132E-3,-1.6873167E-4,-5.01205E-3,-1.7416847E-3,-2.5527077E-4,1.0925998E-3,-4.7287242E-3,9.104387E-5],"categories":[],"categories_nodes":[],"categories_segments":[],"categories_sizes":[],"default_left":[0,0,0,0,0,0,0,0,0,0,0,0,0,0,0],"id":14,"left_children":[1,3,5,7,9,11,13,-1,-1,-1,-1,-1,-1,-1,-1],"loss_changes":[1.0852953E2,5.5859688E1,3.7450653E1,4.1487556E1,2.652034E1,3.535131E1,2.6102716E1,0E0,0E0,0E0,0E0,0E0,0E0,0E0,0E0],"parents":[2147483647,0,0,1,1,2,2,3,3,4,4,5,5,6,6],"right_children":[2,4,6,8,10,12,14,-1,-1,-1,-1,-1,-1,-1,-1],"split_conditions":[2.5624382E1,3.14E2,5.7905E1,-5.570483E-1,-2.1434E2,-4.5181093E-1,-2.552E1,-1.323132E-3,-1.6873167E-4,-5.01205E-3,-1.7416847E-3,-2.5527077E-4,1.0925998E-3,-4.7287242E-3,9.104387E-5],"split_indices":[22,25,20,15,22,17,23,0,0,0,0,0,0,0,0],"split_type":[0,0,0,0,0,0,0,0,0,0,0,0,0,0,0],"sum_hessian":[8.812907E4,3.8726793E4,4.9402277E4,3.5853758E4,2.8730383E3,2.369824E4,2.570404E4,7.7968315E3,2.8056924E4,6.1947485E2,2.2535635E3,4.7761396E3,1.8922102E4,2.2115659E2,2.548288E4],"tree_param":{"num_deleted":"0","num_feature":"29","num_nodes":"15","size_leaf_vector":"1"}},{"base_weights":[1.0310694E-3,1.34565905E-2,-7.831171E-2,-4.8632372E-2,2.4881454E-2,-3.838013E-2,-1.4863683E-1,5.469573E-3,-7.484396E-4,1.114835E-3,1.380385E-4,-6.9054955E-4,2.4823216E-3,-1.0674343E-2,-1.914069E-3],"categories":[],"categories_nodes":[],"categories_segments":[],"categories_sizes":[],"default_left":[0,0,0,0,0,1,0,0,0,0,0,0,0,0,0],"id":15,"left_children":[1,3,5,7,9,11,13,-1,-1,-1,-1,-1,-1,-1,-1],"loss_changes":[8.6807045E1,5.4003574E1,3.347403E1,2.5113722E1,5.2879444E1,1.7963287E1,3.1479202E1,0E0,0E0,0E0,0E0,0E0,0E0,0E0,0E0],"parents":[2147483647,0,0,1,1,2,2,3,3,4,4,5,5,6,6],"right_children":[2,4,6,8,10,12,14,-1,-1,-1,-1,-1,-1,-1,-1],"split_conditions":[2.18E2,-6.708203E-1,1.471E2,2.57E0,9.891E1,-6.202E1,-1.5438975E0,5.469573E-3,-7.484396E-4,1.114835E-3,1.380385E-4,-6.9054955E-4,2.4823216E-3,-1.0674343E-2,-1.914069E-3],"split_indices":[25,15,21,3,25,23,17,0,0,0,0,0,0,0,0],"split_type":[0,0,0,0,0,0,0,0,0,0,0,0,0,0,0],"sum_hessian":[8.8048664E4,7.612751E4,1.192116E4,1.1830553E4,6.4296953E4,7.604669E3,4.3164907E3,1.2772272E2,1.170283E4,1.384205E4,5.0454902E4,7.2381504E3,3.665189E2,8.101171E1,4.235479E3],"tree_param":{"num_deleted":"0","num_feature":"29","num_nodes":"15","size_leaf_vector":"1"}},{"base_weights":[-9.6790056E-4,-5.198635E-2,1.9812541E-2,-3.0517353E-2,-1.4375465E-1,-1.1139497E-1,2.2880105E-2,-2.124456E-3,-1.3787256E-4,-2.8376034E-3,-7.51805E-4,2.0085752E-3,-2.5412315E-3,4.1943227E-4,-5.5315817E-4],"categories":[],"categories_nodes":[],"categories_segments":[],"categories_sizes":[],"default_left":[0,0,0,0,0,0,0,0,0,0,0,0,0,0,0],"id":16,"left_children":[1,3,5,7,9,11,13,-1,-1,-1,-1,-1,-1,-1,-1],"loss_changes":[9.277591E1,4.989492E1,2.5029917E1,5.1433E1,2.5471413E1,2.5416718E1,2.6839153E1,0E0,0E0,0E0,0E0,0E0,0E0,0E0,0E0],"parents":[2147483647,0,0,1,1,2,2,3,3,4,4,5,5,6,6],"right_children":[2,4,6,8,10,12,14,-1,-1,-1,-1,-1,-1,-1,-1],"split_conditions":[5.7631593E0,1.61E2,-1.5985415E0,-7.8604335E-1,8.819171E-1,3.325E1,1.21275E2,-2.124456E-3,-1.3787256E-4,-2.8376034E-3,-7.51805E-4,2.0085752E-3,-2.5412315E-3,4.1943227E-4,-5.5315817E-4],"split_indices":[22,21,15,15,15,21,20,0,0,0,0,0,0,0,0],"split_type":[0,0,0,0,0,0,0,0,0,0,0,0,0,0,0],"sum_hessian":[8.750711E4,2.532637E4,6.2180742E4,2.0525746E4,4.800623E3,1.4197354E3,6.0761008E4,2.9889043E3,1.7536842E4,2.9009785E3,1.8996444E3,3.0610742E2,1.1136279E3,5.456969E4,6.1913164E3],"tree_param":{"num_deleted":"0","num_feature":"29","num_nodes":"15","size_leaf_vector":"1"}},{"base_weights":[6.8533514E-4,1.7162299E-2,-5.0372537E-2,2.4903275E-3,5.9835713E-2,-4.3603808E-2,-3.2908154E-1,6.244191E-5,-5.148725E-3,8.8168534E-5,1.1126851E-3,-1.1555199E-3,9.388404E-5,-2.8862017E-3,-8.146436E-3],"categories":[],"categories_nodes":[],"categories_segments":[],"categories_sizes":[],"default_left":[0,0,0,0,0,0,0,0,0,0,0,0,0,0,0],"id":17,"left_children":[1,3,5,7,9,11,13,-1,-1,-1,-1,-1,-1,-1,-1],"loss_changes":[7.361256E1,4.1418175E1,4.0259167E1,3.5905533E1,1.7797806E1,4.0826694E1,1.5605076E1,0E0,0E0,0E0,0E0,0E0,0E0,0E0,0E0],"parents":[2147483647,0,0,1,1,2,2,3,3,4,4,5,5,6,6],"right_children":[2,4,6,8,10,12,14,-1,-1,-1,-1,-1,-1,-1,-1],"split_conditions":[1.7365E2,7.8898966E-1,3.3843E2,5.934399E-1,9.901466E-2,7.2074974E-1,4E0,6.244191E-5,-5.148725E-3,8.8168534E-5,1.1126851E-3,-1.1555199E-3,9.388404E-5,-2.8862017E-3,-8.146436E-3],"split_indices":[25,15,21,18,17,15,27,0,0,0,0,0,0,0,0],"split_type":[0,0,0,0,0,0,0,0,0,0,0,0,0,0,0],"sum_hessian":[8.749877E4,6.615156E4,2.1347207E4,4.9227297E4,1.6924268E4,2.084219E4,5.050172E2,4.896777E4,2.5952655E2,4.5429077E3,1.2381359E4,1.1749188E4,9.093001E3,3.4101715E2,1.6400005E2],"tree_param":{"num_deleted":"0","num_feature":"29","num_nodes":"15","size_leaf_vector":"1"}},{"base_weights":[-3.6656486E-3,1.6344592E-2,-4.713165E-2,-3.4663364E-2,2.7350942E-2,-1.3563848E-2,-9.34292E-2,-9.835019E-4,1.1701235E-3,-5.240151E-3,4.214073E-4,-7.001069E-4,2.822128E-4,-2.898119E-3,-9.080503E-4],"categories":[],"categories_nodes":[],"categories_segments":[],"categories_sizes":[],"default_left":[0,0,0,0,0,0,0,0,0,0,0,0,0,0,0],"id":18,"left_children":[1,3,5,7,9,11,13,-1,-1,-1,-1,-1,-1,-1,-1],"loss_changes":[7.548655E1,3.3365726E1,4.251833E1,4.439155E1,5.3995796E1,1.9493866E1,3.729892E1,0E0,0E0,0E0,0E0,0E0,0E0,0E0,0E0],"parents":[2147483647,0,0,1,1,2,2,3,3,4,4,5,5,6,6],"right_children":[2,4,6,8,10,12,14,-1,-1,-1,-1,-1,-1,-1,-1],"split_conditions":[7.874E1,-6.106846E-1,1.86E2,1E1,-2.063799E0,2.9094338E-1,-6.5910324E-2,-9.835019E-4,1.1701235E-3,-5.240151E-3,4.214073E-4,-7.001069E-4,2.822128E-4,-2.898119E-3,-9.080503E-4],"split_indices":[20,15,25,27,17,15,15,0,0,0,0,0,0,0,0],"split_type":[0,0,0,0,0,0,0,0,0,0,0,0,0,0,0],"sum_hessian":[8.6787695E4,5.942918E4,2.735851E4,1.0547158E4,4.8882023E4,1.5860343E4,1.1498168E4,8.107515E3,2.4396436E3,3.3144025E2,4.8550582E4,7.6223105E3,8.238032E3,2.3096152E3,9.188553E3],"tree_param":{"num_deleted":"0","num_feature":"29","num_nodes":"15","size_leaf_vector":"1"}},{"base_weights":[2.5141452E-4,-3.7763394E-2,2.922444E-2,-1.9409858E-2,-1.1626313E-1,3.088949E-2,-3.63684E-1,9.171749E-4,-4.319672E-4,-1.2231098E-3,-3.3837783E-3,4.7887806E-4,-2.015171E-3,-1.4468079E-3,-9.415613E-3],"categories":[],"categories_nodes":[],"categories_segments":[],"categories_sizes":[],"default_left":[0,0,0,0,0,0,0,0,0,0,0,0,0,0,0],"id":19,"left_children":[1,3,5,7,9,11,13,-1,-1,-1,-1,-1,-1,-1,-1],"loss_changes":[9.583724E1,5.4219498E1,3.231573E1,2.9649796E1,2.5829376E1,2.8512371E1,1.6691889E1,0E0,0E0,0E0,0E0,0E0,0E0,0E0,0E0],"parents":[2147483647,0,0,1,1,2,2,3,3,4,4,5,5,6,6],"right_children":[2,4,6,8,10,12,14,-1,-1,-1,-1,-1,-1,-1,-1],"split_conditions":[2.5235563E1,1.4838E2,1.8790174E0,8.727E1,3.2166E2,1.81E2,9.981E1,9.171749E-4,-4.319672E-4,-1.2231098E-3,-3.3837783E-3,4.7887806E-4,-2.015171E-3,-1.4468079E-3,-9.415613E-3],"split_indices":[22,21,17,25,25,20,21,0,0,0,0,0,0,0,0],"split_type":[0,0,0,0,0,0,0,0,0,0,0,0,0,0,0],"sum_hessian":[8.7011695E4,3.763345E4,4.9378246E4,3.0502982E4,7.130467E3,4.9170793E4,2.0745238E2,3.6220876E3,2.6880895E4,5.7967017E3,1.3337646E3,4.8256297E4,9.1449475E2,1.1329208E2,9.4160286E1],"tree_param":{"num_deleted":"0","num_feature":"29","num_nodes":"15","size_leaf_vector":"1"}},{"base_weights":[1.2050396E-3,-5.3771257E-2,2.1006938E-2,4.048123E-2,-7.7765E-2,2.179121E-2,-4.360488E-1,1.1605631E-3,-2.8107914E-3,-2.7483383E-3,-7.8559667E-4,3.18947E-4,-4.3785763E-3,-1.34584075E-2,-3.1781571E-3],"categories":[],"categories_nodes":[],"categories_segments":[],"categories_sizes":[],"default_left":[0,0,0,0,0,1,0,0,0,0,0,0,0,0,0],"id":20,"left_children":[1,3,5,7,9,11,13,-1,-1,-1,-1,-1,-1,-1,-1],"loss_changes":[9.46051E1,5.204528E1,2.2911219E1,4.7806767E1,4.7069115E1,2.1146915E1,1.1803793E1,0E0,0E0,0E0,0E0,0E0,0E0,0E0,0E0],"parents":[2147483647,0,0,1,1,2,2,3,3,4,4,5,5,6,6],"right_children":[2,4,6,8,10,12,14,-1,-1,-1,-1,-1,-1,-1,-1],"split_conditions":[4.0136868E-1,1.1321E2,2.0394719E0,-5.48299E1,-2.78742E-1,1.04E0,4.357023E1,1.1605631E-3,-2.8107914E-3,-2.7483383E-3,-7.8559667E-4,3.18947E-4,-4.3785763E-3,-1.34584075E-2,-3.1781571E-3],"split_indices":[22,25,17,22,18,24,22,0,0,0,0,0,0,0,0],"split_type":[0,0,0,0,0,0,0,0,0,0,0,0,0,0,0],"sum_hessian":[8.690045E4,2.3011521E4,6.3888934E4,4.669207E3,1.8342314E4,6.3780445E4,1.0848985E2,3.9715916E3,6.976156E2,2.831426E3,1.5510888E4,6.3593055E4,1.873908E2,2.985983E1,7.863002E1],"tree_param":{"num_deleted":"0","num_feature":"29","num_nodes":"15","size_leaf_vector":"1"}},{"base_weights":[-1.0059247E-3,-4.720346E-2,1.8727232E-2,-2.0944393E-1,-3.7842385E-2,2.0425588E-2,-2.1324053E-1,-4.3273037E-3,-1.8537282E-4,-8.162362E-5,-1.1595993E-3,1.3403138E-4,7.061028E-4,-4.3495493E-3,4.3620364E-4],"categories":[],"categories_nodes":[],"categories_segments":[],"categories_sizes":[],"default_left":[0,0,0,0,0,0,0,0,0,0,0,0,0,0,0],"id":21,"left_children":[1,3,5,7,9,11,13,-1,-1,-1,-1,-1,-1,-1,-1],"loss_changes":[7.883344E1,3.9300785E1,2.3876015E1,2.7596607E1,3.5241215E1,1.9589874E1,1.0499964E1,0E0,0E0,0E0,0E0,0E0,0E0,0E0,0E0],"parents":[2147483647,0,0,1,1,2,2,3,3,4,4,5,5,6,6],"right_children":[2,4,6,8,10,12,14,-1,-1,-1,-1,-1,-1,-1,-1],"split_conditions":[8.544109E0,-2.24E2,2.5046E2,1E0,-7.3E1,7.1344055E1,1E0,-4.3273037E-3,-1.8537282E-4,-8.162362E-5,-1.1595993E-3,1.3403138E-4,7.061028E-4,-4.3495493E-3,4.3620364E-4],"split_indices":[22,22,21,11,22,22,11,0,0,0,0,0,0,0,0],"split_type":[0,0,0,0,0,0,0,0,0,0,0,0,0,0,0],"sum_hessian":[8.647394E4,2.5881363E4,6.059257E4,1.4106942E3,2.447067E4,6.0153074E4,4.394996E2,9.351614E2,4.755328E2,1.4297616E4,1.0173054E4,4.4178996E4,1.5974075E4,3.1402606E2,1.2547352E2],"tree_param":{"num_deleted":"0","num_feature":"29","num_nodes":"15","size_leaf_vector":"1"}},{"base_weights":[-7.427989E-4,1.7893622E-2,-2.855144E-2,-1.9407882E-1,2.0673113E-2,-5.7451654E-2,1.3810717E-2,-4.1310105E-4,-4.8154746E-3,-3.008611E-4,4.460203E-4,-4.1616388E-4,-1.5278462E-3,3.8700967E-4,-3.987759E-3],"categories":[],"categories_nodes":[],"categories_segments":[],"categories_sizes":[],"default_left":[0,0,0,0,0,0,0,0,0,0,0,0,0,0,0],"id":22,"left_children":[1,3,5,7,9,11,13,-1,-1,-1,-1,-1,-1,-1,-1],"loss_changes":[4.4703674E1,3.0432903E1,4.2375126E1,1.6480629E1,2.4043177E1,2.9478416E1,5.799933E1,0E0,0E0,0E0,0E0,0E0,0E0,0E0,0E0],"parents":[2147483647,0,0,1,1,2,2,3,3,4,4,5,5,6,6],"right_children":[2,4,6,8,10,12,14,-1,-1,-1,-1,-1,-1,-1,-1],"split_conditions":[6.8855E1,-2.245096E0,6.531105E-1,-1.234608E0,-4.6420726E-1,3.9780965E-1,1.4004607E0,-4.1310105E-4,-4.8154746E-3,-3.008611E-4,4.460203E-4,-4.1616388E-4,-1.5278462E-3,3.8700967E-4,-3.987759E-3],"split_indices":[20,17,15,15,15,17,17,0,0,0,0,0,0,0,0],"split_type":[0,0,0,0,0,0,0,0,0,0,0,0,0,0,0],"sum_hessian":[8.625633E4,5.164556E4,3.4610766E4,6.6754736E2,5.097801E4,2.0574275E4,1.4036491E4,3.1875388E2,3.4879352E2,1.0688237E4,4.0289773E4,1.3391507E4,7.182768E3,1.3416E4,6.2049164E2],"tree_param":{"num_deleted":"0","num_feature":"29","num_nodes":"15","size_leaf_vector":"1"}},{"base_weights":[-4.772796E-4,-4.5427363E-2,1.980904E-2,-3.0442137E-2,-1.4354554E-1,3.899474E-2,-2.653055E-3,-1.8400783E-3,-2.4541948E-4,-2.5314065E-3,6.804271E-4,2.2637178E-4,1.0566624E-3,-1.1561036E-4,1.5751899E-3],"categories":[],"categories_nodes":[],"categories_segments":[],"categories_sizes":[],"default_left":[0,0,0,0,0,0,1,0,0,0,0,0,0,0,0],"id":23,"left_children":[1,3,5,7,9,11,13,-1,-1,-1,-1,-1,-1,-1,-1],"loss_changes":[7.842114E1,3.9316696E1,2.5536985E1,3.0252659E1,2.5380646E1,2.6611214E1,1.7621887E1,0E0,0E0,0E0,0E0,0E0,0E0,0E0,0E0],"parents":[2147483647,0,0,1,1,2,2,3,3,4,4,5,5,6,6],"right_children":[2,4,6,8,10,12,14,-1,-1,-1,-1,-1,-1,-1,-1],"split_conditions":[1.1074942E1,1.7714E2,6.1605E1,-9.7483504E-1,-8.514909E0,5.7212242E1,2.44978E3,-1.8400783E-3,-2.4541948E-4,-2.5314065E-3,6.804271E-4,2.2637178E-4,1.0566624E-3,-1.1561036E-4,1.5751899E-3],"split_indices":[22,21,20,15,22,22,10,0,0,0,0,0,0,0,0],"split_type":[0,0,0,0,0,0,0,0,0,0,0,0,0,0,0],"sum_hessian":[8.59982E4,2.6742152E4,5.925605E4,2.3200184E4,3.5419688E3,3.195844E4,2.7297613E4,2.6289314E3,2.0571252E4,2.966618E3,5.7535077E2,1.9659457E4,1.2298981E4,2.6031656E4,1.2659575E3],"tree_param":{"num_deleted":"0","num_feature":"29","num_nodes":"15","size_leaf_vector":"1"}},{"base_weights":[4.354527E-3,-3.6316022E-2,2.2702485E-2,-1.2796764E-2,-8.545876E-2,3.0278185E-2,-2.4219975E-2,3.6548954E-4,-1.0801931E-3,-1.0144689E-2,-1.1217254E-3,2.9123796E-4,1.2813832E-3,-1.7572526E-4,-3.528775E-3],"categories":[],"categories_nodes":[],"categories_segments":[],"categories_sizes":[],"default_left":[0,0,0,0,0,0,0,0,0,0,0,0,0,0,0],"id":24,"left_children":[1,3,5,7,9,11,13,-1,-1,-1,-1,-1,-1,-1,-1],"loss_changes":[6.433562E1,3.0977867E1,2.1119959E1,4.539243E1,2.9527462E1,2.9685925E1,2.195361E1,0E0,0E0,0E0,0E0,0E0,0E0,0E0,0E0],"parents":[2147483647,0,0,1,1,2,2,3,3,4,4,5,5,6,6],"right_children":[2,4,6,8,10,12,14,-1,-1,-1,-1,-1,-1,-1,-1],"split_conditions":[1.1074942E1,1.86E2,1.09E2,-5.9368412E1,-2.245096E0,9.833671E1,7.86088E-1,3.6548954E-4,-1.0801931E-3,-1.0144689E-2,-1.1217254E-3,2.9123796E-4,1.2813832E-3,-1.7572526E-4,-3.528775E-3],"split_indices":[22,25,20,22,17,22,18,0,0,0,0,0,0,0,0],"split_type":[0,0,0,0,0,0,0,0,0,0,0,0,0,0,0],"sum_hessian":[8.6213055E4,2.6802025E4,5.941103E4,1.812759E4,8.674436E3,5.1152707E4,8.258325E3,1.12986E4,6.8289893E3,7.0695984E1,8.603739E3,4.4300582E4,6.8521235E3,7.8569985E3,4.0132672E2],"tree_param":{"num_deleted":"0","num_feature":"29","num_nodes":"15","size_leaf_vector":"1"}},{"base_weights":[1.268005E-3,-2.7344728E-2,2.9630762E-2,-1.6140833E-2,-1.0457229E-1,7.27513E-2,1.7249513E-2,-6.307374E-4,2.5875133E-4,-1.3835684E-3,-1.0080184E-2,1.1462439E-4,1.6492525E-3,-3.4415165E-3,2.6718664E-4],"categories":[],"categories_nodes":[],"categories_segments":[],"categories_sizes":[],"default_left":[0,0,0,0,0,0,0,0,0,0,0,0,0,0,0],"id":25,"left_children":[1,3,5,7,9,11,13,-1,-1,-1,-1,-1,-1,-1,-1],"loss_changes":[6.957617E1,3.6926216E1,2.2985222E1,3.7311584E1,1.9049889E1,2.7935738E1,1.6155243E1,0E0,0E0,0E0,0E0,0E0,0E0,0E0,0E0],"parents":[2147483647,0,0,1,1,2,2,3,3,4,4,5,5,6,6],"right_children":[2,4,6,8,10,12,14,-1,-1,-1,-1,-1,-1,-1,-1],"split_conditions":[3.2420418E1,1.627E2,4.7E1,1.1614046E-1,3.0765768E1,5.305986E1,-1.8872255E0,-6.307374E-4,2.5875133E-4,-1.3835684E-3,-1.0080184E-2,1.1462439E-4,1.6492525E-3,-3.4415165E-3,2.6718664E-4],"split_indices":[22,21,21,18,22,22,15,0,0,0,0,0,0,0,0],"split_type":[0,0,0,0,0,0,0,0,0,0,0,0,0,0,0],"sum_hessian":[8.573194E4,4.2677914E4,4.3054023E4,3.727186E4,5.4060566E3,9.603334E3,3.3450688E4,2.0310973E4,1.6960887E4,5.3572007E3,4.8856236E1,3.947469E3,5.6558647E3,2.3082137E2,3.3219867E4],"tree_param":{"num_deleted":"0","num_feature":"29","num_nodes":"15","size_leaf_vector":"1"}},{"base_weights":[3.7785587E-4,-4.05902E-2,1.7381398E-2,-8.247131E-2,-1.0130906E-2,2.2989376E-2,-4.0158134E-2,-2.4638002E-4,-1.9964247E-3,9.62685E-5,-2.187672E-3,1.1140936E-4,7.709845E-4,5.7091005E-4,-1.2353056E-3],"categories":[],"categories_nodes":[],"categories_segments":[],"categories_sizes":[],"default_left":[0,0,0,0,0,0,0,0,0,0,0,0,0,0,0],"id":26,"left_children":[1,3,5,7,9,11,13,-1,-1,-1,-1,-1,-1,-1,-1],"loss_changes":[5.9402176E1,3.1905716E1,1.944647E1,4.1077606E1,3.599177E1,2.6479326E1,2.0830406E1,0E0,0E0,0E0,0E0,0E0,0E0,0E0,0E0],"parents":[2147483647,0,0,1,1,2,2,3,3,4,4,5,5,6,6],"right_children":[2,4,6,8,10,12,14,-1,-1,-1,-1,-1,-1,-1,-1],"split_conditions":[8.002613E0,5.3350672E-2,1.2526E2,8.55E1,3.2166E2,7.0687413E-1,3E0,-2.4638002E-4,-1.9964247E-3,9.62685E-5,-2.187672E-3,1.1140936E-4,7.709845E-4,5.7091005E-4,-1.2353056E-3],"split_indices":[22,15,20,21,25,15,27,0,0,0,0,0,0,0,0],"split_type":[0,0,0,0,0,0,0,0,0,0,0,0,0,0,0],"sum_hessian":[8.527219E4,2.501062E4,6.0261566E4,1.053013E4,1.4480489E4,5.491043E4,5.3511367E3,5.0659443E3,5.4641855E3,1.297175E4,1.5087397E3,3.739174E4,1.7518691E4,1.9941738E3,3.356963E3],"tree_param":{"num_deleted":"0","num_feature":"29","num_nodes":"15","size_leaf_vector":"1"}},{"base_weights":[-2.2365009E-4,2.593045E-2,-2.4663178E-2,2.9014515E-2,-2.5630507E-1,-7.091129E-2,-2.9494246E-3,2.4338956E-3,3.3524263E-4,-5.8514904E-3,1.2924197E-3,-1.4070477E-3,-6.0893974E-5,-2.6243979E-5,-6.999768E-3],"categories":[],"categories_nodes":[],"categories_segments":[],"categories_sizes":[],"default_left":[0,1,0,0,0,0,0,0,0,0,0,0,0,0,0],"id":27,"left_children":[1,3,5,7,9,11,13,-1,-1,-1,-1,-1,-1,-1,-1],"loss_changes":[5.4422806E1,3.580724E1,4.419968E1,2.9863293E1,2.509902E1,2.7698357E1,1.6000978E1,0E0,0E0,0E0,0E0,0E0,0E0,0E0,0E0],"parents":[2147483647,0,0,1,1,2,2,3,3,4,4,5,5,6,6],"right_children":[2,4,6,8,10,12,14,-1,-1,-1,-1,-1,-1,-1,-1],"split_conditions":[1.2749E2,3.33E0,-7.4237146E0,2.25E0,2.5326633E-1,4.194599E-1,2.0394719E0,2.4338956E-3,3.3524263E-4,-5.8514904E-3,1.2924197E-3,-1.4070477E-3,-6.0893974E-5,-2.6243979E-5,-6.999768E-3],"split_indices":[25,3,22,10,18,18,17,0,0,0,0,0,0,0,0],"split_type":[0,0,0,0,0,0,0,0,0,0,0,0,0,0,0],"sum_hessian":[8.514088E4,4.112774E4,4.4013145E4,4.068407E4,4.436689E2,1.4061435E4,2.9951709E4,1.3745017E3,3.930957E4,3.0297693E2,1.4069199E2,9.7335625E3,4.3278726E3,2.9888078E4,6.3630325E1],"tree_param":{"num_deleted":"0","num_feature":"29","num_nodes":"15","size_leaf_vector":"1"}},{"base_weights":[-1.2302921E-4,1.4188063E-2,-4.377808E-2,6.99085E-3,8.192854E-2,-1.0104488E-1,-1.6835729E-2,1.133731E-4,-4.81423E-3,8.200399E-4,3.5090786E-3,-3.501678E-3,-1.064089E-3,4.444425E-4,-1.0135584E-3],"categories":[],"categories_nodes":[],"categories_segments":[],"categories_sizes":[],"default_left":[0,0,0,1,0,0,0,0,0,0,0,0,0,0,0],"id":28,"left_children":[1,3,5,7,9,11,13,-1,-1,-1,-1,-1,-1,-1,-1],"loss_changes":[5.3124866E1,3.1221613E1,3.238952E1,2.2492464E1,2.4220184E1,2.5051643E1,3.8542442E1,0E0,0E0,0E0,0E0,0E0,0E0,0E0,0E0],"parents":[2147483647,0,0,1,1,2,2,3,3,4,4,5,5,6,6],"right_children":[2,4,6,8,10,12,14,-1,-1,-1,-1,-1,-1,-1,-1],"split_conditions":[1.711E2,9.833671E1,-3.838049E1,1.11E0,6.924113E-1,-4.6420726E-1,5E0,1.133731E-4,-4.81423E-3,8.200399E-4,3.5090786E-3,-3.501678E-3,-1.064089E-3,4.444425E-4,-1.0135584E-3],"split_indices":[25,22,22,24,18,15,27,0,0,0,0,0,0,0,0],"split_type":[0,0,0,0,0,0,0,0,0,0,0,0,0,0,0],"sum_hessian":[8.50316E4,6.403891E4,2.0992697E4,5.788944E4,6.1494683E3,6.7156426E3,1.4277054E4,5.7708305E4,1.8113405E2,5.4029395E3,7.465291E2,9.644554E2,5.751187E3,7.617181E3,6.659873E3],"tree_param":{"num_deleted":"0","num_feature":"29","num_nodes":"15","size_leaf_vector":"1"}},{"base_weights":[-1.20402095E-4,-4.430527E-2,1.5361842E-2,-1.9747755E-2,-1.0109559E-1,1.7529177E-2,-1.748123E-1,1.3789687E-4,-1.913332E-3,-2.0141616E-3,1.1333834E-3,-3.4516016E-3,2.6340206E-4,-5.352972E-3,4.0616927E-4],"categories":[],"categories_nodes":[],"categories_segments":[],"categories_sizes":[],"default_left":[0,0,1,0,0,0,0,0,0,0,0,0,0,0,0],"id":29,"left_children":[1,3,5,7,9,11,13,-1,-1,-1,-1,-1,-1,-1,-1],"loss_changes":[5.812821E1,3.0747433E1,2.5938618E1,5.327122E1,5.183982E1,2.112082E1,3.000899E1,0E0,0E0,0E0,0E0,0E0,0E0,0E0,0E0],"parents":[2147483647,0,0,1,1,2,2,3,3,4,4,5,5,6,6],"right_children":[2,4,6,8,10,12,14,-1,-1,-1,-1,-1,-1,-1,-1],"split_conditions":[4.0136868E-1,-7.3E1,3.3E-1,2.266E2,1.0439558E0,-2.644E1,2.114512E-1,1.3789687E-4,-1.913332E-3,-2.0141616E-3,1.1333834E-3,-3.4516016E-3,2.6340206E-4,-5.352972E-3,4.0616927E-4],"split_indices":[22,22,24,25,15,23,17,0,0,0,0,0,0,0,0],"split_type":[0,0,0,0,0,0,0,0,0,0,0,0,0,0,0],"sum_hessian":[8.497073E4,2.2047469E4,6.2923258E4,1.5392657E4,6.6548105E3,6.2215125E4,7.081318E2,1.2283942E4,3.1087153E3,5.388897E3,1.2659138E3,3.004142E2,6.191471E4,3.5043143E2,3.5770038E2],"tree_param":{"num_deleted":"0","num_feature":"29","num_nodes":"15","size_leaf_vector":"1"}},{"base_weights":[5.651124E-4,1.25874765E-2,-4.9024913E-2,-1.0321145E-2,3.324715E-2,-2.945746E-1,-4.2436626E-2,-1.15716844E-4,-4.0701265E-3,-1.5331649E-3,5.3183193E-4,-3.156398E-3,-9.300735E-3,-2.4235433E-3,-4.238009E-4],"categories":[],"categories_nodes":[],"categories_segments":[],"categories_sizes":[],"default_left":[0,0,0,0,0,0,0,0,0,0,0,0,0,0,0],"id":30,"left_children":[1,3,5,7,9,11,13,-1,-1,-1,-1,-1,-1,-1,-1],"loss_changes":[5.0571697E1,3.2312935E1,2.6764202E1,1.8659002E1,2.4300423E1,1.0899223E1,2.5620869E1,0E0,0E0,0E0,0E0,0E0,0E0,0E0,0E0],"parents":[2147483647,0,0,1,1,2,2,3,3,4,4,5,5,6,6],"right_children":[2,4,6,8,10,12,14,-1,-1,-1,-1,-1,-1,-1,-1],"split_conditions":[1.3524E2,3.2420418E1,-1.3081475E0,8.5236907E-1,-6.8406945E-1,6.1E1,-1.82E2,-1.15716844E-4,-4.0701265E-3,-1.5331649E-3,5.3183193E-4,-3.156398E-3,-9.300735E-3,-2.4235433E-3,-4.238009E-4],"split_indices":[21,22,17,18,18,8,22,0,0,0,0,0,0,0,0],"split_type":[0,0,0,0,0,0,0,0,0,0,0,0,0,0,0],"sum_hessian":[8.482286E4,6.827206E4,1.6550799E4,3.2374201E4,3.5897855E4,4.3132504E2,1.6119475E4,3.2139613E4,2.3458925E2,1.1530956E3,3.474476E4,3.6475363E2,6.657141E1,1.3717191E3,1.4747755E4],"tree_param":{"num_deleted":"0","num_feature":"29","num_nodes":"15","size_leaf_vector":"1"}},{"base_weights":[1.5918419E-3,1.8408477E-2,-3.573277E-2,-3.0316662E-2,3.1760532E-2,-2.8493492E-2,-2.1282855E-1,-8.964825E-4,6.159271E-4,6.771893E-4,7.955535E-5,-1.3481719E-2,-3.7159346E-4,-4.4235634E-3,2.2172029E-4],"categories":[],"categories_nodes":[],"categories_segments":[],"categories_sizes":[],"default_left":[0,0,0,0,0,0,0,0,0,0,0,0,0,0,0],"id":31,"left_children":[1,3,5,7,9,11,13,-1,-1,-1,-1,-1,-1,-1,-1],"loss_changes":[5.3236954E1,3.804149E1,3.3768776E1,3.1516132E1,1.987983E1,4.6123505E1,2.440229E1,0E0,0E0,0E0,0E0,0E0,0E0,0E0,0E0],"parents":[2147483647,0,0,1,1,2,2,3,3,4,4,5,5,6,6],"right_children":[2,4,6,8,10,12,14,-1,-1,-1,-1,-1,-1,-1,-1],"split_conditions":[7.874E1,-4.5181093E-1,2.6634E2,8E0,5.5573334E1,-1.5E0,1E0,-8.964825E-4,6.159271E-4,6.771893E-4,7.955535E-5,-1.3481719E-2,-3.7159346E-4,-4.4235634E-3,2.2172029E-4],"split_indices":[20,17,21,27,20,24,11,0,0,0,0,0,0,0,0],"split_type":[0,0,0,0,0,0,0,0,0,0,0,0,0,0,0],"sum_hessian":[8.481416E4,5.8470656E4,2.63435E4,1.2576058E4,4.58946E4,2.5310043E4,1.0334565E3,8.650947E3,3.9251104E3,2.8036299E4,1.78583E4,5.170813E1,2.5258336E4,7.119485E2,3.2150806E2],"tree_param":{"num_deleted":"0","num_feature":"29","num_nodes":"15","size_leaf_vector":"1"}},{"base_weights":[5.13119E-4,-2.0781929E-2,2.9503029E-2,-1.7583275E-2,-3.5306627E-1,-4.086318E-1,3.1437363E-2,-1.18218E-4,-1.3458508E-3,-5.9808366E-4,-6.7361025E-3,-7.4326703E-3,1.6909475E-3,5.570352E-4,-7.5317133E-4],"categories":[],"categories_nodes":[],"categories_segments":[],"categories_sizes":[],"default_left":[0,0,0,0,0,0,0,0,0,0,0,0,0,0,0],"id":32,"left_children":[1,3,5,7,9,11,13,-1,-1,-1,-1,-1,-1,-1,-1],"loss_changes":[5.213809E1,5.1744408E1,3.0324522E1,3.4619633E1,1.843074E1,1.024547E1,2.5348713E1,0E0,0E0,0E0,0E0,0E0,0E0,0E0,0E0],"parents":[2147483647,0,0,1,1,2,2,3,3,4,4,5,5,6,6],"right_children":[2,4,6,8,10,12,14,-1,-1,-1,-1,-1,-1,-1,-1],"split_conditions":[4.068978E1,1.5235103E0,-2.3454673E0,1.66E2,7.236E3,1.3E1,2.18E2,-1.18218E-4,-1.3458508E-3,-5.9808366E-4,-6.7361025E-3,-7.4326703E-3,1.6909475E-3,5.570352E-4,-7.5317133E-4],"split_indices":[22,17,17,21,7,27,25,0,0,0,0,0,0,0,0],"split_type":[0,0,0,0,0,0,0,0,0,0,0,0,0,0,0],"sum_hessian":[8.4453836E4,4.868886E4,3.5764977E4,4.822568E4,4.631797E2,1.5628185E2,3.5608695E4,4.3200434E4,5.0252446E3,1.3570395E2,3.2747574E2,1.2695707E2,2.9324772E1,3.2431752E4,3.1769421E3],"tree_param":{"num_deleted":"0","num_feature":"29","num_nodes":"15","size_leaf_vector":"1"}},{"base_weights":[-1.5853317E-3,4.3311743E-3,-9.578002E-2,-1.2831284E-2,3.8973097E-2,-1.3170828E-1,-1.4538472E-2,4.3537628E-5,-7.864873E-4,-4.4741216E-3,5.767188E-4,-8.070769E-4,-3.057154E-3,-2.420444E-3,1.3931599E-3],"categories":[],"categories_nodes":[],"categories_segments":[],"categories_sizes":[],"default_left":[0,0,0,0,0,0,0,0,0,0,0,0,0,0,0],"id":33,"left_children":[1,3,5,7,9,11,13,-1,-1,-1,-1,-1,-1,-1,-1],"loss_changes":[4.7024624E1,4.720249E1,1.4553707E1,3.668547E1,2.0959988E1,2.2177773E1,2.7652866E1,0E0,0E0,0E0,0E0,0E0,0E0,0E0,0E0],"parents":[2147483647,0,0,1,1,2,2,3,3,4,4,5,5,6,6],"right_children":[2,4,6,8,10,12,14,-1,-1,-1,-1,-1,-1,-1,-1],"split_conditions":[2.8425E2,6.531105E-1,1E0,7.784E1,-2.552E1,5.2235913E-1,3.3574376E-1,4.3537628E-5,-7.864873E-4,-4.4741216E-3,5.767188E-4,-8.070769E-4,-3.057154E-3,-2.420444E-3,1.3931599E-3],"split_indices":[25,15,11,20,23,17,18,0,0,0,0,0,0,0,0],"split_type":[0,0,0,0,0,0,0,0,0,0,0,0,0,0,0],"sum_hessian":[8.437712E4,7.939138E4,4.985735E3,5.308995E4,2.6301432E4,3.4565076E3,1.5292272E3,3.88159E4,1.4274052E4,1.6104478E2,2.6140389E4,1.8646412E3,1.5918663E3,6.4004834E2,8.891788E2],"tree_param":{"num_deleted":"0","num_feature":"29","num_nodes":"15","size_leaf_vector":"1"}},{"base_weights":[-2.849064E-4,-2.2937324E-2,2.1823855E-2,-6.58041E-2,-1.2784636E-3,5.6709964E-2,6.207528E-3,-7.866267E-4,-3.7901832E-3,2.9586043E-4,-5.9693394E-4,1.2138412E-4,1.1989716E-3,-3.28318E-4,6.4780476E-4],"categories":[],"categories_nodes":[],"categories_segments":[],"categories_sizes":[],"default_left":[0,0,0,0,0,0,0,0,0,0,0,0,0,0,0],"id":34,"left_children":[1,3,5,7,9,11,13,-1,-1,-1,-1,-1,-1,-1,-1],"loss_changes":[4.2210186E1,3.8650627E1,2.3236795E1,2.7521439E1,2.5636929E1,1.8329803E1,3.5013237E1,0E0,0E0,0E0,0E0,0E0,0E0,0E0,0E0],"parents":[2147483647,0,0,1,1,2,2,3,3,4,4,5,5,6,6],"right_children":[2,4,6,8,10,12,14,-1,-1,-1,-1,-1,-1,-1,-1],"split_conditions":[3.2420418E1,-1.894192E-1,4.7E1,1.4040689E-1,8.3155E1,4E0,6.9104224E-1,-7.866267E-4,-3.7901832E-3,2.9586043E-4,-5.9693394E-4,1.2138412E-4,1.1989716E-3,-3.28318E-4,6.4780476E-4],"split_indices":[22,15,20,18,20,27,15,0,0,0,0,0,0,0,0],"split_type":[0,0,0,0,0,0,0,0,0,0,0,0,0,0,0],"sum_hessian":[8.428067E4,4.1628492E4,4.265218E4,1.3972455E4,2.7656037E4,1.31880625E4,2.9464117E4,1.3347374E4,6.250812E2,1.7937062E4,9.718974E3,4.957477E3,8.230585E3,1.69309E4,1.2533217E4],"tree_param":{"num_deleted":"0","num_feature":"29","num_nodes":"15","size_leaf_vector":"1"}},{"base_weights":[1.240101E-3,-3.9172556E-2,1.5543274E-2,-1.6876304E-1,-2.8294234E-2,3.003635E-2,-9.636196E-3,-2.2580337E-3,-1.2861364E-2,-2.6819625E-4,-2.569959E-3,-2.5681006E-3,4.483823E-4,-9.9042525E-5,-5.1281317E-3],"categories":[],"categories_nodes":[],"categories_segments":[],"categories_sizes":[],"default_left":[0,0,0,0,0,0,1,0,0,0,0,0,0,0,0],"id":35,"left_children":[1,3,5,7,9,11,13,-1,-1,-1,-1,-1,-1,-1,-1],"loss_changes":[4.856295E1,3.0955868E1,2.2644981E1,9.384602E0,2.8744898E1,1.6744568E1,2.0709822E1,0E0,0E0,0E0,0E0,0E0,0E0,0E0,0E0],"parents":[2147483647,0,0,1,1,2,2,3,3,4,4,5,5,6,6],"right_children":[2,4,6,8,10,12,14,-1,-1,-1,-1,-1,-1,-1,-1],"split_conditions":[1.0974244E0,4.7362286E-1,6.929E1,3.5355338E-1,3.8718E2,-2.3454673E0,6.7E-1,-2.2580337E-3,-1.2861364E-2,-2.6819625E-4,-2.569959E-3,-2.5681006E-3,4.483823E-4,-9.9042525E-5,-5.1281317E-3],"split_indices":[22,19,20,15,25,17,24,0,0,0,0,0,0,0,0],"split_type":[0,0,0,0,0,0,0,0,0,0,0,0,0,0,0],"sum_hessian":[8.401264E4,2.1961148E4,6.2051496E4,1.6996128E3,2.0261535E4,3.938287E4,2.2668621E4,1.6840416E3,1.5571164E1,1.913654E4,1.1249963E3,3.630701E2,3.9019805E4,2.2507977E4,1.6064545E2],"tree_param":{"num_deleted":"0","num_feature":"29","num_nodes":"15","size_leaf_vector":"1"}},{"base_weights":[2.8447136E-3,-3.5501488E-2,1.7701421E-2,-7.144621E-2,1.4342708E-3,-1.444107E-1,2.045134E-2,-5.3365773E-4,-2.4289696E-3,2.460931E-4,-1.7549797E-3,-1.4036604E-3,-6.4280955E-3,6.3616585E-4,9.667548E-5],"categories":[],"categories_nodes":[],"categories_segments":[],"categories_sizes":[],"default_left":[0,0,0,0,0,1,0,0,0,0,0,0,0,0,0],"id":36,"left_children":[1,3,5,7,9,11,13,-1,-1,-1,-1,-1,-1,-1,-1],"loss_changes":[4.7892773E1,3.116709E1,2.7014324E1,4.0458042E1,2.3703072E1,1.3999483E1,2.0168104E1,0E0,0E0,0E0,0E0,0E0,0E0,0E0,0E0],"parents":[2147483647,0,0,1,1,2,2,3,3,4,4,5,5,6,6],"right_children":[2,4,6,8,10,12,14,-1,-1,-1,-1,-1,-1,-1,-1],"split_conditions":[5.7631593E0,2.766983E-1,-1.7253128E0,1.3086E2,3.2166E2,1.18299E3,1.0862E2,-5.3365773E-4,-2.4289696E-3,2.460931E-4,-1.7549797E-3,-1.4036604E-3,-6.4280955E-3,6.3616585E-4,9.667548E-5],"split_indices":[22,15,15,21,25,10,25,0,0,0,0,0,0,0,0],"split_type":[0,0,0,0,0,0,0,0,0,0,0,0,0,0,0],"sum_hessian":[8.40648E4,2.3474383E4,6.0590414E4,1.1896321E4,1.1578062E4,1.0097966E3,5.9580617E4,8.968712E3,2.9276094E3,1.0271129E4,1.3069324E3,8.86731E2,1.2306552E2,2.0943133E4,3.8637484E4],"tree_param":{"num_deleted":"0","num_feature":"29","num_nodes":"15","size_leaf_vector":"1"}},{"base_weights":[1.0786661E-3,1.2367709E-2,-4.4148404E-2,-1.2678478E-2,3.047166E-2,9.263838E-3,-7.4928075E-2,7.504457E-4,-4.840531E-4,5.8244565E-4,-2.2338536E-4,-2.8878949E-3,3.2440628E-4,-1.5347527E-4,-1.6262594E-3],"categories":[],"categories_nodes":[],"categories_segments":[],"categories_sizes":[],"default_left":[0,0,0,0,0,0,0,0,0,0,0,0,0,0,0],"id":37,"left_children":[1,3,5,7,9,11,13,-1,-1,-1,-1,-1,-1,-1,-1],"loss_changes":[4.283885E1,3.0445871E1,2.7553886E1,4.0888676E1,2.014281E1,1.8375307E1,2.8042496E1,0E0,0E0,0E0,0E0,0E0,0E0,0E0,0E0],"parents":[2147483647,0,0,1,1,2,2,3,3,4,4,5,5,6,6],"right_children":[2,4,6,8,10,12,14,-1,-1,-1,-1,-1,-1,-1,-1],"split_conditions":[1.86E2,5.798614E-1,7.978E1,8.622E1,9.415559E-1,4.835989E-1,3E0,7.504457E-4,-4.840531E-4,5.8244565E-4,-2.2338536E-4,-2.8878949E-3,3.2440628E-4,-1.5347527E-4,-1.6262594E-3],"split_indices":[25,19,20,25,17,19,27,0,0,0,0,0,0,0,0],"split_type":[0,0,0,0,0,0,0,0,0,0,0,0,0,0,0],"sum_hessian":[8.3901836E4,6.71431E4,1.6758734E4,2.8170498E4,3.89726E4,6.1270713E3,1.0631663E4,6.995022E3,2.1175477E4,3.1435643E4,7.53696E3,3.705519E2,5.7565195E3,4.1676387E3,6.464025E3],"tree_param":{"num_deleted":"0","num_feature":"29","num_nodes":"15","size_leaf_vector":"1"}},{"base_weights":[1.7745455E-3,-1.7120795E-2,2.6986074E-2,-7.042363E-2,-6.0992925E-3,3.5896342E-2,-5.471926E-2,-3.706193E-3,-6.891069E-4,9.59622E-4,-2.6461834E-4,2.1093414E-4,9.957817E-4,2.488413E-3,-1.0729253E-3],"categories":[],"categories_nodes":[],"categories_segments":[],"categories_sizes":[],"default_left":[0,0,0,0,0,0,0,0,0,0,0,0,0,0,0],"id":38,"left_children":[1,3,5,7,9,11,13,-1,-1,-1,-1,-1,-1,-1,-1],"loss_changes":[3.9912167E1,2.813387E1,2.6132044E1,3.379027E1,3.7924366E1,2.3748756E1,1.7998028E1,0E0,0E0,0E0,0E0,0E0,0E0,0E0,0E0],"parents":[2147483647,0,0,1,1,2,2,3,3,4,4,5,5,6,6],"right_children":[2,4,6,8,10,12,14,-1,-1,-1,-1,-1,-1,-1,-1],"split_conditions":[4.0176083E1,-6.831299E-1,1.2003E2,2.75E1,9.471E1,7.521522E-1,-2.651192E-1,-3.706193E-3,-6.891069E-4,9.59622E-4,-2.6461834E-4,2.1093414E-4,9.957817E-4,2.488413E-3,-1.0729253E-3],"split_indices":[22,15,20,20,25,15,18,0,0,0,0,0,0,0,0],"split_type":[0,0,0,0,0,0,0,0,0,0,0,0,0,0,0],"sum_hessian":[8.3780164E4,4.7889004E4,3.589116E4,8.204505E3,3.96845E4,3.2362475E4,3.528686E3,8.060377E2,7.3984673E3,5.809156E3,3.3875344E4,2.0338908E4,1.2023565E4,3.034297E2,3.2252563E3],"tree_param":{"num_deleted":"0","num_feature":"29","num_nodes":"15","size_leaf_vector":"1"}},{"base_weights":[7.080603E-4,1.2881811E-2,-4.8260298E-2,-7.443146E-4,4.615676E-2,-1.0864471E-1,-1.8840017E-2,-7.912198E-4,1.06337575E-4,-3.0919584E-3,7.197361E-4,-4.5499126E-3,-1.1134336E-3,-1.1141051E-4,-3.2419134E-3],"categories":[],"categories_nodes":[],"categories_segments":[],"categories_sizes":[],"default_left":[0,0,0,0,0,0,0,0,0,0,0,0,0,0,0],"id":39,"left_children":[1,3,5,7,9,11,13,-1,-1,-1,-1,-1,-1,-1,-1],"loss_changes":[4.9754498E1,3.0308022E1,2.9520111E1,2.2059174E1,2.7250313E1,3.4263603E1,2.586729E1,0E0,0E0,0E0,0E0,0E0,0E0,0E0,0E0],"parents":[2147483647,0,0,1,1,2,2,3,3,4,4,5,5,6,6],"right_children":[2,4,6,8,10,12,14,-1,-1,-1,-1,-1,-1,-1,-1],"split_conditions":[1.86E2,5.783681E1,-3.838049E1,-9.1690916E-1,-1.3316007E0,-5.175635E-1,1.3445956E0,-7.912198E-4,1.06337575E-4,-3.0919584E-3,7.197361E-4,-4.5499126E-3,-1.1134336E-3,-1.1141051E-4,-3.2419134E-3],"split_indices":[25,22,22,17,15,15,17,0,0,0,0,0,0,0,0],"split_type":[0,0,0,0,0,0,0,0,0,0,0,0,0,0,0],"sum_hessian":[8.346065E4,6.684374E4,1.6616912E4,4.7424383E4,1.9419355E4,5.442867E3,1.1174045E4,6.1684087E3,4.1255977E4,3.7387823E2,1.9045477E4,6.443598E2,4.7985073E3,1.0631233E4,5.428116E2],"tree_param":{"num_deleted":"0","num_feature":"29","num_nodes":"15","size_leaf_vector":"1"}},{"base_weights":[-1.2357135E-3,-3.4890607E-2,1.5432885E-2,-4.852427E-2,4.023934E-2,3.3480372E-2,-3.3369255E-3,-4.108833E-4,-1.6207907E-3,-1.0462883E-3,1.0876278E-3,5.2011956E-4,-2.4603903E-3,-1.318397E-4,1.6534405E-3],"categories":[],"categories_nodes":[],"categories_segments":[],"categories_sizes":[],"default_left":[0,0,0,0,0,0,1,0,0,0,0,0,0,0,0],"id":40,"left_children":[1,3,5,7,9,11,13,-1,-1,-1,-1,-1,-1,-1,-1],"loss_changes":[4.6669384E1,2.822726E1,1.8846985E1,3.0072243E1,1.8231325E1,2.179202E1,2.0139313E1,0E0,0E0,0E0,0E0,0E0,0E0,0E0,0E0],"parents":[2147483647,0,0,1,1,2,2,3,3,4,4,5,5,6,6],"right_children":[2,4,6,8,10,12,14,-1,-1,-1,-1,-1,-1,-1,-1],"split_conditions":[1.4707424E1,1.1986687E0,1.2318E2,2.05E2,-1.59E2,1.7166944E0,2.44978E3,-4.108833E-4,-1.6207907E-3,-1.0462883E-3,1.0876278E-3,5.2011956E-4,-2.4603903E-3,-1.318397E-4,1.6534405E-3],"split_indices":[22,15,25,25,22,15,10,0,0,0,0,0,0,0,0],"split_type":[0,0,0,0,0,0,0,0,0,0,0,0,0,0,0],"sum_hessian":[8.319066E4,2.7554793E4,5.563586E4,2.3322809E4,4.231984E3,2.8363295E4,2.7272566E4,1.8149018E4,5.1737905E3,1.0395021E3,3.192482E3,2.7875021E4,4.8827307E2,2.597308E4,1.2994863E3],"tree_param":{"num_deleted":"0","num_feature":"29","num_nodes":"15","size_leaf_vector":"1"}},{"base_weights":[4.7338413E-4,1.5831985E-2,-3.1496994E-2,7.4861078E-3,9.4027385E-2,-5.72909E-2,5.2411435E-3,-4.781849E-3,1.2039803E-4,-1.154615E-2,1.4054738E-3,-4.335058E-3,-6.806005E-4,2.2948235E-4,-3.963329E-3],"categories":[],"categories_nodes":[],"categories_segments":[],"categories_sizes":[],"default_left":[0,0,0,0,0,0,0,0,0,0,0,0,0,0,0],"id":41,"left_children":[1,3,5,7,9,11,13,-1,-1,-1,-1,-1,-1,-1,-1],"loss_changes":[4.0858414E1,3.668153E1,2.5588573E1,1.9747223E1,3.177452E1,3.472143E1,3.581827E1,0E0,0E0,0E0,0E0,0E0,0E0,0E0,0E0],"parents":[2147483647,0,0,1,1,2,2,3,3,4,4,5,5,6,6],"right_children":[2,4,6,8,10,12,14,-1,-1,-1,-1,-1,-1,-1,-1],"split_conditions":[7.686E1,9.833671E1,6.531105E-1,1.4084E1,-1.1918671E0,-2.1434E2,1.4638504E0,-4.781849E-3,1.2039803E-4,-1.154615E-2,1.4054738E-3,-4.335058E-3,-6.806005E-4,2.2948235E-4,-3.963329E-3],"split_indices":[20,22,15,20,15,22,17,0,0,0,0,0,0,0,0],"split_type":[0,0,0,0,0,0,0,0,0,0,0,0,0,0,0],"sum_hessian":[8.320924E4,5.6207574E4,2.7001668E4,5.078801E4,5.419562E3,1.5863394E4,1.1138273E4,1.6056851E2,5.0627445E4,3.6394985E1,5.383167E3,5.261373E2,1.5337256E4,1.0724482E4,4.1379108E2],"tree_param":{"num_deleted":"0","num_feature":"29","num_nodes":"15","size_leaf_vector":"1"}},{"base_weights":[1.2612112E-5,-3.766024E-2,1.3121971E-2,-1.5874977E-1,-2.7858403E-2,1.4752945E-2,-1.283243E-1,-2.540473E-3,1.4404887E-3,1.6561094E-3,-5.569442E-4,1.6952965E-4,1.4919094E-3,-2.8637333E-3,2.1496736E-3],"categories":[],"categories_nodes":[],"categories_segments":[],"categories_sizes":[],"default_left":[0,0,1,0,0,1,0,0,0,0,0,0,0,0,0],"id":42,"left_children":[1,3,5,7,9,11,13,-1,-1,-1,-1,-1,-1,-1,-1],"loss_changes":[4.098614E1,2.5423512E1,1.4204977E1,9.551231E0,3.4544598E1,1.4772109E1,1.5113162E1,0E0,0E0,0E0,0E0,0E0,0E0,0E0,0E0],"parents":[2147483647,0,0,1,1,2,2,3,3,4,4,5,5,6,6],"right_children":[2,4,6,8,10,12,14,-1,-1,-1,-1,-1,-1,-1,-1],"split_conditions":[4.0136868E-1,4.7362286E-1,3.3E-1,2.48E4,9.064E1,-2.394E1,2.6169842E-1,-2.540473E-3,1.4404887E-3,1.6561094E-3,-5.569442E-4,1.6952965E-4,1.4919094E-3,-2.8637333E-3,2.1496736E-3],"split_indices":[22,19,24,7,25,23,18,0,0,0,0,0,0,0,0],"split_type":[0,0,0,0,0,0,0,0,0,0,0,0,0,0,0],"sum_hessian":[8.298826E4,2.1422822E4,6.1565434E4,1.6031161E3,1.9819705E4,6.086452E4,7.009148E2,1.4753505E3,1.27765594E2,1.4942909E3,1.8325414E4,5.9162105E4,1.7024136E3,5.519285E2,1.4898627E2],"tree_param":{"num_deleted":"0","num_feature":"29","num_nodes":"15","size_leaf_vector":"1"}},{"base_weights":[-1.238671E-3,1.8804811E-2,-2.628391E-2,1.7299586E-3,5.477121E-2,-5.5084012E-2,3.1141753E-3,-5.3459516E-4,3.8056326E-4,3.4006378E-3,6.8134745E-4,-1.4878591E-3,-3.4135958E-4,2.318666E-4,-1.3511882E-3],"categories":[],"categories_nodes":[],"categories_segments":[],"categories_sizes":[],"default_left":[0,0,0,0,0,0,0,0,0,0,0,0,0,0,0],"id":43,"left_children":[1,3,5,7,9,11,13,-1,-1,-1,-1,-1,-1,-1,-1],"loss_changes":[4.1609844E1,2.8275337E1,3.119738E1,3.1721083E1,1.700745E1,2.9250221E1,2.4432436E1,0E0,0E0,0E0,0E0,0E0,0E0,0E0,0E0],"parents":[2147483647,0,0,1,1,2,2,3,3,4,4,5,5,6,6],"right_children":[2,4,6,8,10,12,14,-1,-1,-1,-1,-1,-1,-1,-1],"split_conditions":[1.3549E2,2.6169842E-1,5.2761394E-1,3E0,2.7134573E-1,-2.6863794E0,3.14E2,-5.3459516E-4,3.8056326E-4,3.4006378E-3,6.8134745E-4,-1.4878591E-3,-3.4135958E-4,2.318666E-4,-1.3511882E-3],"split_indices":[25,18,15,27,18,22,25,0,0,0,0,0,0,0,0],"split_type":[0,0,0,0,0,0,0,0,0,0,0,0,0,0,0],"sum_hessian":[8.288717E4,4.604112E4,3.6846047E4,3.122044E4,1.4820684E4,1.8611879E4,1.823417E4,1.21564E4,1.906404E4,4.6449838E2,1.4356185E4,6.9765723E3,1.1635307E4,1.6066367E4,2.1678025E3],"tree_param":{"num_deleted":"0","num_feature":"29","num_nodes":"15","size_leaf_vector":"1"}},{"base_weights":[1.8254867E-4,-2.7108554E-2,2.0457666E-2,-1.5264309E-2,-8.077073E-2,-1.3811064E-1,2.4079667E-2,-3.3076332E-4,5.3845876E-4,-7.771023E-4,-2.7064467E-3,-1.0080186E-3,-4.589362E-3,4.2373256E-4,-1.015637E-3],"categories":[],"categories_nodes":[],"categories_segments":[],"categories_sizes":[],"default_left":[0,0,0,0,0,0,0,0,0,0,0,0,0,0,0],"id":44,"left_children":[1,3,5,7,9,11,13,-1,-1,-1,-1,-1,-1,-1,-1],"loss_changes":[4.5810596E1,2.2428383E1,2.7284872E1,1.2988314E1,1.8131042E1,1.3281569E1,2.7765404E1,0E0,0E0,0E0,0E0,0E0,0E0,0E0,0E0],"parents":[2147483647,0,0,1,1,2,2,3,3,4,4,5,5,6,6],"right_children":[2,4,6,8,10,12,14,-1,-1,-1,-1,-1,-1,-1,-1],"split_conditions":[2.5624382E1,1.4838E2,-1.4880476E0,2.1924E4,3.2166E2,2.0216E4,2.4317E2,-3.3076332E-4,5.3845876E-4,-7.771023E-4,-2.7064467E-3,-1.0080186E-3,-4.589362E-3,4.2373256E-4,-1.015637E-3],"split_indices":[22,21,15,7,25,7,25,0,0,0,0,0,0,0,0],"split_type":[0,0,0,0,0,0,0,0,0,0,0,0,0,0,0],"sum_hessian":[8.278868E4,3.528856E4,4.750012E4,2.8909072E4,6.3794873E3,1.0599341E3,4.6440184E4,2.501621E4,3.892861E3,5.2112173E3,1.1682701E3,7.8703723E2,2.7289688E2,4.364619E4,2.7939941E3],"tree_param":{"num_deleted":"0","num_feature":"29","num_nodes":"15","size_leaf_vector":"1"}},{"base_weights":[2.4214659E-4,-4.3283034E-2,1.4662376E-2,-2.7742699E-2,-1.414929E-1,1.8186586E-2,-9.251607E-2,-2.8034241E-3,-2.9271192E-4,-2.715611E-3,-6.2027415E-5,1.2934055E-4,7.259295E-4,-2.4497055E-3,4.1736017E-5],"categories":[],"categories_nodes":[],"categories_segments":[],"categories_sizes":[],"default_left":[0,0,0,0,0,0,1,0,0,0,0,0,0,0,0],"id":45,"left_children":[1,3,5,7,9,11,13,-1,-1,-1,-1,-1,-1,-1,-1],"loss_changes":[5.187806E1,3.1389565E1,2.3452707E1,2.0935543E1,2.0210747E1,1.8107E1,1.5566687E1,0E0,0E0,0E0,0E0,0E0,0E0,0E0,0E0],"parents":[2147483647,0,0,1,1,2,2,3,3,4,4,5,5,6,6],"right_children":[2,4,6,8,10,12,14,-1,-1,-1,-1,-1,-1,-1,-1],"split_conditions":[-1.8507546E0,1.7714E2,1.614E2,-7.462316E-1,1E0,7.8628555E1,3.3411E2,-2.8034241E-3,-2.9271192E-4,-2.715611E-3,-6.2027415E-5,1.2934055E-4,7.259295E-4,-2.4497055E-3,4.1736017E-5],"split_indices":[22,21,20,18,11,22,10,0,0,0,0,0,0,0,0],"split_type":[0,0,0,0,0,0,0,0,0,0,0,0,0,0,0],"sum_hessian":[8.265334E4,2.0568518E4,6.208482E4,1.7759594E4,2.8089246E3,6.010916E4,1.9756619E3,6.7575824E2,1.7083836E4,2.030904E3,7.780205E2,4.7488453E4,1.2620706E4,1.059736E3,9.1592584E2],"tree_param":{"num_deleted":"0","num_feature":"29","num_nodes":"15","size_leaf_vector":"1"}},{"base_weights":[1.0358556E-3,1.3374159E-2,-3.642217E-2,-6.2876223E-3,3.651293E-2,-6.0960114E-2,2.5331527E-2,5.2840344E-4,-2.7533344E-4,-1.3243404E-3,6.151141E-4,-7.014618E-4,-3.666256E-3,1.08497065E-4,3.3630063E-3],"categories":[],"categories_nodes":[],"categories_segments":[],"categories_sizes":[],"default_left":[0,0,0,0,0,0,0,0,0,0,0,0,0,0,0],"id":46,"left_children":[1,3,5,7,9,11,13,-1,-1,-1,-1,-1,-1,-1,-1],"loss_changes":[3.814333E1,2.8244377E1,3.0988413E1,1.9772646E1,2.7762802E1,3.1905968E1,2.1969807E1,0E0,0E0,0E0,0E0,0E0,0E0,0E0,0E0],"parents":[2147483647,0,0,1,1,2,2,3,3,4,4,5,5,6,6],"right_children":[2,4,6,8,10,12,14,-1,-1,-1,-1,-1,-1,-1,-1],"split_conditions":[1.7016E2,2.9587525E-1,1E0,8.622E1,-7.0710677E-1,2.6634E2,1.7166944E0,5.2840344E-4,-2.7533344E-4,-1.3243404E-3,6.151141E-4,-7.014618E-4,-3.666256E-3,1.08497065E-4,3.3630063E-3],"split_indices":[25,15,11,25,17,21,15,0,0,0,0,0,0,0,0],"split_type":[0,0,0,0,0,0,0,0,0,0,0,0,0,0,0],"sum_hessian":[8.2529164E4,6.2080957E4,2.044821E4,3.3562508E4,2.851845E4,1.4633555E4,5.814657E3,7.821144E3,2.5741363E4,1.5276409E3,2.6990809E4,1.3884602E4,7.4895276E2,5.375842E3,4.388152E2],"tree_param":{"num_deleted":"0","num_feature":"29","num_nodes":"15","size_leaf_vector":"1"}},{"base_weights":[3.788863E-4,1.8536624E-2,-2.2257311E-2,-5.9999935E-2,2.7647374E-2,-4.6258394E-2,1.0879981E-2,-2.43925E-3,1.8461407E-4,5.7999353E-4,-1.8642633E-4,-4.718045E-4,-2.4368265E-3,3.374641E-4,-1.2112915E-3],"categories":[],"categories_nodes":[],"categories_segments":[],"categories_sizes":[],"default_left":[0,0,0,0,0,0,0,0,0,0,0,0,0,0,0],"id":47,"left_children":[1,3,5,7,9,11,13,-1,-1,-1,-1,-1,-1,-1,-1],"loss_changes":[3.3904778E1,3.2753025E1,2.9202303E1,3.9782604E1,2.3153898E1,3.4169315E1,1.9869095E1,0E0,0E0,0E0,0E0,0E0,0E0,0E0,0E0],"parents":[2147483647,0,0,1,1,2,2,3,3,4,4,5,5,6,6],"right_children":[2,4,6,8,10,12,14,-1,-1,-1,-1,-1,-1,-1,-1],"split_conditions":[1.3549E2,-1.0520664E0,7.0687413E-1,1E0,1E0,1.9403E2,2.1115E4,-2.43925E-3,1.8461407E-4,5.7999353E-4,-1.8642633E-4,-4.718045E-4,-2.4368265E-3,3.374641E-4,-1.2112915E-3],"split_indices":[25,15,15,6,11,21,7,0,0,0,0,0,0,0,0],"split_type":[0,0,0,0,0,0,0,0,0,0,0,0,0,0,0],"sum_hessian":[8.2486914E4,4.5771367E4,3.6715547E4,4.757255E3,4.1014113E4,2.1292885E4,1.5422664E4,1.8571584E3,2.9000964E3,3.0689654E4,1.032446E4,1.9388934E4,1.9039507E3,1.3579641E4,1.8430233E3],"tree_param":{"num_deleted":"0","num_feature":"29","num_nodes":"15","size_leaf_vector":"1"}},{"base_weights":[-2.2666454E-3,4.3512145E-3,-7.5492084E-2,-9.203271E-2,9.229652E-3,-7.123671E-2,-7.028147E-1,-4.1356962E-4,-2.611573E-3,-1.6551459E-4,3.2579413E-4,-8.2483207E-4,-3.7485068E-3,-1.2555616E-2,-5.5604713E-4],"categories":[],"categories_nodes":[],"categories_segments":[],"categories_sizes":[],"default_left":[0,0,0,0,0,0,0,0,0,0,0,0,0,0,0],"id":48,"left_children":[1,3,5,7,9,11,13,-1,-1,-1,-1,-1,-1,-1,-1],"loss_changes":[3.9753025E1,3.5376255E1,1.8100838E1,2.1401394E1,2.1168434E1,1.6337841E1,5.84363E0,0E0,0E0,0E0,0E0,0E0,0E0,0E0,0E0],"parents":[2147483647,0,0,1,1,2,2,3,3,4,4,5,5,6,6],"right_children":[2,4,6,8,10,12,14,-1,-1,-1,-1,-1,-1,-1,-1],"split_conditions":[2.54E2,4.5560956E-1,1.8790174E0,1.0862E2,2.5624382E1,3.3843E2,9.624562E1,-4.1356962E-4,-2.611573E-3,-1.6551459E-4,3.2579413E-4,-8.2483207E-4,-3.7485068E-3,-1.2555616E-2,-5.5604713E-4],"split_indices":[25,19,17,25,22,21,22,0,0,0,0,0,0,0,0],"split_type":[0,0,0,0,0,0,0,0,0,0,0,0,0,0,0],"sum_hessian":[8.203172E4,7.5233336E4,6.798386E3,3.6235967E3,7.1609734E4,6.7536865E3,4.469931E1,2.1820586E3,1.4415381E3,2.8652049E4,4.2957688E4,6.3564766E3,3.9721E2,3.4308525E1,1.0390787E1],"tree_param":{"num_deleted":"0","num_feature":"29","num_nodes":"15","size_leaf_vector":"1"}},{"base_weights":[-1.0199407E-3,1.3031072E-2,-3.7387535E-2,-4.6595875E-2,1.9778272E-2,-3.6854523E-1,-3.383112E-2,-1.7151316E-3,3.6474303E-5,-2.881432E-3,3.0470284E-4,8.750178E-3,-5.625096E-3,4.5787875E-4,-6.9029216E-4],"categories":[],"categories_nodes":[],"categories_segments":[],"categories_sizes":[],"default_left":[0,0,0,0,0,0,0,0,0,0,0,0,0,0,0],"id":49,"left_children":[1,3,5,7,9,11,13,-1,-1,-1,-1,-1,-1,-1,-1],"loss_changes":[4.1939392E1,2.38181E1,2.6925428E1,2.2478697E1,2.3834764E1,8.275745E0,2.3304176E1,0E0,0E0,0E0,0E0,0E0,0E0,0E0,0E0],"parents":[2147483647,0,0,1,1,2,2,3,3,4,4,5,5,6,6],"right_children":[2,4,6,8,10,12,14,-1,-1,-1,-1,-1,-1,-1,-1],"split_conditions":[1.6244E2,-9.947292E-1,-1.9108747E0,1E0,-2.063799E0,-4.7E-1,5.473E1,-1.7151316E-3,3.6474303E-5,-2.881432E-3,3.0470284E-4,8.750178E-3,-5.625096E-3,4.5787875E-4,-6.9029216E-4],"split_indices":[25,15,17,6,17,24,20,0,0,0,0,0,0,0,0],"split_type":[0,0,0,0,0,0,0,0,0,0,0,0,0,0,0],"sum_hessian":[8.2070984E4,5.9199324E4,2.2871656E4,6.0172505E3,5.3182074E4,2.4192612E2,2.262973E4,2.3656895E3,3.6515613E3,4.632517E2,5.2718824E4,7.257108E0,2.34669E2,4.269953E3,1.8359777E4],"tree_param":{"num_deleted":"0","num_feature":"29","num_nodes":"15","size_leaf_vector":"1"}},{"base_weights":[-1.6809949E-3,-3.7996978E-2,1.1730969E-2,-2.0971362E-2,-1.018788E-1,-2.146789E-1,1.2783275E-2,4.849065E-5,-1.0493784E-3,-2.3858494E-3,-1.9136505E-4,-3.954324E-3,4.6021505E-3,4.3765627E-4,3.451061E-5],"categories":[],"categories_nodes":[],"categories_segments":[],"categories_sizes":[],"default_left":[0,0,0,0,0,0,0,0,0,0,0,0,0,0,0],"id":50,"left_children":[1,3,5,7,9,11,13,-1,-1,-1,-1,-1,-1,-1,-1],"loss_changes":[3.9921432E1,2.404081E1,1.4263787E1,2.3025633E1,2.812009E1,1.029315E1,1.1359561E1,0E0,0E0,0E0,0E0,0E0,0E0,0E0,0E0],"parents":[2147483647,0,0,1,1,2,2,3,3,4,4,5,5,6,6],"right_children":[2,4,6,8,10,12,14,-1,-1,-1,-1,-1,-1,-1,-1],"split_conditions":[3.8342016E0,2.266E2,-2.938E1,-6.826288E1,3.8778418E-1,2.39E2,1.0862E2,4.849065E-5,-1.0493784E-3,-2.3858494E-3,-1.9136505E-4,-3.954324E-3,4.6021505E-3,4.3765627E-4,3.451061E-5],"split_indices":[22,25,23,22,18,21,25,0,0,0,0,0,0,0,0],"split_type":[0,0,0,0,0,0,0,0,0,0,0,0,0,0,0],"sum_hessian":[8.196073E4,2.2104867E4,5.9855855E4,1.7454318E4,4.6505503E3,2.759714E2,5.9579887E4,1.2016296E4,5.438021E3,2.6165562E3,2.0339943E3,2.4579617E2,3.0175226E1,2.1347951E4,3.8231934E4],"tree_param":{"num_deleted":"0","num_feature":"29","num_nodes":"15","size_leaf_vector":"1"}},{"base_weights":[-3.4125934E-3,-2.5841415E-2,1.8255526E-2,-2.3058971E-2,-3.281314E-1,4.9948122E-2,3.9055282E-3,-4.5194782E-4,8.529842E-4,4.0271436E-4,-5.9595066E-3,-4.6372646E-3,7.6828024E-4,-5.17996E-3,7.971247E-5],"categories":[],"categories_nodes":[],"categories_segments":[],"categories_sizes":[],"default_left":[0,0,0,0,0,0,0,0,0,0,0,0,0,0,0],"id":51,"left_children":[1,3,5,7,9,11,13,-1,-1,-1,-1,-1,-1,-1,-1],"loss_changes":[3.9719788E1,3.377102E1,1.8905289E1,3.0827158E1,1.276149E1,2.4360424E1,1.9134615E1,0E0,0E0,0E0,0E0,0E0,0E0,0E0,0E0],"parents":[2147483647,0,0,1,1,2,2,3,3,4,4,5,5,6,6],"right_children":[2,4,6,8,10,12,14,-1,-1,-1,-1,-1,-1,-1,-1],"split_conditions":[3.2420418E1,1.5235103E0,5.7E1,5.61337E-1,4.5E1,-2.063799E0,5.7553333E1,-4.5194782E-4,8.529842E-4,4.0271436E-4,-5.9595066E-3,-4.6372646E-3,7.6828024E-4,-5.17996E-3,7.971247E-5],"split_indices":[22,17,21,18,20,17,21,0,0,0,0,0,0,0,0],"split_type":[0,0,0,0,0,0,0,0,0,0,0,0,0,0,0],"sum_hessian":[8.17276E4,4.0158777E4,4.1568824E4,3.9793574E4,3.6520575E2,1.2954895E4,2.861393E4,3.585658E4,3.9369946E3,7.85437E1,2.8666205E2,1.6453535E2,1.2790358E4,1.3521692E2,2.8478713E4],"tree_param":{"num_deleted":"0","num_feature":"29","num_nodes":"15","size_leaf_vector":"1"}},{"base_weights":[-1.0137482E-3,7.602024E-3,-5.9454203E-2,-4.073833E-2,1.6327722E-2,-2.99869E-2,-1.2765534E-1,-1.6955233E-3,-2.2958788E-4,-3.3611967E-3,2.5162796E-4,2.1128E-4,-1.5078525E-3,-1.5797601E-3,-5.9318114E-3],"categories":[],"categories_nodes":[],"categories_segments":[],"categories_sizes":[],"default_left":[0,0,0,0,0,0,0,0,0,0,0,0,0,0,0],"id":52,"left_children":[1,3,5,7,9,11,13,-1,-1,-1,-1,-1,-1,-1,-1],"loss_changes":[4.1159763E1,3.0051067E1,2.1104424E1,2.1307684E1,2.5470808E1,2.5700726E1,1.3849606E1,0E0,0E0,0E0,0E0,0E0,0E0,0E0,0E0],"parents":[2147483647,0,0,1,1,2,2,3,3,4,4,5,5,6,6],"right_children":[2,4,6,8,10,12,14,-1,-1,-1,-1,-1,-1,-1,-1],"split_conditions":[2.18E2,-6.708203E-1,7E0,2E0,-2.063799E0,1.471E2,2.7783E2,-1.6955233E-3,-2.2958788E-4,-3.3611967E-3,2.5162796E-4,2.1128E-4,-1.5078525E-3,-1.5797601E-3,-5.9318114E-3],"split_indices":[25,15,27,27,17,21,21,0,0,0,0,0,0,0,0],"split_type":[0,0,0,0,0,0,0,0,0,0,0,0,0,0,0],"sum_hessian":[8.174384E4,7.124168E4,1.0502164E4,1.0892665E4,6.034901E4,7.3345874E3,3.1675762E3,2.5310168E3,8.361648E3,3.83936E2,5.996508E4,4.642557E3,2.69203E3,3.017928E3,1.4964842E2],"tree_param":{"num_deleted":"0","num_feature":"29","num_nodes":"15","size_leaf_vector":"1"}},{"base_weights":[-1.404768E-3,-3.2081716E-2,1.3426404E-2,-4.730091E-2,2.299699E-2,-2.5646646E-2,2.1408822E-2,-3.478761E-4,-1.5348998E-3,1.8512631E-4,4.487399E-3,-7.2693396E-3,-3.0435994E-4,3.8450237E-4,-5.180808E-4],"categories":[],"categories_nodes":[],"categories_segments":[],"categories_sizes":[],"default_left":[0,0,0,0,1,0,0,0,0,0,0,0,0,0,0],"id":53,"left_children":[1,3,5,7,9,11,13,-1,-1,-1,-1,-1,-1,-1,-1],"loss_changes":[3.715458E1,2.231041E1,1.7170153E1,2.9182064E1,1.6752987E1,1.7996754E1,1.617071E1,0E0,0E0,0E0,0E0,0E0,0E0,0E0,0E0],"parents":[2147483647,0,0,1,1,2,2,3,3,4,4,5,5,6,6],"right_children":[2,4,6,8,10,12,14,-1,-1,-1,-1,-1,-1,-1,-1],"split_conditions":[1.428978E1,1.0079054E0,-4.7847384E-1,1.86E2,1.5065E2,4.391E1,1.2526E2,-3.478761E-4,-1.5348998E-3,1.8512631E-4,4.487399E-3,-7.2693396E-3,-3.0435994E-4,3.8450237E-4,-5.180808E-4],"split_indices":[22,15,15,25,4,25,20,0,0,0,0,0,0,0,0],"split_type":[0,0,0,0,0,0,0,0,0,0,0,0,0,0,0],"sum_hessian":[8.166094E4,2.6613057E4,5.504788E4,2.0851555E4,5.761501E3,9.337863E3,4.5710016E4,1.5330867E4,5.520688E3,5.5792705E3,1.8223035E2,7.229052E1,9.265573E3,4.1416992E4,4.293022E3],"tree_param":{"num_deleted":"0","num_feature":"29","num_nodes":"15","size_leaf_vector":"1"}},{"base_weights":[1.4553209E-3,-1.7507084E-2,2.0480562E-2,-4.2956206E-3,-8.465305E-2,2.4396183E-2,-1.1052862E-1,-5.309212E-4,1.4395738E-4,-1.1174275E-3,-9.158251E-3,-2.8125112E-4,5.3171744E-4,1.7508661E-3,-2.3942005E-3],"categories":[],"categories_nodes":[],"categories_segments":[],"categories_sizes":[],"default_left":[0,0,0,0,0,0,0,0,0,0,0,0,0,0,0],"id":54,"left_children":[1,3,5,7,9,11,13,-1,-1,-1,-1,-1,-1,-1,-1],"loss_changes":[2.9471272E1,3.6293594E1,2.0921083E1,1.6760221E1,1.8476421E1,2.3927292E1,1.6887363E1,0E0,0E0,0E0,0E0,0E0,0E0,0E0,0E0],"parents":[2147483647,0,0,1,1,2,2,3,3,4,4,5,5,6,6],"right_children":[2,4,6,8,10,12,14,-1,-1,-1,-1,-1,-1,-1,-1],"split_conditions":[2.9587525E-1,1.2925E2,1.3445956E0,7.306E3,3.77E2,-3.4820296E-2,4.6595E1,-5.309212E-4,1.4395738E-4,-1.1174275E-3,-9.158251E-3,-2.8125112E-4,5.3171744E-4,1.7508661E-3,-2.3942005E-3],"split_indices":[15,21,17,7,21,17,20,0,0,0,0,0,0,0,0],"split_type":[0,0,0,0,0,0,0,0,0,0,0,0,0,0,0],"sum_hessian":[8.16892E4,4.0912203E4,4.0777E4,3.418677E4,6.7254346E3,3.959441E4,1.1825891E3,1.0338243E4,2.3848527E4,6.6699272E3,5.550729E1,9.261874E3,3.0332537E4,2.4137425E2,9.4121484E2],"tree_param":{"num_deleted":"0","num_feature":"29","num_nodes":"15","size_leaf_vector":"1"}},{"base_weights":[-1.9132148E-3,1.8488305E-2,-2.3666918E-2,-3.168901E-2,3.2754306E-2,-4.2862576E-2,4.1713845E-3,-3.5157354E-4,-4.839432E-3,4.8451434E-4,-2.5998764E-3,-2.1256227E-4,-1.2459455E-3,1.4383491E-4,-3.7537976E-3],"categories":[],"categories_nodes":[],"categories_segments":[],"categories_sizes":[],"default_left":[0,0,0,0,1,0,0,0,0,0,0,0,0,0,0],"id":55,"left_children":[1,3,5,7,9,11,13,-1,-1,-1,-1,-1,-1,-1,-1],"loss_changes":[3.6105167E1,3.0052507E1,2.1039417E1,1.918309E1,1.3244991E1,2.9755917E1,2.6705635E1,0E0,0E0,0E0,0E0,0E0,0E0,0E0,0E0],"parents":[2147483647,0,0,1,1,2,2,3,3,4,4,5,5,6,6],"right_children":[2,4,6,8,10,12,14,-1,-1,-1,-1,-1,-1,-1,-1],"split_conditions":[6.2E1,-4.5181093E-1,6.531105E-1,1.3259344E0,3.1E-1,1.6144E2,1.5235103E0,-3.5157354E-4,-4.839432E-3,4.8451434E-4,-2.5998764E-3,-2.1256227E-4,-1.2459455E-3,1.4383491E-4,-3.7537976E-3],"split_indices":[20,17,15,15,24,25,17,0,0,0,0,0,0,0,0],"split_type":[0,0,0,0,0,0,0,0,0,0,0,0,0,0,0],"sum_hessian":[8.135103E4,4.1980312E4,3.9370715E4,9.293032E3,3.2687281E4,2.330229E4,1.6068427E4,9.103435E3,1.895974E2,3.2413064E4,2.7421762E2,1.4564873E4,8.737416E3,1.571715E4,3.5127637E2],"tree_param":{"num_deleted":"0","num_feature":"29","num_nodes":"15","size_leaf_vector":"1"}},{"base_weights":[7.1346527E-4,8.117526E-3,-4.9436375E-2,9.697253E-3,-2.1633437E-1,-2.0918412E-2,-1.1623867E-1,-1.4558885E-3,1.6503077E-4,-5.276913E-3,-2.481093E-4,1.8802208E-4,-1.1086719E-3,-1.2455977E-3,-4.1796654E-3],"categories":[],"categories_nodes":[],"categories_segments":[],"categories_sizes":[],"default_left":[0,1,0,0,0,0,0,0,0,0,0,0,0,0,0],"id":56,"left_children":[1,3,5,7,9,11,13,-1,-1,-1,-1,-1,-1,-1,-1],"loss_changes":[3.0196432E1,2.5127644E1,1.9928207E1,1.6726494E1,1.5790506E1,1.4678882E1,1.5531864E1,0E0,0E0,0E0,0E0,0E0,0E0,0E0,0E0],"parents":[2147483647,0,0,1,1,2,2,3,3,4,4,5,5,6,6],"right_children":[2,4,6,8,10,12,14,-1,-1,-1,-1,-1,-1,-1,-1],"split_conditions":[2.18E2,6.7E-1,7E0,-1.7253128E0,2.541325E-1,1.471E2,2.1087E4,-1.4558885E-3,1.6503077E-4,-5.276913E-3,-2.481093E-4,1.8802208E-4,-1.1086719E-3,-1.2455977E-3,-4.1796654E-3],"split_indices":[25,24,27,15,17,21,7,0,0,0,0,0,0,0,0],"split_type":[0,0,0,0,0,0,0,0,0,0,0,0,0,0,0],"sum_hessian":[8.132142E4,7.08605E4,1.0460919E4,7.036621E4,4.942912E2,7.3321357E3,3.1287832E3,1.269735E3,6.909648E4,2.7281158E2,2.214796E2,4.6134927E3,2.7186433E3,2.723E3,4.0578308E2],"tree_param":{"num_deleted":"0","num_feature":"29","num_nodes":"15","size_leaf_vector":"1"}},{"base_weights":[-1.6857905E-3,8.291692E-3,-4.2387128E-2,-1.253963E-2,2.5805969E-2,-7.074033E-2,1.2932723E-2,4.2507534E-5,-7.648634E-4,-2.1703094E-3,4.1645372E-4,-5.400529E-4,-1.993794E-3,4.5924055E-4,-2.4684698E-3],"categories":[],"categories_nodes":[],"categories_segments":[],"categories_sizes":[],"default_left":[0,0,0,0,0,0,0,0,0,0,0,0,0,0,0],"id":57,"left_children":[1,3,5,7,9,11,13,-1,-1,-1,-1,-1,-1,-1,-1],"loss_changes":[3.298459E1,2.380014E1,2.5082724E1,1.9535389E1,2.5257542E1,2.4368198E1,2.0385683E1,0E0,0E0,0E0,0E0,0E0,0E0,0E0,0E0],"parents":[2147483647,0,0,1,1,2,2,3,3,4,4,5,5,6,6],"right_children":[2,4,6,8,10,12,14,-1,-1,-1,-1,-1,-1,-1,-1],"split_conditions":[1.86E2,1.14675425E-1,1.0259782E0,3.4596008E-1,-2.1866798E-1,1.471E2,2.1871E4,4.2507534E-5,-7.648634E-4,-2.1703094E-3,4.1645372E-4,-5.400529E-4,-1.993794E-3,4.5924055E-4,-2.4684698E-3],"split_indices":[25,15,15,17,18,21,7,0,0,0,0,0,0,0,0],"split_type":[0,0,0,0,0,0,0,0,0,0,0,0,0,0,0],"sum_hessian":[8.1221586E4,6.5231582E4,1.5990005E4,2.9794525E4,3.5437055E4,1.0571495E4,5.4185093E3,2.1748016E4,8.04651E3,7.5497925E2,3.468208E4,7.297925E3,3.2735706E3,4.9044067E3,5.141027E2],"tree_param":{"num_deleted":"0","num_feature":"29","num_nodes":"15","size_leaf_vector":"1"}},{"base_weights":[-4.4207796E-3,-1.2617223E-3,-1.2598395E-1,-3.769284E-2,7.1249465E-3,-7.11409E-2,-3.0894005E-1,-1.2921904E-4,-1.4226919E-3,-3.606187E-3,1.1954014E-4,-4.961835E-3,-4.262469E-4,-1.8283592E-3,-6.9806306E-3],"categories":[],"categories_nodes":[],"categories_segments":[],"categories_sizes":[],"default_left":[0,0,0,0,0,0,0,0,0,0,0,0,0,0,0],"id":58,"left_children":[1,3,5,7,9,11,13,-1,-1,-1,-1,-1,-1,-1,-1],"loss_changes":[3.107592E1,2.4098906E1,2.0543877E1,2.6855268E1,2.3994152E1,1.8182865E1,1.5915146E1,0E0,0E0,0E0,0E0,0E0,0E0,0E0,0E0],"parents":[2147483647,0,0,1,1,2,2,3,3,4,4,5,5,6,6],"right_children":[2,4,6,8,10,12,14,-1,-1,-1,-1,-1,-1,-1,-1],"split_conditions":[1.9122E2,-4.7847384E-1,2.0514E4,9.7E1,-2.063799E0,2.05E2,3.2093233E-1,-1.2921904E-4,-1.4226919E-3,-3.606187E-3,1.1954014E-4,-4.961835E-3,-4.262469E-4,-1.8283592E-3,-6.9806306E-3],"split_indices":[20,15,7,21,17,25,18,0,0,0,0,0,0,0,0],"split_type":[0,0,0,0,0,0,0,0,0,0,0,0,0,0,0],"sum_hessian":[8.092103E4,7.887239E4,2.0486433E3,1.4758589E4,6.41138E4,1.577238E3,4.7140512E2,1.0212695E4,4.545893E3,3.3960706E2,6.377419E4,1.9715215E2,1.3800859E3,2.4383147E2,2.2757364E2],"tree_param":{"num_deleted":"0","num_feature":"29","num_nodes":"15","size_leaf_vector":"1"}},{"base_weights":[7.125139E-4,-3.347393E-2,1.5655613E-2,-2.3661073E-1,-2.9761173E-2,4.2006023E-2,7.3348754E-4,-8.863058E-3,-2.2609562E-3,-5.661201E-4,6.074544E-4,5.9989427E-4,-1.2502661E-2,-1.9243424E-4,5.5576756E-4],"categories":[],"categories_nodes":[],"categories_segments":[],"categories_sizes":[],"default_left":[0,0,0,0,0,1,0,0,0,0,0,0,0,0,0],"id":59,"left_children":[1,3,5,7,9,11,13,-1,-1,-1,-1,-1,-1,-1,-1],"loss_changes":[4.1394737E1,1.858101E1,2.2170677E1,1.3067408E1,1.8904701E1,1.6118225E1,2.030999E1,0E0,0E0,0E0,0E0,0E0,0E0,0E0,0E0],"parents":[2147483647,0,0,1,1,2,2,3,3,4,4,5,5,6,6],"right_children":[2,4,6,8,10,12,14,-1,-1,-1,-1,-1,-1,-1,-1],"split_conditions":[1.1074942E1,-2.8652E2,1.0862E2,1.05568394E-1,6.76109E-1,2.5894E2,7.8628555E1,-8.863058E-3,-2.2609562E-3,-5.661201E-4,6.074544E-4,5.9989427E-4,-1.2502661E-2,-1.9243424E-4,5.5576756E-4],"split_indices":[22,22,25,18,19,23,22,0,0,0,0,0,0,0,0],"split_type":[0,0,0,0,0,0,0,0,0,0,0,0,0,0,0],"sum_hessian":[8.102885E4,2.4645123E4,5.638373E4,4.4123126E2,2.4203893E4,2.0384936E4,3.5998797E4,6.90969E1,3.7213437E2,2.1121732E4,3.0821592E3,2.0367516E4,1.74205E1,2.6246463E4,9.752333E3],"tree_param":{"num_deleted":"0","num_feature":"29","num_nodes":"15","size_leaf_vector":"1"}},{"base_weights":[-2.6846277E-3,-3.4958277E-2,1.1420999E-2,-3.093838E-2,-2.778992E-1,2.4786621E-2,-1.1110793E-2,-8.3697494E-4,-9.1806205E-6,-1.1220846E-3,-5.5905147E-3,2.9852486E-4,2.2368357E-3,-7.985644E-4,2.0246468E-4],"categories":[],"categories_nodes":[],"categories_segments":[],"categories_sizes":[],"default_left":[0,0,0,0,0,0,0,0,0,0,0,0,0,0,0],"id":60,"left_children":[1,3,5,7,9,11,13,-1,-1,-1,-1,-1,-1,-1,-1],"loss_changes":[3.6778515E1,2.3987324E1,1.6930542E1,2.111475E1,9.568449E0,1.6493902E1,2.458668E1,0E0,0E0,0E0,0E0,0E0,0E0,0E0,0E0],"parents":[2147483647,0,0,1,1,2,2,3,3,4,4,5,5,6,6],"right_children":[2,4,6,8,10,12,14,-1,-1,-1,-1,-1,-1,-1,-1],"split_conditions":[1.1074942E1,1.4004607E0,6.8175E1,2.766983E-1,6.45E1,6.718E1,1E0,-8.3697494E-4,-9.1806205E-6,-1.1220846E-3,-5.5905147E-3,2.9852486E-4,2.2368357E-3,-7.985644E-4,2.0246468E-4],"split_indices":[22,17,20,15,20,20,6,0,0,0,0,0,0,0,0],"split_type":[0,0,0,0,0,0,0,0,0,0,0,0,0,0,0],"sum_hessian":[8.07874E4,2.4569938E4,5.6217457E4,2.4171111E4,3.9882755E2,3.5286047E4,2.0931412E4,1.2378789E4,1.1792322E4,1.5235759E2,2.4646994E2,3.4404477E4,8.815693E2,7.485632E3,1.344578E4],"tree_param":{"num_deleted":"0","num_feature":"29","num_nodes":"15","size_leaf_vector":"1"}},{"base_weights":[-1.1783873E-3,8.058543E-3,-4.3486353E-2,-1.8557252E-2,1.8969337E-2,-7.934237E-2,3.1222622E-3,4.6063164E-5,-1.0405305E-3,7.39794E-4,7.5097145E-5,-5.87286E-4,-2.1396133E-3,3.9615473E-4,-2.0704833E-3],"categories":[],"categories_nodes":[],"categories_segments":[],"categories_sizes":[],"default_left":[0,0,0,0,0,0,0,0,0,0,0,0,0,0,0],"id":61,"left_children":[1,3,5,7,9,11,13,-1,-1,-1,-1,-1,-1,-1,-1],"loss_changes":[3.158279E1,1.9263783E1,2.4203342E1,2.3498741E1,2.1681963E1,2.2486668E1,2.3947325E1,0E0,0E0,0E0,0E0,0E0,0E0,0E0,0E0],"parents":[2147483647,0,0,1,1,2,2,3,3,4,4,5,5,6,6],"right_children":[2,4,6,8,10,12,14,-1,-1,-1,-1,-1,-1,-1,-1],"split_conditions":[1.3733333E2,-2.3448965E-1,7.7342886E-1,2.0381755E-1,4.5E1,1.9E2,3.2166E2,4.6063164E-5,-1.0405305E-3,7.39794E-4,7.5097145E-5,-5.87286E-4,-2.1396133E-3,3.9615473E-4,-2.0704833E-3],"split_indices":[21,15,15,17,20,25,25,0,0,0,0,0,0,0,0],"split_type":[0,0,0,0,0,0,0,0,0,0,0,0,0,0,0],"sum_hessian":[8.081472E4,6.633326E4,1.4481467E4,1.928608E4,4.7047176E4,8.1844585E3,6.2970083E3,1.3857928E4,5.4281523E3,1.3480873E4,3.35663E4,5.4253706E3,2.759088E3,5.3979634E3,8.9904517E2],"tree_param":{"num_deleted":"0","num_feature":"29","num_nodes":"15","size_leaf_vector":"1"}},{"base_weights":[1.6518617E-3,-3.5092365E-2,1.511471E-2,-3.068879E-1,-3.1536397E-2,-1.0413611E-2,2.3014093E-2,-7.145272E-3,-2.2724732E-3,-9.1978203E-4,-1.1997267E-4,9.913814E-4,-4.6611784E-4,-3.3120418E-3,3.368156E-4],"categories":[],"categories_nodes":[],"categories_segments":[],"categories_sizes":[],"default_left":[0,0,0,0,0,1,0,0,0,0,0,0,0,0,0],"id":62,"left_children":[1,3,5,7,9,11,13,-1,-1,-1,-1,-1,-1,-1,-1],"loss_changes":[3.9999172E1,2.09458E1,1.193363E1,8.151022E0,1.6792301E1,2.59932E1,1.225527E1,0E0,0E0,0E0,0E0,0E0,0E0,0E0,0E0],"parents":[2147483647,0,0,1,1,2,2,3,3,4,4,5,5,6,6],"right_children":[2,4,6,8,10,12,14,-1,-1,-1,-1,-1,-1,-1,-1],"split_conditions":[3.8342016E0,-2.245096E0,-2.9879892E-1,3.1437E2,5.3350672E-2,1.7E0,-2.063799E0,-7.145272E-3,-2.2724732E-3,-9.1978203E-4,-1.1997267E-4,9.913814E-4,-4.6611784E-4,-3.3120418E-3,3.368156E-4],"split_indices":[22,17,15,10,15,10,17,0,0,0,0,0,0,0,0],"split_type":[0,0,0,0,0,0,0,0,0,0,0,0,0,0,0],"sum_hessian":[8.085628E4,2.1680893E4,5.917539E4,2.7889185E2,2.1402E4,1.3983806E4,4.5191582E4,1.1478903E2,1.6410281E2,8.603218E3,1.2798782E4,3.072882E3,1.0910924E4,1.801458E2,4.5011438E4],"tree_param":{"num_deleted":"0","num_feature":"29","num_nodes":"15","size_leaf_vector":"1"}},{"base_weights":[-1.041954E-3,-1.605011E-2,2.822427E-2,-6.602977E-3,-6.598436E-2,8.993214E-2,1.2753333E-2,-1.0098012E-3,2.1566277E-5,-1.696648E-3,-2.44391E-4,1.4749601E-3,-1.9085411E-3,-8.522091E-4,3.418031E-4],"categories":[],"categories_nodes":[],"categories_segments":[],"categories_sizes":[],"default_left":[0,0,0,0,0,0,0,0,0,0,0,0,0,0,0],"id":63,"left_children":[1,3,5,7,9,11,13,-1,-1,-1,-1,-1,-1,-1,-1],"loss_changes":[3.539622E1,2.512857E1,2.6078102E1,2.3903215E1,2.270116E1,1.9121223E1,1.8754604E1,0E0,0E0,0E0,0E0,0E0,0E0,0E0,0E0],"parents":[2147483647,0,0,1,1,2,2,3,3,4,4,5,5,6,6],"right_children":[2,4,6,8,10,12,14,-1,-1,-1,-1,-1,-1,-1,-1],"split_conditions":[5.033537E1,1.4528E2,4.48725E1,-4.8082992E-1,-1.9791536E1,2.1924E4,3.67E3,-1.0098012E-3,2.1566277E-5,-1.696648E-3,-2.44391E-4,1.4749601E-3,-1.9085411E-3,-8.522091E-4,3.418031E-4],"split_indices":[22,21,21,18,22,7,7,0,0,0,0,0,0,0,0],"split_type":[0,0,0,0,0,0,0,0,0,0,0,0,0,0,0],"sum_hessian":[8.058457E4,5.3268266E4,2.7316307E4,4.4794637E4,8.473629E3,5.474747E3,2.184156E4,4.950757E3,3.984388E4,3.9634045E3,4.5102246E3,5.125889E3,3.488578E2,2.9858037E3,1.8855756E4],"tree_param":{"num_deleted":"0","num_feature":"29","num_nodes":"15","size_leaf_vector":"1"}},{"base_weights":[6.131606E-4,-1.6068587E-1,3.0639796E-3,-9.690757E-2,-3.7576404E-1,-1.2183463E-2,2.3060929E-2,-1.2433799E-2,-1.174023E-3,-8.809059E-3,-2.6578612E-3,-1.2800033E-4,-1.8016705E-3,6.519519E-4,2.2750059E-5],"categories":[],"categories_nodes":[],"categories_segments":[],"categories_sizes":[],"default_left":[0,0,0,0,0,0,0,0,0,0,0,0,0,0,0],"id":64,"left_children":[1,3,5,7,9,11,13,-1,-1,-1,-1,-1,-1,-1,-1],"loss_changes":[3.1930077E1,1.654634E1,2.4258966E1,9.565987E0,1.289278E1,1.5990591E1,1.7344292E1,0E0,0E0,0E0,0E0,0E0,0E0,0E0,0E0],"parents":[2147483647,0,0,1,1,2,2,3,3,4,4,5,5,6,6],"right_children":[2,4,6,8,10,12,14,-1,-1,-1,-1,-1,-1,-1,-1],"split_conditions":[-2.24E2,1.86E2,4.068978E1,-2.6E-1,3.9254397E-1,1.2657958E0,1.2131E2,-1.2433799E-2,-1.174023E-3,-8.809059E-3,-2.6578612E-3,-1.2800033E-4,-1.8016705E-3,6.519519E-4,2.2750059E-5],"split_indices":[22,20,22,24,18,17,25,0,0,0,0,0,0,0,0],"split_type":[0,0,0,0,0,0,0,0,0,0,0,0,0,0,0],"sum_hessian":[8.076904E4,1.2078916E3,7.956115E4,9.327491E2,2.7514255E2,4.5141594E4,3.441955E4,1.4045243E1,9.1870386E2,1.15415665E2,1.5972688E2,4.3994516E4,1.1470809E3,1.6416127E4,1.8003426E4],"tree_param":{"num_deleted":"0","num_feature":"29","num_nodes":"15","size_leaf_vector":"1"}},{"base_weights":[-2.3933157E-4,3.4358655E-3,-1.2034822E-1,-1.957347E-2,1.9594654E-2,-6.7179866E-2,-2.669047E-1,-1.17225914E-4,-9.832253E-4,5.970702E-4,4.9359114E-5,1.2631388E-4,-3.3797873E-3,2.4954608E-4,-4.810428E-3],"categories":[],"categories_nodes":[],"categories_segments":[],"categories_sizes":[],"default_left":[0,0,0,0,0,0,0,0,0,0,0,0,0,0,0],"id":65,"left_children":[1,3,5,7,9,11,13,-1,-1,-1,-1,-1,-1,-1,-1],"loss_changes":[3.555375E1,2.9057543E1,1.8615963E1,1.8292507E1,1.7007204E1,2.3317888E1,1.3900833E1,0E0,0E0,0E0,0E0,0E0,0E0,0E0,0E0],"parents":[2147483647,0,0,1,1,2,2,3,3,4,4,5,5,6,6],"right_children":[2,4,6,8,10,12,14,-1,-1,-1,-1,-1,-1,-1,-1],"split_conditions":[1.81E2,2.5235563E1,1.94E4,1.4462E2,5.2E1,7E0,2.0191E2,-1.17225914E-4,-9.832253E-4,5.970702E-4,4.9359114E-5,1.2631388E-4,-3.3797873E-3,2.4954608E-4,-4.810428E-3],"split_indices":[20,22,7,21,20,27,25,0,0,0,0,0,0,0,0],"split_type":[0,0,0,0,0,0,0,0,0,0,0,0,0,0,0],"sum_hessian":[8.054139E4,7.815103E4,2.3903623E3,3.2241078E4,4.5909953E4,1.7550988E3,6.352635E2,2.6404283E4,5.8367954E3,1.8856309E4,2.7053645E4,1.2217192E3,5.333795E2,1.349702E2,5.0029324E2],"tree_param":{"num_deleted":"0","num_feature":"29","num_nodes":"15","size_leaf_vector":"1"}},{"base_weights":[5.6904095E-4,1.4273956E-2,-3.0746432E-2,5.092823E-3,6.1812915E-2,-1.3792658E-1,-2.2464013E-2,1.7006062E-4,-7.0083723E-4,1.0593398E-3,-2.00299E-3,-2.9039094E-3,9.0750575E-5,-8.234175E-3,-2.9720998E-4],"categories":[],"categories_nodes":[],"categories_segments":[],"categories_sizes":[],"default_left":[0,0,0,0,0,0,0,0,0,0,0,0,0,0,0],"id":66,"left_children":[1,3,5,7,9,11,13,-1,-1,-1,-1,-1,-1,-1,-1],"loss_changes":[3.459103E1,2.4469103E1,2.1777351E1,1.828264E1,2.5769402E1,1.7662273E1,1.5896488E1,0E0,0E0,0E0,0E0,0E0,0E0,0E0,0E0],"parents":[2147483647,0,0,1,1,2,2,3,3,4,4,5,5,6,6],"right_children":[2,4,6,8,10,12,14,-1,-1,-1,-1,-1,-1,-1,-1],"split_conditions":[7.9285E1,7.8628555E1,-1.88E2,9.1909546E-1,2.1924E4,1E0,-1.5E0,1.7006062E-4,-7.0083723E-4,1.0593398E-3,-2.00299E-3,-2.9039094E-3,9.0750575E-5,-8.234175E-3,-2.9720998E-4],"split_indices":[20,22,22,17,7,11,24,0,0,0,0,0,0,0,0],"split_type":[0,0,0,0,0,0,0,0,0,0,0,0,0,0,0],"sum_hessian":[8.0596695E4,5.6062168E4,2.4534523E4,4.6988457E4,9.073709E3,1.7587999E3,2.2775725E4,4.166059E4,5.327869E3,8.499598E3,5.741114E2,1.1870876E3,5.7171234E2,4.8568783E1,2.2727156E4],"tree_param":{"num_deleted":"0","num_feature":"29","num_nodes":"15","size_leaf_vector":"1"}},{"base_weights":[1.0361004E-3,9.045382E-3,-5.385529E-2,-3.6264587E-2,1.7870203E-2,-5.2626505E-3,-8.8772796E-2,2.903137E-4,-8.72635E-4,-5.118965E-3,2.6114038E-4,-6.667269E-4,1.2603971E-3,-1.1057183E-3,-6.4947293E-3],"categories":[],"categories_nodes":[],"categories_segments":[],"categories_sizes":[],"default_left":[0,0,0,0,0,0,0,0,0,0,0,0,0,0,0],"id":67,"left_children":[1,3,5,7,9,11,13,-1,-1,-1,-1,-1,-1,-1,-1],"loss_changes":[3.5358948E1,2.806464E1,1.7375687E1,1.7001677E1,1.7640148E1,1.7293165E1,2.1854477E1,0E0,0E0,0E0,0E0,0E0,0E0,0E0,0E0],"parents":[2147483647,0,0,1,1,2,2,3,3,4,4,5,5,6,6],"right_children":[2,4,6,8,10,12,14,-1,-1,-1,-1,-1,-1,-1,-1],"split_conditions":[2.18E2,-6.106846E-1,3E0,8.882E1,-4.614E1,9.858296E-1,3.3843E2,2.903137E-4,-8.72635E-4,-5.118965E-3,2.6114038E-4,-6.667269E-4,1.2603971E-3,-1.1057183E-3,-6.4947293E-3],"split_indices":[25,15,27,25,23,15,21,0,0,0,0,0,0,0,0],"split_type":[0,0,0,0,0,0,0,0,0,0,0,0,0,0,0],"sum_hessian":[8.0424836E4,7.018489E4,1.0239943E4,1.1440731E4,5.874416E4,4.2820366E3,5.957907E3,3.5901406E3,7.850591E3,1.1869346E2,5.8625465E4,2.9646365E3,1.3174001E3,5.8075127E3,1.5039429E2],"tree_param":{"num_deleted":"0","num_feature":"29","num_nodes":"15","size_leaf_vector":"1"}},{"base_weights":[6.120855E-4,-7.7160835E-2,4.599075E-3,-1.1239632E-1,1.0569771E-1,-5.9966203E-3,2.5072072E-2,-2.6560638E-3,-6.6113163E-4,2.7598583E-3,-3.5321966E-3,2.5654017E-5,-6.574568E-4,7.7855965E-4,5.662195E-5],"categories":[],"categories_nodes":[],"categories_segments":[],"categories_sizes":[],"default_left":[0,0,0,0,0,0,0,0,0,0,0,0,0,0,0],"id":68,"left_children":[1,3,5,7,9,11,13,-1,-1,-1,-1,-1,-1,-1,-1],"loss_changes":[2.491315E1,2.5255713E1,1.6578957E1,1.6547466E1,2.0786558E1,1.6152048E1,1.6737722E1,0E0,0E0,0E0,0E0,0E0,0E0,0E0,0E0],"parents":[2147483647,0,0,1,1,2,2,3,3,4,4,5,5,6,6],"right_children":[2,4,6,8,10,12,14,-1,-1,-1,-1,-1,-1,-1,-1],"split_conditions":[-1.3445956E0,1.2E1,7.0687413E-1,1E0,1.94E4,7.500229E-1,1.0398E4,-2.6560638E-3,-6.6113163E-4,2.7598583E-3,-3.5321966E-3,2.5654017E-5,-6.574568E-4,7.7855965E-4,5.662195E-5],"split_indices":[17,27,15,6,7,17,7,0,0,0,0,0,0,0,0],"split_type":[0,0,0,0,0,0,0,0,0,0,0,0,0,0,0],"sum_hessian":[8.034217E4,3.9169587E3,7.642521E4,3.284454E3,6.325046E2,5.0361555E4,2.6063658E4,1.5013282E3,1.7831259E3,5.041823E2,1.2832228E2,4.228173E4,8.079825E3,1.0627399E4,1.543626E4],"tree_param":{"num_deleted":"0","num_feature":"29","num_nodes":"15","size_leaf_vector":"1"}},{"base_weights":[-7.369319E-4,1.7114116E-2,-1.990769E-2,-1.2619118E-2,3.7978996E-2,-3.7568644E-2,5.4165125E-3,-1.1416592E-3,1.2907355E-4,1.0663528E-5,7.8972935E-4,-4.0775575E-4,-2.2013425E-3,1.6218291E-4,-2.4722782E-3],"categories":[],"categories_nodes":[],"categories_segments":[],"categories_sizes":[],"default_left":[0,0,0,0,1,0,0,0,0,0,0,0,0,0,0],"id":69,"left_children":[1,3,5,7,9,11,13,-1,-1,-1,-1,-1,-1,-1,-1],"loss_changes":[2.741789E1,2.5738255E1,1.7277943E1,2.5754173E1,1.6722458E1,2.2991348E1,1.7821299E1,0E0,0E0,0E0,0E0,0E0,0E0,0E0,0E0],"parents":[2147483647,0,0,1,1,2,2,3,3,4,4,5,5,6,6],"right_children":[2,4,6,8,10,12,14,-1,-1,-1,-1,-1,-1,-1,-1],"split_conditions":[6.2E1,5.7335985E-1,6.531105E-1,2E0,5.968E1,1.9403E2,1.4004607E0,-1.1416592E-3,1.2907355E-4,1.0663528E-5,7.8972935E-4,-4.0775575E-4,-2.2013425E-3,1.6218291E-4,-2.4722782E-3],"split_indices":[20,19,15,27,10,21,17,0,0,0,0,0,0,0,0],"split_type":[0,0,0,0,0,0,0,0,0,0,0,0,0,0,0],"sum_hessian":[8.011617E4,4.148609E4,3.8630086E4,1.7107564E4,2.4378523E4,2.275818E4,1.5871907E4,4.1154614E3,1.2992104E4,8.074411E3,1.6304112E4,2.1259477E4,1.4987029E3,1.5352566E4,5.1933997E2],"tree_param":{"num_deleted":"0","num_feature":"29","num_nodes":"15","size_leaf_vector":"1"}},{"base_weights":[-3.2187672E-4,-2.4814509E-2,1.7682454E-2,-2.014131E-2,-1.18276365E-1,3.675443E-2,-5.413804E-3,-3.8264904E-4,5.759999E-4,-4.8311453E-4,-3.5836769E-3,5.2866596E-4,-1.1205244E-2,-4.965562E-4,2.9908717E-4],"categories":[],"categories_nodes":[],"categories_segments":[],"categories_sizes":[],"default_left":[0,0,0,0,0,1,0,0,0,0,0,0,0,0,0],"id":70,"left_children":[1,3,5,7,9,11,13,-1,-1,-1,-1,-1,-1,-1,-1],"loss_changes":[3.5285175E1,1.4803951E1,2.0314167E1,1.4229275E1,1.8609835E1,2.133216E1,1.6787258E1,0E0,0E0,0E0,0E0,0E0,0E0,0E0,0E0],"parents":[2147483647,0,0,1,1,2,2,3,3,4,4,5,5,6,6],"right_children":[2,4,6,8,10,12,14,-1,-1,-1,-1,-1,-1,-1,-1],"split_conditions":[2.5624382E1,3.607E2,1.2666E2,5.61337E-1,4E0,3.1954E2,1.4E1,-3.8264904E-4,5.759999E-4,-4.8311453E-4,-3.5836769E-3,5.2866596E-4,-1.1205244E-2,-4.965562E-4,2.9908717E-4],"split_indices":[22,25,25,18,27,4,8,0,0,0,0,0,0,0,0],"split_type":[0,0,0,0,0,0,0,0,0,0,0,0,0,0,0],"sum_hessian":[8.0014555E4,3.389893E4,4.611562E4,3.2285818E4,1.6131125E3,2.5257984E4,2.0857637E4,2.889588E4,3.389938E3,1.00374756E3,6.09365E2,2.522858E4,2.9405779E1,9.827265E3,1.1030373E4],"tree_param":{"num_deleted":"0","num_feature":"29","num_nodes":"15","size_leaf_vector":"1"}},{"base_weights":[2.0605742E-4,-3.3597548E-2,1.2584752E-2,1.1083174E-2,-5.649451E-2,2.4837065E-2,-9.182189E-3,5.7904416E-4,-1.5486019E-3,-1.2668071E-3,-1.6418054E-4,2.2791684E-4,1.2309327E-3,-3.8848986E-4,3.1349898E-4],"categories":[],"categories_nodes":[],"categories_segments":[],"categories_sizes":[],"default_left":[0,0,0,0,0,0,0,0,0,0,0,0,0,0,0],"id":71,"left_children":[1,3,5,7,9,11,13,-1,-1,-1,-1,-1,-1,-1,-1],"loss_changes":[3.344468E1,2.19179E1,1.5602652E1,2.6753704E1,2.1553768E1,2.0206707E1,1.2353598E1,0E0,0E0,0E0,0E0,0E0,0E0,0E0,0E0],"parents":[2147483647,0,0,1,1,2,2,3,3,4,4,5,5,6,6],"right_children":[2,4,6,8,10,12,14,-1,-1,-1,-1,-1,-1,-1,-1],"split_conditions":[3.8342016E0,1.2945E2,6.929E1,-4.1656425E1,5.850655E-1,9.833671E1,7.7342886E-1,5.7904416E-4,-1.5486019E-3,-1.2668071E-3,-1.6418054E-4,2.2791684E-4,1.2309327E-3,-3.8848986E-4,3.1349898E-4],"split_indices":[22,25,20,22,15,22,15,0,0,0,0,0,0,0,0],"split_type":[0,0,0,0,0,0,0,0,0,0,0,0,0,0,0],"sum_hessian":[7.992419E4,2.1422404E4,5.8501785E4,7.2586064E3,1.4163798E4,3.7431797E4,2.1069986E4,5.813041E3,1.4455653E3,8.0502466E3,6.1135513E3,3.296198E4,4.469816E3,1.3268064E4,7.801922E3],"tree_param":{"num_deleted":"0","num_feature":"29","num_nodes":"15","size_leaf_vector":"1"}},{"base_weights":[-7.181619E-7,1.2688507E-2,-2.9028803E-2,-2.406567E-2,2.2577964E-2,-1.6554229E-1,-2.2462523E-2,-5.0559426E-3,-2.643726E-4,2.358948E-5,5.239852E-4,-3.625794E-3,5.3866715E-5,4.1523488E-4,-4.4614417E-4],"categories":[],"categories_nodes":[],"categories_segments":[],"categories_sizes":[],"default_left":[0,0,0,0,0,0,0,0,0,0,0,0,0,0,0],"id":72,"left_children":[1,3,5,7,9,11,13,-1,-1,-1,-1,-1,-1,-1,-1],"loss_changes":[2.9400028E1,2.0187712E1,2.1758745E1,2.0561966E1,1.3577749E1,1.7634048E1,1.1356529E1,0E0,0E0,0E0,0E0,0E0,0E0,0E0,0E0],"parents":[2147483647,0,0,1,1,2,2,3,3,4,4,5,5,6,6],"right_children":[2,4,6,8,10,12,14,-1,-1,-1,-1,-1,-1,-1,-1],"split_conditions":[7.9285E1,-4.5181093E-1,-2.1434E2,9.04E2,1.767767E-1,1E0,1.09E2,-5.0559426E-3,-2.643726E-4,2.358948E-5,5.239852E-4,-3.625794E-3,5.3866715E-5,4.1523488E-4,-4.4614417E-4],"split_indices":[20,17,22,7,15,11,25,0,0,0,0,0,0,0,0],"split_type":[0,0,0,0,0,0,0,0,0,0,0,0,0,0,0],"sum_hessian":[7.981478E4,5.5537777E4,2.4277008E4,1.1774902E4,4.3762875E4,1.1130203E3,2.3163988E4,1.7723802E2,1.1597665E4,1.8182123E4,2.5580752E4,7.169757E2,3.9604456E2,3.5404768E3,1.9623512E4],"tree_param":{"num_deleted":"0","num_feature":"29","num_nodes":"15","size_leaf_vector":"1"}},{"base_weights":[1.167059E-3,1.3992717E-2,-3.828564E-2,4.386218E-3,7.169366E-2,-3.5575375E-1,-3.51068E-2,1.593597E-4,-6.418848E-4,1.2347306E-3,-3.0559793E-3,-2.0825837E-3,-7.0846E-3,4.3308435E-4,-7.063296E-4],"categories":[],"categories_nodes":[],"categories_segments":[],"categories_sizes":[],"default_left":[0,0,0,0,0,0,0,0,0,0,0,0,0,0,0],"id":73,"left_children":[1,3,5,7,9,11,13,-1,-1,-1,-1,-1,-1,-1,-1],"loss_changes":[4.042104E1,3.3415607E1,1.9765293E1,1.8165287E1,4.119005E1,5.96558E0,1.9666773E1,0E0,0E0,0E0,0E0,0E0,0E0,0E0,0E0],"parents":[2147483647,0,0,1,1,2,2,3,3,4,4,5,5,6,6],"right_children":[2,4,6,8,10,12,14,-1,-1,-1,-1,-1,-1,-1,-1],"split_conditions":[1.7016E2,8.389418E1,-1.9108747E0,8.5769045E-1,2.1924E4,2.05E2,5.5E1,1.593597E-4,-6.418848E-4,1.2347306E-3,-3.0559793E-3,-2.0825837E-3,-7.0846E-3,4.3308435E-4,-7.063296E-4],"split_indices":[25,22,17,17,7,25,20,0,0,0,0,0,0,0,0],"split_type":[0,0,0,0,0,0,0,0,0,0,0,0,0,0,0],"sum_hessian":[7.9880336E4,6.0283465E4,1.9596873E4,5.168039E4,8.603074E3,1.9318047E2,1.9403693E4,4.536311E4,6.3172812E3,8.1405283E3,4.6254614E2,8.20964E1,1.11084076E2,3.6583381E3,1.5745355E4],"tree_param":{"num_deleted":"0","num_feature":"29","num_nodes":"15","size_leaf_vector":"1"}},{"base_weights":[7.6954096E-4,-1.4824265E-2,2.556373E-2,-1.3137308E-2,-2.144118E-1,2.6183382E-2,-1.2988741E-2,-9.3444E-4,-1.1278717E-4,1.9824792E-4,-4.129104E-3,-5.708731E-3,3.817136E-4],"categories":[],"categories_nodes":[],"categories_segments":[],"categories_sizes":[],"default_left":[0,0,1,0,1,0,0,0,0,0,0,0,0],"id":74,"left_children":[1,3,5,7,9,11,-1,-1,-1,-1,-1,-1,-1],"loss_changes":[3.0847395E1,1.648836E1,1.822159E1,1.3229395E1,7.5587597E0,1.4464317E1,0E0,0E0,0E0,0E0,0E0,0E0,0E0],"parents":[2147483647,0,0,1,1,2,2,3,3,4,4,5,5],"right_children":[2,4,6,8,10,12,-1,-1,-1,-1,-1,-1,-1],"split_conditions":[4.4946888E1,1.5235103E0,1.25E0,-1.59E2,1.067E1,-2.3145502E0,-1.2988741E-2,-9.3444E-4,-1.1278717E-4,1.9824792E-4,-4.129104E-3,-5.708731E-3,3.817136E-4],"split_indices":[22,17,24,22,10,15,0,0,0,0,0,0,0],"split_type":[0,0,0,0,0,0,0,0,0,0,0,0,0],"sum_hessian":[7.978214E4,4.89785E4,3.0803639E4,4.856905E4,4.0945013E2,3.0784602E4,1.9037003E1,4.2038477E3,4.4365203E4,1.0688247E2,3.0256766E2,7.562293E1,3.0708979E4],"tree_param":{"num_deleted":"0","num_feature":"29","num_nodes":"13","size_leaf_vector":"1"}},{"base_weights":[-8.609771E-4,2.0177346E-2,-1.857707E-2,-6.793734E-3,4.7835298E-2,-1.1856313E-2,-9.323487E-2,-8.920465E-4,1.7839066E-4,-1.4972228E-4,8.858217E-4,-9.611485E-3,-1.5463337E-4,-2.2728269E-3,-2.8781197E-4],"categories":[],"categories_nodes":[],"categories_segments":[],"categories_sizes":[],"default_left":[0,0,0,0,0,0,0,0,0,0,0,0,0,0,0],"id":75,"left_children":[1,3,5,7,9,11,13,-1,-1,-1,-1,-1,-1,-1,-1],"loss_changes":[2.966442E1,2.7141094E1,2.1677925E1,2.048644E1,1.6231487E1,2.1683475E1,1.7918129E1,0E0,0E0,0E0,0E0,0E0,0E0,0E0,0E0],"parents":[2147483647,0,0,1,1,2,2,3,3,4,4,5,5,6,6],"right_children":[2,4,6,8,10,12,14,-1,-1,-1,-1,-1,-1,-1,-1],"split_conditions":[5.75E1,1.5615407E-1,1.9403E2,2E0,-1.7677669E-1,-1.5E0,9.146591E-1,-8.920465E-4,1.7839066E-4,-1.4972228E-4,8.858217E-4,-9.611485E-3,-1.5463337E-4,-2.2728269E-3,-2.8781197E-4],"split_indices":[20,17,21,27,15,24,15,0,0,0,0,0,0,0,0],"split_type":[0,0,0,0,0,0,0,0,0,0,0,0,0,0,0],"sum_hessian":[7.958767E4,3.6382438E4,4.320523E4,1.8420326E4,1.7962111E4,3.9638133E4,3.5670994E3,4.7059233E3,1.3714403E4,3.7489211E3,1.421319E4,4.6579113E1,3.9591555E4,1.8277865E3,1.7393129E3],"tree_param":{"num_deleted":"0","num_feature":"29","num_nodes":"15","size_leaf_vector":"1"}},{"base_weights":[5.5827404E-4,-3.331549E-2,1.2212073E-2,-1.5015303E-2,-7.658472E-2,2.0804573E-3,3.3109345E-2,-2.1352717E-3,-8.2116516E-5,-1.5878271E-3,9.29394E-4,-4.4157985E-3,4.413815E-5,-6.5290837E-6,7.4480835E-4],"categories":[],"categories_nodes":[],"categories_segments":[],"categories_sizes":[],"default_left":[0,0,0,0,0,0,0,0,0,0,0,0,0,0,0],"id":76,"left_children":[1,3,5,7,9,11,13,-1,-1,-1,-1,-1,-1,-1,-1],"loss_changes":[3.139781E1,1.612001E1,1.2529193E1,1.8002008E1,3.187143E1,1.356949E1,1.30346985E1,0E0,0E0,0E0,0E0,0E0,0E0,0E0,0E0],"parents":[2147483647,0,0,1,1,2,2,3,3,4,4,5,5,6,6],"right_children":[2,4,6,8,10,12,14,-1,-1,-1,-1,-1,-1,-1,-1],"split_conditions":[4.0136868E-1,-7.3E1,7.0687413E-1,-1.1059698E0,1.0439558E0,-2.938E1,1E0,-2.1352717E-3,-8.2116516E-5,-1.5878271E-3,9.29394E-4,-4.4157985E-3,4.413815E-5,-6.5290837E-6,7.4480835E-4],"split_indices":[22,22,15,15,15,23,6,0,0,0,0,0,0,0,0],"split_type":[0,0,0,0,0,0,0,0,0,0,0,0,0,0,0],"sum_hessian":[7.953482E4,2.0358242E4,5.917658E4,1.4308139E4,6.050104E3,3.985486E4,1.9321717E4,8.9171674E2,1.3416422E4,4.8109326E3,1.2391714E3,1.3316116E2,3.97217E4,7.2338184E3,1.2087898E4],"tree_param":{"num_deleted":"0","num_feature":"29","num_nodes":"15","size_leaf_vector":"1"}},{"base_weights":[-2.236842E-4,-2.187832E-2,2.0559816E-2,4.4112235E-2,-2.9855803E-2,2.7458828E-2,-5.7657927E-2,-1.1899326E-3,1.3672805E-3,-8.794571E-4,-2.6541174E-4,3.9451796E-4,-9.034157E-3,-1.0750801E-3,2.876151E-3],"categories":[],"categories_nodes":[],"categories_segments":[],"categories_sizes":[],"default_left":[0,0,0,0,0,0,0,0,0,0,0,0,0,0,0],"id":77,"left_children":[1,3,5,7,9,11,13,-1,-1,-1,-1,-1,-1,-1,-1],"loss_changes":[3.57281E1,2.0468136E1,2.186043E1,2.900057E1,1.24585285E1,1.8075008E1,1.654531E1,0E0,0E0,0E0,0E0,0E0,0E0,0E0,0E0],"parents":[2147483647,0,0,1,1,2,2,3,3,4,4,5,5,6,6],"right_children":[2,4,6,8,10,12,14,-1,-1,-1,-1,-1,-1,-1,-1],"split_conditions":[3.2420418E1,8.622E1,2.2E2,7.306E3,-1.6470055E-1,2.1E2,2.612E4,-1.1899326E-3,1.3672805E-3,-8.794571E-4,-2.6541174E-4,3.9451796E-4,-9.034157E-3,-1.0750801E-3,2.876151E-3],"split_indices":[22,25,25,7,18,20,7,0,0,0,0,0,0,0,0],"split_type":[0,0,0,0,0,0,0,0,0,0,0,0,0,0,0],"sum_hessian":[7.938334E4,3.887689E4,4.0506457E4,4.1923994E3,3.468449E4,3.7223863E4,3.2825947E3,1.2289316E3,2.9634678E3,8.616739E3,2.6067752E4,3.718497E4,3.889487E1,3.060715E3,2.2187958E2],"tree_param":{"num_deleted":"0","num_feature":"29","num_nodes":"15","size_leaf_vector":"1"}},{"base_weights":[-7.7493244E-4,1.5228578E-2,-2.7467923E-2,7.226315E-3,9.6872404E-2,-2.5315824E-1,-2.4390355E-2,-1.442986E-4,3.7143446E-4,1.4433597E-3,-8.695536E-3,-8.872753E-3,-2.56368E-3,-1.8130752E-4,-9.7313477E-4],"categories":[],"categories_nodes":[],"categories_segments":[],"categories_sizes":[],"default_left":[0,0,0,0,0,0,0,0,0,0,0,0,0,0,0],"id":78,"left_children":[1,3,5,7,9,11,13,-1,-1,-1,-1,-1,-1,-1,-1],"loss_changes":[3.3885197E1,3.239884E1,2.0644827E1,1.5287674E1,1.9847813E1,1.0543337E1,1.5139442E1,0E0,0E0,0E0,0E0,0E0,0E0,0E0,0E0],"parents":[2147483647,0,0,1,1,2,2,3,3,4,4,5,5,6,6],"right_children":[2,4,6,8,10,12,14,-1,-1,-1,-1,-1,-1,-1,-1],"split_conditions":[1.45E2,9.833671E1,-2.8652E2,1.0022774E-1,1.37E2,1.05568394E-1,8.5769045E-1,-1.442986E-4,3.7143446E-4,1.4433597E-3,-8.695536E-3,-8.872753E-3,-2.56368E-3,-1.8130752E-4,-9.7313477E-4],"split_indices":[25,22,22,18,5,18,17,0,0,0,0,0,0,0,0],"split_type":[0,0,0,0,0,0,0,0,0,0,0,0,0,0,0],"sum_hessian":[7.932073E4,4.958999E4,2.973074E4,4.516433E4,4.425661E3,3.9886865E2,2.9331871E4,2.3668273E4,2.1496055E4,4.3884707E3,3.719045E1,6.0739914E1,3.3812872E2,2.3400143E4,5.931729E3],"tree_param":{"num_deleted":"0","num_feature":"29","num_nodes":"15","size_leaf_vector":"1"}},{"base_weights":[-2.0886841E-3,-3.5451077E-2,1.3933906E-2,-2.8327618E-2,-1.3833824E-1,2.0975972E-2,-3.1268872E-2,-7.356862E-4,-1.0883217E-5,-1.2878311E-4,-2.885271E-3,1.6239649E-4,7.16507E-4,1.3065824E-4,-1.1688032E-3],"categories":[],"categories_nodes":[],"categories_segments":[],"categories_sizes":[],"default_left":[0,0,0,0,0,0,0,0,0,0,0,0,0,0,0],"id":79,"left_children":[1,3,5,7,9,11,13,-1,-1,-1,-1,-1,-1,-1,-1],"loss_changes":[4.2235214E1,1.8783817E1,1.6991425E1,1.5999086E1,1.4519083E1,1.3077803E1,1.5254798E1,0E0,0E0,0E0,0E0,0E0,0E0,0E0,0E0],"parents":[2147483647,0,0,1,1,2,2,3,3,4,4,5,5,6,6],"right_children":[2,4,6,8,10,12,14,-1,-1,-1,-1,-1,-1,-1,-1],"split_conditions":[1.428978E1,3.3996E2,1.09E2,2.766983E-1,1.0954E2,7.8628555E1,1E0,-7.356862E-4,-1.0883217E-5,-1.2878311E-4,-2.885271E-3,1.6239649E-4,7.16507E-4,1.3065824E-4,-1.1688032E-3],"split_indices":[22,