{"learner":{"attributes":{},"feature_names":["date_time","site_id","visitor_location_country_id","visitor_hist_starrating","visitor_hist_adr_usd","prop_country_id","prop_brand_bool","srch_destination_id","srch_booking_window","srch_saturday_night_bool","orig_destination_distance","random_bool","has_hist_starrating","has_hist_adr_usd","score1d2","normalized_prop_starrating","normalized_score1d2","normalized_prop_review_score","hotel_quality","normalized_hotel_quality","price_per_person","avg_price_per_day","ump","price_diff","starrating_diff","total_price","score2ma","promotion_count","promotion_any"],"feature_types":["float","int","int","float","float","int","int","int","int","int","float","int","int","int","float","float","float","float","float","float","float","float","float","float","float","float","float","int","int"],"gradient_booster":{"model":{"gbtree_model_param":{"num_parallel_tree":"1","num_trees":"120"},"iteration_indptr":[0,1,2,3,4,5,6,7,8,9,10,11,12,13,14,15,16,17,18,19,20,21,22,23,24,25,26,27,28,29,30,31,32,33,34,35,36,37,38,39,40,41,42,43,44,45,46,47,48,49,50,51,52,53,54,55,56,57,58,59,60,61,62,63,64,65,66,67,68,69,70,71,72,73,74,75,76,77,78,79,80,81,82,83,84,85,86,87,88,89,90,91,92,93,94,95,96,97,98,99,100,101,102,103,104,105,106,107,108,109,110,111,112,113,114,115,116,117,118,119,120],"tree_info":[0,0,0,0,0,0,0,0,0,0,0,0,0,0,0,0,0,0,0,0,0,0,0,0,0,0,0,0,0,0,0,0,0,0,0,0,0,0,0,0,0,0,0,0,0,0,0,0,0,0,0,0,0,0,0,0,0,0,0,0,0,0,0,0,0,0,0,0,0,0,0,0,0,0,0,0,0,0,0,0,0,0,0,0,0,0,0,0,0,0,0,0,0,0,0,0,0,0,0,0,0,0,0,0,0,0,0,0,0,0,0,0,0,0,0,0,0,0,0,0],"trees":[{"base_weights":[7.2487164E-4,-1.8909623E-1,9.271708E-2,-3.355689E-1,-1.1808977E-1,1.6289805E-1,-4.0705822E-2,-7.7612353E-3,-4.090804E-3,-2.3366024E-3,8.54034E-4,1.0698509E-3,3.2512702E-3,-2.7953929E-3,6.3449645E-4],"categories":[],"categories_nodes":[],"categories_segments":[],"categories_sizes":[],"default_left":[0,0,0,0,0,0,0,0,0,0,0,0,0,0,0],"id":0,"left_children":[1,3,5,7,9,11,13,-1,-1,-1,-1,-1,-1,-1,-1],"loss_changes":[3.8647318E2,7.509979E1,1.3959727E2,2.2216248E1,4.2558205E1,5.8559906E1,7.029103E1,0E0,0E0,0E0,0E0,0E0,0E0,0E0,0E0],"parents":[2147483647,0,0,1,1,2,2,3,3,4,4,5,5,6,6],"right_children":[2,4,6,8,10,12,14,-1,-1,-1,-1,-1,-1,-1,-1],"split_conditions":[-9.192623E-2,-2.0665157E0,1.707E2,-7.5316966E-1,1E0,2.032088E-1,-3.5E1,-7.7612353E-3,-4.090804E-3,-2.3366024E-3,8.54034E-4,1.0698509E-3,3.2512702E-3,-2.7953929E-3,6.3449645E-4],"split_indices":[18,22,25,18,6,18,22,0,0,0,0,0,0,0,0],"split_type":[0,0,0,0,0,0,0,0,0,0,0,0,0,0,0],"sum_hessian":[2.2130156E4,7.2235938E3,1.4906562E4,2.357271E3,4.8663228E3,9.76822E3,5.138342E3,3.879893E2,1.9692817E3,3.8241448E3,1.0421777E3,4.3476406E3,5.4205796E3,1.8038235E3,3.3345183E3],"tree_param":{"num_deleted":"0","num_feature":"29","num_nodes":"15","size_leaf_vector":"1"}},{"base_weights":[-5.2044126E-3,-2.0669167E-1,3.4601063E-2,-3.7205493E-1,-1.385943E-1,-5.8602437E-2,7.14638E-2,-6.942005E-3,-3.7737193E-3,-1.6405161E-3,-4.778667E-3,-1.4396507E-4,-3.0226589E-3,2.1375009E-4,1.3380396E-3],"categories":[],"categories_nodes":[],"categories_segments":[],"categories_sizes":[],"default_left":[0,0,0,0,0,0,0,0,0,0,0,0,0,0,0],"id":1,"left_children":[1,3,5,7,9,11,13,-1,-1,-1,-1,-1,-1,-1,-1],"loss_changes":[3.889732E2,9.0042694E1,1.3914471E2,2.9473877E1,2.4570595E1,8.72409E1,3.9319E1,0E0,0E0,0E0,0E0,0E0,0E0,0E0,0E0],"parents":[2147483647,0,0,1,1,2,2,3,3,4,4,5,5,6,6],"right_children":[2,4,6,8,10,12,14,-1,-1,-1,-1,-1,-1,-1,-1],"split_conditions":[5.2472544E-1,-1.2984074E1,-6.4730225E0,-1.2243152E0,3.2E1,1.3778E2,5.8998805E-1,-6.942005E-3,-3.7737193E-3,-1.6405161E-3,-4.778667E-3,-1.4396507E-4,-3.0226589E-3,2.1375009E-4,1.3380396E-3],"split_indices":[19,22,22,17,1,21,19,0,0,0,0,0,0,0,0],"split_type":[0,0,0,0,0,0,0,0,0,0,0,0,0,0,0],"sum_hessian":[4.8496723E4,7.9996943E3,4.0497027E4,2.3321023E3,5.667592E3,1.1477303E4,2.9019725E4,1.0545693E3,1.2775331E3,5.127564E3,5.40028E2,8.781047E3,2.6962556E3,8.713107E3,2.0306617E4],"tree_param":{"num_deleted":"0","num_feature":"29","num_nodes":"15","size_leaf_vector":"1"}},{"base_weights":[-1.9997486E-3,-1.5703486E-1,2.2946702E-2,-1.3635623E-1,-5.4436034E-1,4.005428E-2,-1.3339105E-1,-2.410235E-3,4.4147385E-4,-9.6321255E-3,-1.0028172E-3,1.16442505E-4,1.5450403E-3,-4.1353516E-3,-1.2476763E-3],"categories":[],"categories_nodes":[],"categories_segments":[],"categories_sizes":[],"default_left":[0,0,0,0,0,0,0,0,0,0,0,0,0,0,0],"id":2,"left_children":[1,3,5,7,9,11,13,-1,-1,-1,-1,-1,-1,-1,-1],"loss_changes":[1.8364961E2,5.2640167E1,1.0940257E2,3.757061E1,2.2579887E1,8.2265076E1,2.8908348E1,0E0,0E0,0E0,0E0,0E0,0E0,0E0,0E0],"parents":[2147483647,0,0,1,1,2,2,3,3,4,4,5,5,6,6],"right_children":[2,4,6,8,10,12,14,-1,-1,-1,-1,-1,-1,-1,-1],"split_conditions":[-5.309124E-1,1.8346E2,1.5155E2,1E0,1E0,1E0,-1.66E2,-2.410235E-3,4.4147385E-4,-9.6321255E-3,-1.0028172E-3,1.16442505E-4,1.5450403E-3,-4.1353516E-3,-1.2476763E-3],"split_indices":[17,21,20,6,6,6,22,0,0,0,0,0,0,0,0],"split_type":[0,0,0,0,0,0,0,0,0,0,0,0,0,0,0],"sum_hessian":[4.748249E4,6.5806045E3,4.0901883E4,6.2483677E3,3.322372E2,3.6868246E4,4.033639E3,5.150065E3,1.0983027E3,2.5445927E2,7.777794E1,2.5402385E4,1.1465861E4,8.6454596E2,3.169093E3],"tree_param":{"num_deleted":"0","num_feature":"29","num_nodes":"15","size_leaf_vector":"1"}},{"base_weights":[-9.931413E-4,-5.585286E-2,3.2678124E-2,-2.213625E-1,-2.9890887E-2,4.394499E-2,-7.9340436E-2,-5.4920977E-3,-2.3561919E-3,4.331229E-4,-1.1608952E-3,-3.5578423E-4,8.268649E-4,-9.542859E-4,-8.865965E-3],"categories":[],"categories_nodes":[],"categories_segments":[],"categories_sizes":[],"default_left":[0,0,0,0,0,0,0,0,0,0,0,0,0,0,0],"id":3,"left_children":[1,3,5,7,9,11,13,-1,-1,-1,-1,-1,-1,-1,-1],"loss_changes":[8.405025E1,7.4355354E1,3.5589355E1,2.121563E1,4.8260746E1,2.6863033E1,1.5913134E1,0E0,0E0,0E0,0E0,0E0,0E0,0E0,0E0],"parents":[2147483647,0,0,1,1,2,2,3,3,4,4,5,5,6,6],"right_children":[2,4,6,8,10,12,14,-1,-1,-1,-1,-1,-1,-1,-1],"split_conditions":[1.25357685E1,-6.237875E-1,1.0090089E0,-7.5316966E-1,1.3454E2,-2.6743016E-1,2.2652913E2,-5.4920977E-3,-2.3561919E-3,4.331229E-4,-1.1608952E-3,-3.5578423E-4,8.268649E-4,-9.542859E-4,-8.865965E-3],"split_indices":[22,17,17,18,25,17,22,0,0,0,0,0,0,0,0],"split_type":[0,0,0,0,0,0,0,0,0,0,0,0,0,0,0],"sum_hessian":[4.549954E4,1.7304732E4,2.8194809E4,2.3453584E3,1.4959374E4,2.5618682E4,2.5761277E3,5.540911E2,1.7912672E3,6.9676055E3,7.9917686E3,4.5843403E3,2.103434E4,2.5262769E3,4.9850803E1],"tree_param":{"num_deleted":"0","num_feature":"29","num_nodes":"15","size_leaf_vector":"1"}},{"base_weights":[4.561067E-3,5.6360353E-2,-2.6325408E-2,6.2279683E-2,-3.9085066E-1,-5.2863926E-2,4.3599445E-2,-3.0729207E-4,1.1603879E-3,6.9654E-3,-6.3426634E-3,-6.0292E-4,-4.4593657E-3,1.3698947E-3,-2.394364E-4],"categories":[],"categories_nodes":[],"categories_segments":[],"categories_sizes":[],"default_left":[0,1,0,0,0,0,0,0,0,0,0,0,0,0,0],"id":4,"left_children":[1,3,5,7,9,11,13,-1,-1,-1,-1,-1,-1,-1,-1],"loss_changes":[7.22853E1,4.470093E1,5.2526657E1,2.8911606E1,1.2414761E1,5.339444E1,2.5646622E1,0E0,0E0,0E0,0E0,0E0,0E0,0E0,0E0],"parents":[2147483647,0,0,1,1,2,2,3,3,4,4,5,5,6,6],"right_children":[2,4,6,8,10,12,14,-1,-1,-1,-1,-1,-1,-1,-1],"split_conditions":[1.0484E2,7E-1,6.747438E1,-2.7162087E-1,-2.5476182E0,2.6E2,1E0,-3.0729207E-4,1.1603879E-3,6.9654E-3,-6.3426634E-3,-6.0292E-4,-4.4593657E-3,1.3698947E-3,-2.394364E-4],"split_indices":[25,24,22,18,15,21,6,0,0,0,0,0,0,0,0],"split_type":[0,0,0,0,0,0,0,0,0,0,0,0,0,0,0],"sum_hessian":[4.517929E4,1.6875984E4,2.8303305E4,1.6656379E4,2.1960487E2,2.0516818E4,7.786486E3,3.273796E3,1.3382583E4,1.39109E1,2.0569397E2,1.978815E4,7.2866864E2,4.1114336E3,3.6750518E3],"tree_param":{"num_deleted":"0","num_feature":"29","num_nodes":"15","size_leaf_vector":"1"}},{"base_weights":[-1.3072495E-3,-8.465975E-2,1.5675802E-2,-4.391574E-2,-2.1592149E-1,3.586258E-2,-8.15774E-3,-1.4999304E-3,8.491775E-4,-4.190626E-3,-1.1272887E-3,8.585224E-4,-2.8360836E-4,-4.5989617E-4,8.781421E-4],"categories":[],"categories_nodes":[],"categories_segments":[],"categories_sizes":[],"default_left":[0,0,0,0,0,0,0,0,0,0,0,0,0,0,0],"id":5,"left_children":[1,3,5,7,9,11,13,-1,-1,-1,-1,-1,-1,-1,-1],"loss_changes":[6.2719128E1,4.009827E1,1.7708958E1,3.7850616E1,2.0035332E1,2.8475723E1,2.954529E1,0E0,0E0,0E0,0E0,0E0,0E0,0E0,0E0],"parents":[2147483647,0,0,1,1,2,2,3,3,4,4,5,5,6,6],"right_children":[2,4,6,8,10,12,14,-1,-1,-1,-1,-1,-1,-1,-1],"split_conditions":[-5.3870018E1,2.96E2,6.15804E-1,5.654389E-1,1E0,1.4018E2,1.78E2,-1.4999304E-3,8.491775E-4,-4.190626E-3,-1.1272887E-3,8.585224E-4,-2.8360836E-4,-4.5989617E-4,8.781421E-4],"split_indices":[22,25,19,15,6,25,25,0,0,0,0,0,0,0,0],"split_type":[0,0,0,0,0,0,0,0,0,0,0,0,0,0,0],"sum_hessian":[4.430438E4,7.498398E3,3.680598E4,5.723227E3,1.7751709E3,1.9927271E4,1.6878709E4,3.5667822E3,2.1564448E3,1.0977377E3,6.774332E2,1.3708129E4,6.2191436E3,1.2518422E4,4.360287E3],"tree_param":{"num_deleted":"0","num_feature":"29","num_nodes":"15","size_leaf_vector":"1"}},{"base_weights":[1.6080926E-3,-1.237478E-1,1.1199702E-2,-8.234602E-2,-3.650472E-1,-6.838831E-2,1.6550539E-2,-1.8899452E-3,1.3261382E-3,-6.2539135E-3,-8.9502044E-4,-3.4670692E-4,-3.5371997E-3,5.8469916E-4,-1.5022306E-5],"categories":[],"categories_nodes":[],"categories_segments":[],"categories_sizes":[],"default_left":[0,0,0,0,0,0,0,0,0,0,0,0,0,0,0],"id":6,"left_children":[1,3,5,7,9,11,13,-1,-1,-1,-1,-1,-1,-1,-1],"loss_changes":[5.3257187E1,3.1421635E1,1.7523373E1,2.5076782E1,1.130159E1,2.083102E1,1.713175E1,0E0,0E0,0E0,0E0,0E0,0E0,0E0,0E0],"parents":[2147483647,0,0,1,1,2,2,3,3,4,4,5,5,6,6],"right_children":[2,4,6,8,10,12,14,-1,-1,-1,-1,-1,-1,-1,-1],"split_conditions":[-1.2569E2,2.15E2,-1.1925657E0,1.0948504E0,6.5E1,8.6E1,1.4196055E-1,-1.8899452E-3,1.3261382E-3,-6.2539135E-3,-8.9502044E-4,-3.4670692E-4,-3.5371997E-3,5.8469916E-4,-1.5022306E-5],"split_indices":[22,21,17,15,8,21,18,0,0,0,0,0,0,0,0],"split_type":[0,0,0,0,0,0,0,0,0,0,0,0,0,0,0],"sum_hessian":[4.429155E4,3.1472466E3,4.1144305E4,2.6874749E3,4.5977164E2,2.5911985E3,3.8553105E4,2.07171E3,6.1576483E2,3.6130478E2,9.8466835E1,2.0961042E3,4.9509433E2,1.5860471E4,2.2692635E4],"tree_param":{"num_deleted":"0","num_feature":"29","num_nodes":"15","size_leaf_vector":"1"}},{"base_weights":[-3.224618E-3,1.5216995E-3,-2.1191093E-1,-1.3326709E-2,4.4216797E-2,6.556751E-3,-3.754278E-1,1.045095E-5,-1.4134463E-3,1.5237487E-3,1.0313984E-4,-4.894856E-3,3.1027421E-3,-6.9119604E-3,-1.5663927E-3],"categories":[],"categories_nodes":[],"categories_segments":[],"categories_sizes":[],"default_left":[0,0,0,0,0,0,0,0,0,0,0,0,0,0,0],"id":7,"left_children":[1,3,5,7,9,11,13,-1,-1,-1,-1,-1,-1,-1,-1],"loss_changes":[4.373447E1,2.737035E1,3.507917E1,3.9506664E1,2.6528284E1,3.2351738E1,1.7451256E1,0E0,0E0,0E0,0E0,0E0,0E0,0E0,0E0],"parents":[2147483647,0,0,1,1,2,2,3,3,4,4,5,5,6,6],"right_children":[2,4,6,8,10,12,14,-1,-1,-1,-1,-1,-1,-1,-1],"split_conditions":[2.38E2,4.040552E-1,5.1E1,7.0691866E-1,4E0,1E0,1.9304E4,1.045095E-5,-1.4134463E-3,1.5237487E-3,1.0313984E-4,-4.894856E-3,3.1027421E-3,-6.9119604E-3,-1.5663927E-3],"split_indices":[21,18,5,17,27,6,7,0,0,0,0,0,0,0,0],"split_type":[0,0,0,0,0,0,0,0,0,0,0,0,0,0,0],"sum_hessian":[4.4152984E4,4.3172082E4,9.80904E2,3.2032557E4,1.1139525E4,4.203084E2,5.605956E2,2.760106E4,4.4314956E3,4.044619E3,7.0949062E3,1.5800278E2,2.6230563E2,3.8632928E2,1.742663E2],"tree_param":{"num_deleted":"0","num_feature":"29","num_nodes":"15","size_leaf_vector":"1"}},{"base_weights":[8.945034E-4,1.0642944E-2,-8.0623396E-2,1.1776627E-2,-2.8960577E-1,-2.2695018E-1,-1.6159823E-2,2.0265889E-4,-1.5326241E-3,-8.951153E-3,-7.407725E-5,-6.4523118E-3,-2.2453081E-3,3.1803045E-4,-3.8921556E-3],"categories":[],"categories_nodes":[],"categories_segments":[],"categories_sizes":[],"default_left":[0,1,0,0,0,0,0,0,0,0,0,0,0,0,0],"id":8,"left_children":[1,3,5,7,9,11,13,-1,-1,-1,-1,-1,-1,-1,-1],"loss_changes":[3.5092392E1,1.3429178E1,4.4488922E1,1.28611145E1,1.47545805E1,2.238868E1,3.3349323E1,0E0,0E0,0E0,0E0,0E0,0E0,0E0,0E0],"parents":[2147483647,0,0,1,1,2,2,3,3,4,4,5,5,6,6],"right_children":[2,4,6,8,10,12,14,-1,-1,-1,-1,-1,-1,-1,-1],"split_conditions":[1.3983E2,2.0018E2,2.6492625E-1,2.0834E2,5.2E1,7.6555E1,4.48E2,2.0265889E-4,-1.5326241E-3,-8.951153E-3,-7.407725E-5,-6.4523118E-3,-2.2453081E-3,3.1803045E-4,-3.8921556E-3],"split_indices":[21,23,17,20,21,20,25,0,0,0,0,0,0,0,0],"split_type":[0,0,0,0,0,0,0,0,0,0,0,0,0,0,0],"sum_hessian":[4.4157492E4,3.944167E4,4.715822E3,3.929426E4,1.4740704E2,1.4414144E3,3.2744075E3,3.8439484E4,8.5477814E2,6.553609E1,8.187096E1,3.1801022E2,1.1234042E3,2.8519065E3,4.2250085E2],"tree_param":{"num_deleted":"0","num_feature":"29","num_nodes":"15","size_leaf_vector":"1"}},{"base_weights":[2.6583716E-3,-6.283192E-2,1.6636845E-2,-2.9163405E-2,-2.0120962E-1,4.012974E-2,-1.0244004E-2,-2.483639E-3,-1.07744825E-4,-4.4247373E-3,-1.5115429E-3,-1.4313391E-3,7.071697E-4,7.259971E-4,-5.94225E-4],"categories":[],"categories_nodes":[],"categories_segments":[],"categories_sizes":[],"default_left":[0,0,0,0,0,0,0,0,0,0,0,0,0,0,0],"id":9,"left_children":[1,3,5,7,9,11,13,-1,-1,-1,-1,-1,-1,-1,-1],"loss_changes":[4.031563E1,3.6084435E1,2.2919374E1,1.9829649E1,1.6196991E1,2.86317E1,3.385003E1,0E0,0E0,0E0,0E0,0E0,0E0,0E0,0E0],"parents":[2147483647,0,0,1,1,2,2,3,3,4,4,5,5,6,6],"right_children":[2,4,6,8,10,12,14,-1,-1,-1,-1,-1,-1,-1,-1],"split_conditions":[-4.569491E1,1.3778E2,4.4429874E1,-3.1968218E-1,2.2660348E-1,2.3E1,8.3E1,-2.483639E-3,-1.07744825E-4,-4.4247373E-3,-1.5115429E-3,-1.4313391E-3,7.071697E-4,7.259971E-4,-5.94225E-4],"split_indices":[22,21,22,18,18,5,5,0,0,0,0,0,0,0,0],"split_type":[0,0,0,0,0,0,0,0,0,0,0,0,0,0,0],"sum_hessian":[4.403679E4,7.74541E3,3.629138E4,6.230649E3,1.5147614E3,1.936584E4,1.692554E4,7.872379E2,5.443411E3,6.7768835E2,8.37073E2,1.3156844E3,1.8050154E4,5.779261E3,1.1146277E4],"tree_param":{"num_deleted":"0","num_feature":"29","num_nodes":"15","size_leaf_vector":"1"}},{"base_weights":[-4.002116E-3,-5.227927E-2,1.0986629E-2,-1.6379811E-1,-1.4207862E-2,1.3083735E-2,-2.9263717E-1,-3.25169E-3,-7.9590705E-4,-1.1670638E-4,-6.489612E-3,-8.0051526E-5,4.7379633E-4,5.1763584E-4,-7.645503E-3],"categories":[],"categories_nodes":[],"categories_segments":[],"categories_sizes":[],"default_left":[0,0,1,0,0,0,0,0,0,0,0,0,0,0,0],"id":10,"left_children":[1,3,5,7,9,11,13,-1,-1,-1,-1,-1,-1,-1,-1],"loss_changes":[3.1572361E1,4.3885315E1,2.12036E1,1.924952E1,2.0330757E1,1.2906406E1,1.9104673E1,0E0,0E0,0E0,0E0,0E0,0E0,0E0,0E0],"parents":[2147483647,0,0,1,1,2,2,3,3,4,4,5,5,6,6],"right_children":[2,4,6,8,10,12,14,-1,-1,-1,-1,-1,-1,-1,-1],"split_conditions":[-1.4104232E1,-9.192623E-2,8.2E-1,1E0,4.08E2,1.1763E2,6.445E1,-3.25169E-3,-7.9590705E-4,-1.1670638E-4,-6.489612E-3,-8.0051526E-5,4.7379633E-4,5.1763584E-4,-7.645503E-3],"split_indices":[22,18,24,11,21,25,23,0,0,0,0,0,0,0,0],"split_type":[0,0,0,0,0,0,0,0,0,0,0,0,0,0,0],"sum_hessian":[4.3629703E4,1.0336014E4,3.329369E4,2.6297227E3,7.706291E3,3.306626E4,2.274292E2,1.6026016E3,1.0271211E3,7.6078936E3,9.839754E1,1.7351445E4,1.5714816E4,9.923662E1,1.2819258E2],"tree_param":{"num_deleted":"0","num_feature":"29","num_nodes":"15","size_leaf_vector":"1"}},{"base_weights":[2.9226195E-3,-1.1810016E-1,8.60547E-3,-2.7763343E-1,-4.7434323E-2,1.8064566E-2,-3.5306685E-2,-6.1549405E-3,-1.5230558E-3,7.3480036E-4,-2.634806E-3,4.5307985E-4,-4.2077468E-4,-1.9715864E-3,-7.8534955E-5],"categories":[],"categories_nodes":[],"categories_segments":[],"categories_sizes":[],"default_left":[0,0,0,0,0,0,0,0,0,0,0,0,0,0,0],"id":11,"left_children":[1,3,5,7,9,11,13,-1,-1,-1,-1,-1,-1,-1,-1],"loss_changes":[3.0102047E1,2.2117476E1,1.7365177E1,1.6430172E1,1.9161985E1,2.3666872E1,2.321817E1,0E0,0E0,0E0,0E0,0E0,0E0,0E0,0E0],"parents":[2147483647,0,0,1,1,2,2,3,3,4,4,5,5,6,6],"right_children":[2,4,6,8,10,12,14,-1,-1,-1,-1,-1,-1,-1,-1],"split_conditions":[-1.6E2,7.8030765E-2,1.0956E2,1E0,3.41E2,4.2640147E-1,1.0951155E-1,-6.1549405E-3,-1.5230558E-3,7.3480036E-4,-2.634806E-3,4.5307985E-4,-4.2077468E-4,-1.9715864E-3,-7.8534955E-5],"split_indices":[22,18,21,11,25,18,17,0,0,0,0,0,0,0,0],"split_type":[0,0,0,0,0,0,0,0,0,0,0,0,0,0,0],"sum_hessian":[4.376612E4,1.962059E3,4.1804062E4,6.0140796E2,1.360651E3,3.4395527E4,7.4085356E3,3.0610098E2,2.9530698E2,7.961481E2,5.64503E2,2.6516717E4,7.878811E3,1.626267E3,5.7822686E3],"tree_param":{"num_deleted":"0","num_feature":"29","num_nodes":"15","size_leaf_vector":"1"}},{"base_weights":[-1.15739604E-4,-1.9135525E-2,3.966619E-2,-1.8964504E-1,-1.3853089E-2,3.1973276E-2,2.2839986E-1,-6.3933404E-3,-1.8267882E-3,-1.3874372E-3,-9.1717535E-5,-1.6554501E-3,5.930187E-4,3.9779125E-3,-1.6274786E-3],"categories":[],"categories_nodes":[],"categories_segments":[],"categories_sizes":[],"default_left":[0,0,0,0,0,0,0,0,0,0,0,0,0,0,0],"id":12,"left_children":[1,3,5,7,9,11,13,-1,-1,-1,-1,-1,-1,-1,-1],"loss_changes":[3.3024574E1,2.6593868E1,2.049023E1,1.3956116E1,1.7828547E1,2.11686E1,1.0651007E1,0E0,0E0,0E0,0E0,0E0,0E0,0E0,0E0],"parents":[2147483647,0,0,1,1,2,2,3,3,4,4,5,5,6,6],"right_children":[2,4,6,8,10,12,14,-1,-1,-1,-1,-1,-1,-1,-1],"split_conditions":[5.1770073E1,-2.32E2,7.740965E-1,0E0,2.3E1,1E0,1.131E2,-6.3933404E-3,-1.8267882E-3,-1.3874372E-3,-9.1717535E-5,-1.6554501E-3,5.930187E-4,3.9779125E-3,-1.6274786E-3],"split_indices":[22,22,18,15,5,27,21,0,0,0,0,0,0,0,0],"split_type":[0,0,0,0,0,0,0,0,0,0,0,0,0,0,0],"sum_hessian":[4.3644125E4,2.9527508E4,1.4116615E4,8.862342E2,2.8641273E4,1.3564871E4,5.5174414E2,1.5951895E2,7.267152E2,2.2586594E3,2.6382615E4,8.76474E2,1.2688397E4,4.7508817E2,7.665595E1],"tree_param":{"num_deleted":"0","num_feature":"29","num_nodes":"15","size_leaf_vector":"1"}},{"base_weights":[1.4306653E-3,3.650493E-3,-2.2417392E-1,6.955958E-3,-9.612333E-2,-2.7766395E-1,3.6982167E-1,1.0915492E-4,-4.9119974E-3,-2.5960915E-3,1.3727389E-3,-4.481527E-3,5.2310852E-3,-1.183889E-2,8.853617E-3],"categories":[],"categories_nodes":[],"categories_segments":[],"categories_sizes":[],"default_left":[0,0,1,1,1,0,0,0,0,0,0,0,0,0,0],"id":13,"left_children":[1,3,5,7,9,11,13,-1,-1,-1,-1,-1,-1,-1,-1],"loss_changes":[2.1865736E1,1.4259612E1,1.3619425E1,1.2593529E1,2.4063189E1,1.0924532E1,1.1888189E1,0E0,0E0,0E0,0E0,0E0,0E0,0E0,0E0],"parents":[2147483647,0,0,1,1,2,2,3,3,4,4,5,5,6,6],"right_children":[2,4,6,8,10,12,14,-1,-1,-1,-1,-1,-1,-1,-1],"split_conditions":[2.9138E2,7.740965E-1,-1.7945E2,2.2869E2,1.51812E3,1.9E1,3.2995147E-1,1.0915492E-4,-4.9119974E-3,-2.5960915E-3,1.3727389E-3,-4.481527E-3,5.2310852E-3,-1.183889E-2,8.853617E-3],"split_indices":[21,18,23,23,10,27,18,0,0,0,0,0,0,0,0],"split_type":[0,0,0,0,0,0,0,0,0,0,0,0,0,0,0],"sum_hessian":[4.3658688E4,4.323427E4,4.2441815E2,4.184877E4,1.385502E3,3.8984473E2,3.457344E1,4.1751637E4,9.713365E1,9.490357E2,4.3646625E2,3.6647086E2,2.3373863E1,5.747643E0,2.8825798E1],"tree_param":{"num_deleted":"0","num_feature":"29","num_nodes":"15","size_leaf_vector":"1"}},{"base_weights":[-2.882871E-4,-1.0874879E-2,4.1516095E-2,-1.3955265E-1,-5.7633976E-3,-3.685443E-1,4.8344918E-2,-1.3986338E-3,-5.818236E-3,-1.1370516E-4,2.9607487E-3,-7.575897E-3,1.4601133E-3,-5.0219713E-4,1.0151375E-3],"categories":[],"categories_nodes":[],"categories_segments":[],"categories_sizes":[],"default_left":[0,0,0,0,0,0,0,0,0,0,0,0,0,0,0],"id":14,"left_children":[1,3,5,7,9,11,13,-1,-1,-1,-1,-1,-1,-1,-1],"loss_changes":[1.930464E1,2.2892004E1,2.4699635E1,1.4512106E1,1.7153637E1,1.1848461E1,1.764816E1,0E0,0E0,0E0,0E0,0E0,0E0,0E0,0E0],"parents":[2147483647,0,0,1,1,2,2,3,3,4,4,5,5,6,6],"right_children":[2,4,6,8,10,12,14,-1,-1,-1,-1,-1,-1,-1,-1],"split_conditions":[4.6312302E-1,-1.6E2,-1.17E0,-1.7262585E2,1.4510169E0,1.01E2,1.0273E2,-1.3986338E-3,-5.818236E-3,-1.1370516E-4,2.9607487E-3,-7.575897E-3,1.4601133E-3,-5.0219713E-4,1.0151375E-3],"split_indices":[18,22,24,22,15,8,25,0,0,0,0,0,0,0,0],"split_type":[0,0,0,0,0,0,0,0,0,0,0,0,0,0,0],"sum_hessian":[4.3617785E4,3.4804574E4,8.813212E3,1.3287202E3,3.3475855E4,1.4349648E2,8.669715E3,1.1630234E3,1.6569676E2,3.3117297E4,3.5855618E2,1.0501895E2,3.847753E1,1.9329135E3,6.736802E3],"tree_param":{"num_deleted":"0","num_feature":"29","num_nodes":"15","size_leaf_vector":"1"}},{"base_weights":[7.6281856E-4,1.1711996E-2,-4.605977E-2,1.6053872E-2,-7.771175E-2,-4.49982E-1,-3.9576985E-2,-3.5069683E-3,2.445914E-4,-9.128016E-4,-1.0494779E-2,-2.779996E-3,-1.1575187E-2,-4.8698176E-4,-5.8482033E-3],"categories":[],"categories_nodes":[],"categories_segments":[],"categories_sizes":[],"default_left":[0,0,0,0,0,0,1,0,0,0,0,0,0,0,0],"id":15,"left_children":[1,3,5,7,9,11,13,-1,-1,-1,-1,-1,-1,-1,-1],"loss_changes":[2.2398201E1,1.3749442E1,2.1664299E1,1.27590275E1,1.373665E1,1.2217667E1,1.4756838E1,0E0,0E0,0E0,0E0,0E0,0E0,0E0,0E0],"parents":[2147483647,0,0,1,1,2,2,3,3,4,4,5,5,6,6],"right_children":[2,4,6,8,10,12,14,-1,-1,-1,-1,-1,-1,-1,-1],"split_conditions":[1.0956E2,3.3378E2,-1.5380476E0,-2.7981236E0,1.06155E2,1.7905E4,9.29432E3,-3.5069683E-3,2.445914E-4,-9.128016E-4,-1.0494779E-2,-2.779996E-3,-1.1575187E-2,-4.8698176E-4,-5.8482033E-3],"split_indices":[21,25,15,17,21,7,10,0,0,0,0,0,0,0,0],"split_type":[0,0,0,0,0,0,0,0,0,0,0,0,0,0,0],"sum_hessian":[4.368736E4,3.5408133E4,8.279227E3,3.3769316E4,1.6388136E3,1.2969856E2,8.149528E3,1.7763313E2,3.3591684E4,1.6099323E3,2.8881289E1,7.871031E1,5.0988247E1,8.0486147E3,1.0091355E2],"tree_param":{"num_deleted":"0","num_feature":"29","num_nodes":"15","size_leaf_vector":"1"}},{"base_weights":[2.5847526E-3,8.047637E-3,-1.2066062E-1,-2.5931312E-2,1.862521E-2,-1.554721E-1,1.477273E-1,-6.5048144E-4,1.1247894E-3,2.750479E-4,-6.181861E-3,-1.32742785E-2,-2.000049E-3,-3.0044296E-3,4.9297498E-3],"categories":[],"categories_nodes":[],"categories_segments":[],"categories_sizes":[],"default_left":[0,0,1,0,1,0,0,0,0,0,0,0,0,0,0],"id":16,"left_children":[1,3,5,7,9,11,13,-1,-1,-1,-1,-1,-1,-1,-1],"loss_changes":[2.9334427E1,1.4995279E1,1.7300692E1,2.1615292E1,1.4958645E1,1.623399E1,1.5837967E1,0E0,0E0,0E0,0E0,0E0,0E0,0E0,0E0],"parents":[2147483647,0,0,1,1,2,2,3,3,4,4,5,5,6,6],"right_children":[2,4,6,8,10,12,14,-1,-1,-1,-1,-1,-1,-1,-1],"split_conditions":[1.925E2,-7.5158505E0,-1.7945E2,1.0948504E0,1.5E0,2.426E2,1E0,-6.5048144E-4,1.1247894E-3,2.750479E-4,-6.181861E-3,-1.32742785E-2,-2.000049E-3,-3.0044296E-3,4.9297498E-3],"split_indices":[21,22,23,15,24,4,6,0,0,0,0,0,0,0,0],"split_type":[0,0,0,0,0,0,0,0,0,0,0,0,0,0,0],"sum_hessian":[4.3567305E4,4.1719035E4,1.8482725E3,9.903617E3,3.1815416E4,1.6364376E3,2.1183487E2,8.300544E3,1.603073E3,3.1745936E4,6.948104E1,2.446576E1,1.6119719E3,7.6383064E1,1.354518E2],"tree_param":{"num_deleted":"0","num_feature":"29","num_nodes":"15","size_leaf_vector":"1"}},{"base_weights":[-3.5538583E-3,3.0731093E-2,-1.8724179E-2,8.924426E-3,8.5079364E-2,-1.7180553E-2,-4.0025207E-1,-1.1659623E-5,2.8329822E-3,2.0275458E-3,-3.9909504E-4,-2.0027012E-3,-1.8257469E-4,-1.4950319E-3,-1.1201601E-2],"categories":[],"categories_nodes":[],"categories_segments":[],"categories_sizes":[],"default_left":[0,0,0,0,0,0,0,0,0,0,0,0,0,0,0],"id":17,"left_children":[1,3,5,7,9,11,13,-1,-1,-1,-1,-1,-1,-1,-1],"loss_changes":[2.2520073E1,1.574016E1,1.7670948E1,1.7891747E1,2.5812595E1,1.5575388E1,1.4102741E1,0E0,0E0,0E0,0E0,0E0,0E0,0E0,0E0],"parents":[2147483647,0,0,1,1,2,2,3,3,4,4,5,5,6,6],"right_children":[2,4,6,8,10,12,14,-1,-1,-1,-1,-1,-1,-1,-1],"split_conditions":[4.2735E1,5.806856E-1,4.08E2,4.1666668E1,1.9E1,-1.5801764E0,7.421423E-1,-1.1659623E-5,2.8329822E-3,2.0275458E-3,-3.9909504E-4,-2.0027012E-3,-1.8257469E-4,-1.4950319E-3,-1.1201601E-2],"split_indices":[20,17,21,20,1,17,15,0,0,0,0,0,0,0,0],"split_type":[0,0,0,0,0,0,0,0,0,0,0,0,0,0,0],"sum_hessian":[4.3296266E4,1.3280741E4,3.0015523E4,9.478684E3,3.802057E3,2.9895615E4,1.1990981E2,9.024459E3,4.5422482E2,2.4913523E3,1.3107047E3,9.5081165E2,2.8944803E4,6.988636E1,5.0023453E1],"tree_param":{"num_deleted":"0","num_feature":"29","num_nodes":"15","size_leaf_vector":"1"}},{"base_weights":[1.2270919E-3,1.2353802E-2,-3.4397893E-2,1.2955564E-2,-7.257059E-1,-3.8254514E-2,3.331614E-1,3.936068E-3,1.6154679E-4,-1.33572975E-2,5.506212E-3,-9.6651644E-4,3.3100267E-5,-1.1724185E-2,5.601852E-3],"categories":[],"categories_nodes":[],"categories_segments":[],"categories_sizes":[],"default_left":[0,0,0,0,0,0,0,0,0,0,0,0,0,0,0],"id":18,"left_children":[1,3,5,7,9,11,13,-1,-1,-1,-1,-1,-1,-1,-1],"loss_changes":[1.7199413E1,1.4694111E1,1.465124E1,1.2547598E1,7.263585E0,1.2779149E1,8.749448E0,0E0,0E0,0E0,0E0,0E0,0E0,0E0,0E0],"parents":[2147483647,0,0,1,1,2,2,3,3,4,4,5,5,6,6],"right_children":[2,4,6,8,10,12,14,-1,-1,-1,-1,-1,-1,-1,-1],"split_conditions":[9.6265E1,5.63E2,1.0080868E0,1.439E1,2.4E1,1E0,1.2534E2,3.936068E-3,1.6154679E-4,-1.33572975E-2,5.506212E-3,-9.6651644E-4,3.3100267E-5,-1.1724185E-2,5.601852E-3],"split_indices":[20,25,18,25,27,6,25,0,0,0,0,0,0,0,0],"split_type":[0,0,0,0,0,0,0,0,0,0,0,0,0,0,0],"sum_hessian":[4.3388184E4,3.3062473E4,1.032571E4,3.303652E4,2.5953245E1,1.0219379E4,1.06331055E2,1.7253448E2,3.2863984E4,2.1676498E1,4.2767477E0,5.813218E3,4.406161E3,5.1315017E0,1.01199554E2],"tree_param":{"num_deleted":"0","num_feature":"29","num_nodes":"15","size_leaf_vector":"1"}},{"base_weights":[-3.029449E-3,-2.6619893E-2,1.9254982E-2,4.5974415E-2,-3.7797567E-2,2.1131933E-2,-4.181173E-1,-2.7055556E-3,1.04274E-3,-1.6962443E-3,-3.526509E-4,3.207743E-4,-4.869298E-3,5.2030853E-5,-1.2490844E-2],"categories":[],"categories_nodes":[],"categories_segments":[],"categories_sizes":[],"default_left":[0,0,0,0,0,1,0,0,0,0,0,0,0,0,0],"id":19,"left_children":[1,3,5,7,9,11,13,-1,-1,-1,-1,-1,-1,-1,-1],"loss_changes":[2.271148E1,1.7030666E1,1.8246723E1,1.9113815E1,1.9112011E1,1.4540122E1,1.8997938E1,0E0,0E0,0E0,0E0,0E0,0E0,0E0,0E0],"parents":[2147483647,0,0,1,1,2,2,3,3,4,4,5,5,6,6],"right_children":[2,4,6,8,10,12,14,-1,-1,-1,-1,-1,-1,-1,-1],"split_conditions":[2.685318E1,5.694E1,2.89335E2,1.1445E1,-5.0410086E-1,7E-1,7.951467E-1,-2.7055556E-3,1.04274E-3,-1.6962443E-3,-3.526509E-4,3.207743E-4,-4.869298E-3,5.2030853E-5,-1.2490844E-2],"split_indices":[22,25,20,20,17,24,15,0,0,0,0,0,0,0,0],"split_type":[0,0,0,0,0,0,0,0,0,0,0,0,0,0,0],"sum_hessian":[4.3200414E4,2.0985176E4,2.2215238E4,2.799631E3,1.8185545E4,2.2121258E4,9.398003E1,2.9747412E2,2.502157E3,2.3880007E3,1.5797545E4,2.2015945E4,1.0531208E2,5.025559E1,4.3724434E1],"tree_param":{"num_deleted":"0","num_feature":"29","num_nodes":"15","size_leaf_vector":"1"}},{"base_weights":[3.879628E-4,-4.4481583E-2,1.1009664E-2,-2.0349542E-2,-1.4558357E-1,-5.528058E-1,1.1542115E-2,-1.870608E-3,-3.7008817E-6,-3.655357E-3,1.2431703E-4,7.943609E-3,-1.3319529E-2,-2.7776303E-4,2.940047E-4],"categories":[],"categories_nodes":[],"categories_segments":[],"categories_sizes":[],"default_left":[0,0,0,0,0,0,0,0,0,0,0,0,0,0,0],"id":20,"left_children":[1,3,5,7,9,11,13,-1,-1,-1,-1,-1,-1,-1,-1],"loss_changes":[2.0596651E1,2.0179502E1,1.0496845E1,1.5195164E1,2.844075E1,1.5269855E1,1.0363157E1,0E0,0E0,0E0,0E0,0E0,0E0,0E0,0E0],"parents":[2147483647,0,0,1,1,2,2,3,3,4,4,5,5,6,6],"right_children":[2,4,6,8,10,12,14,-1,-1,-1,-1,-1,-1,-1,-1],"split_conditions":[-3.322975E1,1.3778E2,-1.5478752E0,-2.5340578E-1,1E0,7.1666665E0,2.2235E1,-1.870608E-3,-3.7008817E-6,-3.655357E-3,1.2431703E-4,7.943609E-3,-1.3319529E-2,-2.7776303E-4,2.940047E-4],"split_indices":[22,21,18,18,6,21,21,0,0,0,0,0,0,0,0],"split_type":[0,0,0,0,0,0,0,0,0,0,0,0,0,0,0],"sum_hessian":[4.3214598E4,8.27119E3,3.4943406E4,6.6783384E3,1.592852E3,3.198984E1,3.4911418E4,1.005037E3,5.6733013E3,9.109328E2,6.8191925E2,8.284189E0,2.370565E1,8.084845E3,2.6826572E4],"tree_param":{"num_deleted":"0","num_feature":"29","num_nodes":"15","size_leaf_vector":"1"}},{"base_weights":[3.3529622E-3,-1.0062046E-1,6.940987E-3,-2.0991781E-1,-3.856233E-2,7.906389E-3,-2.809191E-1,6.4483564E-4,-4.321143E-3,-1.2980086E-2,-3.3600142E-4,1.1491766E-4,-8.628507E-3,-5.5218996E-3,5.771874E-3],"categories":[],"categories_nodes":[],"categories_segments":[],"categories_sizes":[],"default_left":[0,0,1,0,0,1,0,0,0,0,0,0,0,0,0],"id":21,"left_children":[1,3,5,7,9,11,13,-1,-1,-1,-1,-1,-1,-1,-1],"loss_changes":[1.6128624E1,9.773894E0,1.1615792E1,1.3209129E1,1.189665E1,7.8574924E0,1.1155064E1,0E0,0E0,0E0,0E0,0E0,0E0,0E0,0E0],"parents":[2147483647,0,0,1,1,2,2,3,3,4,4,5,5,6,6],"right_children":[2,4,6,8,10,12,14,-1,-1,-1,-1,-1,-1,-1,-1],"split_conditions":[-1.7988E2,1.5070374E-1,1.29E0,5.025E1,1.3379E2,3.4135E2,5E0,6.4483564E-4,-4.321143E-3,-1.2980086E-2,-3.3600142E-4,1.1491766E-4,-8.628507E-3,-5.5218996E-3,5.771874E-3],"split_indices":[22,18,24,21,4,23,3,0,0,0,0,0,0,0,0],"split_type":[0,0,0,0,0,0,0,0,0,0,0,0,0,0,0],"sum_hessian":[4.323054E4,1.4411782E3,4.1789363E4,5.210745E2,9.2010376E2,4.1650652E4,1.3871208E2,1.45191E2,3.758835E2,1.382516E1,9.0627856E2,4.1631496E4,1.915536E1,1.19565674E2,1.9146402E1],"tree_param":{"num_deleted":"0","num_feature":"29","num_nodes":"15","size_leaf_vector":"1"}},{"base_weights":[-2.4190817E-3,-1.6270183E-3,-2.5555688E-1,4.6724947E-3,-2.3694243E-2,1.6947974E-1,-4.780325E-1,7.6103526E-5,-3.7377952E-3,-8.0105546E-4,4.2322295E-4,-1.1932792E-2,4.9929745E-3,-1.3323481E-2,-2.5731535E-3],"categories":[],"categories_nodes":[],"categories_segments":[],"categories_sizes":[],"default_left":[1,0,0,1,0,0,0,0,0,0,0,0,0,0,0],"id":22,"left_children":[1,3,5,7,9,11,13,-1,-1,-1,-1,-1,-1,-1,-1],"loss_changes":[8.622809E0,5.9603133E0,1.2765917E1,6.91929E0,1.7214588E1,9.259795E0,1.2133265E1,0E0,0E0,0E0,0E0,0E0,0E0,0E0,0E0],"parents":[2147483647,0,0,1,1,2,2,3,3,4,4,5,5,6,6],"right_children":[2,4,6,8,10,12,14,-1,-1,-1,-1,-1,-1,-1,-1],"split_conditions":[1.29E0,9.9E1,6.32E0,1.9639E2,1.9005E4,-1.0024E2,1.8367E4,7.6103526E-5,-3.7377952E-3,-8.0105546E-4,4.2322295E-4,-1.1932792E-2,4.9929745E-3,-1.3323481E-2,-2.5731535E-3],"split_indices":[24,20,23,23,7,23,7,0,0,0,0,0,0,0,0],"split_type":[0,0,0,0,0,0,0,0,0,0,0,0,0,0,0],"sum_hessian":[4.3007355E4,4.287421E4,1.3314616E2,3.335358E4,9.520631E3,4.582889E1,8.731727E1,3.3261082E4,9.249745E1,5.87079E3,3.6498408E3,6.544518E0,3.9284374E1,3.2601982E1,5.4715282E1],"tree_param":{"num_deleted":"0","num_feature":"29","num_nodes":"15","size_leaf_vector":"1"}},{"base_weights":[-4.0999497E-3,-1.1347338E-3,-1.06230386E-1,-2.894772E-2,6.2599946E-3,-2.6476797E-1,-1.0144765E-2,-3.2907297E-4,-6.711356E-3,-3.9512996E-4,2.4906613E-4,-6.1557963E-3,-1.8556686E-3,-2.76783E-3,1.6139705E-3],"categories":[],"categories_nodes":[],"categories_segments":[],"categories_sizes":[],"default_left":[0,0,0,1,0,0,0,0,0,0,0,0,0,0,0],"id":23,"left_children":[1,3,5,7,9,11,13,-1,-1,-1,-1,-1,-1,-1,-1],"loss_changes":[1.3009551E1,8.586472E0,1.8460775E1,2.1484848E1,1.3113876E1,1.0519913E1,1.7800863E1,0E0,0E0,0E0,0E0,0E0,0E0,0E0,0E0],"parents":[2147483647,0,0,1,1,2,2,3,3,4,4,5,5,6,6],"right_children":[2,4,6,8,10,12,14,-1,-1,-1,-1,-1,-1,-1,-1],"split_conditions":[2.15E2,-1.22135386E-1,-8.097504E1,4.08E0,2.5536667E1,1.84E2,3.2995147E-1,-3.2907297E-4,-6.711356E-3,-3.9512996E-4,2.4906613E-4,-6.1557963E-3,-1.8556686E-3,-2.76783E-3,1.6139705E-3],"split_indices":[21,17,22,3,21,20,18,0,0,0,0,0,0,0,0],"split_type":[0,0,0,0,0,0,0,0,0,0,0,0,0,0,0],"sum_hessian":[4.295806E4,4.1747004E4,1.2110554E3,8.767572E3,3.297943E4,4.5634622E2,7.547092E2,8.66394E3,1.0363237E2,8.263806E3,2.4715627E4,1.9544305E2,2.6090317E2,3.022172E2,4.5249203E2],"tree_param":{"num_deleted":"0","num_feature":"29","num_nodes":"15","size_leaf_vector":"1"}},{"base_weights":[-4.029811E-3,-4.169449E-2,4.8125503E-3,-1.7776947E-2,-1.5170181E-1,3.1678967E-2,-3.4394942E-3,-1.0306212E-3,2.059482E-4,-1.0640914E-2,-1.7780118E-3,7.210351E-4,-2.852678E-3,1.7230205E-4,-4.5293802E-4],"categories":[],"categories_nodes":[],"categories_segments":[],"categories_sizes":[],"default_left":[0,0,0,0,0,0,0,0,0,0,0,0,0,0,0],"id":24,"left_children":[1,3,5,7,9,11,13,-1,-1,-1,-1,-1,-1,-1,-1],"loss_changes":[1.4264632E1,2.1423504E1,7.69053E0,1.2137602E1,2.1755905E1,3.8053474E1,1.2082878E1,0E0,0E0,0E0,0E0,0E0,0E0,0E0,0E0],"parents":[2147483647,0,0,1,1,2,2,3,3,4,4,5,5,6,6],"right_children":[2,4,6,8,10,12,14,-1,-1,-1,-1,-1,-1,-1,-1],"split_conditions":[-3.322975E1,1.3983E2,-1.0241704E-1,3.5175912E-2,1.5113E2,2.2E2,1E0,-1.0306212E-3,2.059482E-4,-1.0640914E-2,-1.7780118E-3,7.210351E-4,-2.852678E-3,1.7230205E-4,-4.5293802E-4],"split_indices":[22,21,18,18,25,2,11,0,0,0,0,0,0,0,0],"split_type":[0,0,0,0,0,0,0,0,0,0,0,0,0,0,0],"sum_hessian":[4.2829383E4,8.1424233E3,3.468696E4,6.689228E3,1.4531952E3,8.1499834E3,2.6536975E4,2.4599148E3,4.2293135E3,5.553932E1,1.3976559E3,7.517788E3,6.3219574E2,1.718061E4,9.356367E3],"tree_param":{"num_deleted":"0","num_feature":"29","num_nodes":"15","size_leaf_vector":"1"}},{"base_weights":[-1.5831117E-3,-4.2382956E-2,5.9848567E-3,-1.991017E-2,-1.443817E-1,6.47403E-3,-4.287367E-1,8.493266E-3,-3.215803E-4,-3.0017488E-3,-1.235919E-4,-7.638486E-3,9.4835115E-5,-1.3098181E-2,-1.3638022E-3],"categories":[],"categories_nodes":[],"categories_segments":[],"categories_sizes":[],"default_left":[0,0,0,0,0,0,0,0,0,0,0,0,0,0,0],"id":25,"left_children":[1,3,5,7,9,11,13,-1,-1,-1,-1,-1,-1,-1,-1],"loss_changes":[1.3267156E1,1.5407539E1,7.7103624E0,1.0578464E1,1.1518862E1,5.9982305E0,6.752611E0,0E0,0E0,0E0,0E0,0E0,0E0,0E0,0E0],"parents":[2147483647,0,0,1,1,2,2,3,3,4,4,5,5,6,6],"right_children":[2,4,6,8,10,12,14,-1,-1,-1,-1,-1,-1,-1,-1],"split_conditions":[-5.3870018E1,1.3778E2,4.41E2,1.663E1,1E0,-2.2134E2,4.4E1,8.493266E-3,-3.215803E-4,-3.0017488E-3,-1.235919E-4,-7.638486E-3,9.4835115E-5,-1.3098181E-2,-1.3638022E-3],"split_indices":[22,21,20,20,11,23,8,0,0,0,0,0,0,0,0],"split_type":[0,0,0,0,0,0,0,0,0,0,0,0,0,0,0],"sum_hessian":[4.296567E4,6.721991E3,3.624368E4,5.5093447E3,1.2126465E3,3.6203926E4,3.975362E1,2.5815361E1,5.4835293E3,7.991914E2,4.134551E2,1.8669176E1,3.6185258E4,1.4993376E1,2.4760246E1],"tree_param":{"num_deleted":"0","num_feature":"29","num_nodes":"15","size_leaf_vector":"1"}},{"base_weights":[1.6739986E-4,-3.4725834E-2,9.256303E-3,-6.7280434E-2,1.777694E-2,-2.067408E-2,1.4969672E-2,6.1513804E-4,-1.3204393E-3,-1.2649435E-2,2.896558E-4,-2.3083785E-3,8.570774E-5,1.0945552E-3,1.2551526E-4],"categories":[],"categories_nodes":[],"categories_segments":[],"categories_sizes":[],"default_left":[0,0,0,0,0,0,0,0,0,0,0,0,0,0,0],"id":26,"left_children":[1,3,5,7,9,11,13,-1,-1,-1,-1,-1,-1,-1,-1],"loss_changes":[1.3591007E1,1.5137813E1,5.8142185E0,1.6442268E1,9.116679E0,2.1061699E1,1.0835297E1,0E0,0E0,0E0,0E0,0E0,0E0,0E0,0E0],"parents":[2147483647,0,0,1,1,2,2,3,3,4,4,5,5,6,6],"right_children":[2,4,6,8,10,12,14,-1,-1,-1,-1,-1,-1,-1,-1],"split_conditions":[-2.4225945E1,1E0,-6.3945013E-1,2.782E1,1.234E1,6.9E1,-4.3619123E-1,6.1513804E-4,-1.3204393E-3,-1.2649435E-2,2.896558E-4,-2.3083785E-3,8.570774E-5,1.0945552E-3,1.2551526E-4],"split_indices":[22,11,15,21,20,5,15,0,0,0,0,0,0,0,0],"split_type":[0,0,0,0,0,0,0,0,0,0,0,0,0,0,0],"sum_hessian":[4.2852734E4,8.85493E3,3.3997805E4,5.465647E3,3.3892825E3,5.4491187E3,2.8548686E4,1.068716E3,4.396931E3,9.707146E0,3.3795754E3,8.530503E2,4.5960684E3,2.4754358E3,2.607325E4],"tree_param":{"num_deleted":"0","num_feature":"29","num_nodes":"15","size_leaf_vector":"1"}},{"base_weights":[4.644359E-4,-2.5600907E-1,1.8191609E-3,-3.5063807E-2,-4.1614786E-1,-1.0600465E-2,2.0978425E-2,-1.2201995E-2,9.2452305E-4,-7.6553705E-3,2.751926E-3,-5.3583585E-6,-8.9900196E-4,1.2818003E-3,1.0276026E-4],"categories":[],"categories_nodes":[],"categories_segments":[],"categories_sizes":[],"default_left":[0,0,0,0,0,0,0,0,0,0,0,0,0,0,0],"id":27,"left_children":[1,3,5,7,9,11,13,-1,-1,-1,-1,-1,-1,-1,-1],"loss_changes":[1.4920687E1,7.968977E0,1.0164842E1,8.1688595E0,1.0573687E1,1.4198034E1,1.617125E1,0E0,0E0,0E0,0E0,0E0,0E0,0E0,0E0],"parents":[2147483647,0,0,1,1,2,2,3,3,4,4,5,5,6,6],"right_children":[2,4,6,8,10,12,14,-1,-1,-1,-1,-1,-1,-1,-1],"split_conditions":[-4.2436496E2,2.1562219E-1,2.783835E-1,-5.424163E-1,2.4765E4,6.034022E-1,4.862E3,-1.2201995E-2,9.2452305E-4,-7.6553705E-3,2.751926E-3,-5.3583585E-6,-8.9900196E-4,1.2818003E-3,1.0276026E-4],"split_indices":[22,17,18,18,7,17,7,0,0,0,0,0,0,0,0],"split_type":[0,0,0,0,0,0,0,0,0,0,0,0,0,0,0],"sum_hessian":[4.2940938E4,2.246399E2,4.27163E4,9.49102E1,1.2972969E2,2.5916725E4,1.6799574E4,9.412312E0,8.5497894E1,1.0701563E2,2.2714058E1,2.1769004E4,4.14772E3,2.7196538E3,1.407992E4],"tree_param":{"num_deleted":"0","num_feature":"29","num_nodes":"15","size_leaf_vector":"1"}},{"base_weights":[1.1798111E-3,-9.986124E-2,4.588522E-3,-1.9051886E-1,4.0152866E-2,5.3943815E-3,-3.034943E-1,-6.865914E-3,-1.8403422E-3,-1.1589417E-2,8.948748E-4,-4.100498E-4,1.349253E-4,-9.547766E-3,-3.3222814E-4],"categories":[],"categories_nodes":[],"categories_segments":[],"categories_sizes":[],"default_left":[0,0,0,0,0,0,0,0,0,0,0,0,0,0,0],"id":28,"left_children":[1,3,5,7,9,11,13,-1,-1,-1,-1,-1,-1,-1,-1],"loss_changes":[1.4760436E1,1.7760582E1,1.02942295E1,1.4976599E1,1.1409032E1,6.08564E0,1.1438157E1,0E0,0E0,0E0,0E0,0E0,0E0,0E0,0E0],"parents":[2147483647,0,0,1,1,2,2,3,3,4,4,5,5,6,6],"right_children":[2,4,6,8,10,12,14,-1,-1,-1,-1,-1,-1,-1,-1],"split_conditions":[-1.7988E2,2.16E2,8.12E2,-1.740775E-1,5.5E1,-3.5325313E-1,1E0,-6.865914E-3,-1.8403422E-3,-1.1589417E-2,8.948748E-4,-4.100498E-4,1.349253E-4,-9.547766E-3,-3.3222814E-4],"split_indices":[22,2,25,15,20,18,11,0,0,0,0,0,0,0,0],"split_type":[0,0,0,0,0,0,0,0,0,0,0,0,0,0,0],"sum_hessian":[4.285362E4,1.3976016E3,4.145602E4,8.481032E2,5.4949835E2,4.1348844E4,1.0717462E2,1.3834766E2,7.0975555E2,1.374371E1,5.3575464E2,4.5065083E3,3.6842336E4,4.49392E1,6.223542E1],"tree_param":{"num_deleted":"0","num_feature":"29","num_nodes":"15","size_leaf_vector":"1"}},{"base_weights":[1.0570391E-3,-8.63231E-2,3.9709164E-3,-2.6583996E-1,-4.203274E-2,-7.907829E-2,5.9180004E-3,-1.3237962E-2,-2.8094065E-3,-1.2786453E-2,-4.360996E-4,8.341295E-3,-1.5743722E-3,2.2048538E-4,-1.1801511E-4],"categories":[],"categories_nodes":[],"categories_segments":[],"categories_sizes":[],"default_left":[0,0,0,0,0,0,0,0,0,0,0,0,0,0,0],"id":29,"left_children":[1,3,5,7,9,11,13,-1,-1,-1,-1,-1,-1,-1,-1],"loss_changes":[1.0912847E1,1.0985998E1,6.7074065E0,1.1926664E1,1.0502373E1,2.1471054E1,5.7165804E0,0E0,0E0,0E0,0E0,0E0,0E0,0E0,0E0],"parents":[2147483647,0,0,1,1,2,2,3,3,4,4,5,5,6,6],"right_children":[2,4,6,8,10,12,14,-1,-1,-1,-1,-1,-1,-1,-1],"split_conditions":[-1.7988E2,0E0,-8.126702E-1,6.1666668E1,1.3379E2,2.2E-1,6.75E1,-1.3237962E-2,-2.8094065E-3,-1.2786453E-2,-4.360996E-4,8.341295E-3,-1.5743722E-3,2.2048538E-4,-1.1801511E-4],"split_indices":[22,15,18,20,4,24,20,0,0,0,0,0,0,0,0],"split_type":[0,0,0,0,0,0,0,0,0,0,0,0,0,0,0],"sum_hessian":[4.2857848E4,1.3821415E3,4.1475703E4,2.7252914E2,1.1096123E3,9.492126E2,4.0526492E4,2.266059E1,2.4986855E2,1.2665636E1,1.0969467E3,4.3937572E1,9.05275E2,2.4048475E4,1.6478018E4],"tree_param":{"num_deleted":"0","num_feature":"29","num_nodes":"15","size_leaf_vector":"1"}},{"base_weights":[-6.262451E-4,-3.5808925E-2,7.4816323E-3,-1.4495799E-1,-1.7690761E-2,2.1290228E-1,6.4709582E-3,-2.6927374E-3,1.172111E-3,-1.797638E-4,-5.6732907E-3,-1.2712201E-2,4.0442226E-3,1.0316764E-4,-1.7581917E-3],"categories":[],"categories_nodes":[],"categories_segments":[],"categories_sizes":[],"default_left":[0,0,0,0,0,0,0,0,0,0,0,0,0,0,0],"id":30,"left_children":[1,3,5,7,9,11,13,-1,-1,-1,-1,-1,-1,-1,-1],"loss_changes":[1.2210406E1,1.5851551E1,7.221093E0,1.2380693E1,1.2921572E1,1.4763571E1,4.106969E0,0E0,0E0,0E0,0E0,0E0,0E0,0E0,0E0],"parents":[2147483647,0,0,1,1,2,2,3,3,4,4,5,5,6,6],"right_children":[2,4,6,8,10,12,14,-1,-1,-1,-1,-1,-1,-1,-1],"split_conditions":[-3.322975E1,-2.5340578E-1,-3.17E1,1E0,4.08E2,1.125E1,1.0080868E0,-2.6927374E-3,1.172111E-3,-1.797638E-4,-5.6732907E-3,-1.2712201E-2,4.0442226E-3,1.0316764E-4,-1.7581917E-3],"split_indices":[22,18,22,6,21,21,18,0,0,0,0,0,0,0,0],"split_type":[0,0,0,0,0,0,0,0,0,0,0,0,0,0,0],"sum_hessian":[4.2803016E4,8.0159263E3,3.478709E4,1.1401758E3,6.8757505E3,1.6928885E2,3.46178E4,9.4461865E2,1.9555719E2,6.791778E3,8.397252E1,1.0050201E1,1.5923865E2,3.438488E4,2.3291917E2],"tree_param":{"num_deleted":"0","num_feature":"29","num_nodes":"15","size_leaf_vector":"1"}},{"base_weights":[-1.3551316E-3,1.2986575E-3,-1.4159194E-1,-2.3695678E-2,8.496921E-3,-2.6626113E-1,-3.1347673E-2,-2.0314604E-3,-1.18584096E-4,1.835199E-3,9.743164E-5,-2.7060187E-3,-1.1464674E-2,2.0549381E-4,-7.4021863E-3],"categories":[],"categories_nodes":[],"categories_segments":[],"categories_sizes":[],"default_left":[0,0,0,0,0,0,0,0,0,0,0,0,0,0,0],"id":31,"left_children":[1,3,5,7,9,11,13,-1,-1,-1,-1,-1,-1,-1,-1],"loss_changes":[1.5897026E1,7.542788E0,1.0895136E1,1.7326944E1,6.134122E0,1.4850893E1,9.671801E0,0E0,0E0,0E0,0E0,0E0,0E0,0E0,0E0],"parents":[2147483647,0,0,1,1,2,2,3,3,4,4,5,5,6,6],"right_children":[2,4,6,8,10,12,14,-1,-1,-1,-1,-1,-1,-1,-1],"split_conditions":[2.38E2,-1.2984074E1,1E0,-3.619942E-1,1.935E1,9.202831E-1,1.02717384E2,-2.0314604E-3,-1.18584096E-4,1.835199E-3,9.743164E-5,-2.7060187E-3,-1.1464674E-2,2.0549381E-4,-7.4021863E-3],"split_indices":[21,22,6,18,25,17,22,0,0,0,0,0,0,0,0],"split_type":[0,0,0,0,0,0,0,0,0,0,0,0,0,0,0],"sum_hessian":[4.27142E4,4.1921875E4,7.9232324E2,9.373217E3,3.254866E4,3.7117108E2,4.211522E2,1.0435245E3,8.329692E3,4.0212756E2,3.2146533E4,3.2906882E2,4.2102253E1,3.8636942E2,3.4782787E1],"tree_param":{"num_deleted":"0","num_feature":"29","num_nodes":"15","size_leaf_vector":"1"}},{"base_weights":[4.4730993E-4,-5.8815032E-2,4.4416916E-3,1.0105031E-1,-1.1246665E-1,5.2109426E-3,-3.4822378E-1,1.6080743E-3,-1.256425E-2,-2.3437196E-3,6.8225735E-4,1.8317818E-3,5.6870424E-5,-1.1581002E-2,1.6444384E-3],"categories":[],"categories_nodes":[],"categories_segments":[],"categories_sizes":[],"default_left":[0,0,1,0,1,0,0,0,0,0,0,0,0,0,0],"id":32,"left_children":[1,3,5,7,9,11,13,-1,-1,-1,-1,-1,-1,-1,-1],"loss_changes":[1.0098365E1,2.3116196E1,1.0844199E1,9.445543E0,1.787535E1,5.7550154E0,1.9503536E1,0E0,0E0,0E0,0E0,0E0,0E0,0E0,0E0],"parents":[2147483647,0,0,1,1,2,2,3,3,4,4,5,5,6,6],"right_children":[2,4,6,8,10,12,14,-1,-1,-1,-1,-1,-1,-1,-1],"split_conditions":[-1.2569E2,4.39075E1,2.2869E2,6.0416E2,3.4891E3,-1.1868E2,4.713E2,1.6080743E-3,-1.256425E-2,-2.3437196E-3,6.8225735E-4,1.8317818E-3,5.6870424E-5,-1.1581002E-2,1.6444384E-3],"split_indices":[22,21,23,25,10,22,4,0,0,0,0,0,0,0,0],"split_type":[0,0,0,0,0,0,0,0,0,0,0,0,0,0,0],"sum_hessian":[4.2658082E4,2.692802E3,3.996528E4,6.764136E2,2.0163883E3,3.9879277E4,8.600142E1,6.680574E2,8.356224E0,1.5038049E3,5.125834E2,3.6032996E2,3.951895E4,4.2012283E1,4.3989136E1],"tree_param":{"num_deleted":"0","num_feature":"29","num_nodes":"15","size_leaf_vector":"1"}},{"base_weights":[1.3268583E-3,2.1341624E-2,-6.3408795E-3,2.3773834E-2,-5.1660377E-1,-3.942388E-1,-4.6459897E-3,5.414431E-4,-6.6613086E-4,-1.2844022E-2,-7.1602303E-4,-9.208354E-3,1.5312389E-3,-5.2749336E-4,1.0764503E-4],"categories":[],"categories_nodes":[],"categories_segments":[],"categories_sizes":[],"default_left":[0,0,0,0,0,1,0,0,0,0,0,0,0,0,0],"id":33,"left_children":[1,3,5,7,9,11,13,-1,-1,-1,-1,-1,-1,-1,-1],"loss_changes":[6.5706306E0,1.5528643E1,2.0349615E1,1.2555042E1,9.919748E0,1.794123E1,1.2558556E1,0E0,0E0,0E0,0E0,0E0,0E0,0E0,0E0],"parents":[2147483647,0,0,1,1,2,2,3,3,4,4,5,5,6,6],"right_children":[2,4,6,8,10,12,14,-1,-1,-1,-1,-1,-1,-1,-1],"split_conditions":[4E1,9.0957355E-1,4.0216667E1,1.09E2,2.16E2,1.85701E3,8.918817E-2,5.414431E-4,-6.6613086E-4,-1.2844022E-2,-7.1602303E-4,-9.208354E-3,1.5312389E-3,-5.2749336E-4,1.0764503E-4],"split_indices":[20,18,20,5,2,10,17,0,0,0,0,0,0,0,0],"split_type":[0,0,0,0,0,0,0,0,0,0,0,0,0,0,0],"sum_hessian":[4.281246E4,1.1858069E4,3.095439E4,1.1805648E4,5.2421013E1,1.3365685E2,3.0820734E4,9.766592E3,2.0390569E3,2.7644318E1,2.4776695E1,8.754528E1,4.611156E1,8.379345E3,2.244139E4],"tree_param":{"num_deleted":"0","num_feature":"29","num_nodes":"15","size_leaf_vector":"1"}},{"base_weights":[-2.3770384E-3,-3.8343873E-2,4.241369E-3,-3.3751626E-2,-4.0256566E-1,-4.9823228E-1,4.4772485E-3,2.7708719E-3,-5.681959E-4,2.4077808E-3,-9.221768E-3,-1.2607816E-2,3.780601E-3,7.6115564E-3,5.762708E-5],"categories":[],"categories_nodes":[],"categories_segments":[],"categories_sizes":[],"default_left":[0,1,0,0,0,0,0,0,0,0,0,0,0,0,0],"id":34,"left_children":[1,3,5,7,9,11,13,-1,-1,-1,-1,-1,-1,-1,-1],"loss_changes":[1.0157804E1,1.1078909E1,4.2738686E0,1.0378605E1,1.2251816E1,5.473018E0,7.0106173E0,0E0,0E0,0E0,0E0,0E0,0E0,0E0,0E0],"parents":[2147483647,0,0,1,1,2,2,3,3,4,4,5,5,6,6],"right_children":[2,4,6,8,10,12,14,-1,-1,-1,-1,-1,-1,-1,-1],"split_conditions":[-5.182682E1,7E-1,-2.2134E2,2.273E1,-6.1432844E-1,9.591484E1,-1.9892E2,2.7708719E-3,-5.681959E-4,2.4077808E-3,-9.221768E-3,-1.2607816E-2,3.780601E-3,7.6115564E-3,5.762708E-5],"split_indices":[22,24,23,20,18,22,23,0,0,0,0,0,0,0,0],"split_type":[0,0,0,0,0,0,0,0,0,0,0,0,0,0,0],"sum_hessian":[4.267043E4,6.630902E3,3.6039527E4,6.549417E3,8.148488E1,1.5919701E1,3.602361E4,1.86857E2,6.36256E3,2.5226305E1,5.6258575E1,1.0335227E1,5.5844746E0,2.3096745E1,3.600051E4],"tree_param":{"num_deleted":"0","num_feature":"29","num_nodes":"15","size_leaf_vector":"1"}},{"base_weights":[-1.2453983E-3,-3.3553276E-2,4.687847E-3,-6.292417E-2,2.6043592E-2,5.3501828E-3,-2.5371227E-1,-1.1787795E-3,1.2528122E-3,-1.7186893E-3,9.0375537E-4,8.018749E-5,-5.0861654E-3,-7.0475573E-3,1.3770757E-3],"categories":[],"categories_nodes":[],"categories_segments":[],"categories_sizes":[],"default_left":[0,0,1,0,0,0,0,0,0,0,0,0,0,0,0],"id":35,"left_children":[1,3,5,7,9,11,13,-1,-1,-1,-1,-1,-1,-1,-1],"loss_changes":[8.174338E0,1.1582846E1,6.167342E0,1.4379122E1,1.252894E1,5.003053E0,8.14848E0,0E0,0E0,0E0,0E0,0E0,0E0,0E0,0E0],"parents":[2147483647,0,0,1,1,2,2,3,3,4,4,5,5,6,6],"right_children":[2,4,6,8,10,12,14,-1,-1,-1,-1,-1,-1,-1,-1],"split_conditions":[-5.182682E1,1E0,1.29E0,1.2378439E0,1.0669E2,4.41E2,-6.3945013E-1,-1.1787795E-3,1.2528122E-3,-1.7186893E-3,9.0375537E-4,8.018749E-5,-5.0861654E-3,-7.0475573E-3,1.3770757E-3],"split_indices":[22,6,24,15,25,20,15,0,0,0,0,0,0,0,0],"split_type":[0,0,0,0,0,0,0,0,0,0,0,0,0,0,0],"sum_hessian":[4.264158E4,6.6152695E3,3.602631E4,4.4313354E3,2.1839336E3,3.593518E4,9.113034E1,3.8889424E3,5.423932E2,4.485424E2,1.7353914E3,3.5899402E4,3.5776485E1,5.3066673E1,3.8063663E1],"tree_param":{"num_deleted":"0","num_feature":"29","num_nodes":"15","size_leaf_vector":"1"}},{"base_weights":[-1.2147985E-3,-5.7278425E-2,3.911553E-3,-2.4004709E-2,-1.6809368E-1,-2.866726E-2,8.7812655E-3,-1.8197064E-4,-8.2913805E-3,-4.088055E-3,-5.7225034E-4,-2.2739125E-3,-6.601221E-5,2.6361542E-3,1.03396225E-4],"categories":[],"categories_nodes":[],"categories_segments":[],"categories_sizes":[],"default_left":[0,0,0,1,0,0,0,0,0,0,0,0,0,0,0],"id":36,"left_children":[1,3,5,7,9,11,13,-1,-1,-1,-1,-1,-1,-1,-1],"loss_changes":[1.225707E1,1.3170211E1,6.1995006E0,1.718598E1,1.2991734E1,1.6278803E1,8.516701E0,0E0,0E0,0E0,0E0,0E0,0E0,0E0,0E0],"parents":[2147483647,0,0,1,1,2,2,3,3,4,4,5,5,6,6],"right_children":[2,4,6,8,10,12,14,-1,-1,-1,-1,-1,-1,-1,-1],"split_conditions":[-1.0878E2,3.41E2,-7.4827E-1,-5E-2,1E0,4.862E3,-7.302969E-1,-1.8197064E-4,-8.2913805E-3,-4.088055E-3,-5.7225034E-4,-2.2739125E-3,-6.601221E-5,2.6361542E-3,1.03396225E-4],"split_indices":[22,25,15,24,11,7,15,0,0,0,0,0,0,0,0],"split_type":[0,0,0,0,0,0,0,0,0,0,0,0,0,0,0],"sum_hessian":[4.2646062E4,3.5719338E3,3.907413E4,2.7480215E3,8.239124E2,5.0804663E3,3.3993664E4,2.696807E3,5.1214565E1,4.1672726E2,4.0718515E2,7.707284E2,4.309738E3,2.6124496E2,3.3732418E4],"tree_param":{"num_deleted":"0","num_feature":"29","num_nodes":"15","size_leaf_vector":"1"}},{"base_weights":[-2.0773381E-4,-5.173537E-1,1.2958648E-4,9.936495E-3,-1.2670213E-2,8.65794E-4,-2.3029582E-1,5.540763E-3,-1.0848914E-2,-4.444769E-6,1.4281734E-3,-1.2878515E-2,-2.0315999E-3],"categories":[],"categories_nodes":[],"categories_segments":[],"categories_sizes":[],"default_left":[0,0,1,0,0,0,0,0,0,0,0,0,0],"id":37,"left_children":[1,3,5,7,-1,9,11,-1,-1,-1,-1,-1,-1],"loss_changes":[7.447928E0,5.697893E0,7.238448E0,4.1770673E0,0E0,5.0905924E0,7.8490486E0,0E0,0E0,0E0,0E0,0E0,0E0],"parents":[2147483647,0,0,1,1,2,2,3,3,5,5,6,6],"right_children":[2,4,6,8,-1,10,12,-1,-1,-1,-1,-1,-1],"split_conditions":[-3.1063E2,2.5E1,2.0018E2,1.2453108E-1,-1.2670213E-2,7.398777E-1,3.15E2,5.540763E-3,-1.0848914E-2,-4.444769E-6,1.4281734E-3,-1.2878515E-2,-2.0315999E-3],"split_indices":[23,2,23,17,0,19,4,0,0,0,0,0,0],"split_type":[0,0,0,0,0,0,0,0,0,0,0,0,0],"sum_hessian":[4.2693895E4,2.6830818E1,4.2667062E4,1.1780951E1,1.5049869E1,4.2532168E4,1.3489374E2,8.230585E0,3.5503645E0,4.204134E4,4.9082962E2,1.3753258E1,1.2114047E2],"tree_param":{"num_deleted":"0","num_feature":"29","num_nodes":"13","size_leaf_vector":"1"}},{"base_weights":[-3.6731844E-3,-5.741518E-2,1.1851335E-3,-1.04054146E-1,3.989916E-2,2.7965964E-3,-9.4516E-2,-9.578991E-3,-1.3052196E-3,9.796673E-4,-4.6801968E-3,3.4822833E-6,1.3869763E-3,5.8516953E-4,-3.3442832E-3],"categories":[],"categories_nodes":[],"categories_segments":[],"categories_sizes":[],"default_left":[0,0,0,0,0,0,0,0,0,0,0,0,0,0,0],"id":38,"left_children":[1,3,5,7,9,11,13,-1,-1,-1,-1,-1,-1,-1,-1],"loss_changes":[1.1118723E1,1.6027998E1,6.0232897E0,1.4925766E1,1.2905318E1,9.421416E0,1.2737358E1,0E0,0E0,0E0,0E0,0E0,0E0,0E0,0E0],"parents":[2147483647,0,0,1,1,2,2,3,3,4,4,5,5,6,6],"right_children":[2,4,6,8,10,12,14,-1,-1,-1,-1,-1,-1,-1,-1],"split_conditions":[-1.0878E2,9.334674E-1,8.437923E-1,3.46E0,2.296E2,7.1162534E-1,4.4905E1,-9.578991E-3,-1.3052196E-3,9.796673E-4,-4.6801968E-3,3.4822833E-6,1.3869763E-3,5.8516953E-4,-3.3442832E-3],"split_indices":[22,15,18,3,21,18,21,0,0,0,0,0,0,0,0],"split_type":[0,0,0,0,0,0,0,0,0,0,0,0,0,0,0],"sum_hessian":[4.2583598E4,3.5295393E3,3.905406E4,2.3859685E3,1.1435708E3,3.8408293E4,6.45767E2,4.2560818E1,2.3434077E3,1.0592446E3,8.432615E1,3.7419004E4,9.8928876E2,3.3250668E2,3.1326035E2],"tree_param":{"num_deleted":"0","num_feature":"29","num_nodes":"15","size_leaf_vector":"1"}},{"base_weights":[2.4540476E-3,-4.7436133E-2,7.847699E-3,-1.9937082E-1,-2.8795421E-2,1.13071175E-2,-8.392963E-2,-6.9720596E-3,-7.6432433E-4,-1.08481094E-4,-2.420385E-3,-1.1414607E-3,1.799159E-4,8.38231E-4,-2.3697524E-3],"categories":[],"categories_nodes":[],"categories_segments":[],"categories_sizes":[],"default_left":[0,0,0,0,0,0,0,0,0,0,0,0,0,0,0],"id":39,"left_children":[1,3,5,7,9,11,13,-1,-1,-1,-1,-1,-1,-1,-1],"loss_changes":[1.148795E1,1.1790657E1,1.2232895E1,1.9644907E1,1.1253111E1,5.3231835E0,1.718549E1,0E0,0E0,0E0,0E0,0E0,0E0,0E0,0E0],"parents":[2147483647,0,0,1,1,2,2,3,3,4,4,5,5,6,6],"right_children":[2,4,6,8,10,12,14,-1,-1,-1,-1,-1,-1,-1,-1],"split_conditions":[-9.690257E1,-2.5340578E-1,1.6605227E0,2E0,9.381215E-1,-9.2E-1,8.612E3,-6.9720596E-3,-7.6432433E-4,-1.08481094E-4,-2.420385E-3,-1.1414607E-3,1.799159E-4,8.38231E-4,-2.3697524E-3],"split_indices":[22,18,15,27,17,24,7,0,0,0,0,0,0,0,0],"split_type":[0,0,0,0,0,0,0,0,0,0,0,0,0,0,0],"sum_hessian":[4.2689426E4,4.164144E3,3.852528E4,4.5400385E2,3.7101404E3,3.712672E4,1.398563E3,1.4743869E2,3.0656516E2,3.2381982E3,4.719422E2,6.065046E2,3.6520215E4,5.2097284E2,8.775901E2],"tree_param":{"num_deleted":"0","num_feature":"29","num_nodes":"15","size_leaf_vector":"1"}},{"base_weights":[3.2721024E-3,7.0719124E-4,1.24957725E-1,-3.180954E-2,1.0333324E-2,-6.068508E-1,1.5572579E-1,-1.5888939E-3,-1.12560614E-4,1.7250831E-4,-2.7602736E-3,-1.1190423E-2,1.1053104E-2,-1.2313141E-2,2.462464E-3],"categories":[],"categories_nodes":[],"categories_segments":[],"categories_sizes":[],"default_left":[0,0,0,0,0,0,0,0,0,0,0,0,0,0,0],"id":40,"left_children":[1,3,5,7,9,11,13,-1,-1,-1,-1,-1,-1,-1,-1],"loss_changes":[1.3347833E1,1.3110614E1,1.9972418E1,1.8574709E1,1.3338392E1,1.0258743E1,1.7856657E1,0E0,0E0,0E0,0E0,0E0,0E0,0E0,0E0],"parents":[2147483647,0,0,1,1,2,2,3,3,4,4,5,5,6,6],"right_children":[2,4,6,8,10,12,14,-1,-1,-1,-1,-1,-1,-1,-1],"split_conditions":[8.022175E-1,-1.2984074E1,4.472137E-1,-4.4721317E-1,7.493229E-1,2.21E2,3.99E0,-1.5888939E-3,-1.12560614E-4,1.7250831E-4,-2.7602736E-3,-1.1190423E-2,1.1053104E-2,-1.2313141E-2,2.462464E-3],"split_indices":[18,22,17,15,18,2,3,0,0,0,0,0,0,0,0],"split_type":[0,0,0,0,0,0,0,0,0,0,0,0,0,0,0],"sum_hessian":[4.2765332E4,4.1883508E4,8.818222E2,9.566365E3,3.2317143E4,3.482389E1,8.4699835E2,2.155456E3,7.4109087E3,3.201128E4,3.0586462E2,3.0981209E1,3.8426802E0,1.5368514E1,8.316298E2],"tree_param":{"num_deleted":"0","num_feature":"29","num_nodes":"15","size_leaf_vector":"1"}},{"base_weights":[-2.8301342E-3,-9.223437E-3,3.2489274E-2,-8.6366594E-2,-6.360033E-3,-2.0065127E-2,8.998915E-2,-7.0062507E-4,-5.1304298E-3,-5.9028684E-5,-1.4293763E-3,-9.3283615E-4,6.9463695E-4,1.7892589E-3,-1.0419791E-3],"categories":[],"categories_nodes":[],"categories_segments":[],"categories_sizes":[],"default_left":[0,0,0,0,1,0,0,0,0,0,0,0,0,0,0],"id":41,"left_children":[1,3,5,7,9,11,13,-1,-1,-1,-1,-1,-1,-1,-1],"loss_changes":[9.616181E0,7.964434E0,1.9725945E1,1.3109886E1,7.135317E0,1.1071487E1,1.9389753E1,0E0,0E0,0E0,0E0,0E0,0E0,0E0,0E0],"parents":[2147483647,0,0,1,1,2,2,3,3,4,4,5,5,6,6],"right_children":[2,4,6,8,10,12,14,-1,-1,-1,-1,-1,-1,-1,-1],"split_conditions":[1.1360159E0,-1.6E2,1.57E2,-1.7262585E2,8.262E1,1.75E2,1.1134562E2,-7.0062507E-4,-5.1304298E-3,-5.9028684E-5,-1.4293763E-3,-9.3283615E-4,6.9463695E-4,1.7892589E-3,-1.0419791E-3],"split_indices":[15,22,2,22,23,25,22,0,0,0,0,0,0,0,0],"split_type":[0,0,0,0,0,0,0,0,0,0,0,0,0,0,0],"sum_hessian":[4.2583395E4,3.6057266E4,6.526127E3,1.2894321E3,3.4767836E4,3.410035E3,3.116092E3,1.1424586E3,1.4697345E2,3.400741E4,7.60424E2,2.0440878E3,1.3659471E3,2.5335974E3,5.8249445E2],"tree_param":{"num_deleted":"0","num_feature":"29","num_nodes":"15","size_leaf_vector":"1"}},{"base_weights":[3.329026E-4,-6.708091E-1,7.296863E-4,-1.2893848E-2,2.7682093E-1,-1.5727989E-3,9.1004066E-2,-7.108208E-3,7.7016926E-3,-2.3275812E-4,1.7036666E-4,-1.2421421E-2,1.4197235E-3],"categories":[],"categories_nodes":[],"categories_segments":[],"categories_sizes":[],"default_left":[0,0,0,0,0,0,0,0,0,0,0,0,0],"id":42,"left_children":[1,3,5,-1,7,9,11,-1,-1,-1,-1,-1,-1],"loss_changes":[1.1365601E1,6.233532E0,8.865993E0,0E0,1.5735351E0,8.604057E0,1.0887918E1,0E0,0E0,0E0,0E0,0E0,0E0],"parents":[2147483647,0,0,1,1,2,2,4,4,5,5,6,6],"right_children":[2,4,6,-1,8,10,12,-1,-1,-1,-1,-1,-1],"split_conditions":[-2.8556E2,2.49E2,2.0270125E2,-1.2893848E-2,-1.4835E2,1.2966888E-1,-6.004391E-1,-7.108208E-3,7.7016926E-3,-2.3275812E-4,1.7036666E-4,-1.2421421E-2,1.4197235E-3],"split_indices":[23,8,22,0,22,15,18,0,0,0,0,0,0],"split_type":[0,0,0,0,0,0,0,0,0,0,0,0,0],"sum_hessian":[4.2677137E4,2.4217781E1,4.265292E4,1.9181787E1,5.035994E0,4.1593055E4,1.0598654E3,1.0794611E0,3.956533E0,1.9849623E4,2.1743432E4,1.0267298E1,1.0495981E3],"tree_param":{"num_deleted":"0","num_feature":"29","num_nodes":"13","size_leaf_vector":"1"}},{"base_weights":[1.1377911E-3,1.0231038E-2,-3.2337498E-2,2.4404018E-5,3.3181768E-2,-2.9582828E-2,-7.308079E-1,-9.465116E-4,1.9591814E-4,1.4312238E-3,-7.5770266E-5,-5.960302E-4,1.4567632E-3,-1.3543942E-2,2.0249402E-3],"categories":[],"categories_nodes":[],"categories_segments":[],"categories_sizes":[],"default_left":[0,0,0,0,0,1,0,0,0,0,0,0,0,0,0],"id":43,"left_children":[1,3,5,7,9,11,13,-1,-1,-1,-1,-1,-1,-1,-1],"loss_changes":[1.2958862E1,7.8421817E0,1.747571E1,2.189552E1,2.746265E1,1.5731838E1,7.5313435E0,0E0,0E0,0E0,0E0,0E0,0E0,0E0,0E0],"parents":[2147483647,0,0,1,1,2,2,3,3,4,4,5,5,6,6],"right_children":[2,4,6,8,10,12,14,-1,-1,-1,-1,-1,-1,-1,-1],"split_conditions":[1.9771E2,1E0,2.6821933E2,-2.7162087E-1,9.8E1,8.293E1,1.35E2,-9.465116E-4,1.9591814E-4,1.4312238E-3,-7.5770266E-5,-5.960302E-4,1.4567632E-3,-1.3543942E-2,2.0249402E-3],"split_indices":[25,6,22,18,5,4,8,0,0,0,0,0,0,0,0],"split_type":[0,0,0,0,0,0,0,0,0,0,0,0,0,0,0],"sum_hessian":[4.2569867E4,3.3476883E4,9.092985E3,2.3172586E4,1.0304297E4,9.058303E3,3.468232E1,3.9663376E3,1.920625E4,3.6938933E3,6.6104033E3,8.256389E3,8.019143E2,2.7220165E1,7.4621553E0],"tree_param":{"num_deleted":"0","num_feature":"29","num_nodes":"15","size_leaf_vector":"1"}},{"base_weights":[7.255346E-4,-8.725115E-2,3.6550863E-3,-5.2342224E-1,-7.534524E-2,4.5066224E-3,-1.5044273E-1,-9.365896E-3,9.695217E-3,-2.3538775E-3,-1.8892037E-4,5.023561E-5,2.222157E-3,-1.084184E-4,-8.368024E-3],"categories":[],"categories_nodes":[],"categories_segments":[],"categories_sizes":[],"default_left":[0,0,0,1,0,0,0,0,0,0,0,0,0,0,0],"id":44,"left_children":[1,3,5,7,9,11,13,-1,-1,-1,-1,-1,-1,-1,-1],"loss_changes":[1.0933082E1,7.0596266E0,5.3876505E0,6.862997E0,7.6415234E0,5.781922E0,1.4396848E1,0E0,0E0,0E0,0E0,0E0,0E0,0E0,0E0],"parents":[2147483647,0,0,1,1,2,2,3,3,4,4,5,5,6,6],"right_children":[2,4,6,8,10,12,14,-1,-1,-1,-1,-1,-1,-1,-1],"split_conditions":[-1.7988E2,5.5E1,2.6821933E2,4.33E0,2.8E1,1.0080868E0,4.884E1,-9.365896E-3,9.695217E-3,-2.3538775E-3,-1.8892037E-4,5.023561E-5,2.222157E-3,-1.084184E-4,-8.368024E-3],"split_indices":[22,20,22,3,8,18,21,0,0,0,0,0,0,0,0],"split_type":[0,0,0,0,0,0,0,0,0,0,0,0,0,0,0],"sum_hessian":[4.2418074E4,1.3660408E3,4.1052035E4,3.5155666E1,1.330885E3,4.0827395E4,2.2463916E2,3.17986E1,3.357067E0,5.316237E2,7.9926135E2,4.0586727E4,2.406684E2,1.7107614E2,5.3563015E1],"tree_param":{"num_deleted":"0","num_feature":"29","num_nodes":"15","size_leaf_vector":"1"}},{"base_weights":[2.2989495E-4,-1.9488868E-1,1.6110588E-3,-2.6806408E-1,2.0283404E-1,1.9905893E-3,-3.3265603E-1,-5.719309E-3,-5.879776E-4,6.0901986E-3,-6.219883E-3,2.972062E-5,-1.1681588E-2,-9.097929E-3,6.1635817E-3],"categories":[],"categories_nodes":[],"categories_segments":[],"categories_sizes":[],"default_left":[0,0,0,0,0,1,0,0,0,0,0,0,0,0,0],"id":45,"left_children":[1,3,5,7,9,11,13,-1,-1,-1,-1,-1,-1,-1,-1],"loss_changes":[1.1442089E1,8.739782E0,5.349222E0,8.000008E0,7.246458E0,4.662159E0,1.2009905E1,0E0,0E0,0E0,0E0,0E0,0E0,0E0,0E0],"parents":[2147483647,0,0,1,1,2,2,3,3,4,4,5,5,6,6],"right_children":[2,4,6,8,10,12,14,-1,-1,-1,-1,-1,-1,-1,-1],"split_conditions":[-3.6811E2,6.968016E-1,4.08E2,1.09E2,7.740965E-1,3.66E0,2.3114202E1,-5.719309E-3,-5.879776E-4,6.0901986E-3,-6.219883E-3,2.972062E-5,-1.1681588E-2,-9.097929E-3,6.1635817E-3],"split_indices":[22,18,21,5,18,24,22,0,0,0,0,0,0,0,0],"split_type":[0,0,0,0,0,0,0,0,0,0,0,0,0,0,0],"sum_hessian":[4.245603E4,2.9743158E2,4.2158598E4,2.5148743E2,4.594416E1,4.2111777E4,4.682014E1,1.5461545E2,9.687197E1,3.405365E1,1.189051E1,4.2106117E4,5.663484E0,3.3309456E1,1.3510685E1],"tree_param":{"num_deleted":"0","num_feature":"29","num_nodes":"15","size_leaf_vector":"1"}},{"base_weights":[1.2252472E-3,-9.246334E-2,4.264055E-3,-1.2703365E-1,8.880329E-2,1.9527508E-1,3.6286698E-3,-1.1616478E-2,-1.4794205E-3,-1.5485878E-3,3.2318237E-3,-1.4068242E-3,6.590193E-3,9.162191E-5,-5.543391E-4],"categories":[],"categories_nodes":[],"categories_segments":[],"categories_sizes":[],"default_left":[0,0,0,0,0,0,0,0,0,0,0,0,0,0,0],"id":46,"left_children":[1,3,5,7,9,11,13,-1,-1,-1,-1,-1,-1,-1,-1],"loss_changes":[1.2080956E1,8.365131E0,4.9874473E0,1.6724066E1,6.0903068E0,1.1146999E1,5.1631374E0,0E0,0E0,0E0,0E0,0E0,0E0,0E0,0E0],"parents":[2147483647,0,0,1,1,2,2,3,3,4,4,5,5,6,6],"right_children":[2,4,6,8,10,12,14,-1,-1,-1,-1,-1,-1,-1,-1],"split_conditions":[-1.7988E2,1.21E2,-1.7262585E2,6.1666668E1,5.654389E-1,1E0,3.0737E2,-1.1616478E-2,-1.4794205E-3,-1.5485878E-3,3.2318237E-3,-1.4068242E-3,6.590193E-3,9.162191E-5,-5.543391E-4],"split_indices":[22,8,22,20,15,11,25,0,0,0,0,0,0,0,0],"split_type":[0,0,0,0,0,0,0,0,0,0,0,0,0,0,0],"sum_hessian":[4.243137E4,1.3321083E3,4.109926E4,1.1189974E3,2.1311075E2,1.35245E2,4.0964016E4,3.189481E1,1.0871027E3,8.8742836E1,1.2436792E2,6.552448E1,6.9720505E1,3.8376152E4,2.587864E3],"tree_param":{"num_deleted":"0","num_feature":"29","num_nodes":"15","size_leaf_vector":"1"}},{"base_weights":[1.2313224E-3,2.5125572E-3,-1.5460409E-1,1.1198881E-2,-1.42454915E-2,-7.994177E-2,-6.019205E-1,1.0498861E-4,1.5107193E-3,-9.637515E-4,1.16798E-4,-3.4964278E-3,7.8278256E-4,-1.07586915E-2,-3.017904E-3],"categories":[],"categories_nodes":[],"categories_segments":[],"categories_sizes":[],"default_left":[0,0,0,0,0,0,0,0,0,0,0,0,0,0,0],"id":47,"left_children":[1,3,5,7,9,11,13,-1,-1,-1,-1,-1,-1,-1,-1],"loss_changes":[8.4913E0,6.1402245E0,1.1534379E1,9.939265E0,1.7758694E1,6.896529E0,3.0166588E0,0E0,0E0,0E0,0E0,0E0,0E0,0E0,0E0],"parents":[2147483647,0,0,1,1,2,2,3,3,4,4,5,5,6,6],"right_children":[2,4,6,8,10,12,14,-1,-1,-1,-1,-1,-1,-1,-1],"split_conditions":[2.9138E2,1.5009E2,1.9E1,1.45E2,7.8030765E-2,1E0,7.2E2,1.0498861E-4,1.5107193E-3,-9.637515E-4,1.16798E-4,-3.4964278E-3,7.8278256E-4,-1.07586915E-2,-3.017904E-3],"split_indices":[21,25,1,25,18,6,25,0,0,0,0,0,0,0,0],"split_type":[0,0,0,0,0,0,0,0,0,0,0,0,0,0,0],"sum_hessian":[4.252548E4,4.2179676E4,3.4580548E2,2.778039E4,1.4399285E4,2.9735257E2,4.84529E1,2.6757828E4,1.0225618E3,4.213512E3,1.0185772E4,1.3179077E2,1.655618E2,3.3166035E1,1.5286867E1],"tree_param":{"num_deleted":"0","num_feature":"29","num_nodes":"15","size_leaf_vector":"1"}},{"base_weights":[1.9513167E-3,-1.1050256E-1,4.0752827E-3,-6.98122E-1,-8.793413E-2,1.7338464E-2,-6.189037E-3,-1.1323622E-3,-1.2907521E-2,4.423946E-3,-1.5959782E-3,1.8367423E-4,2.673764E-3,1.1997636E-4,-5.545701E-4],"categories":[],"categories_nodes":[],"categories_segments":[],"categories_sizes":[],"default_left":[0,0,0,0,0,0,0,0,0,0,0,0,0,0,0],"id":48,"left_children":[1,3,5,7,9,11,13,-1,-1,-1,-1,-1,-1,-1,-1],"loss_changes":[1.0131549E1,1.0366556E1,5.667669E0,3.923771E0,8.020416E0,1.3303183E1,1.15774765E1,0E0,0E0,0E0,0E0,0E0,0E0,0E0,0E0],"parents":[2147483647,0,0,1,1,2,2,3,3,4,4,5,5,6,6],"right_children":[2,4,6,8,10,12,14,-1,-1,-1,-1,-1,-1,-1,-1],"split_conditions":[-2.32E2,7.6555E1,5.25E1,-2.9335E2,8.223E1,5.1795E1,6.523059E-1,-1.1323622E-3,-1.2907521E-2,4.423946E-3,-1.5959782E-3,1.8367423E-4,2.673764E-3,1.1997636E-4,-5.545701E-4],"split_indices":[22,20,20,22,20,20,17,0,0,0,0,0,0,0,0],"split_type":[0,0,0,0,0,0,0,0,0,0,0,0,0,0,0],"sum_hessian":[4.241547E4,7.853232E2,4.1630145E4,2.7938873E1,7.573843E2,1.8161643E4,2.3468502E4,7.7978864E0,2.0140987E1,4.5234917E1,7.121494E2,1.7731902E4,4.2973932E2,1.6280292E4,7.18821E3],"tree_param":{"num_deleted":"0","num_feature":"29","num_nodes":"15","size_leaf_vector":"1"}},{"base_weights":[-1.1663176E-3,-4.548317E-3,7.29641E-2,-8.686208E-4,-3.918521E-2,2.5959164E-2,2.1912847E-1,-3.2924838E-6,-6.0591316E-3,-3.758226E-3,-3.0302358E-4,-3.496003E-3,1.052818E-3,-1.29048675E-2,3.510599E-3],"categories":[],"categories_nodes":[],"categories_segments":[],"categories_sizes":[],"default_left":[0,0,0,0,0,0,0,0,0,0,0,0,0,0,0],"id":49,"left_children":[1,3,5,7,9,11,13,-1,-1,-1,-1,-1,-1,-1,-1],"loss_changes":[1.0613324E1,5.1600175E0,1.2684525E1,1.0013378E1,1.5629236E1,1.9006449E1,1.6445078E1,0E0,0E0,0E0,0E0,0E0,0E0,0E0,0E0],"parents":[2147483647,0,0,1,1,2,2,3,3,4,4,5,5,6,6],"right_children":[2,4,6,8,10,12,14,-1,-1,-1,-1,-1,-1,-1,-1],"split_conditions":[7.1162534E-1,1.38345E2,9.9E1,6.57E2,1.4814E2,5.6E1,1.07296E3,-3.2924838E-6,-6.0591316E-3,-3.758226E-3,-3.0302358E-4,-3.496003E-3,1.052818E-3,-1.29048675E-2,3.510599E-3],"split_indices":[18,20,8,25,25,2,10,0,0,0,0,0,0,0,0],"split_type":[0,0,0,0,0,0,0,0,0,0,0,0,0,0,0],"sum_hessian":[4.2330906E4,4.0484836E4,1.8460721E3,3.659784E4,3.8869949E3,1.3977485E3,4.483237E2,3.6545246E4,5.2595024E1,2.7524127E2,3.6117537E3,2.1121669E2,1.1865319E3,1.1334174E1,4.3698953E2],"tree_param":{"num_deleted":"0","num_feature":"29","num_nodes":"15","size_leaf_vector":"1"}},{"base_weights":[-1.6884139E-4,-5.107258E-2,3.2412568E-3,-2.0007958E-1,3.0814553E-2,2.5381562E-1,2.344609E-3,-5.212779E-3,3.8571277E-4,6.0154864E-4,-5.175511E-3,5.2503212E-3,-3.7926629E-3,-4.8132235E-4,9.359403E-5],"categories":[],"categories_nodes":[],"categories_segments":[],"categories_sizes":[],"default_left":[0,0,0,0,0,0,0,0,0,0,0,0,0,0,0],"id":50,"left_children":[1,3,5,7,9,11,13,-1,-1,-1,-1,-1,-1,-1,-1],"loss_changes":[7.3511705E0,3.244899E1,8.916802E0,3.699136E1,8.3718405E0,9.101578E0,6.304811E0,0E0,0E0,0E0,0E0,0E0,0E0,0E0,0E0],"parents":[2147483647,0,0,1,1,2,2,3,3,4,4,5,5,6,6],"right_children":[2,4,6,8,10,12,14,-1,-1,-1,-1,-1,-1,-1,-1],"split_conditions":[-1.1562796E0,4E0,-8.6141056E-1,1E0,1.11E2,6.584E1,-8.9E1,-5.212779E-3,3.8571277E-4,6.0154864E-4,-5.175511E-3,5.2503212E-3,-3.7926629E-3,-4.8132235E-4,9.359403E-5],"split_indices":[17,27,18,11,5,21,22,0,0,0,0,0,0,0,0],"split_type":[0,0,0,0,0,0,0,0,0,0,0,0,0,0,0],"sum_hessian":[4.234673E4,2.657865E3,3.9688867E4,9.42106E2,1.7157589E3,1.4050931E2,3.9548355E4,5.359127E2,4.0619333E2,1.6660931E3,4.9665802E1,1.14374695E2,2.6134611E1,4.179588E3,3.536877E4],"tree_param":{"num_deleted":"0","num_feature":"29","num_nodes":"15","size_leaf_vector":"1"}},{"base_weights":[4.0872164E-5,-9.632499E-3,1.953489E-2,1.6523348E-2,-3.7068535E-2,7.9672374E-2,-2.240669E-2,-3.1835225E-4,6.0568715E-4,-2.4476808E-3,-3.4382584E-4,6.165791E-4,2.0291398E-3,4.838565E-3,-4.603474E-4],"categories":[],"categories_nodes":[],"categories_segments":[],"categories_sizes":[],"default_left":[0,0,0,0,0,0,0,0,0,0,0,0,0,0,0],"id":51,"left_children":[1,3,5,7,9,11,13,-1,-1,-1,-1,-1,-1,-1,-1],"loss_changes":[7.991539E0,2.03263E1,3.5452217E1,1.5225414E1,2.3819862E1,1.3423504E1,3.193525E1,0E0,0E0,0E0,0E0,0E0,0E0,0E0,0E0],"parents":[2147483647,0,0,1,1,2,2,3,3,4,4,5,5,6,6],"right_children":[2,4,6,8,10,12,14,-1,-1,-1,-1,-1,-1,-1,-1],"split_conditions":[1E0,4.25E1,5E0,7E0,-9.4491136E-1,1.9217E4,-6.691446E-1,-3.1835225E-4,6.0568715E-4,-2.4476808E-3,-3.4382584E-4,6.165791E-4,2.0291398E-3,4.838565E-3,-4.603474E-4],"split_indices":[6,21,27,27,17,7,18,0,0,0,0,0,0,0,0],"split_type":[0,0,0,0,0,0,0,0,0,0,0,0,0,0,0],"sum_hessian":[4.237705E4,2.8323031E4,1.40540205E4,1.4500006E4,1.3823025E4,5.7740547E3,8.279966E3,5.874514E3,8.625492E3,1.1496061E3,1.2673419E4,3.7360781E3,2.0379764E3,2.282725E2,8.051694E3],"tree_param":{"num_deleted":"0","num_feature":"29","num_nodes":"15","size_leaf_vector":"1"}},{"base_weights":[-8.680821E-4,-1.344746E-1,2.9653797E-4,-1.0343766E-1,-8.547044E-1,-8.914201E-3,1.7040046E-2,-1.2304095E-2,-1.0997584E-3,-1.2773731E-2,-1.6274325E-3,-3.18587E-5,-1.2367982E-3,-1.5032869E-3,3.8387146E-4],"categories":[],"categories_nodes":[],"categories_segments":[],"categories_sizes":[],"default_left":[0,0,0,0,0,0,0,0,0,0,0,0,0,0,0],"id":52,"left_children":[1,3,5,7,9,11,13,-1,-1,-1,-1,-1,-1,-1,-1],"loss_changes":[6.5705986E0,8.06859E0,6.456284E0,6.7029963E0,5.3046703E-1,1.4240511E1,1.9188723E1,0E0,0E0,0E0,0E0,0E0,0E0,0E0,0E0],"parents":[2147483647,0,0,1,1,2,2,3,3,4,4,5,5,6,6],"right_children":[2,4,6,8,10,12,14,-1,-1,-1,-1,-1,-1,-1,-1],"split_conditions":[-3.27E2,2E1,5.5840486E-1,-6.990622E-1,4.08E2,4.9974677E-1,3.017798E-2,-1.2304095E-2,-1.0997584E-3,-1.2773731E-2,-1.6274325E-3,-3.18587E-5,-1.2367982E-3,-1.5032869E-3,3.8387146E-4],"split_indices":[22,27,17,15,21,17,18,0,0,0,0,0,0,0,0],"split_type":[0,0,0,0,0,0,0,0,0,0,0,0,0,0,0],"sum_hessian":[4.2226016E4,3.639055E2,4.186211E4,3.499679E2,1.3937588E1,2.7006232E4,1.4855878E4,9.814255E0,3.4015363E2,1.2708925E1,1.2286627E0,2.4924121E4,2.0821116E3,1.1431799E3,1.3712698E4],"tree_param":{"num_deleted":"0","num_feature":"29","num_nodes":"15","size_leaf_vector":"1"}},{"base_weights":[-5.085855E-3,-2.0427939E-2,2.6183775E-2,-2.2300912E-1,-1.7655078E-2,2.202455E-2,3.0607098E-1,-4.8774984E-3,2.1720163E-3,2.6235846E-3,-2.8755938E-4,1.5597723E-3,1.1163758E-4,5.321126E-3,-7.2391494E-3],"categories":[],"categories_nodes":[],"categories_segments":[],"categories_sizes":[],"default_left":[0,0,0,0,0,0,0,0,0,0,0,0,0,0,0],"id":53,"left_children":[1,3,5,7,9,11,13,-1,-1,-1,-1,-1,-1,-1,-1],"loss_changes":[2.0200266E1,1.5863319E1,1.6127071E1,1.8134539E1,1.6488628E1,1.7152006E1,1.2555048E1,0E0,0E0,0E0,0E0,0E0,0E0,0E0,0E0],"parents":[2147483647,0,0,1,1,2,2,3,3,4,4,5,5,6,6],"right_children":[2,4,6,8,10,12,14,-1,-1,-1,-1,-1,-1,-1,-1],"split_conditions":[1E0,-1.659E1,2.4290492E2,1.1198457E0,1.1317E2,7.99E1,2.26E2,-4.8774984E-3,2.1720163E-3,2.6235846E-3,-2.8755938E-4,1.5597723E-3,1.1163758E-4,5.321126E-3,-7.2391494E-3],"split_indices":[6,23,22,15,4,25,25,0,0,0,0,0,0,0,0],"split_type":[0,0,0,0,0,0,0,0,0,0,0,0,0,0,0],"sum_hessian":[4.210447E4,2.8246162E4,1.3858308E4,3.803306E2,2.7865832E4,1.3656446E4,2.0186105E2,2.8568515E2,9.464545E1,3.857143E2,2.7480117E4,1.8540703E3,1.1802376E4,1.8570284E2,1.6158218E1],"tree_param":{"num_deleted":"0","num_feature":"29","num_nodes":"15","size_leaf_vector":"1"}},{"base_weights":[-2.51535E-4,3.9201225E-3,-6.0236644E-2,1.092327E-2,-1.5966421E-2,-4.5894673E-1,-5.052349E-2,1.6432657E-4,-5.503066E-3,-1.5005721E-3,8.015232E-5,-8.907748E-3,3.989141E-3,-6.8532936E-3,-5.939264E-4],"categories":[],"categories_nodes":[],"categories_segments":[],"categories_sizes":[],"default_left":[0,0,0,1,0,0,0,0,0,0,0,0,0,0,0],"id":54,"left_children":[1,3,5,7,9,11,13,-1,-1,-1,-1,-1,-1,-1,-1],"loss_changes":[1.0542777E1,5.4861913E0,1.0586108E1,9.589221E0,2.0300695E1,8.758777E0,9.493046E0,0E0,0E0,0E0,0E0,0E0,0E0,0E0,0E0],"parents":[2147483647,0,0,1,1,2,2,3,3,4,4,5,5,6,6],"right_children":[2,4,6,8,10,12,14,-1,-1,-1,-1,-1,-1,-1,-1],"split_conditions":[1.63E2,8.217E1,1.4662E2,2.1991E2,0E0,2.7142E4,2.2875E1,1.6432657E-4,-5.503066E-3,-1.5005721E-3,8.015232E-5,-8.907748E-3,3.989141E-3,-6.8532936E-3,-5.939264E-4],"split_indices":[20,21,4,23,17,7,21,0,0,0,0,0,0,0,0],"split_type":[0,0,0,0,0,0,0,0,0,0,0,0,0,0,0],"sum_hessian":[4.212917E4,3.9390688E4,2.738486E3,2.9132113E4,1.0258572E4,6.402698E1,2.674459E3,2.9074479E4,5.7634495E1,1.9700771E3,8.288495E3,5.1819386E1,1.2207589E1,4.7377033E1,2.627082E3],"tree_param":{"num_deleted":"0","num_feature":"29","num_nodes":"15","size_leaf_vector":"1"}},{"base_weights":[1.8730073E-3,-3.5733767E-3,3.1822585E-2,-7.298067E-5,-7.248642E-2,-2.1042265E-1,4.001594E-2,-1.9236555E-5,2.4102898E-3,-2.8872036E-3,-1.3321465E-4,7.450876E-3,-5.25257E-3,1.4611692E-3,9.559625E-5],"categories":[],"categories_nodes":[],"categories_segments":[],"categories_sizes":[],"default_left":[0,0,0,0,0,0,0,0,0,0,0,0,0,0,0],"id":55,"left_children":[1,3,5,7,9,11,13,-1,-1,-1,-1,-1,-1,-1,-1],"loss_changes":[6.9050207E0,8.640226E0,1.2936599E1,7.6390166E0,1.4579962E1,2.629315E1,1.3457249E1,0E0,0E0,0E0,0E0,0E0,0E0,0E0,0E0],"parents":[2147483647,0,0,1,1,2,2,3,3,4,4,5,5,6,6],"right_children":[2,4,6,8,10,12,14,-1,-1,-1,-1,-1,-1,-1,-1],"split_conditions":[1.1360159E0,1.7508E2,4.204E1,1.6813E2,3.1380782E-1,5.035E0,5.368018E-1,-1.9236555E-5,2.4102898E-3,-2.8872036E-3,-1.3321465E-4,7.450876E-3,-5.25257E-3,1.4611692E-3,9.559625E-5],"split_indices":[15,21,25,21,17,21,18,0,0,0,0,0,0,0,0],"split_type":[0,0,0,0,0,0,0,0,0,0,0,0,0,0,0],"sum_hessian":[4.233004E4,3.581745E4,6.512587E3,3.4087023E4,1.7304283E3,2.1225851E2,6.300328E3,3.383245E4,2.545752E2,5.5320917E2,1.1772191E3,3.8136303E1,1.7412221E2,2.142914E3,4.157414E3],"tree_param":{"num_deleted":"0","num_feature":"29","num_nodes":"15","size_leaf_vector":"1"}},{"base_weights":[-4.7945787E-4,-4.636476E-1,-6.64038E-5,1.3051517E-1,-1.3059619E-2,-5.860674E-3,3.1106919E-2,-1.1649353E-2,8.904445E-3,-7.2745745E-5,-7.2379364E-3,5.5481526E-3,3.4460987E-4],"categories":[],"categories_nodes":[],"categories_segments":[],"categories_sizes":[],"default_left":[0,0,0,0,0,0,0,0,0,0,0,0,0],"id":56,"left_children":[1,3,5,7,-1,9,11,-1,-1,-1,-1,-1,-1],"loss_changes":[8.055294E0,1.0580116E1,7.598938E0,9.011226E0,0E0,1.2047554E1,1.5623196E1,0E0,0E0,0E0,0E0,0E0,0E0],"parents":[2147483647,0,0,1,1,2,2,3,3,5,5,6,6],"right_children":[2,4,6,8,-1,10,12,-1,-1,-1,-1,-1,-1],"split_conditions":[-1.5478752E0,5.6E1,5.155476E-1,5.5E1,-1.3059619E-2,1.8522004E0,5.975E0,-1.1649353E-2,8.904445E-3,-7.2745745E-5,-7.2379364E-3,5.5481526E-3,3.4460987E-4],"split_indices":[18,2,18,2,0,15,21,0,0,0,0,0,0],"split_type":[0,0,0,0,0,0,0,0,0,0,0,0,0],"sum_hessian":[4.2104367E4,3.651603E1,4.2067848E4,1.6430548E1,2.0085482E1,3.5474855E4,6.5929956E3,5.435038E0,1.0995509E1,3.54298E4,4.5053738E1,1.1410698E2,6.4788887E3],"tree_param":{"num_deleted":"0","num_feature":"29","num_nodes":"13","size_leaf_vector":"1"}},{"base_weights":[1.3229586E-4,1.302794E-3,-1.4899248E-1,4.904571E-3,-4.4152435E-2,-7.626554E-2,-8.0938727E-1,3.3874254E-5,1.0835467E-3,-1.2420435E-3,1.3145902E-3,-4.180598E-3,2.4769106E-3,-4.3618754E-3,-1.3189967E-2],"categories":[],"categories_nodes":[],"categories_segments":[],"categories_sizes":[],"default_left":[1,0,0,0,1,0,0,0,0,0,0,0,0,0,0],"id":57,"left_children":[1,3,5,7,9,11,13,-1,-1,-1,-1,-1,-1,-1,-1],"loss_changes":[7.36883E0,6.8579726E0,1.5729004E1,6.9915504E0,1.8929436E1,1.6787762E1,1.8550701E0,0E0,0E0,0E0,0E0,0E0,0E0,0E0,0E0],"parents":[2147483647,0,0,1,1,2,2,3,3,4,4,5,5,6,6],"right_children":[2,4,6,8,10,12,14,-1,-1,-1,-1,-1,-1,-1,-1],"split_conditions":[8.2E-1,1.0221593E0,1.33805E2,6.968016E-1,2.98558E3,1.15E2,1.647E3,3.3874254E-5,1.0835467E-3,-1.2420435E-3,1.3145902E-3,-4.180598E-3,2.4769106E-3,-4.3618754E-3,-1.3189967E-2],"split_indices":[24,17,21,18,10,25,7,0,0,0,0,0,0,0,0],"split_type":[0,0,0,0,0,0,0,0,0,0,0,0,0,0,0],"sum_hessian":[4.221398E4,4.18862E4,3.277785E2,3.881173E4,3.074468E3,2.9626712E2,3.1511366E1,3.752638E4,1.2853547E3,2.324459E3,7.500092E2,1.5764468E2,1.3862244E2,7.338586E0,2.4172781E1],"tree_param":{"num_deleted":"0","num_feature":"29","num_nodes":"15","size_leaf_vector":"1"}},{"base_weights":[-1.2308278E-3,7.345856E-3,-1.6273795E-2,3.750332E-3,1.0566351E-1,-5.075466E-2,3.4944754E-4,6.6529414E-5,-5.0592953E-3,-1.7256697E-3,2.4697105E-3,2.9544233E-4,-1.4216654E-3,7.1179884E-4,-3.9509212E-4],"categories":[],"categories_nodes":[],"categories_segments":[],"categories_sizes":[],"default_left":[0,0,0,1,0,0,0,0,0,0,0,0,0,0,0],"id":58,"left_children":[1,3,5,7,9,11,13,-1,-1,-1,-1,-1,-1,-1,-1],"loss_changes":[5.434551E0,9.4830475E0,8.766994E0,9.468541E0,1.5349331E1,1.8161163E1,1.4890556E1,0E0,0E0,0E0,0E0,0E0,0E0,0E0,0E0],"parents":[2147483647,0,0,1,1,2,2,3,3,4,4,5,5,6,6],"right_children":[2,4,6,8,10,12,14,-1,-1,-1,-1,-1,-1,-1,-1],"split_conditions":[1.47E2,1.3178E2,1.11454785E-1,1.29E0,8E0,5.25E1,1.1E1,6.6529414E-5,-5.0592953E-3,-1.7256697E-3,2.4697105E-3,2.9544233E-4,-1.4216654E-3,7.1179884E-4,-3.9509212E-4],"split_indices":[25,21,18,24,8,21,1,0,0,0,0,0,0,0,0],"split_type":[0,0,0,0,0,0,0,0,0,0,0,0,0,0,0],"sum_hessian":[4.2120246E4,2.6826018E4,1.5294228E4,2.588059E4,9.454275E2,4.974268E3,1.031996E4,2.5810762E4,6.9827576E1,2.2301588E2,7.224116E2,2.0602192E3,2.9140488E3,3.7289229E3,6.5910366E3],"tree_param":{"num_deleted":"0","num_feature":"29","num_nodes":"15","size_leaf_vector":"1"}},{"base_weights":[1.1621794E-3,-6.245088E-2,5.345182E-3,-7.4373186E-2,4.3653658E-1,-6.9429097E-3,1.4719388E-2,2.0215666E-4,-1.5867322E-3,-3.2880933E-3,1.0395674E-2,-7.766791E-3,-8.1311766E-5,-2.7759167E-4,3.5999727E-4],"categories":[],"categories_nodes":[],"categories_segments":[],"categories_sizes":[],"default_left":[0,0,0,0,0,0,0,0,0,0,0,0,0,0,0],"id":59,"left_children":[1,3,5,7,9,11,13,-1,-1,-1,-1,-1,-1,-1,-1],"loss_changes":[1.1225181E1,1.5516817E1,4.5595994E0,8.801651E0,1.2683268E1,1.0646961E1,8.5292015E0,0E0,0E0,0E0,0E0,0E0,0E0,0E0,0E0],"parents":[2147483647,0,0,1,1,2,2,3,3,4,4,5,5,6,6],"right_children":[2,4,6,8,10,12,14,-1,-1,-1,-1,-1,-1,-1,-1],"split_conditions":[-1.2569E2,9.0957355E-1,3.0786318E-1,4.884E1,-1.977733E2,5E0,2.5876667E1,2.0215666E-4,-1.5867322E-3,-3.2880933E-3,1.0395674E-2,-7.766791E-3,-8.1311766E-5,-2.7759167E-4,3.5999727E-4],"split_indices":[22,18,17,21,22,2,21,0,0,0,0,0,0,0,0],"split_type":[0,0,0,0,0,0,0,0,0,0,0,0,0,0,0],"sum_hessian":[4.2182836E4,2.6018127E3,3.9581023E4,2.5419292E3,5.9883373E1,1.7128521E4,2.2452504E4,7.7533325E2,1.766596E3,1.8821287E1,4.1062088E1,3.4403015E1,1.709412E4,5.420258E3,1.7032246E4],"tree_param":{"num_deleted":"0","num_feature":"29","num_nodes":"15","size_leaf_vector":"1"}},{"base_weights":[1.5530442E-3,-2.855522E-2,1.0513894E-2,-6.3965666E-1,-2.584938E-2,2.272361E-2,-1.6642027E-2,-1.0530231E-2,1.9100119E-3,-6.1229063E-4,7.096934E-4,3.3665632E-4,-4.1108304E-3,3.0809297E-4,-6.249397E-4],"categories":[],"categories_nodes":[],"categories_segments":[],"categories_sizes":[],"default_left":[0,0,0,0,0,0,0,0,0,0,0,0,0,0,0],"id":60,"left_children":[1,3,5,7,9,11,13,-1,-1,-1,-1,-1,-1,-1,-1],"loss_changes":[1.136881E1,1.5964758E1,1.0767523E1,3.8189068E0,1.3176537E1,9.385018E0,1.0899871E1,0E0,0E0,0E0,0E0,0E0,0E0,0E0,0E0],"parents":[2147483647,0,0,1,1,2,2,3,3,4,4,5,5,6,6],"right_children":[2,4,6,8,10,12,14,-1,-1,-1,-1,-1,-1,-1,-1],"split_conditions":[-1.2984074E1,-2.7981236E0,3.7245086E-1,2.4E1,1.0798842E0,5.63E2,6E1,-1.0530231E-2,1.9100119E-3,-6.1229063E-4,7.096934E-4,3.3665632E-4,-4.1108304E-3,3.0809297E-4,-6.249397E-4],"split_indices":[22,17,18,27,15,25,20,0,0,0,0,0,0,0,0],"split_type":[0,0,0,0,0,0,0,0,0,0,0,0,0,0,0],"sum_hessian":[4.213648E4,9.663877E3,3.2472605E4,4.1563473E1,9.622313E3,2.2400957E4,1.0071647E4,3.632812E1,5.2353506E0,7.8000815E3,1.8222318E3,2.2308568E4,9.238994E1,4.2310195E3,5.840628E3],"tree_param":{"num_deleted":"0","num_feature":"29","num_nodes":"15","size_leaf_vector":"1"}},{"base_weights":[2.0833004E-4,3.363322E-2,-3.7057507E-3,5.0054915E-2,-1.521853E-1,-1.3092396E-2,-3.311247E-3,4.0859092E-4,2.7277183E-3,-1.2249609E-2,-1.4302059E-3,-1.7900354E-3,-1.740965E-5],"categories":[],"categories_nodes":[],"categories_segments":[],"categories_sizes":[],"default_left":[0,0,0,0,0,0,0,0,0,0,0,0,0],"id":61,"left_children":[1,3,5,7,9,-1,11,-1,-1,-1,-1,-1,-1],"loss_changes":[5.5145373E0,1.3490528E1,1.3862393E1,1.2263416E1,1.2892796E1,0E0,9.713235E0,0E0,0E0,0E0,0E0,0E0,0E0],"parents":[2147483647,0,0,1,1,2,2,3,3,4,4,6,6],"right_children":[2,4,6,8,10,-1,12,-1,-1,-1,-1,-1,-1],"split_conditions":[5.115E1,3.2E1,1.3E1,4.818E1,3.1408E3,-1.3092396E-2,5.5E1,4.0859092E-4,2.7277183E-3,-1.2249609E-2,-1.4302059E-3,-1.7900354E-3,-1.740965E-5],"split_indices":[25,1,20,25,10,0,25,0,0,0,0,0,0],"split_type":[0,0,0,0,0,0,0,0,0,0,0,0,0],"sum_hessian":[4.2149184E4,4.417518E3,3.7731664E4,4.0594917E3,3.5802658E2,1.4970603E1,3.7716695E4,3.549102E3,5.103895E2,2.2109207E1,3.359174E2,6.149378E2,3.7101754E4],"tree_param":{"num_deleted":"0","num_feature":"29","num_nodes":"13","size_leaf_vector":"1"}},{"base_weights":[-1.3945028E-3,-5.1082134E-2,7.276576E-3,-4.715997E-2,-2.98133E-1,2.657532E-1,6.8594688E-3,-7.467569E-4,2.543401E-3,1.7508946E-3,-7.971948E-3,6.6578933E-3,-1.23209795E-2,-5.0265103E-4,1.346461E-4],"categories":[],"categories_nodes":[],"categories_segments":[],"categories_sizes":[],"default_left":[0,1,0,1,0,0,0,0,0,0,0,0,0,0,0],"id":62,"left_children":[1,3,5,7,9,11,13,-1,-1,-1,-1,-1,-1,-1,-1],"loss_changes":[1.8093525E1,6.032118E0,3.853096E0,8.697358E0,1.1245226E1,1.4261123E1,4.2108984E0,0E0,0E0,0E0,0E0,0E0,0E0,0E0,0E0],"parents":[2147483647,0,0,1,1,2,2,3,3,4,4,5,5,6,6],"right_children":[2,4,6,8,10,12,14,-1,-1,-1,-1,-1,-1,-1,-1],"split_conditions":[-5.3870018E1,5E-1,-3.8999524E0,1.8694E2,-1.0801234E0,-1.3487841E0,-1.1562796E0,-7.467569E-4,2.543401E-3,1.7508946E-3,-7.971948E-3,6.6578933E-3,-1.23209795E-2,-5.0265103E-4,1.346461E-4],"split_indices":[22,24,17,4,15,18,17,0,0,0,0,0,0,0,0],"split_type":[0,0,0,0,0,0,0,0,0,0,0,0,0,0,0],"sum_hessian":[4.199354E4,6.2387754E3,3.5754766E4,6.142449E3,9.632624E1,5.6580116E1,3.5698184E4,5.9816753E3,1.6077386E2,3.7838997E1,5.8487247E1,4.8317673E1,8.262444E0,2.1622085E3,3.3535977E4],"tree_param":{"num_deleted":"0","num_feature":"29","num_nodes":"15","size_leaf_vector":"1"}},{"base_weights":[1.8279671E-3,-2.8465118E-2,1.078194E-2,-1.8557638E-2,-1.5108974E-1,1.301941E-2,-4.3870382E-2,-2.0424034E-3,-1.2799528E-4,1.978632E-4,-4.133905E-3,1.2482885E-4,1.3655919E-3,3.8588021E-3,-1.0451663E-3],"categories":[],"categories_nodes":[],"categories_segments":[],"categories_sizes":[],"default_left":[0,0,0,0,0,0,0,0,0,0,0,0,0,0,0],"id":63,"left_children":[1,3,5,7,9,11,13,-1,-1,-1,-1,-1,-1,-1,-1],"loss_changes":[1.1415265E1,1.1661987E1,3.9727328E0,1.0649884E1,1.710024E1,1.0821656E1,1.2588436E1,0E0,0E0,0E0,0E0,0E0,0E0,0E0,0E0],"parents":[2147483647,0,0,1,1,2,2,3,3,4,4,5,5,6,6],"right_children":[2,4,6,8,10,12,14,-1,-1,-1,-1,-1,-1,-1,-1],"split_conditions":[-1.2984074E1,2.0898E2,1.918316E2,1.2562E1,8E1,1.4441171E2,2.2E1,-2.0424034E-3,-1.2799528E-4,1.978632E-4,-4.133905E-3,1.2482885E-4,1.3655919E-3,3.8588021E-3,-1.0451663E-3],"split_indices":[22,21,22,21,2,22,2,0,0,0,0,0,0,0,0],"split_type":[0,0,0,0,0,0,0,0,0,0,0,0,0,0,0],"sum_hessian":[4.2082805E4,9.600435E3,3.2482371E4,8.883816E3,7.166182E2,3.1205574E4,1.2767966E3,6.106744E2,8.273142E3,3.3437177E2,3.8224643E2,2.9761922E4,1.4436525E3,1.1151115E2,1.1652854E3],"tree_param":{"num_deleted":"0","num_feature":"29","num_nodes":"15","size_leaf_vector":"1"}},{"base_weights":[1.9158986E-4,-7.995084E-2,2.7303007E-3,-2.000365E-1,-7.747656E-3,3.3054734E-3,-2.1549761E-1,-4.2399188E-4,-4.4300742E-3,-1.637054E-3,1.6462295E-3,3.9449424E-5,4.7074314E-3,-1.0017543E-2,-7.9851184E-4],"categories":[],"categories_nodes":[],"categories_segments":[],"categories_sizes":[],"default_left":[0,0,1,0,0,1,0,0,0,0,0,0,0,0,0],"id":64,"left_children":[1,3,5,7,9,11,13,-1,-1,-1,-1,-1,-1,-1,-1],"loss_changes":[8.558583E0,1.119748E1,5.1185894E0,9.572403E0,1.1066385E1,6.6018662E0,8.453253E0,0E0,0E0,0E0,0E0,0E0,0E0,0E0,0E0],"parents":[2147483647,0,0,1,1,2,2,3,3,4,4,5,5,6,6],"right_children":[2,4,6,8,10,12,14,-1,-1,-1,-1,-1,-1,-1,-1],"split_conditions":[-1.7988E2,2.8E1,1.29E0,5.1E1,2.16E2,1.17E0,1.68E0,-4.2399188E-4,-4.4300742E-3,-1.637054E-3,1.6462295E-3,3.9449424E-5,4.7074314E-3,-1.0017543E-2,-7.9851184E-4],"split_indices":[22,8,24,5,2,24,24,0,0,0,0,0,0,0,0],"split_type":[0,0,0,0,0,0,0,0,0,0,0,0,0,0,0],"sum_hessian":[4.2063434E4,1.2906146E3,4.077282E4,4.8395245E2,8.066622E2,4.066662E4,1.06198166E2,1.9737106E2,2.865814E2,4.311431E2,3.7551907E2,4.0608152E4,5.8470387E1,2.4709402E1,8.148876E1],"tree_param":{"num_deleted":"0","num_feature":"29","num_nodes":"15","size_leaf_vector":"1"}},{"base_weights":[1.8101851E-3,-2.4391504E-2,7.961217E-3,-6.097153E-2,3.7233222E-2,8.719479E-3,-3.2561773E-1,-3.9619443E-4,-2.9315595E-3,-4.8909005E-4,1.636411E-3,8.0694685E-5,1.1868384E-3,-5.7208264E-4,-1.07952105E-2],"categories":[],"categories_nodes":[],"categories_segments":[],"categories_sizes":[],"default_left":[0,0,0,0,0,1,0,0,0,0,0,0,0,0,0],"id":65,"left_children":[1,3,5,7,9,11,13,-1,-1,-1,-1,-1,-1,-1,-1],"loss_changes":[6.7908044E0,1.8060743E1,8.634161E0,2.4373344E1,1.7160774E1,7.6528974E0,9.788874E0,0E0,0E0,0E0,0E0,0E0,0E0,0E0,0E0],"parents":[2147483647,0,0,1,1,2,2,3,3,4,4,5,5,6,6],"right_children":[2,4,6,8,10,12,14,-1,-1,-1,-1,-1,-1,-1,-1],"split_conditions":[-1.8070734E-1,1E0,4.08E2,9.8333336E1,-7.0320815E-2,3.56E1,6E0,-3.9619443E-4,-2.9315595E-3,-4.8909005E-4,1.636411E-3,8.0694685E-5,1.1868384E-3,-5.7208264E-4,-1.07952105E-2],"split_indices":[17,11,21,21,15,23,1,0,0,0,0,0,0,0,0],"split_type":[0,0,0,0,0,0,0,0,0,0,0,0,0,0,0],"sum_hessian":[4.2132883E4,8.009913E3,3.4122973E4,5.0263286E3,2.9835845E3,3.4046555E4,7.641771E1,4.120501E3,9.0582764E2,1.5656346E3,1.4179498E3,3.2773996E4,1.2725594E3,4.72842E1,2.9133507E1],"tree_param":{"num_deleted":"0","num_feature":"29","num_nodes":"15","size_leaf_vector":"1"}},{"base_weights":[-2.0276038E-3,-1.4062949E-3,-4.0500274E-1,-5.2899915E-1,-1.1715285E-3,1.4552255E-1,-7.0370525E-1,-1.3020412E-2,8.248271E-3,-2.9145592E-4,7.2051844E-5,-1.04643265E-2,4.8678713E-3,-1.1191822E-2,6.103558E-3],"categories":[],"categories_nodes":[],"categories_segments":[],"categories_sizes":[],"default_left":[0,0,0,0,0,0,0,0,0,0,0,0,0,0,0],"id":66,"left_children":[1,3,5,7,9,11,13,-1,-1,-1,-1,-1,-1,-1,-1],"loss_changes":[1.0513582E1,5.192932E0,1.0732606E1,8.909807E0,5.202741E0,4.514587E0,4.9382877E0,0E0,0E0,0E0,0E0,0E0,0E0,0E0,0E0],"parents":[2147483647,0,0,1,1,2,2,3,3,4,4,5,5,6,6],"right_children":[2,4,6,8,10,12,14,-1,-1,-1,-1,-1,-1,-1,-1],"split_conditions":[5.716067E2,-2.5E0,5.527402E-2,2.96E2,-7.5158505E0,-1.5801764E0,1.3289812E0,-1.3020412E-2,8.248271E-3,-2.9145592E-4,7.2051844E-5,-1.04643265E-2,4.8678713E-3,-1.1191822E-2,6.103558E-3],"split_indices":[20,24,17,25,22,17,17,0,0,0,0,0,0,0,0],"split_type":[0,0,0,0,0,0,0,0,0,0,0,0,0,0,0],"sum_hessian":[4.199311E4,4.1929465E4,6.364356E1,1.7647547E1,4.1911816E4,2.2565994E1,4.1077564E1,1.3112854E1,4.5346932E0,1.0197948E4,3.171387E4,3.6681318E0,1.8897863E1,3.8170536E1,2.9070299E0],"tree_param":{"num_deleted":"0","num_feature":"29","num_nodes":"15","size_leaf_vector":"1"}},{"base_weights":[7.904962E-4,-1.75949E-2,8.652202E-3,-9.006469E-3,-1.8412253E-1,2.3434103E-1,6.880124E-3,-2.0298903E-4,3.8312115E-3,-3.370631E-3,3.2198874E-3,4.1058087E-3,-1.2818029E-2,3.3501143E-5,1.1698471E-3],"categories":[],"categories_nodes":[],"categories_segments":[],"categories_sizes":[],"default_left":[0,1,0,1,0,0,1,0,0,0,0,0,0,0,0],"id":67,"left_children":[1,3,5,7,9,11,13,-1,-1,-1,-1,-1,-1,-1,-1],"loss_changes":[6.048543E0,1.7924908E1,1.1721542E1,1.8511831E1,1.447213E1,1.57416935E1,1.0007369E1,0E0,0E0,0E0,0E0,0E0,0E0,0E0,0E0],"parents":[2147483647,0,0,1,1,2,2,3,3,4,4,5,5,6,6],"right_children":[2,4,6,8,10,12,14,-1,-1,-1,-1,-1,-1,-1,-1],"split_conditions":[9.901466E-2,1.1317E2,1.0951155E-1,-2.036E1,6.270449E-1,1.2743862E0,1.1317E2,-2.0298903E-4,3.8312115E-3,-3.370631E-3,3.2198874E-3,4.1058087E-3,-1.2818029E-2,3.3501143E-5,1.1698471E-3],"split_indices":[17,4,17,23,19,15,4,0,0,0,0,0,0,0,0],"split_type":[0,0,0,0,0,0,0,0,0,0,0,0,0,0,0],"sum_hessian":[4.1844625E4,1.2533208E4,2.9311418E4,1.1919529E4,6.136791E2,2.2733376E2,2.9084084E4,1.1693254E4,2.262751E2,5.4021466E2,7.3464424E1,2.1695992E2,1.0373838E1,2.7477203E4,1.6068807E3],"tree_param":{"num_deleted":"0","num_feature":"29","num_nodes":"15","size_leaf_vector":"1"}},{"base_weights":[1.9931232E-4,8.368217E-4,-2.0267804E-1,-1.9622092E-1,1.3209325E-3,-4.2595556E-1,3.4056053E-2,-6.360196E-3,1.8109037E-3,1.9931627E-5,-1.1051649E-2,-1.2779066E-2,-2.91177E-3,-5.8940654E-3,4.268641E-3],"categories":[],"categories_nodes":[],"categories_segments":[],"categories_sizes":[],"default_left":[1,0,0,0,1,0,0,0,0,0,0,0,0,0,0],"id":68,"left_children":[1,3,5,7,9,11,13,-1,-1,-1,-1,-1,-1,-1,-1],"loss_changes":[5.4147143E0,3.9815876E0,6.946396E0,8.652895E0,3.3838215E0,6.9797783E0,8.087894E0,0E0,0E0,0E0,0E0,0E0,0E0,0E0,0E0],"parents":[2147483647,0,0,1,1,2,2,3,3,4,4,5,5,6,6],"right_children":[2,4,6,8,10,12,14,-1,-1,-1,-1,-1,-1,-1,-1],"split_conditions":[2.0018E2,-1.6898E2,1E0,7E0,3.66E0,4.13E0,2E0,-6.360196E-3,1.8109037E-3,1.9931627E-5,-1.1051649E-2,-1.2779066E-2,-2.91177E-3,-5.8940654E-3,4.268641E-3],"split_indices":[23,23,6,27,24,3,27,0,0,0,0,0,0,0,0],"split_type":[0,0,0,0,0,0,0,0,0,0,0,0,0,0,0],"sum_hessian":[4.1863105E4,4.173296E4,1.3014322E2,1.0128307E2,4.163168E4,6.656379E1,6.3579437E1,5.6277092E1,4.500598E1,4.162727E4,4.4112906E0,1.9600014E1,4.6963776E1,2.3515574E1,4.006386E1],"tree_param":{"num_deleted":"0","num_feature":"29","num_nodes":"15","size_leaf_vector":"1"}},{"base_weights":[-4.399704E-3,-7.3582623E-3,3.2929216E-2,-6.7901355E-3,-3.0228457E-1,2.0323358E-1,1.3997095E-2,-5.367064E-5,-6.3002727E-4,-8.456571E-3,8.355833E-3,3.9866776E-3,-5.143414E-3,-1.6621882E-3,8.37995E-4],"categories":[],"categories_nodes":[],"categories_segments":[],"categories_sizes":[],"default_left":[0,0,0,0,0,0,0,0,0,0,0,0,0,0,0],"id":69,"left_children":[1,3,5,7,9,11,13,-1,-1,-1,-1,-1,-1,-1,-1],"loss_changes":[4.6115723E0,6.4804697E0,9.884088E0,4.362363E0,2.0536076E1,1.4373374E1,1.681099E1,0E0,0E0,0E0,0E0,0E0,0E0,0E0,0E0],"parents":[2147483647,0,0,1,1,2,2,3,3,4,4,5,5,6,6],"right_children":[2,4,6,8,10,12,14,-1,-1,-1,-1,-1,-1,-1,-1],"split_conditions":[1.4510169E0,3E1,1E0,1.5155E2,9.482323E-1,1.9722558E0,1.6E1,-5.367064E-5,-6.3002727E-4,-8.456571E-3,8.355833E-3,3.9866776E-3,-5.143414E-3,-1.6621882E-3,8.37995E-4],"split_indices":[15,27,27,20,17,15,8,0,0,0,0,0,0,0,0],"split_type":[0,0,0,0,0,0,0,0,0,0,0,0,0,0,0],"sum_hessian":[4.1753242E4,3.8687785E4,3.0654546E3,3.8614426E4,7.3361305E1,3.057088E2,2.7597456E3,3.5842336E4,2.7720876E3,5.517295E1,1.8188356E1,2.6792865E2,3.778016E1,7.082821E2,2.0514636E3],"tree_param":{"num_deleted":"0","num_feature":"29","num_nodes":"15","size_leaf_vector":"1"}},{"base_weights":[2.5883317E-3,-2.17726E-2,1.0451132E-2,-8.437919E-2,-1.0789353E-3,8.990799E-2,8.488607E-3,-7.63542E-4,-5.638293E-3,-1.5906646E-4,1.9702397E-3,-4.220714E-3,2.0741401E-3,8.678886E-5,1.0604407E-3],"categories":[],"categories_nodes":[],"categories_segments":[],"categories_sizes":[],"default_left":[0,0,0,1,0,0,0,0,0,0,0,0,0,0,0],"id":70,"left_children":[1,3,5,7,9,11,13,-1,-1,-1,-1,-1,-1,-1,-1],"loss_changes":[8.031131E0,1.3254484E1,4.9419703E0,2.4122412E1,1.1215716E1,1.7459265E1,4.762747E0,0E0,0E0,0E0,0E0,0E0,0E0,0E0,0E0],"parents":[2147483647,0,0,1,1,2,2,3,3,4,4,5,5,6,6],"right_children":[2,4,6,8,10,12,14,-1,-1,-1,-1,-1,-1,-1,-1],"split_conditions":[-7.5158505E0,-9.192623E-2,-1.8740367E0,5.30885E3,2.21E2,4.68531E3,2.0270125E2,-7.63542E-4,-5.638293E-3,-1.5906646E-4,1.9702397E-3,-4.220714E-3,2.0741401E-3,8.678886E-5,1.0604407E-3],"split_indices":[22,18,17,10,5,10,22,0,0,0,0,0,0,0,0],"split_type":[0,0,0,0,0,0,0,0,0,0,0,0,0,0,0],"sum_hessian":[4.1925945E4,1.0229771E4,3.1696174E4,2.540542E3,7.689229E3,7.629217E2,3.0933252E4,2.3238882E3,2.1665373E2,7.1702217E3,5.190074E2,9.828704E1,6.6463464E2,2.9916016E4,1.0172352E3],"tree_param":{"num_deleted":"0","num_feature":"29","num_nodes":"15","size_leaf_vector":"1"}},{"base_weights":[2.400159E-3,-2.9136375E-2,9.423487E-3,-5.7405427E-2,1.6834905E-2,1.0420532E-2,-1.551463E-1,-7.0503354E-4,-8.348133E-3,3.433131E-5,4.1066515E-3,1.3498559E-4,5.131315E-3,-1.312312E-2,-1.1140847E-3],"categories":[],"categories_nodes":[],"categories_segments":[],"categories_sizes":[],"default_left":[0,0,0,0,0,0,0,0,0,0,0,0,0,0,0],"id":71,"left_children":[1,3,5,7,9,11,13,-1,-1,-1,-1,-1,-1,-1,-1],"loss_changes":[9.286169E0,9.924952E0,5.627877E0,1.7925232E1,1.1565877E1,9.44775E0,1.2134964E1,0E0,0E0,0E0,0E0,0E0,0E0,0E0,0E0],"parents":[2147483647,0,0,1,1,2,2,3,3,4,4,5,5,6,6],"right_children":[2,4,6,8,10,12,14,-1,-1,-1,-1,-1,-1,-1,-1],"split_conditions":[-3.322975E1,1E0,5.63E2,1.9722558E0,1.7124524E0,5.34E2,5.252E3,-7.0503354E-4,-8.348133E-3,3.433131E-5,4.1066515E-3,1.3498559E-4,5.131315E-3,-1.312312E-2,-1.1140847E-3],"split_indices":[22,11,25,15,15,25,7,0,0,0,0,0,0,0,0],"split_type":[0,0,0,0,0,0,0,0,0,0,0,0,0,0,0],"sum_hessian":[4.1923402E4,7.6353926E3,3.4288008E4,4.727852E3,2.9075403E3,3.4082457E4,2.0555167E2,4.6679136E3,5.993873E1,2.7647349E3,1.4280542E2,3.4009113E4,7.334224E1,1.7103872E1,1.8844778E2],"tree_param":{"num_deleted":"0","num_feature":"29","num_nodes":"15","size_leaf_vector":"1"}},{"base_weights":[-3.1914667E-3,-2.0686992E-2,6.559764E-3,-3.486503E-2,4.0784445E-2,7.0230355E-3,-1.2917793E-2,-2.1354097E-3,-3.7652117E-4,-2.2699381E-4,1.8743798E-3,1.0378442E-4,-7.834388E-3],"categories":[],"categories_nodes":[],"categories_segments":[],"categories_sizes":[],"default_left":[0,0,0,0,0,0,0,0,0,0,0,0,0],"id":72,"left_children":[1,3,5,7,9,11,-1,-1,-1,-1,-1,-1,-1],"loss_changes":[7.133058E0,1.3042762E1,1.1564362E1,1.1399921E1,1.4886353E1,5.93635E0,0E0,0E0,0E0,0E0,0E0,0E0,0E0],"parents":[2147483647,0,0,1,1,2,2,3,3,4,4,5,5],"right_children":[2,4,6,8,10,12,-1,-1,-1,-1,-1,-1,-1],"split_conditions":[1.3004348E1,1.09E2,9.6762E2,-1.1925657E0,6.2516475E-1,2.8406E4,-1.2917793E-2,-2.1354097E-3,-3.7652117E-4,-2.2699381E-4,1.8743798E-3,1.0378442E-4,-7.834388E-3],"split_indices":[22,5,25,17,19,7,0,0,0,0,0,0,0],"split_type":[0,0,0,0,0,0,0,0,0,0,0,0,0],"sum_hessian":[4.180909E4,1.4962483E4,2.6846605E4,1.2158604E4,2.80388E3,2.683422E4,1.2385454E1,7.702283E2,1.1388376E4,1.7396462E3,1.0642336E3,2.6816742E4,1.7477247E1],"tree_param":{"num_deleted":"0","num_feature":"29","num_nodes":"13","size_leaf_vector":"1"}},{"base_weights":[2.5330596E-3,-2.5161002E-2,1.0497114E-2,-9.34649E-2,-3.7390487E-3,2.417928E-3,2.5968669E-2,-1.0799743E-3,-7.13688E-3,-1.08926855E-4,5.1505934E-3,4.7559985E-5,-8.751282E-3,4.5196223E-4,-2.2666913E-3],"categories":[],"categories_nodes":[],"categories_segments":[],"categories_sizes":[],"default_left":[0,0,0,0,0,1,0,0,0,0,0,0,0,0,0],"id":73,"left_children":[1,3,5,7,9,11,13,-1,-1,-1,-1,-1,-1,-1,-1],"loss_changes":[9.248684E0,1.3703442E1,4.070795E0,1.5156076E1,1.0712739E1,1.3149342E1,1.3259051E1,0E0,0E0,0E0,0E0,0E0,0E0,0E0,0E0],"parents":[2147483647,0,0,1,1,2,2,3,3,4,4,5,5,6,6],"right_children":[2,4,6,8,10,12,14,-1,-1,-1,-1,-1,-1,-1,-1],"split_conditions":[-1.4104232E1,-9.192623E-2,6.584E1,-1.10944144E-1,1.0080868E0,1.29E0,1.2370392E0,-1.0799743E-3,-7.13688E-3,-1.08926855E-4,5.1505934E-3,4.7559985E-5,-8.751282E-3,4.5196223E-4,-2.2666913E-3],"split_indices":[22,18,21,18,18,24,17,0,0,0,0,0,0,0,0],"split_type":[0,0,0,0,0,0,0,0,0,0,0,0,0,0,0],"sum_hessian":[4.193111E4,9.364611E3,3.2566496E4,2.234988E3,7.1296235E3,2.1395176E4,1.117132E4,2.1517998E3,8.318821E1,7.053894E3,7.572959E1,2.1362834E4,3.234161E1,1.080887E4,3.6244998E2],"tree_param":{"num_deleted":"0","num_feature":"29","num_nodes":"15","size_leaf_vector":"1"}},{"base_weights":[4.9153075E-4,6.761259E-4,-1.2355411E-2,-7.0433896E-3,1.5856717E-2,-1.9435509E-3,-4.7745038E-5,1.9449271E-3,9.712556E-5],"categories":[],"categories_nodes":[],"categories_segments":[],"categories_sizes":[],"default_left":[0,0,0,0,0,0,0,0,0],"id":74,"left_children":[1,3,-1,5,7,-1,-1,-1,-1],"loss_changes":[6.8115697E0,4.8958273E0,0E0,1.3258914E1,1.5457438E1,0E0,0E0,0E0,0E0],"parents":[2147483647,0,0,1,1,3,3,4,4],"right_children":[2,4,-1,6,8,-1,-1,-1,-1],"split_conditions":[2.29E2,1E0,-1.2355411E-2,-8.126702E-1,-3.352162E-1,-1.9435509E-3,-4.7745038E-5,1.9449271E-3,9.712556E-5],"split_indices":[2,6,0,18,18,0,0,0,0],"split_type":[0,0,0,0,0,0,0,0,0],"sum_hessian":[4.1783754E4,4.177602E4,7.734026E0,2.769388E4,1.4082139E4,7.419985E2,2.695188E4,9.506408E2,1.3131498E4],"tree_param":{"num_deleted":"0","num_feature":"29","num_nodes":"9","size_leaf_vector":"1"}},{"base_weights":[1.4884559E-3,2.01889E-3,-2.245853E-1,-5.746535E-1,2.2312358E-3,6.0775075E-2,-7.2561103E-1,8.645815E-3,-1.2303825E-2,6.615117E-4,-3.1033014E-6,-1.0834003E-2,1.8750607E-3,1.4634215E-5,-1.2270112E-2],"categories":[],"categories_nodes":[],"categories_segments":[],"categories_sizes":[],"default_left":[0,0,0,0,0,0,0,0,0,0,0,0,0,0,0],"id":75,"left_children":[1,3,5,7,9,11,13,-1,-1,-1,-1,-1,-1,-1,-1],"loss_changes":[5.027569E0,5.1228495E0,1.407527E1,6.1273565E0,4.6170316E0,3.9778504E0,3.9124165E0,0E0,0E0,0E0,0E0,0E0,0E0,0E0,0E0],"parents":[2147483647,0,0,1,1,2,2,3,3,4,4,5,5,6,6],"right_children":[2,4,6,8,10,12,14,-1,-1,-1,-1,-1,-1,-1,-1],"split_conditions":[4.08E2,-3.1063E2,7.421423E-1,4.181E3,1.7E-1,6.41398E3,2E1,8.645815E-3,-1.2303825E-2,6.615117E-4,-3.1033014E-6,-1.0834003E-2,1.8750607E-3,1.4634215E-5,-1.2270112E-2],"split_indices":[21,23,15,7,24,10,2,0,0,0,0,0,0,0,0],"split_type":[0,0,0,0,0,0,0,0,0,0,0,0,0,0,0],"sum_hessian":[4.1920555E4,4.1823418E4,9.71387E1,1.4399044E1,4.1809016E4,6.2449272E1,3.468943E1,2.7176464E0,1.1681397E1,2.159325E3,3.964969E4,4.260845E0,5.8188427E1,6.133267E0,2.8556162E1],"tree_param":{"num_deleted":"0","num_feature":"29","num_nodes":"15","size_leaf_vector":"1"}},{"base_weights":[1.787819E-3,-1.9515626E-2,8.045714E-3,-8.136274E-2,-2.3826628E-3,9.514246E-3,-8.268545E-2,-7.234514E-3,-9.828613E-4,-3.86665E-3,1.969738E-5,-1.1189415E-2,1.3504228E-4,-7.913471E-4,-1.2987262E-2],"categories":[],"categories_nodes":[],"categories_segments":[],"categories_sizes":[],"default_left":[0,0,0,0,0,0,1,0,0,0,0,0,0,0,0],"id":76,"left_children":[1,3,5,7,9,11,13,-1,-1,-1,-1,-1,-1,-1,-1],"loss_changes":[5.578351E0,1.0067007E1,4.310163E0,9.976222E0,7.721116E0,3.3960705E0,1.1337167E1,0E0,0E0,0E0,0E0,0E0,0E0,0E0,0E0],"parents":[2147483647,0,0,1,1,2,2,3,3,4,4,5,5,6,6],"right_children":[2,4,6,8,10,12,14,-1,-1,-1,-1,-1,-1,-1,-1],"split_conditions":[-1.2984074E1,-4.3619123E-1,2.7142E4,-2.4704E2,1.75E2,-2.83E0,8E-2,-7.234514E-3,-9.828613E-4,-3.86665E-3,1.969738E-5,-1.1189415E-2,1.3504228E-4,-7.913471E-4,-1.2987262E-2],"split_indices":[22,15,7,22,7,24,24,0,0,0,0,0,0,0,0],"split_type":[0,0,0,0,0,0,0,0,0,0,0,0,0,0,0],"sum_hessian":[4.1841297E4,9.499727E3,3.234157E4,2.0599402E3,7.4397866E3,3.1827322E4,5.14247E2,5.0341816E1,2.0095984E3,1.00583336E2,7.339203E3,4.191351E0,3.182313E4,4.9983875E2,1.4408231E1],"tree_param":{"num_deleted":"0","num_feature":"29","num_nodes":"15","size_leaf_vector":"1"}},{"base_weights":[-2.5579226E-3,-1.7787679E-3,-3.9427823E-1,-4.410322E-2,2.5880937E-3,-5.608658E-1,4.8767763E-1,-2.7936338E-3,-3.74573E-4,5.516405E-5,-1.0983032E-3,-2.4768403E-3,-1.0172047E-2,-7.9517E-3,9.1328975E-3],"categories":[],"categories_nodes":[],"categories_segments":[],"categories_sizes":[],"default_left":[0,0,0,0,0,0,0,0,0,0,0,0,0,0,0],"id":77,"left_children":[1,3,5,7,9,11,13,-1,-1,-1,-1,-1,-1,-1,-1],"loss_changes":[1.2729926E1,7.6942225E0,1.2438194E1,1.04938345E1,4.135481E0,4.33193E0,2.7502086E0,0E0,0E0,0E0,0E0,0E0,0E0,0E0,0E0],"parents":[2147483647,0,0,1,1,2,2,3,3,4,4,5,5,6,6],"right_children":[2,4,6,8,10,12,14,-1,-1,-1,-1,-1,-1,-1,-1],"split_conditions":[4.08E2,-9.690257E1,2.3114202E1,-2.6562017E-1,8.437923E-1,2.5E1,4.7E1,-2.7936338E-3,-3.74573E-4,5.516405E-5,-1.0983032E-3,-2.4768403E-3,-1.0172047E-2,-7.9517E-3,9.1328975E-3],"split_indices":[21,22,22,18,18,2,2,0,0,0,0,0,0,0,0],"split_type":[0,0,0,0,0,0,0,0,0,0,0,0,0,0,0],"sum_hessian":[4.170994E4,4.162815E4,8.1796295E1,3.892472E3,3.7735676E4,6.910712E1,1.2689182E1,3.8974716E2,3.5027249E3,3.7117293E4,6.183832E2,2.1457521E1,4.7649593E1,1.3817987E0,1.1307384E1],"tree_param":{"num_deleted":"0","num_feature":"29","num_nodes":"15","size_leaf_vector":"1"}},{"base_weights":[-2.4601968E-4,-1.2542148E-2,1.09389825E-2,-2.1943856E-2,6.427517E-2,2.2655661E-1,6.738227E-3,-2.0544864E-4,-1.4093311E-3,1.0309262E-3,-9.290981E-3,4.7552E-3,-6.5469637E-4,-6.9584174E-4,2.0337055E-4],"categories":[],"categories_nodes":[],"categories_segments":[],"categories_sizes":[],"default_left":[0,0,0,0,0,0,0,0,0,0,0,0,0,0,0],"id":78,"left_children":[1,3,5,7,9,11,13,-1,-1,-1,-1,-1,-1,-1,-1],"loss_changes":[5.744711E0,1.4371074E1,1.9810324E1,1.0142927E1,1.4836719E1,1.2936462E1,9.4324255E0,0E0,0E0,0E0,0E0,0E0,0E0,0E0,0E0],"parents":[2147483647,0,0,1,1,2,2,3,3,4,4,5,5,6,6],"right_children":[2,4,6,8,10,12,14,-1,-1,-1,-1,-1,-1,-1,-1],"split_conditions":[1.5988612E-1,2.1E1,1.4765E1,3.2E1,1.92E2,4.0710014E1,7.317E1,-2.0544864E-4,-1.4093311E-3,1.0309262E-3,-9.290981E-3,4.7552E-3,-6.5469637E-4,-6.9584174E-4,2.0337055E-4],"split_indices":[18,27,20,1,8,22,25,0,0,0,0,0,0,0,0],"split_type":[0,0,0,0,0,0,0,0,0,0,0,0,0,0,0],"sum_hessian":[4.1767934E4,1.989568E4,2.1872254E4,1.7726803E4,2.1688777E3,4.1696982E2,2.1455283E4,1.6229425E4,1.497378E3,2.1422234E3,2.6654312E1,2.947564E2,1.22213394E2,2.600941E3,1.8854342E4],"tree_param":{"num_deleted":"0","num_feature":"29","num_nodes":"15","size_leaf_vector":"1"}},{"base_weights":[-5.326286E-4,-2.6185622E-2,4.969069E-3,-3.0057445E-2,3.6676314E-1,-3.7603625E-3,2.0818349E-2,1.6648624E-3,-5.3978706E-4,-1.1185321E-2,6.247726E-3,-4.1747026E-5,-6.083197E-3,2.372197E-3,1.9741389E-4],"categories":[],"categories_nodes":[],"categories_segments":[],"categories_sizes":[],"default_left":[0,0,0,0,0,1,0,0,0,0,0,0,0,0,0],"id":79,"left_children":[1,3,5,7,9,11,13,-1,-1,-1,-1,-1,-1,-1,-1],"loss_changes":[5.873822E0,1.1192795E1,4.741375E0,9.220304E0,7.0094976E0,7.40871E0,1.2148897E1,0E0,0E0,0E0,0E0,0E0,0E0,0E0,0E0],"parents":[2147483647,0,0,1,1,2,2,3,3,4,4,5,5,6,6],"right_children":[2,4,6,8,10,12,14,-1,-1,-1,-1,-1,-1,-1,-1],"split_conditions":[-3.662923E1,1.0080868E0,6.584E1,2.273E1,9.706E1,1.29E0,6.8E1,1.6648624E-3,-5.3978706E-4,-1.1185321E-2,6.247726E-3,-4.1747026E-5,-6.083197E-3,2.372197E-3,1.9741389E-4],"split_indices":[22,18,21,20,25,24,21,0,0,0,0,0,0,0,0],"split_type":[0,0,0,0,0,0,0,0,0,0,0,0,0,0,0],"sum_hessian":[4.1616543E4,7.3485225E3,3.426802E4,7.2777363E3,7.0785866E1,2.2097803E4,1.2170217E4,3.9207132E2,6.885665E3,3.9416697E0,6.684419E1,2.2058945E4,3.885668E1,5.2522284E2,1.1644994E4],"tree_param":{"num_deleted":"0","num_feature":"29","num_nodes":"15","size_leaf_vector":"1"}},{"base_weights":[-2.8956411E-3,-1.8228139E-3,-1.5450522E-1,4.9338457E-3,-2.466931E-2,-6.1255045E-2,-4.3846244E-1,3.497256E-5,1.8940143E-3,-2.7459863E-4,-6.1437185E-3,-2.042665E-3,6.582236E-3,-7.844993E-3,6.447672E-3],"categories":[],"categories_nodes":[],"categories_segments":[],"categories_sizes":[],"default_left":[1,0,0,0,1,0,0,0,0,0,0,0,0,0,0],"id":80,"left_children":[1,3,5,7,9,11,13,-1,-1,-1,-1,-1,-1,-1,-1],"loss_changes":[6.765611E0,6.3764195E0,7.71231E0,1.0121823E1,1.9730465E1,1.0018328E1,8.158157E0,0E0,0E0,0E0,0E0,0E0,0E0,0E0,0E0],"parents":[2147483647,0,0,1,1,2,2,3,3,4,4,5,5,6,6],"right_children":[2,4,6,8,10,12,14,-1,-1,-1,-1,-1,-1,-1,-1],"split_conditions":[8.2E-1,9.625E1,1.2472E2,9.3E1,9.29432E3,3E1,2.2E1,3.497256E-5,1.8940143E-3,-2.7459863E-4,-6.1437185E-3,-2.042665E-3,6.582236E-3,-7.844993E-3,6.447672E-3],"split_indices":[24,21,23,21,10,1,27,0,0,0,