{"learner":{"attributes":{},"feature_names":["date_time","site_id","visitor_location_country_id","visitor_hist_starrating","visitor_hist_adr_usd","prop_country_id","prop_brand_bool","srch_destination_id","srch_booking_window","srch_saturday_night_bool","orig_destination_distance","random_bool","has_hist_starrating","has_hist_adr_usd","score1d2","normalized_prop_starrating","normalized_score1d2","normalized_prop_review_score","hotel_quality","normalized_hotel_quality","price_per_person","avg_price_per_day","ump","price_diff","starrating_diff","total_price","score2ma","promotion_count","promotion_any"],"feature_types":["float","int","int","float","float","int","int","int","int","int","float","int","int","int","float","float","float","float","float","float","float","float","float","float","float","float","float","int","int"],"gradient_booster":{"model":{"gbtree_model_param":{"num_parallel_tree":"1","num_trees":"120"},"iteration_indptr":[0,1,2,3,4,5,6,7,8,9,10,11,12,13,14,15,16,17,18,19,20,21,22,23,24,25,26,27,28,29,30,31,32,33,34,35,36,37,38,39,40,41,42,43,44,45,46,47,48,49,50,51,52,53,54,55,56,57,58,59,60,61,62,63,64,65,66,67,68,69,70,71,72,73,74,75,76,77,78,79,80,81,82,83,84,85,86,87,88,89,90,91,92,93,94,95,96,97,98,99,100,101,102,103,104,105,106,107,108,109,110,111,112,113,114,115,116,117,118,119,120],"tree_info":[0,0,0,0,0,0,0,0,0,0,0,0,0,0,0,0,0,0,0,0,0,0,0,0,0,0,0,0,0,0,0,0,0,0,0,0,0,0,0,0,0,0,0,0,0,0,0,0,0,0,0,0,0,0,0,0,0,0,0,0,0,0,0,0,0,0,0,0,0,0,0,0,0,0,0,0,0,0,0,0,0,0,0,0,0,0,0,0,0,0,0,0,0,0,0,0,0,0,0,0,0,0,0,0,0,0,0,0,0,0,0,0,0,0,0,0,0,0,0,0],"trees":[{"base_weights":[-3.4228625E-4,-1.19376585E-1,9.883688E-2,-1.9950612E-1,-1.8623969E-2,-4.600421E-2,1.7557459E-1,-3.6953618E-3,-2.013243E-3,5.315099E-4,-3.739932E-3,-1.6736571E-3,2.3737803E-4,3.195662E-3,9.197249E-4],"categories":[],"categories_nodes":[],"categories_segments":[],"categories_sizes":[],"default_left":[0,0,0,0,0,0,0,0,0,0,0,0,0,0,0],"id":0,"left_children":[1,3,5,7,9,11,13,-1,-1,-1,-1,-1,-1,-1,-1],"loss_changes":[5.180329E3,1.6100957E3,2.6604634E3,3.9876123E2,1.2424879E3,3.8383575E2,9.058037E2,0E0,0E0,0E0,0E0,0E0,0E0,0E0,0E0],"parents":[2147483647,0,0,1,1,2,2,3,3,4,4,5,5,6,6],"right_children":[2,4,6,8,10,12,14,-1,-1,-1,-1,-1,-1,-1,-1],"split_conditions":[1.5257134E1,2.4887855E-1,-1.320445E-1,-6.0416716E-1,2.84E2,-3.4512347E-1,1.59E2,-3.6953618E-3,-2.013243E-3,5.315099E-4,-3.739932E-3,-1.6736571E-3,2.3737803E-4,3.195662E-3,9.197249E-4],"split_indices":[22,15,15,15,25,18,25,0,0,0,0,0,0,0,0],"split_type":[0,0,0,0,0,0,0,0,0,0,0,0,0,0,0],"sum_hessian":[4.3879616E5,1.9943506E5,2.393611E5,1.1108618E5,8.834889E4,8.289626E4,1.5646484E5,5.1498637E4,5.958754E4,7.196308E4,1.6385814E4,3.823427E4,4.466199E4,1.0575479E5,5.071006E4],"tree_param":{"num_deleted":"0","num_feature":"29","num_nodes":"15","size_leaf_vector":"1"}},{"base_weights":[8.739532E-4,-5.4829754E-2,1.14936605E-1,-1.6870832E-1,-1.638521E-2,1.3865326E-1,-4.005667E-2,-3.6395623E-3,-1.8668383E-3,1.1244372E-3,-1.2845383E-3,-6.736345E-4,2.2788595E-3,-8.9463916E-5,-4.511108E-3],"categories":[],"categories_nodes":[],"categories_segments":[],"categories_sizes":[],"default_left":[0,0,0,0,0,0,0,0,0,0,0,0,0,0,0],"id":1,"left_children":[1,3,5,7,9,11,13,-1,-1,-1,-1,-1,-1,-1,-1],"loss_changes":[6.1662124E3,2.854691E3,1.1705552E3,5.3106934E2,3.5528855E3,1.2442798E3,4.0145233E2,0E0,0E0,0E0,0E0,0E0,0E0,0E0,0E0],"parents":[2147483647,0,0,1,1,2,2,3,3,4,4,5,5,6,6],"right_children":[2,4,6,8,10,12,14,-1,-1,-1,-1,-1,-1,-1,-1],"split_conditions":[4.085318E1,5.34619E-1,1.295E2,4.49372E-1,1.1872E2,-7.1064866E-1,2.7E2,-3.6395623E-3,-1.8668383E-3,1.1244372E-3,-1.2845383E-3,-6.736345E-4,2.2788595E-3,-8.9463916E-5,-4.511108E-3],"split_indices":[22,19,20,19,25,15,21,0,0,0,0,0,0,0,0],"split_type":[0,0,0,0,0,0,0,0,0,0,0,0,0,0,0],"sum_hessian":[9.704877E5,6.520518E5,3.184359E5,1.6456927E5,4.8748253E5,2.7617625E5,4.2259637E4,4.5958375E4,1.186109E5,2.1352016E5,2.7396238E5,3.1589621E4,2.4458664E5,3.7755844E4,4.503793E3],"tree_param":{"num_deleted":"0","num_feature":"29","num_nodes":"15","size_leaf_vector":"1"}},{"base_weights":[5.629855E-4,-8.2188025E-2,3.7819356E-2,-4.32933E-2,-2.014781E-1,1.6353425E-2,1.420719E-1,-2.3093016E-3,7.294681E-5,-2.4360407E-3,-6.162311E-3,-1.3339064E-4,1.5742579E-3,3.2817998E-3,9.6907816E-4],"categories":[],"categories_nodes":[],"categories_segments":[],"categories_sizes":[],"default_left":[0,0,0,0,0,0,0,0,0,0,0,0,0,0,0],"id":2,"left_children":[1,3,5,7,9,11,13,-1,-1,-1,-1,-1,-1,-1,-1],"loss_changes":[2.8474653E3,1.3303605E3,1.4252322E3,1.275944E3,4.6227344E2,1.3134684E3,7.315315E2,0E0,0E0,0E0,0E0,0E0,0E0,0E0,0E0],"parents":[2147483647,0,0,1,1,2,2,3,3,4,4,5,5,6,6],"right_children":[2,4,6,8,10,12,14,-1,-1,-1,-1,-1,-1,-1,-1],"split_conditions":[2.4113038E0,2.39E2,8.966212E1,-3.6596254E-1,3.39E2,8.703884E-1,1.43E2,-2.3093016E-3,7.294681E-5,-2.4360407E-3,-6.162311E-3,-1.3339064E-4,1.5742579E-3,3.2817998E-3,9.6907816E-4],"split_indices":[22,25,22,15,21,15,25,0,0,0,0,0,0,0,0],"split_type":[0,0,0,0,0,0,0,0,0,0,0,0,0,0,0],"sum_hessian":[9.2359944E5,2.8673166E5,6.3686775E5,2.1623066E5,7.050101E4,5.2812606E5,1.0874168E5,6.163524E4,1.545954E5,6.322493E4,7.2760757E3,4.16066E5,1.1206009E5,4.7954965E4,6.0786715E4],"tree_param":{"num_deleted":"0","num_feature":"29","num_nodes":"15","size_leaf_vector":"1"}},{"base_weights":[6.1672594E-4,2.800948E-2,-9.6042775E-2,-6.974511E-2,4.723878E-2,-1.8703388E-1,-4.4517513E-2,-1.9104623E-3,-4.1266854E-4,1.9822177E-3,8.341165E-5,-2.0735806E-3,-4.1411123E-3,-8.5282297E-4,1.3007224E-3],"categories":[],"categories_nodes":[],"categories_segments":[],"categories_sizes":[],"default_left":[0,0,0,0,0,0,0,0,0,0,0,0,0,0,0],"id":3,"left_children":[1,3,5,7,9,11,13,-1,-1,-1,-1,-1,-1,-1,-1],"loss_changes":[2.3710283E3,1.3115898E3,9.270491E2,3.0812805E2,2.270855E3,3.025735E2,2.8451575E2,0E0,0E0,0E0,0E0,0E0,0E0,0E0,0E0],"parents":[2147483647,0,0,1,1,2,2,3,3,4,4,5,5,6,6],"right_children":[2,4,6,8,10,12,14,-1,-1,-1,-1,-1,-1,-1,-1],"split_conditions":[1.99E2,-3.5307536E-1,-2.9515684E1,8.731618E0,9E1,3.9406E2,1.4475919E2,-1.9104623E-3,-4.1266854E-4,1.9822177E-3,8.341165E-5,-2.0735806E-3,-4.1411123E-3,-8.5282297E-4,1.3007224E-3],"split_indices":[25,18,22,22,25,25,22,0,0,0,0,0,0,0,0],"split_type":[0,0,0,0,0,0,0,0,0,0,0,0,0,0,0],"sum_hessian":[8.954792E5,6.977434E5,1.9773581E5,1.1469156E5,5.830518E5,7.1488305E4,1.2624751E5,4.3168508E4,7.1523055E4,1.7746019E5,4.0559166E5,5.264944E4,1.8838861E4,1.12789445E5,1.3458063E4],"tree_param":{"num_deleted":"0","num_feature":"29","num_nodes":"15","size_leaf_vector":"1"}},{"base_weights":[-2.2036399E-4,1.4270599E-2,-1.5019692E-1,-7.393326E-3,7.286181E-2,-8.923658E-2,-2.6469505E-1,-1.0739221E-3,3.1359922E-4,4.5245015E-3,9.017628E-4,-1.8250316E-3,-3.543412E-5,-3.0305523E-3,-5.961227E-3],"categories":[],"categories_nodes":[],"categories_segments":[],"categories_sizes":[],"default_left":[0,0,0,0,0,0,0,0,0,0,0,0,0,0,0],"id":4,"left_children":[1,3,5,7,9,11,13,-1,-1,-1,-1,-1,-1,-1,-1],"loss_changes":[1.9129899E3,1.0188381E3,5.412977E2,1.2101637E3,4.582859E2,1.8045761E2,2.0926062E2,0E0,0E0,0E0,0E0,0E0,0E0,0E0,0E0],"parents":[2147483647,0,0,1,1,2,2,3,3,4,4,5,5,6,6],"right_children":[2,4,6,8,10,12,14,-1,-1,-1,-1,-1,-1,-1,-1],"split_conditions":[1.7E2,7.440238E-1,2.9865E2,3.7585611E0,6E1,9.318192E-1,3.69E2,-1.0739221E-3,3.1359922E-4,4.5245015E-3,9.017628E-4,-1.8250316E-3,-3.543412E-5,-3.0305523E-3,-5.961227E-3],"split_indices":[21,15,25,22,25,15,21,0,0,0,0,0,0,0,0],"split_type":[0,0,0,0,0,0,0,0,0,0,0,0,0,0,0],"sum_hessian":[8.802197E5,8.026658E5,7.755389E4,5.859963E5,2.166695E5,5.061015E4,2.694374E4,1.7615714E5,4.0983916E5,7.0742505E3,2.0959525E5,3.4328355E4,1.6281793E4,2.0738154E4,6.2055854E3],"tree_param":{"num_deleted":"0","num_feature":"29","num_nodes":"15","size_leaf_vector":"1"}},{"base_weights":[-7.152387E-4,1.2762277E-2,-1.318963E-1,-3.7425227E-2,3.3616096E-2,-2.1967669E-1,-8.789724E-2,-8.6401653E-4,8.651276E-4,-9.924923E-5,6.964553E-4,-3.858063E-3,-1.8353197E-3,-2.238865E-4,-1.7104234E-3],"categories":[],"categories_nodes":[],"categories_segments":[],"categories_sizes":[],"default_left":[0,0,0,0,0,0,0,0,0,0,0,0,0,0,0],"id":5,"left_children":[1,3,5,7,9,11,13,-1,-1,-1,-1,-1,-1,-1,-1],"loss_changes":[1.5423042E3,8.279381E2,3.138838E2,5.5966174E2,3.669494E2,1.3433105E2,1.3343231E2,0E0,0E0,0E0,0E0,0E0,0E0,0E0,0E0],"parents":[2147483647,0,0,1,1,2,2,3,3,4,4,5,5,6,6],"right_children":[2,4,6,8,10,12,14,-1,-1,-1,-1,-1,-1,-1,-1],"split_conditions":[2.84E2,4.24044E0,-6.1298748E1,9.130506E-1,-2.2974442E-1,1E0,3E0,-8.6401653E-4,8.651276E-4,-9.924923E-5,6.964553E-4,-3.858063E-3,-1.8353197E-3,-2.238865E-4,-1.7104234E-3],"split_indices":[25,22,22,15,17,11,27,0,0,0,0,0,0,0,0],"split_type":[0,0,0,0,0,0,0,0,0,0,0,0,0,0,0],"sum_hessian":[8.723446E5,7.9107106E5,8.1273586E4,2.3221464E5,5.5885644E5,2.7134623E4,5.413896E4,1.8654628E5,4.566835E4,1.5860995E5,4.0024647E5,1.6635076E4,1.0499546E4,1.7476818E4,3.6662145E4],"tree_param":{"num_deleted":"0","num_feature":"29","num_nodes":"15","size_leaf_vector":"1"}},{"base_weights":[1.2992088E-4,1.7195148E-2,-1.02187544E-1,-5.7471484E-2,2.6195925E-2,-1.9271488E-1,-4.99826E-2,-1.3162111E-3,6.110934E-4,1.766741E-3,1.6111475E-4,-2.2200102E-3,-4.305927E-3,-2.8504245E-4,-2.268531E-3],"categories":[],"categories_nodes":[],"categories_segments":[],"categories_sizes":[],"default_left":[0,0,0,0,0,0,0,0,0,0,0,0,0,0,0],"id":6,"left_children":[1,3,5,7,9,11,13,-1,-1,-1,-1,-1,-1,-1,-1],"loss_changes":[1.5128158E3,4.9904587E2,5.853009E2,2.9520026E2,9.733223E2,1.7758081E2,2.607399E2,0E0,0E0,0E0,0E0,0E0,0E0,0E0,0E0],"parents":[2147483647,0,0,1,1,2,2,3,3,4,4,5,5,6,6],"right_children":[2,4,6,8,10,12,14,-1,-1,-1,-1,-1,-1,-1,-1],"split_conditions":[1.39605E2,4.842838E-1,-2.7727758E1,8E0,7E1,3.9406E2,2.24E2,-1.3162111E-3,6.110934E-4,1.766741E-3,1.6111475E-4,-2.2200102E-3,-4.305927E-3,-2.8504245E-4,-2.268531E-3],"split_indices":[21,19,22,27,25,25,21,0,0,0,0,0,0,0,0],"split_type":[0,0,0,0,0,0,0,0,0,0,0,0,0,0,0],"sum_hessian":[8.6640944E5,7.4256075E5,1.2384869E5,7.9882664E4,6.626781E5,4.5297203E4,7.8551484E4,5.8677555E4,2.1205105E4,8.486642E4,5.778117E5,3.4918957E4,1.0378246E4,6.2128625E4,1.6422857E4],"tree_param":{"num_deleted":"0","num_feature":"29","num_nodes":"15","size_leaf_vector":"1"}},{"base_weights":[1.0374492E-4,7.4042478E-3,-1.6089357E-1,2.7605738E-2,-2.3458721E-2,-1.285488E-1,-3.5747683E-1,-1.1692964E-5,9.056929E-4,-6.491113E-4,1.14493625E-4,-1.1796489E-3,-3.0721761E-3,-6.167909E-3,-2.730249E-3],"categories":[],"categories_nodes":[],"categories_segments":[],"categories_sizes":[],"default_left":[0,0,0,0,0,0,0,0,0,0,0,0,0,0,0],"id":7,"left_children":[1,3,5,7,9,11,13,-1,-1,-1,-1,-1,-1,-1,-1],"loss_changes":[1.0125434E3,5.1381177E2,2.3756537E2,5.253673E2,2.3626408E2,1.2916296E2,7.117609E1,0E0,0E0,0E0,0E0,0E0,0E0,0E0,0E0],"parents":[2147483647,0,0,1,1,2,2,3,3,4,4,5,5,6,6],"right_children":[2,4,6,8,10,12,14,-1,-1,-1,-1,-1,-1,-1,-1],"split_conditions":[2.0916E2,6.475E1,3.69E2,1.8605946E-1,5.6470674E-1,6E0,1E0,-1.1692964E-5,9.056929E-4,-6.491113E-4,1.14493625E-4,-1.1796489E-3,-3.0721761E-3,-6.167909E-3,-2.730249E-3],"split_indices":[21,20,21,18,15,27,11,0,0,0,0,0,0,0,0],"split_type":[0,0,0,0,0,0,0,0,0,0,0,0,0,0,0],"sum_hessian":[8.614721E5,8.241037E5,3.7368434E4,4.9808203E5,3.2602166E5,3.2090145E4,5.2782886E3,2.8189988E5,2.1618216E5,1.8910292E5,1.3691873E5,2.1577988E4,1.0512156E4,3.491092E3,1.7871968E3],"tree_param":{"num_deleted":"0","num_feature":"29","num_nodes":"15","size_leaf_vector":"1"}},{"base_weights":[1.6160632E-4,2.1312777E-2,-5.9583627E-2,7.5118326E-2,6.4523523E-3,-4.8879433E-2,-2.6006746E-1,-4.0297536E-4,1.5385931E-3,2.5947548E-3,4.779353E-5,-1.5327794E-3,-4.7385154E-4,-4.5018964E-3,-1.82003E-3],"categories":[],"categories_nodes":[],"categories_segments":[],"categories_sizes":[],"default_left":[0,0,0,0,0,0,0,0,0,0,0,0,0,0,0],"id":8,"left_children":[1,3,5,7,9,11,13,-1,-1,-1,-1,-1,-1,-1,-1],"loss_changes":[1.0831229E3,5.0614163E2,4.8091364E2,4.9508002E2,2.6961395E2,1.9382028E2,9.080994E1,0E0,0E0,0E0,0E0,0E0,0E0,0E0,0E0],"parents":[2147483647,0,0,1,1,2,2,3,3,4,4,5,5,6,6],"right_children":[2,4,6,8,10,12,14,-1,-1,-1,-1,-1,-1,-1,-1],"split_conditions":[1.79E2,1E0,2.99E2,-6.0416716E-1,4.4E1,-3.1755367E-1,1E0,-4.0297536E-4,1.5385931E-3,2.5947548E-3,4.779353E-5,-1.5327794E-3,-4.7385154E-4,-4.5018964E-3,-1.82003E-3],"split_indices":[25,6,21,15,25,15,11,0,0,0,0,0,0,0,0],"split_type":[0,0,0,0,0,0,0,0,0,0,0,0,0,0,0],"sum_hessian":[8.571149E5,6.330141E5,2.2410077E5,1.369936E5,4.9602053E5,2.1274327E5,1.13575E4,3.4357414E4,1.0263619E5,8.283544E3,4.87737E5,4.2281195E4,1.7046206E5,7.710436E3,3.6470647E3],"tree_param":{"num_deleted":"0","num_feature":"29","num_nodes":"15","size_leaf_vector":"1"}},{"base_weights":[-6.688946E-4,-5.8227368E-2,2.0223914E-2,-9.763574E-3,-1.00896314E-1,5.21524E-3,5.608786E-2,3.1800536E-4,-1.1981635E-3,-2.043135E-3,-5.534832E-4,-1.6043807E-3,1.2507901E-4,1.1366088E-3,-2.2937272E-4],"categories":[],"categories_nodes":[],"categories_segments":[],"categories_sizes":[],"default_left":[0,0,0,0,0,0,0,0,0,0,0,0,0,0,0],"id":9,"left_children":[1,3,5,7,9,11,13,-1,-1,-1,-1,-1,-1,-1,-1],"loss_changes":[1.0244912E3,4.691668E2,3.3644293E2,2.6158795E2,3.3346375E2,1.963446E2,3.354181E2,0E0,0E0,0E0,0E0,0E0,0E0,0E0,0E0],"parents":[2147483647,0,0,1,1,2,2,3,3,4,4,5,5,6,6],"right_children":[2,4,6,8,10,12,14,-1,-1,-1,-1,-1,-1,-1,-1],"split_conditions":[-3.9828687E0,1.49E2,6.248149E1,-4.45658E1,5.8404547E-1,-8.8628805E-1,1.12E2,3.1800536E-4,-1.1981635E-3,-2.043135E-3,-5.534832E-4,-1.6043807E-3,1.2507901E-4,1.1366088E-3,-2.2937272E-4],"split_indices":[22,25,22,22,15,18,21,0,0,0,0,0,0,0,0],"split_type":[0,0,0,0,0,0,0,0,0,0,0,0,0,0,0],"sum_hessian":[8.5192456E5,2.268804E5,6.250442E5,1.0622747E5,1.20652945E5,4.406416E5,1.844026E5,7.437059E4,3.1856871E4,6.957839E4,5.107456E4,1.3264684E4,4.273769E5,1.3696764E5,4.743495E4],"tree_param":{"num_deleted":"0","num_feature":"29","num_nodes":"15","size_leaf_vector":"1"}},{"base_weights":[3.6505793E-5,-5.773269E-2,1.8418051E-2,-3.7550505E-2,-1.693428E-1,1.1008796E-2,9.782667E-2,2.6360303E-4,-8.036338E-4,-3.0758083E-3,-1.275448E-3,4.4705838E-4,-1.6413626E-4,1.9854023E-3,2.3866496E-4],"categories":[],"categories_nodes":[],"categories_segments":[],"categories_sizes":[],"default_left":[0,0,0,0,0,0,0,0,0,0,0,0,0,0,0],"id":10,"left_children":[1,3,5,7,9,11,13,-1,-1,-1,-1,-1,-1,-1,-1],"loss_changes":[9.0053925E2,4.611029E2,3.785188E2,1.9403197E2,1.2348901E2,2.7990024E2,1.9509082E2,0E0,0E0,0E0,0E0,0E0,0E0,0E0,0E0],"parents":[2147483647,0,0,1,1,2,2,3,3,4,4,5,5,6,6],"right_children":[2,4,6,8,10,12,14,-1,-1,-1,-1,-1,-1,-1,-1],"split_conditions":[-1.0269484E1,2.9865E2,1.20203384E2,9.968E1,1E0,1.1E2,2E2,2.6360303E-4,-8.036338E-4,-3.0758083E-3,-1.275448E-3,4.4705838E-4,-1.6413626E-4,1.9854023E-3,2.3866496E-4],"split_indices":[22,25,22,25,11,25,25,0,0,0,0,0,0,0,0],"split_type":[0,0,0,0,0,0,0,0,0,0,0,0,0,0,0],"sum_hessian":[8.480536E5,2.0470578E5,6.433479E5,1.7335903E5,3.1346752E4,5.88444E5,5.490387E4,4.5145664E4,1.2821336E5,1.9070473E4,1.2276279E4,3.0641253E5,2.8203144E5,3.55465E4,1.9357373E4],"tree_param":{"num_deleted":"0","num_feature":"29","num_nodes":"15","size_leaf_vector":"1"}},{"base_weights":[-6.382494E-4,1.0800208E-2,-8.03104E-2,-1.9479665E-3,5.1131304E-2,-6.831431E-2,-3.3599716E-1,-5.6626357E-4,2.092408E-4,8.1873196E-4,-1.762344E-3,-3.4969577E-5,-1.4240531E-3,-5.7926816E-3,-2.7326476E-3],"categories":[],"categories_nodes":[],"categories_segments":[],"categories_sizes":[],"default_left":[0,0,0,0,0,0,0,0,0,0,0,0,0,0,0],"id":11,"left_children":[1,3,5,7,9,11,13,-1,-1,-1,-1,-1,-1,-1,-1],"loss_changes":[7.700663E2,3.7990924E2,3.2536438E2,3.651643E2,2.3088434E2,2.2277957E2,5.1974426E1,0E0,0E0,0E0,0E0,0E0,0E0,0E0,0E0],"parents":[2147483647,0,0,1,1,2,2,3,3,4,4,5,5,6,6],"right_children":[2,4,6,8,10,12,14,-1,-1,-1,-1,-1,-1,-1,-1],"split_conditions":[2.49E2,4.085898E-1,3.69E2,6.4743814E0,1.6095059E0,8.5E1,1E0,-5.6626357E-4,2.092408E-4,8.1873196E-4,-1.762344E-3,-3.4969577E-5,-1.4240531E-3,-5.7926816E-3,-2.7326476E-3],"split_indices":[25,18,21,22,17,21,11,0,0,0,0,0,0,0,0],"split_type":[0,0,0,0,0,0,0,0,0,0,0,0,0,0,0],"sum_hessian":[8.44993E5,7.389093E5,1.0608367E5,5.6144444E5,1.7746489E5,1.0133079E5,4.752884E3,1.7122819E5,3.9021625E5,1.7039095E5,7.0739297E3,3.411467E4,6.721612E4,3.0606191E3,1.6922648E3],"tree_param":{"num_deleted":"0","num_feature":"29","num_nodes":"15","size_leaf_vector":"1"}},{"base_weights":[2.2244987E-4,-5.156167E-2,1.702318E-2,-2.8056921E-2,-1.3096206E-1,1.8210702E-2,-2.865748E-1,-1.2654377E-3,-1.885555E-4,-2.900714E-3,-4.8785916E-4,3.9711167E-4,-1.4438904E-4,-5.9256265E-3,-1.5349821E-3],"categories":[],"categories_nodes":[],"categories_segments":[],"categories_sizes":[],"default_left":[0,0,1,0,0,0,0,0,0,0,0,0,0,0,0],"id":12,"left_children":[1,3,5,7,9,11,13,-1,-1,-1,-1,-1,-1,-1,-1],"loss_changes":[7.327586E2,3.8504388E2,2.292742E2,1.4475874E2,3.4527924E2,1.8347595E2,5.9876144E1,0E0,0E0,0E0,0E0,0E0,0E0,0E0,0E0],"parents":[2147483647,0,0,1,1,2,2,3,3,4,4,5,5,6,6],"right_children":[2,4,6,8,10,12,14,-1,-1,-1,-1,-1,-1,-1,-1],"split_conditions":[-8.51585E0,1.44E2,1.04E0,-6.6358185E-1,6.332848E-1,9.95E1,5.123991E-2,-1.2654377E-3,-1.885555E-4,-2.900714E-3,-4.8785916E-4,3.9711167E-4,-1.4438904E-4,-5.9256265E-3,-1.5349821E-3],"split_indices":[22,21,24,15,15,21,17,0,0,0,0,0,0,0,0],"split_type":[0,0,0,0,0,0,0,0,0,0,0,0,0,0,0],"sum_hessian":[8.422387E5,2.0631655E5,6.359221E5,1.5919247E5,4.712409E4,6.334454E5,2.476779E3,3.0191447E4,1.29001016E5,2.627969E4,2.0844398E4,4.67145E5,1.6630034E5,1.3965365E3,1.0802426E3],"tree_param":{"num_deleted":"0","num_feature":"29","num_nodes":"15","size_leaf_vector":"1"}},{"base_weights":[-2.575921E-4,4.93009E-3,-1.4525554E-1,1.9819973E-2,-2.1310924E-2,-1.13577485E-1,-3.151539E-1,-1.6541057E-3,3.418696E-4,-9.6530863E-4,-1.3752344E-4,-2.3707927E-3,-6.2238687E-4,-5.5498057E-3,-2.4410107E-3],"categories":[],"categories_nodes":[],"categories_segments":[],"categories_sizes":[],"default_left":[0,0,0,0,0,0,0,0,0,0,0,0,0,0,0],"id":13,"left_children":[1,3,5,7,9,11,13,-1,-1,-1,-1,-1,-1,-1,-1],"loss_changes":[6.3186816E2,3.168818E2,1.5612933E2,3.283352E2,1.6067688E2,9.426511E1,5.2095093E1,0E0,0E0,0E0,0E0,0E0,0E0,0E0,0E0],"parents":[2147483647,0,0,1,1,2,2,3,3,4,4,5,5,6,6],"right_children":[2,4,6,8,10,12,14,-1,-1,-1,-1,-1,-1,-1,-1],"split_conditions":[2.24E2,1.4E2,3.69E2,-8.8628805E-1,-3.6596254E-1,6.7082036E-1,1E0,-1.6541057E-3,3.418696E-4,-9.6530863E-4,-1.3752344E-4,-2.3707927E-3,-6.2238687E-4,-5.5498057E-3,-2.4410107E-3],"split_indices":[21,25,21,18,15,15,11,0,0,0,0,0,0,0,0],"split_type":[0,0,0,0,0,0,0,0,0,0,0,0,0,0,0],"sum_hessian":[8.400213E5,8.110064E5,2.9014918E4,5.174124E5,2.9359397E5,2.4456584E4,4.5583335E3,1.6690877E4,5.0072153E5,5.7041098E4,2.3655289E5,1.3535294E4,1.092129E4,2.8890784E3,1.6692552E3],"tree_param":{"num_deleted":"0","num_feature":"29","num_nodes":"15","size_leaf_vector":"1"}},{"base_weights":[6.376857E-5,-5.0472777E-2,1.5349791E-2,-9.048458E-3,-9.6164145E-2,1.8691694E-2,-6.398037E-2,1.4960617E-4,-1.2314143E-3,-1.9070737E-3,-5.9636374E-4,1.0908811E-4,6.4987445E-4,-1.0661575E-3,2.1925007E-3],"categories":[],"categories_nodes":[],"categories_segments":[],"categories_sizes":[],"default_left":[0,0,0,0,0,0,1,0,0,0,0,0,0,0,0],"id":14,"left_children":[1,3,5,7,9,11,13,-1,-1,-1,-1,-1,-1,-1,-1],"loss_changes":[6.48042E2,3.687324E2,1.7075331E2,1.5912076E2,1.9875812E2,1.8678596E2,6.9928024E1,0E0,0E0,0E0,0E0,0E0,0E0,0E0,0E0],"parents":[2147483647,0,0,1,1,2,2,3,3,4,4,5,5,6,6],"right_children":[2,4,6,8,10,12,14,-1,-1,-1,-1,-1,-1,-1,-1],"split_conditions":[-1.2080758E1,1.6E2,1.695E2,-4.45658E1,5.9404004E-1,7.440238E-1,-5.962E1,1.4960617E-4,-1.2314143E-3,-1.9070737E-3,-5.9636374E-4,1.0908811E-4,6.4987445E-4,-1.0661575E-3,2.1925007E-3],"split_indices":[22,25,20,22,15,15,23,0,0,0,0,0,0,0,0],"split_type":[0,0,0,0,0,0,0,0,0,0,0,0,0,0,0],"sum_hessian":[8.388843E5,1.9481419E5,6.440701E5,1.0217885E5,9.263533E4,6.1803525E5,2.6034906E4,8.173782E4,2.0441035E4,5.3001234E4,3.9634094E4,4.436429E5,1.7439231E5,2.4673867E4,1.36104E3],"tree_param":{"num_deleted":"0","num_feature":"29","num_nodes":"15","size_leaf_vector":"1"}},{"base_weights":[-2.9086156E-4,3.914272E-3,-1.6198003E-1,4.14959E-2,-6.237794E-3,-1.16359055E-1,-2.7155095E-1,2.5158364E-5,1.3298122E-3,-4.1891075E-5,-1.264569E-3,-2.650227E-3,-5.4604484E-4,-4.7117607E-3,-2.158566E-3],"categories":[],"categories_nodes":[],"categories_segments":[],"categories_sizes":[],"default_left":[0,0,0,0,0,0,0,0,0,0,0,0,0,0,0],"id":15,"left_children":[1,3,5,7,9,11,13,-1,-1,-1,-1,-1,-1,-1,-1],"loss_changes":[5.6859186E2,3.1097095E2,1.0592987E2,3.6810803E2,1.7513315E2,8.44507E1,4.7483368E1,0E0,0E0,0E0,0E0,0E0,0E0,0E0,0E0],"parents":[2147483647,0,0,1,1,2,2,3,3,4,4,5,5,6,6],"right_children":[2,4,6,8,10,12,14,-1,-1,-1,-1,-1,-1,-1,-1],"split_conditions":[2.45E2,8E1,3.39E2,3.0302582E-2,3.9406E2,6.127532E-1,1E0,2.5158364E-5,1.3298122E-3,-4.1891075E-5,-1.264569E-3,-2.650227E-3,-5.4604484E-4,-4.7117607E-3,-2.158566E-3],"split_indices":[21,25,21,17,25,15,11,0,0,0,0,0,0,0,0],"split_type":[0,0,0,0,0,0,0,0,0,0,0,0,0,0,0],"sum_hessian":[8.362553E5,8.150586E5,2.1196674E4,1.733471E5,6.4171156E5,1.4967052E4,6.2296226E3,9.950159E4,7.38455E4,6.178648E5,2.3846754E4,7.7025083E3,7.264544E3,4.0079675E3,2.221655E3],"tree_param":{"num_deleted":"0","num_feature":"29","num_nodes":"15","size_leaf_vector":"1"}},{"base_weights":[2.3090877E-4,-4.7384143E-2,1.3902E-2,-2.6061893E-2,-1.3472006E-1,3.4145343E-3,4.8458427E-2,3.1400374E-5,-8.460244E-4,-2.4563696E-3,-8.567048E-4,-9.5440587E-4,1.2446639E-4,1.1351471E-3,3.9861005E-4],"categories":[],"categories_nodes":[],"categories_segments":[],"categories_sizes":[],"default_left":[0,0,0,0,0,0,0,0,0,0,0,0,0,0,0],"id":16,"left_children":[1,3,5,7,9,11,13,-1,-1,-1,-1,-1,-1,-1,-1],"loss_changes":[5.4357306E2,3.468748E2,2.3512103E2,1.4564822E2,1.0946863E2,1.951081E2,9.848712E1,0E0,0E0,0E0,0E0,0E0,0E0,0E0,0E0],"parents":[2147483647,0,0,1,1,2,2,3,3,4,4,5,5,6,6],"right_children":[2,4,6,8,10,12,14,-1,-1,-1,-1,-1,-1,-1,-1],"split_conditions":[-1.52259445E1,1.295E2,7.191484E1,8.5E1,8.43274E-1,4.5894176E-1,5.5E1,3.1400374E-5,-8.460244E-4,-2.4563696E-3,-8.567048E-4,-9.5440587E-4,1.2446639E-4,1.1351471E-3,3.9861005E-4],"split_indices":[22,20,22,21,15,19,21,0,0,0,0,0,0,0,0],"split_type":[0,0,0,0,0,0,0,0,0,0,0,0,0,0,0],"sum_hessian":[8.350441E5,1.8627262E5,6.487715E5,1.4972095E5,3.6551676E4,4.9772038E5,1.5105112E5,8.210375E4,6.7617195E4,2.3519924E4,1.3031751E4,3.5366383E4,4.6235397E5,5.7382652E4,9.366847E4],"tree_param":{"num_deleted":"0","num_feature":"29","num_nodes":"15","size_leaf_vector":"1"}},{"base_weights":[7.1051874E-4,1.0513094E-2,-6.32629E-2,-1.0594245E-1,1.32356165E-2,-4.9544256E-2,-2.4417888E-1,-2.4716493E-3,-4.7078828E-4,1.6713542E-3,1.3512114E-4,-1.1563342E-3,-1.2765877E-4,-2.6085114E-3,-4.8629073E-3],"categories":[],"categories_nodes":[],"categories_segments":[],"categories_sizes":[],"default_left":[0,0,0,0,0,0,0,0,0,0,0,0,0,0,0],"id":17,"left_children":[1,3,5,7,9,11,13,-1,-1,-1,-1,-1,-1,-1,-1],"loss_changes":[5.226211E2,2.2912152E2,2.7481558E2,8.428195E1,2.6864697E2,1.3752304E2,4.6522064E1,0E0,0E0,0E0,0E0,0E0,0E0,0E0,0E0],"parents":[2147483647,0,0,1,1,2,2,3,3,4,4,5,5,6,6],"right_children":[2,4,6,8,10,12,14,-1,-1,-1,-1,-1,-1,-1,-1],"split_conditions":[2.39E2,-9.37714E-1,3.14E2,5E0,5E1,5.8404547E-1,4.11E2,-2.4716493E-3,-4.7078828E-4,1.6713542E-3,1.3512114E-4,-1.1563342E-3,-1.2765877E-4,-2.6085114E-3,-4.8629073E-3],"split_indices":[25,18,21,27,25,15,21,0,0,0,0,0,0,0,0],"split_type":[0,0,0,0,0,0,0,0,0,0,0,0,0,0,0],"sum_hessian":[8.333857E5,7.2265494E5,1.1073076E5,1.6507578E4,7.061474E5,1.0292719E5,7.803576E3,8.35186E3,8.1557173E3,2.3063611E4,6.8308375E5,5.6628324E4,4.6298863E4,5.0015884E3,2.8019878E3],"tree_param":{"num_deleted":"0","num_feature":"29","num_nodes":"15","size_leaf_vector":"1"}},{"base_weights":[2.4085958E-4,7.385338E-3,-8.925331E-2,-6.4623985E-3,3.0527102E-2,-6.814239E-2,-2.4046332E-1,6.7466695E-5,-8.791186E-4,2.2835897E-3,3.8719125E-4,-5.4553314E-4,-1.8460968E-3,-4.2422144E-3,-1.7539725E-3],"categories":[],"categories_nodes":[],"categories_segments":[],"categories_sizes":[],"default_left":[0,0,0,0,0,0,0,0,0,0,0,0,0,0,0],"id":18,"left_children":[1,3,5,7,9,11,13,-1,-1,-1,-1,-1,-1,-1,-1],"loss_changes":[5.3207556E2,2.4696054E2,1.9637183E2,3.064005E2,1.09800476E2,1.003618E2,5.4260864E1,0E0,0E0,0E0,0E0,0E0,0E0,0E0,0E0],"parents":[2147483647,0,0,1,1,2,2,3,3,4,4,5,5,6,6],"right_children":[2,4,6,8,10,12,14,-1,-1,-1,-1,-1,-1,-1,-1],"split_conditions":[2.99E2,5.570483E-1,3.14E2,1.145E2,5.5E1,8E0,1E0,6.7466695E-5,-8.791186E-4,2.2835897E-3,3.8719125E-4,-5.4553314E-4,-1.8460968E-3,-4.2422144E-3,-1.7539725E-3],"split_indices":[25,15,21,21,25,27,11,0,0,0,0,0,0,0,0],"split_type":[0,0,0,0,0,0,0,0,0,0,0,0,0,0,0],"sum_hessian":[8.321603E5,7.706397E5,6.152062E4,4.8213625E5,2.8850347E5,5.3985043E4,7.535575E3,4.016913E5,8.0444945E4,6.11274E3,2.8239072E5,3.7031383E4,1.695366E4,4.8824E3,2.6531755E3],"tree_param":{"num_deleted":"0","num_feature":"29","num_nodes":"15","size_leaf_vector":"1"}},{"base_weights":[6.539619E-4,-4.335212E-2,1.4203771E-2,-3.1119369E-2,-1.6463155E-1,7.7038007E-3,5.741229E-2,-6.767937E-4,4.6186472E-4,-2.8863498E-3,-1.0124812E-3,2.8684744E-4,-2.8607057E-4,1.5693614E-3,4.7418743E-4],"categories":[],"categories_nodes":[],"categories_segments":[],"categories_sizes":[],"default_left":[0,0,0,0,0,0,0,0,0,0,0,0,0,0,0],"id":19,"left_children":[1,3,5,7,9,11,13,-1,-1,-1,-1,-1,-1,-1,-1],"loss_changes":[4.9558295E2,2.9028024E2,1.784732E2,1.962547E2,6.872281E1,1.987143E2,1.0697067E2,0E0,0E0,0E0,0E0,0E0,0E0,0E0,0E0],"parents":[2147483647,0,0,1,1,2,2,3,3,4,4,5,5,6,6],"right_children":[2,4,6,8,10,12,14,-1,-1,-1,-1,-1,-1,-1,-1],"split_conditions":[-1.0269484E1,3.7E2,1.0103453E2,9.486833E-1,-7.9E1,1.36E2,-5.350792E-2,-6.767937E-4,4.6186472E-4,-2.8863498E-3,-1.0124812E-3,2.8684744E-4,-2.8607057E-4,1.5693614E-3,4.7418743E-4],"split_indices":[22,25,22,15,22,25,17,0,0,0,0,0,0,0,0],"split_type":[0,0,0,0,0,0,0,0,0,0,0,0,0,0,0],"sum_hessian":[8.311309E5,1.9566433E5,6.354665E5,1.7773817E5,1.792616E4,5.523728E5,8.309371E4,1.401005E5,3.763767E4,1.2362375E4,5.5637847E3,3.7979762E5,1.725752E5,2.5005316E4,5.8088395E4],"tree_param":{"num_deleted":"0","num_feature":"29","num_nodes":"15","size_leaf_vector":"1"}},{"base_weights":[1.5946614E-4,-2.3942556E-2,2.5412083E-2,-7.331057E-3,-7.54943E-2,2.2161867E-2,1.172038E-1,-1.1094838E-3,3.418423E-5,-1.4651185E-3,-2.805246E-4,5.525221E-4,2.608325E-5,-4.9469606E-3,1.7689896E-3],"categories":[],"categories_nodes":[],"categories_segments":[],"categories_sizes":[],"default_left":[0,0,0,0,0,0,0,0,0,0,0,0,0,0,0],"id":20,"left_children":[1,3,5,7,9,11,13,-1,-1,-1,-1,-1,-1,-1,-1],"loss_changes":[5.0471005E2,3.63339E2,1.2081305E2,2.2553305E2,1.6719037E2,1.3737677E2,5.9686935E1,0E0,0E0,0E0,0E0,0E0,0E0,0E0,0E0],"parents":[2147483647,0,0,1,1,2,2,3,3,4,4,5,5,6,6],"right_children":[2,4,6,8,10,12,14,-1,-1,-1,-1,-1,-1,-1,-1],"split_conditions":[2.5470015E1,1.89E2,1.7870125E2,4.790006E-1,1E0,1.2E2,5.6E1,-1.1094838E-3,3.418423E-5,-1.4651185E-3,-2.805246E-4,5.525221E-4,2.608325E-5,-4.9469606E-3,1.7689896E-3],"split_indices":[22,25,22,19,11,25,25,0,0,0,0,0,0,0,0],"split_type":[0,0,0,0,0,0,0,0,0,0,0,0,0,0,0],"sum_hessian":[8.292415E5,4.2428675E5,4.0495475E5,3.208882E5,1.0339855E5,3.9110744E5,1.3847323E4,3.838757E4,2.8250062E5,6.7767945E4,3.5630605E4,2.1112761E5,1.7997983E5,2.6348087E2,1.3583842E4],"tree_param":{"num_deleted":"0","num_feature":"29","num_nodes":"15","size_leaf_vector":"1"}},{"base_weights":[-6.5587126E-5,4.2455257E-3,-1.2743771E-1,-8.866905E-3,3.5233174E-2,-9.9979535E-2,-2.8231618E-1,-5.331703E-4,1.0859096E-4,-2.7607523E-3,5.119657E-4,-4.3166485E-3,-1.1360638E-3,-4.9547795E-3,-2.2792907E-3],"categories":[],"categories_nodes":[],"categories_segments":[],"categories_sizes":[],"default_left":[0,0,0,0,0,0,0,0,0,0,0,0,0,0,0],"id":21,"left_children":[1,3,5,7,9,11,13,-1,-1,-1,-1,-1,-1,-1,-1],"loss_changes":[4.53767E2,3.2477704E2,1.1502289E2,2.7278107E2,7.3796234E1,9.014711E1,3.479724E1,0E0,0E0,0E0,0E0,0E0,0E0,0E0,0E0],"parents":[2147483647,0,0,1,1,2,2,3,3,4,4,5,5,6,6],"right_children":[2,4,6,8,10,12,14,-1,-1,-1,-1,-1,-1,-1,-1],"split_conditions":[2.24E2,4.9379513E1,3.69E2,5.6755984E-1,-2.1834538E0,-6.6358185E-1,1E0,-5.331703E-4,1.0859096E-4,-2.7607523E-3,5.119657E-4,-4.3166485E-3,-1.1360638E-3,-4.9547795E-3,-2.2792907E-3],"split_indices":[21,22,21,19,15,15,11,0,0,0,0,0,0,0,0],"split_type":[0,0,0,0,0,0,0,0,0,0,0,0,0,0,0],"sum_hessian":[8.2635775E5,7.99305E5,2.7052787E4,5.616453E5,2.3765966E5,2.2980291E4,4.0724958E3,2.0367402E5,3.579713E5,1.3572181E3,2.3630244E5,1.9036422E3,2.1076648E4,2.5455376E3,1.5269584E3],"tree_param":{"num_deleted":"0","num_feature":"29","num_nodes":"15","size_leaf_vector":"1"}},{"base_weights":[-5.326078E-4,1.0473396E-2,-4.3380853E-2,-1.1969621E-1,1.2870056E-2,-5.0380815E-2,1.3073464E-1,-2.2550751E-3,-1.1190943E-4,2.067855E-4,-1.9273523E-3,-5.3946616E-4,-1.8081624E-3,-2.2948903E-4,2.9964875E-3],"categories":[],"categories_nodes":[],"categories_segments":[],"categories_sizes":[],"default_left":[0,0,1,0,1,0,0,0,0,0,0,0,0,0,0],"id":22,"left_children":[1,3,5,7,9,11,13,-1,-1,-1,-1,-1,-1,-1,-1],"loss_changes":[3.8854883E2,2.0451031E2,2.052294E2,5.478012E1,1.8414288E2,1.5106732E2,7.9764175E1,0E0,0E0,0E0,0E0,0E0,0E0,0E0,0E0],"parents":[2147483647,0,0,1,1,2,2,3,3,4,4,5,5,6,6],"right_children":[2,4,6,8,10,12,14,-1,-1,-1,-1,-1,-1,-1,-1],"split_conditions":[9.95E1,-1.816636E0,-2.292E1,1E0,3.6E-1,2.245E2,1.2214085E-1,-2.2550751E-3,-1.1190943E-4,2.067855E-4,-1.9273523E-3,-5.3946616E-4,-1.8081624E-3,-2.2948903E-4,2.9964875E-3],"split_indices":[20,15,23,11,24,20,15,0,0,0,0,0,0,0,0],"split_type":[0,0,0,0,0,0,0,0,0,0,0,0,0,0,0],"sum_hessian":[8.2391406E5,6.5553425E5,1.6837983E5,1.1850488E4,6.4368375E5,1.6187277E5,6.507057E3,8.64681E3,3.2036785E3,6.356603E5,8.0234395E3,1.4071134E5,2.1161424E4,2.3526155E3,4.1544414E3],"tree_param":{"num_deleted":"0","num_feature":"29","num_nodes":"15","size_leaf_vector":"1"}},{"base_weights":[2.4612414E-4,-4.2939786E-2,1.2501772E-2,-8.857405E-3,-8.4179334E-2,4.629711E-3,4.1507166E-2,-1.02916936E-4,-7.717978E-3,-2.3863683E-3,-7.1137334E-4,1.2837774E-4,-7.727839E-4,7.0324127E-4,-1.084E-3],"categories":[],"categories_nodes":[],"categories_segments":[],"categories_sizes":[],"default_left":[0,0,0,1,0,0,0,0,0,0,0,0,0,0,0],"id":23,"left_children":[1,3,5,7,9,11,13,-1,-1,-1,-1,-1,-1,-1,-1],"loss_changes":[4.360063E2,2.5595157E2,1.4651688E2,8.145418E1,2.3719824E2,1.3709386E2,1.421365E2,0E0,0E0,0E0,0E0,0E0,0E0,0E0,0E0],"parents":[2147483647,0,0,1,1,2,2,3,3,4,4,5,5,6,6],"right_children":[2,4,6,8,10,12,14,-1,-1,-1,-1,-1,-1,-1,-1],"split_conditions":[-1.52259445E1,9.4E1,9.318192E-1,1.5E0,-3.300826E-2,1.495E2,1.5E1,-1.02916936E-4,-7.717978E-3,-2.3863683E-3,-7.1137334E-4,1.2837774E-4,-7.727839E-4,7.0324127E-4,-1.084E-3],"split_indices":[22,21,15,24,15,21,27,0,0,0,0,0,0,0,0],"split_type":[0,0,0,0,0,0,0,0,0,0,0,0,0,0,0],"sum_hessian":[8.2378394E5,1.8210122E5,6.4168275E5,9.9703E4,8.239822E4,5.047066E5,1.3697616E5,9.942793E4,2.750751E2,2.2978795E4,5.941942E4,4.691088E5,3.559776E4,1.2761567E5,9.3604795E3],"tree_param":{"num_deleted":"0","num_feature":"29","num_nodes":"15","size_leaf_vector":"1"}},{"base_weights":[-2.8819137E-4,-3.6803246E-2,1.3870532E-2,-2.0988708E-2,-9.662114E-2,1.6161776E-1,1.2233542E-2,2.955748E-4,-4.8388683E-4,-1.0008874E-3,-3.1823479E-3,2.3913132E-3,-5.4589496E-3,1.8272131E-4,-3.1633975E-3],"categories":[],"categories_nodes":[],"categories_segments":[],"categories_sizes":[],"default_left":[0,0,0,0,0,0,1,0,0,0,0,0,0,0,0],"id":24,"left_children":[1,3,5,7,9,11,13,-1,-1,-1,-1,-1,-1,-1,-1],"loss_changes":[4.2490463E2,2.1723004E2,1.4323312E2,1.03797775E2,1.576726E2,3.2961624E1,1.14124245E2,0E0,0E0,0E0,0E0,0E0,0E0,0E0,0E0],"parents":[2147483647,0,0,1,1,2,2,3,3,4,4,5,5,6,6],"right_children":[2,4,6,8,10,12,14,-1,-1,-1,-1,-1,-1,-1,-1],"split_conditions":[8.0998343E-1,1.44E2,4E1,1E0,4.29E2,1.9348332E2,1.04E0,2.955748E-4,-4.8388683E-4,-1.0008874E-3,-3.1823479E-3,2.3913132E-3,-5.4589496E-3,1.8272131E-4,-3.1633975E-3],"split_indices":[22,21,25,6,25,22,24,0,0,0,0,0,0,0,0],"split_type":[0,0,0,0,0,0,0,0,0,0,0,0,0,0,0],"sum_hessian":[8.218535E5,2.2963305E5,5.9222044E5,1.8161847E5,4.801458E4,6.4886304E3,5.857318E5,4.4281277E4,1.3733719E5,4.0272465E4,7.7421143E3,6.382962E3,1.0566864E2,5.837282E5,2.0036604E3],"tree_param":{"num_deleted":"0","num_feature":"29","num_nodes":"15","size_leaf_vector":"1"}},{"base_weights":[2.0722317E-4,5.7546906E-3,-8.8466994E-2,-2.4369925E-2,1.6461037E-2,-7.215344E-2,-2.708549E-1,-1.0029646E-3,-1.0246136E-4,1.3132086E-4,5.9359666E-4,-2.364341E-3,-5.8284553E-4,-4.7867084E-3,-2.151709E-3],"categories":[],"categories_nodes":[],"categories_segments":[],"categories_sizes":[],"default_left":[0,0,0,0,0,0,0,0,0,0,0,0,0,0,0],"id":25,"left_children":[1,3,5,7,9,11,13,-1,-1,-1,-1,-1,-1,-1,-1],"loss_changes":[4.0395523E2,2.4925914E2,1.43837E2,1.6333691E2,1.04727295E2,1.3101772E2,3.298889E1,0E0,0E0,0E0,0E0,0E0,0E0,0E0,0E0],"parents":[2147483647,0,0,1,1,2,2,3,3,4,4,5,5,6,6],"right_children":[2,4,6,8,10,12,14,-1,-1,-1,-1,-1,-1,-1,-1],"split_conditions":[1.89E2,8.0998343E-1,3.69E2,-3.6596254E-1,7.914925E1,0E0,1E0,-1.0029646E-3,-1.0246136E-4,1.3132086E-4,5.9359666E-4,-2.364341E-3,-5.8284553E-4,-4.7867084E-3,-2.151709E-3],"split_indices":[21,22,21,15,22,15,11,0,0,0,0,0,0,0,0],"split_type":[0,0,0,0,0,0,0,0,0,0,0,0,0,0,0],"sum_hessian":[8.211831E5,7.7283544E5,4.8347723E4,2.0264597E5,5.7018944E5,4.4379613E4,3.9681077E3,5.371929E4,1.4892667E5,4.4791512E5,1.2227435E5,1.0643638E4,3.3735977E4,2.468911E3,1.4991968E3],"tree_param":{"num_deleted":"0","num_feature":"29","num_nodes":"15","size_leaf_vector":"1"}},{"base_weights":[-2.3769322E-4,2.5244448E-3,-1.7056575E-1,-3.4076467E-2,1.1873492E-2,-2.2066583E-1,-6.712067E-2,1.274793E-4,-8.8360056E-4,-2.6522594E-4,2.5493684E-4,-4.0068263E-3,-1.8203724E-3,-1.2758309E-4,-1.8543706E-3],"categories":[],"categories_nodes":[],"categories_segments":[],"categories_sizes":[],"default_left":[0,0,0,0,0,0,0,0,0,0,0,0,0,0,0],"id":26,"left_children":[1,3,5,7,9,11,13,-1,-1,-1,-1,-1,-1,-1,-1],"loss_changes":[3.8565076E2,2.760173E2,6.7778076E1,2.0579233E2,1.2546618E2,5.2308838E1,1.6179993E1,0E0,0E0,0E0,0E0,0E0,0E0,0E0,0E0],"parents":[2147483647,0,0,1,1,2,2,3,3,4,4,5,5,6,6],"right_children":[2,4,6,8,10,12,14,-1,-1,-1,-1,-1,-1,-1,-1],"split_conditions":[2.7E2,-2.014682E1,1E0,1.29E2,-6.2001985E-1,8.3005744E-1,3.39E2,1.274793E-4,-8.8360056E-4,-2.6522594E-4,2.5493684E-4,-4.0068263E-3,-1.8203724E-3,-1.2758309E-4,-1.8543706E-3],"split_indices":[21,22,11,25,15,15,21,0,0,0,0,0,0,0,0],"split_type":[0,0,0,0,0,0,0,0,0,0,0,0,0,0,0],"sum_hessian":[8.197127E5,8.066329E5,1.3079839E4,1.6411819E5,6.425147E5,8.811269E3,4.26857E3,6.59881E4,9.8130086E4,1.0957337E5,5.329413E5,5.1125327E3,3.6987363E3,2.2616694E3,2.0069001E3],"tree_param":{"num_deleted":"0","num_feature":"29","num_nodes":"15","size_leaf_vector":"1"}},{"base_weights":[-7.3995016E-4,1.216949E-2,-3.4025088E-2,1.36173405E-2,-1.975421E-1,-8.8916875E-2,-1.2186022E-2,8.378735E-4,1.1395814E-4,-4.3739066E-3,-9.0531376E-4,-1.6827399E-3,-4.519097E-4,-1.0858176E-4,-1.8575251E-3],"categories":[],"categories_nodes":[],"categories_segments":[],"categories_sizes":[],"default_left":[0,1,0,0,0,0,0,0,0,0,0,0,0,0,0],"id":27,"left_children":[1,3,5,7,9,11,13,-1,-1,-1,-1,-1,-1,-1,-1],"loss_changes":[3.5134125E2,1.7888898E2,2.7392236E2,1.4816763E2,6.1645523E1,1.15210266E2,8.725921E1,0E0,0E0,0E0,0E0,0E0,0E0,0E0,0E0],"parents":[2147483647,0,0,1,1,2,2,3,3,4,4,5,5,6,6],"right_children":[2,4,6,8,10,12,14,-1,-1,-1,-1,-1,-1,-1,-1],"split_conditions":[1.69E2,8.5E-1,-3.7594715E1,6E1,5.978899E-2,1E0,1.4200938E0,8.378735E-4,1.1395814E-4,-4.3739066E-3,-9.0531376E-4,-1.6827399E-3,-4.519097E-4,-1.0858176E-4,-1.8575251E-3],"split_indices":[25,24,22,25,17,11,17,0,0,0,0,0,0,0,0],"split_type":[0,0,0,0,0,0,0,0,0,0,0,0,0,0,0],"sum_hessian":[8.1765544E5,5.891556E5,2.2849981E5,5.851169E5,4.0387178E3,6.5034535E4,1.6346527E5,6.198061E4,5.2313628E5,2.1653206E3,1.8733971E3,4.189589E4,2.3138648E4,1.5766934E5,5.795921E3],"tree_param":{"num_deleted":"0","num_feature":"29","num_nodes":"15","size_leaf_vector":"1"}},{"base_weights":[8.064529E-4,7.289559E-3,-6.294185E-2,-1.9464973E-2,1.7714156E-2,-1.43629E-1,-3.1325612E-2,-2.1713364E-4,-3.803541E-3,6.132788E-4,3.869062E-5,-2.616521E-3,-1.0973811E-3,-4.0304305E-5,-1.265166E-3],"categories":[],"categories_nodes":[],"categories_segments":[],"categories_sizes":[],"default_left":[0,0,0,1,0,0,0,0,0,0,0,0,0,0,0],"id":28,"left_children":[1,3,5,7,9,11,13,-1,-1,-1,-1,-1,-1,-1,-1],"loss_changes":[3.381413E2,2.07129E2,1.9266489E2,2.0773178E2,2.0846703E2,6.0005188E1,9.114279E1,0E0,0E0,0E0,0E0,0E0,0E0,0E0,0E0],"parents":[2147483647,0,0,1,1,2,2,3,3,4,4,5,5,6,6],"right_children":[2,4,6,8,10,12,14,-1,-1,-1,-1,-1,-1,-1,-1],"split_conditions":[2.71E2,5.529421E-1,-7.9E1,4.924E1,9.968E1,1E0,8E0,-2.1713364E-4,-3.803541E-3,6.132788E-4,3.869062E-5,-2.616521E-3,-1.0973811E-3,-4.0304305E-5,-1.265166E-3],"split_indices":[25,19,22,23,25,11,27,0,0,0,0,0,0,0,0],"split_type":[0,0,0,0,0,0,0,0,0,0,0,0,0,0,0],"sum_hessian":[8.181733E5,7.42648E5,7.55253E4,2.0822964E5,5.344184E5,2.126128E4,5.426402E4,2.050155E5,3.2141292E3,1.9467403E5,3.3974434E5,1.27828125E4,8.478466E3,3.66212E4,1.7642818E4],"tree_param":{"num_deleted":"0","num_feature":"29","num_nodes":"15","size_leaf_vector":"1"}},{"base_weights":[-1.030172E-5,3.070068E-3,-1.293374E-1,-9.068105E-3,2.9645082E-2,-1.9452201E-1,-6.4527944E-2,-6.5149047E-4,9.1742106E-5,-2.9773426E-3,4.5439036E-4,-3.956073E-3,-1.9137319E-3,-4.0688703E-4,-3.842477E-3],"categories":[],"categories_nodes":[],"categories_segments":[],"categories_sizes":[],"default_left":[0,0,0,0,0,0,0,0,0,0,0,0,0,0,0],"id":29,"left_children":[1,3,5,7,9,11,13,-1,-1,-1,-1,-1,-1,-1,-1],"loss_changes":[3.2517966E2,2.571789E2,8.021152E1,3.2031973E2,1.7029993E2,4.8166718E1,7.08992E1,0E0,0E0,0E0,0E0,0E0,0E0,0E0,0E0],"parents":[2147483647,0,0,1,1,2,2,3,3,4,4,5,5,6,6],"right_children":[2,4,6,8,10,12,14,-1,-1,-1,-1,-1,-1,-1,-1],"split_conditions":[2.45E2,6.932057E-1,6.127532E-1,4.24044E0,-2.105E1,-7.659358E1,4.11E2,-6.5149047E-4,9.1742106E-5,-2.9773426E-3,4.5439036E-4,-3.956073E-3,-1.9137319E-3,-4.0688703E-4,-3.842477E-3],"split_indices":[21,15,15,22,23,22,21,0,0,0,0,0,0,0,0],"split_type":[0,0,0,0,0,0,0,0,0,0,0,0,0,0,0],"sum_hessian":[8.162626E5,7.972738E5,1.8988842E4,5.472962E5,2.4997761E5,9.466022E3,9.522819E3,1.6104086E5,3.862553E5,2.8661858E3,2.4711142E5,3.7507554E3,5.7152676E3,8.1475757E3,1.3752438E3],"tree_param":{"num_deleted":"0","num_feature":"29","num_nodes":"15","size_leaf_vector":"1"}},{"base_weights":[5.6706107E-4,8.01546E-3,-5.5793874E-2,-6.0108076E-3,2.5704725E-2,-4.380429E-2,-2.0913155E-1,-9.802826E-4,6.5347804E-6,-1.4187483E-4,5.598698E-4,-1.750638E-3,-3.7675197E-4,-3.7353402E-3,-1.4694142E-3],"categories":[],"categories_nodes":[],"categories_segments":[],"categories_sizes":[],"default_left":[0,0,0,0,0,0,0,0,0,0,0,0,0,0,0],"id":30,"left_children":[1,3,5,7,9,11,13,-1,-1,-1,-1,-1,-1,-1,-1],"loss_changes":[3.4199088E2,1.7853345E2,1.748165E2,1.6640341E2,1.6292969E2,1.210446E2,4.140677E1,0E0,0E0,0E0,0E0,0E0,0E0,0E0,0E0],"parents":[2147483647,0,0,1,1,2,2,3,3,4,4,5,5,6,6],"right_children":[2,4,6,8,10,12,14,-1,-1,-1,-1,-1,-1,-1,-1],"split_conditions":[1.49E2,3.148415E1,3.14E2,-5.7947195E-1,3E0,5.5182356E-1,1E0,-9.802826E-4,6.5347804E-6,-1.4187483E-4,5.598698E-4,-1.750638E-3,-3.7675197E-4,-3.7353402E-3,-1.4694142E-3],"split_indices":[21,22,21,18,27,19,11,0,0,0,0,0,0,0,0],"split_type":[0,0,0,0,0,0,0,0,0,0,0,0,0,0,0],"sum_hessian":[8.146523E5,7.195595E5,9.509278E4,4.0133303E5,3.182265E5,8.819781E4,6.894965E3,3.688062E4,3.644524E5,9.069756E4,2.2752894E5,1.5181744E4,7.301607E4,4.436831E3,2.4581338E3],"tree_param":{"num_deleted":"0","num_feature":"29","num_nodes":"15","size_leaf_vector":"1"}},{"base_weights":[6.850916E-4,1.3065556E-2,-3.153917E-2,-7.90853E-2,1.573315E-2,-8.339822E-2,-1.1234564E-2,-1.560398E-3,4.8417354E-4,2.9841166E-3,2.0314186E-4,-8.8939175E-4,-2.4090935E-3,2.7006524E-4,-5.776062E-4],"categories":[],"categories_nodes":[],"categories_segments":[],"categories_sizes":[],"default_left":[0,0,0,0,0,0,0,0,0,0,0,0,0,0,0],"id":31,"left_children":[1,3,5,7,9,11,13,-1,-1,-1,-1,-1,-1,-1,-1],"loss_changes":[3.2464716E2,1.4451633E2,2.3782924E2,6.0864044E1,1.3794664E2,1.1197177E2,1.4875394E2,0E0,0E0,0E0,0E0,0E0,0E0,0E0,0E0],"parents":[2147483647,0,0,1,1,2,2,3,3,4,4,5,5,6,6],"right_children":[2,4,6,8,10,12,14,-1,-1,-1,-1,-1,-1,-1,-1],"split_conditions":[1.69E2,-8.8628805E-1,-3.7594715E1,1E1,3.5E1,4E2,5E0,-1.560398E-3,4.8417354E-4,2.9841166E-3,2.0314186E-4,-8.8939175E-4,-2.4090935E-3,2.7006524E-4,-5.776062E-4],"split_indices":[25,18,22,27,25,25,27,0,0,0,0,0,0,0,0],"split_type":[0,0,0,0,0,0,0,0,0,0,0,0,0,0,0],"sum_hessian":[8.137493E5,5.878859E5,2.258634E5,1.6538611E4,5.7134725E5,6.3550043E4,1.6231336E5,1.28726455E4,3.665966E3,3.5166787E3,5.678306E5,5.1918527E4,1.1631519E4,8.048411E4,8.182926E4],"tree_param":{"num_deleted":"0","num_feature":"29","num_nodes":"15","size_leaf_vector":"1"}},{"base_weights":[-3.778926E-4,7.883292E-3,-4.262328E-2,-9.83054E-4,3.5127576E-2,-1.0466863E-1,-1.8864954E-2,-1.6535152E-4,3.7321541E-4,-2.054306E-4,6.8578584E-4,-1.3202804E-3,-4.2579193E-3,1.5757621E-4,-6.9588376E-4],"categories":[],"categories_nodes":[],"categories_segments":[],"categories_sizes":[],"default_left":[0,0,0,0,0,0,0,0,0,0,0,0,0,0,0],"id":32,"left_children":[1,3,5,7,9,11,13,-1,-1,-1,-1,-1,-1,-1,-1],"loss_changes":[2.8326184E2,1.6399025E2,1.956958E2,1.532983E2,1.1503317E2,7.59556E1,8.917887E1,0E0,0E0,0E0,0E0,0E0,0E0,0E0,0E0],"parents":[2147483647,0,0,1,1,2,2,3,3,4,4,5,5,6,6],"right_children":[2,4,6,8,10,12,14,-1,-1,-1,-1,-1,-1,-1,-1],"split_conditions":[1.095E2,5.6670357E1,-3.7594715E1,3.4760502E-1,3E0,4.11E2,5E0,-1.6535152E-4,3.7321541E-4,-2.054306E-4,6.8578584E-4,-1.3202804E-3,-4.2579193E-3,1.5757621E-4,-6.9588376E-4],"split_indices":[20,22,22,18,27,21,27,0,0,0,0,0,0,0,0],"split_type":[0,0,0,0,0,0,0,0,0,0,0,0,0,0,0],"sum_hessian":[8.116436E5,6.788866E5,1.3275703E5,5.1219838E5,1.6668823E5,3.6758383E4,9.599866E4,3.680319E5,1.4416647E5,3.628464E4,1.30403586E5,3.4944402E4,1.8139786E3,4.8567055E4,4.74316E4],"tree_param":{"num_deleted":"0","num_feature":"29","num_nodes":"15","size_leaf_vector":"1"}},{"base_weights":[-7.3221733E-4,2.1866843E-2,-1.4517529E-2,1.2946847E-2,8.103813E-2,-4.8878737E-2,-3.888208E-3,-1.1377555E-3,2.8482612E-4,1.1815084E-3,-3.925643E-3,-9.677003E-4,-9.782708E-5,-4.2232846E-6,-1.7030322E-3],"categories":[],"categories_nodes":[],"categories_segments":[],"categories_sizes":[],"default_left":[0,0,0,0,1,0,0,0,0,0,0,0,0,0,0],"id":33,"left_children":[1,3,5,7,9,11,13,-1,-1,-1,-1,-1,-1,-1,-1],"loss_changes":[2.5239763E2,1.6201411E2,1.8379228E2,1.8592287E2,4.8790344E1,1.00815216E2,1.6231737E2,0E0,0E0,0E0,0E0,0E0,0E0,0E0,0E0],"parents":[2147483647,0,0,1,1,2,2,3,3,4,4,5,5,6,6],"right_children":[2,4,6,8,10,12,14,-1,-1,-1,-1,-1,-1,-1,-1],"split_conditions":[9.968E1,1E1,-1.9903748E-1,4.49372E-1,1.9E-1,1E0,2.55E2,-1.1377555E-3,2.8482612E-4,1.1815084E-3,-3.925643E-3,-9.677003E-4,-9.782708E-5,-4.2232846E-6,-1.7030322E-3],"split_indices":[25,27,15,19,24,11,20,0,0,0,0,0,0,0,0],"split_type":[0,0,0,0,0,0,0,0,0,0,0,0,0,0,0],"sum_hessian":[8.1017194E5,3.0695772E5,5.032142E5,2.6674716E5,4.0210574E4,1.1888695E5,3.8432725E5,1.9419652E4,2.473275E5,3.9841484E4,3.6908905E2,8.015406E4,3.873289E4,3.729687E5,1.1358572E4],"tree_param":{"num_deleted":"0","num_feature":"29","num_nodes":"15","size_leaf_vector":"1"}},{"base_weights":[-4.9271755E-4,-3.4753054E-2,9.798226E-3,-5.1940266E-2,2.550061E-2,5.3233956E-3,6.0433563E-2,-5.192016E-4,-1.8469492E-3,-2.3844732E-4,1.2451629E-3,3.282635E-4,-7.343658E-5,1.0854661E-4,1.1030271E-3],"categories":[],"categories_nodes":[],"categories_segments":[],"categories_sizes":[],"default_left":[0,0,0,0,0,0,0,0,0,0,0,0,0,0,0],"id":34,"left_children":[1,3,5,7,9,11,13,-1,-1,-1,-1,-1,-1,-1,-1],"loss_changes":[2.8548288E2,1.9369577E2,1.4108928E2,1.7289926E2,1.1201039E2,1.09589874E2,4.8885895E1,0E0,0E0,0E0,0E0,0E0,0E0,0E0,0E0],"parents":[2147483647,0,0,1,1,2,2,3,3,4,4,5,5,6,6],"right_children":[2,4,6,8,10,12,14,-1,-1,-1,-1,-1,-1,-1,-1],"split_conditions":[-1.0269484E1,9.486833E-1,1.2414424E2,1.31E2,-9.2E1,4.25E1,1E0,-5.192016E-4,-1.8469492E-3,-2.3844732E-4,1.2451629E-3,3.282635E-4,-7.343658E-5,1.0854661E-4,1.1030271E-3],"split_indices":[22,15,22,20,22,20,6,0,0,0,0,0,0,0,0],"split_type":[0,0,0,0,0,0,0,0,0,0,0,0,0,0,0],"sum_hessian":[8.09715E5,1.8703631E5,6.226787E5,1.4552561E5,4.1510695E4,5.721195E5,5.055919E4,1.2273349E5,2.2792121E4,2.4850568E4,1.6660129E4,2.1073677E5,3.6138275E5,1.3064019E4,3.749517E4],"tree_param":{"num_deleted":"0","num_feature":"29","num_nodes":"15","size_leaf_vector":"1"}},{"base_weights":[-3.7421042E-4,-3.781863E-2,9.410389E-3,-2.1942731E-2,-1.07836425E-1,2.2280207E-3,3.3137653E-2,8.945874E-4,-4.3343176E-4,-2.1410042E-3,-6.10315E-4,-5.1975672E-5,6.426564E-4,3.199105E-3,4.0077907E-4],"categories":[],"categories_nodes":[],"categories_segments":[],"categories_sizes":[],"default_left":[0,0,0,0,0,0,0,0,0,0,0,0,0,0,0],"id":35,"left_children":[1,3,5,7,9,11,13,-1,-1,-1,-1,-1,-1,-1,-1],"loss_changes":[2.9632578E2,1.8625784E2,1.0927794E2,1.05725136E2,8.971002E1,1.2771555E2,1.3129826E2,0E0,0E0,0E0,0E0,0E0,0E0,0E0,0E0],"parents":[2147483647,0,0,1,1,2,2,3,3,4,4,5,5,6,6],"right_children":[2,4,6,8,10,12,14,-1,-1,-1,-1,-1,-1,-1,-1],"split_conditions":[-2.014682E1,2.69E2,8.8405126E-1,7E1,6.816257E-1,1.0103453E2,5.5E1,8.945874E-4,-4.3343176E-4,-2.1410042E-3,-6.10315E-4,-5.1975672E-5,6.426564E-4,3.199105E-3,4.0077907E-4],"split_indices":[22,25,15,25,15,22,25,0,0,0,0,0,0,0,0],"split_type":[0,0,0,0,0,0,0,0,0,0,0,0,0,0,0],"sum_hessian":[8.0879456E5,1.6756017E5,6.412344E5,1.3659077E5,3.0969402E4,4.9223372E5,1.4900066E5,1.2982918E4,1.2360784E5,1.819604E4,1.2773363E4,4.3329962E5,5.8934098E4,3.3612834E3,1.4563938E5],"tree_param":{"num_deleted":"0","num_feature":"29","num_nodes":"15","size_leaf_vector":"1"}},{"base_weights":[2.1997727E-4,7.442143E-3,-4.8437186E-2,8.31765E-3,-2.4758908E-1,-9.268831E-2,-6.509413E-3,-1.1194999E-5,4.0051265E-4,-4.867517E-3,-2.362444E-3,-1.629615E-3,2.7747214E-4,1.0502305E-3,-5.0920347E-4],"categories":[],"categories_nodes":[],"categories_segments":[],"categories_sizes":[],"default_left":[0,1,0,0,0,0,0,0,0,0,0,0,0,0,0],"id":36,"left_children":[1,3,5,7,9,11,13,-1,-1,-1,-1,-1,-1,-1,-1],"loss_changes":[2.839536E2,1.5710411E2,1.9376451E2,1.297172E2,1.8937683E1,1.3555692E2,1.305596E2,0E0,0E0,0E0,0E0,0E0,0E0,0E0,0E0],"parents":[2147483647,0,0,1,1,2,2,3,3,4,4,5,5,6,6],"right_children":[2,4,6,8,10,12,14,-1,-1,-1,-1,-1,-1,-1,-1],"split_conditions":[1.39605E2,1.11E0,5.1095235E-1,4.7953575E1,-9.96632E-1,8.3966415E1,1.1894E2,-1.1194999E-5,4.0051265E-4,-4.867517E-3,-2.362444E-3,-1.629615E-3,2.7747214E-4,1.0502305E-3,-5.0920347E-4],"split_indices":[21,24,15,22,15,22,10,0,0,0,0,0,0,0,0],"split_type":[0,0,0,0,0,0,0,0,0,0,0,0,0,0,0],"sum_hessian":[8.080386E5,7.0360375E5,1.0443482E5,7.0119756E5,2.406203E3,5.080906E4,5.362576E4,4.838053E5,2.1739227E5,1.058736E3,1.3474669E3,4.1964375E4,8.844682E3,1.43762295E4,3.924953E4],"tree_param":{"num_deleted":"0","num_feature":"29","num_nodes":"15","size_leaf_vector":"1"}},{"base_weights":[-6.052082E-4,1.0700678E-2,-3.194825E-2,1.1842096E-2,-1.7431593E-1,-1.6719481E-2,-7.246727E-2,7.2889036E-4,9.954333E-5,-3.6194741E-3,-3.2135568E-4,-8.9370453E-4,-1.12095804E-4,-1.4021044E-3,-2.618441E-4],"categories":[],"categories_nodes":[],"categories_segments":[],"categories_sizes":[],"default_left":[0,1,0,0,0,0,0,0,0,0,0,0,0,0,0],"id":37,"left_children":[1,3,5,7,9,11,13,-1,-1,-1,-1,-1,-1,-1,-1],"loss_changes":[2.8572876E2,1.2514213E2,1.318938E2,1.1208808E2,4.6310265E1,6.3776314E1,8.690338E1,0E0,0E0,0E0,0E0,0E0,0E0,0E0,0E0],"parents":[2147483647,0,0,1,1,2,2,3,3,4,4,5,5,6,6],"right_children":[2,4,6,8,10,12,14,-1,-1,-1,-1,-1,-1,-1,-1],"split_conditions":[1.7E2,8.9E-1,1.4E2,6E1,3.303573E-1,4E0,1E0,7.2889036E-4,9.954333E-5,-3.6194741E-3,-3.2135568E-4,-8.9370453E-4,-1.12095804E-4,-1.4021044E-3,-2.618441E-4],"split_indices":[25,24,20,25,17,8,11,0,0,0,0,0,0,0,0],"split_type":[0,0,0,0,0,0,0,0,0,0,0,0,0,0,0],"sum_hessian":[8.063195E5,5.925712E5,2.1374831E5,5.889388E5,3.632386E3,1.5535916E5,5.8389156E4,6.1991535E4,5.2694725E5,2.3333818E3,1.2990042E3,2.424418E4,1.3111497E5,3.854272E4,1.9846438E4],"tree_param":{"num_deleted":"0","num_feature":"29","num_nodes":"15","size_leaf_vector":"1"}},{"base_weights":[8.068347E-4,3.4736427E-3,-1.3745573E-1,-2.0694936E-2,1.4138438E-2,-1.0322557E-1,-2.4310993E-1,-6.164134E-4,2.9097224E-4,4.8263738E-4,1.1424474E-4,-9.6787035E-4,-3.2206238E-3,-4.372608E-3,-1.7955679E-3],"categories":[],"categories_nodes":[],"categories_segments":[],"categories_sizes":[],"default_left":[0,0,0,0,0,0,0,0,0,0,0,0,0,0,0],"id":38,"left_children":[1,3,5,7,9,11,13,-1,-1,-1,-1,-1,-1,-1,-1],"loss_changes":[2.975055E2,2.0403552E2,5.519342E1,2.3457736E2,6.676936E1,4.985054E1,2.9657425E1,0E0,0E0,0E0,0E0,0E0,0E0,0E0,0E0],"parents":[2147483647,0,0,1,1,2,2,3,3,4,4,5,5,6,6],"right_children":[2,4,6,8,10,12,14,-1,-1,-1,-1,-1,-1,-1,-1],"split_conditions":[2.59E2,6.4743814E0,3.69E2,5.723637E-1,3.4E1,8E0,1E0,-6.164134E-4,2.9097224E-4,4.8263738E-4,1.1424474E-4,-9.6787035E-4,-3.2206238E-3,-4.372608E-3,-1.7955679E-3],"split_indices":[21,22,21,15,20,27,11,0,0,0,0,0,0,0,0],"split_type":[0,0,0,0,0,0,0,0,0,0,0,0,0,0,0],"sum_hessian":[8.0685856E5,7.915913E5,1.5267236E4,2.4235808E5,5.4923325E5,1.1532786E4,3.73445E3,1.5510231E5,8.725576E4,1.2477664E5,4.244566E5,9.090569E3,2.4422163E3,2.3290762E3,1.4053738E3],"tree_param":{"num_deleted":"0","num_feature":"29","num_nodes":"15","size_leaf_vector":"1"}},{"base_weights":[2.169831E-4,5.306881E-3,-6.6480316E-2,-1.839104E-2,1.4398567E-2,-1.0945949E-2,-1.15062304E-1,-5.599078E-5,-8.682084E-4,-2.5665895E-3,2.2417713E-4,-1.8410273E-3,1.761502E-6,-6.354655E-4,-2.31782E-3],"categories":[],"categories_nodes":[],"categories_segments":[],"categories_sizes":[],"default_left":[0,0,0,0,0,0,0,0,0,0,0,0,0,0,0],"id":39,"left_children":[1,3,5,7,9,11,13,-1,-1,-1,-1,-1,-1,-1,-1],"loss_changes":[2.7345944E2,1.6124722E2,1.5408888E2,1.3028102E2,1.7262747E2,3.55728E1,1.0716809E2,0E0,0E0,0E0,0E0,0E0,0E0,0E0,0E0],"parents":[2147483647,0,0,1,1,2,2,3,3,4,4,5,5,6,6],"right_children":[2,4,6,8,10,12,14,-1,-1,-1,-1,-1,-1,-1,-1],"split_conditions":[2.99E2,5.529421E-1,1.14E2,8.6E1,-2.292E1,-2.18E2,3E0,-5.599078E-5,-8.682084E-4,-2.5665895E-3,2.2417713E-4,-1.8410273E-3,1.761502E-6,-6.354655E-4,-2.31782E-3],"split_indices":[25,19,21,21,23,22,27,0,0,0,0,0,0,0,0],"split_type":[0,0,0,0,0,0,0,0,0,0,0,0,0,0,0],"sum_hessian":[8.055167E5,7.484043E5,5.7112355E4,2.0751234E5,5.40892E5,2.6649906E4,3.046245E4,1.5603636E5,5.1475984E4,4.37876E3,5.365132E5,2.240722E3,2.4409186E4,1.2801523E4,1.7660926E4],"tree_param":{"num_deleted":"0","num_feature":"29","num_nodes":"15","size_leaf_vector":"1"}},{"base_weights":[-8.3953806E-4,1.4347998E-2,-2.392276E-2,1.6187914E-2,-1.32627E-1,-6.885408E-2,-8.113132E-3,2.4905063E-3,2.040476E-4,-3.573047E-3,-9.1276783E-4,-1.967922E-3,-7.025122E-4,-7.9665036E-4,3.9396524E-5],"categories":[],"categories_nodes":[],"categories_segments":[],"categories_sizes":[],"default_left":[0,1,0,0,0,0,0,0,0,0,0,0,0,0,0],"id":40,"left_children":[1,3,5,7,9,11,13,-1,-1,-1,-1,-1,-1,-1,-1],"loss_changes":[2.817896E2,1.3110492E2,2.2658504E2,1.2489394E2,4.9532463E1,1.11177216E2,1.2579817E2,0E0,0E0,0E0,0E0,0E0,0E0,0E0,0E0],"parents":[2147483647,0,0,1,1,2,2,3,3,4,4,5,5,6,6],"right_children":[2,4,6,8,10,12,14,-1,-1,-1,-1,-1,-1,-1,-1],"split_conditions":[1.36E2,4.1E-1,-3.3329643E1,1.66E0,-2.67235E-1,-3.542463E-1,4E0,2.4905063E-3,2.040476E-4,-3.573047E-3,-9.1276783E-4,-1.967922E-3,-7.025122E-4,-7.9665036E-4,3.9396524E-5],"split_indices":[25,24,22,10,17,15,8,0,0,0,0,0,0,0,0],"split_type":[0,0,0,0,0,0,0,0,0,0,0,0,0,0,0],"sum_hessian":[8.0378544E5,4.848079E5,3.1897753E5,4.7881475E5,5.993181E3,8.302246E4,2.3595508E5,4.7281416E3,4.740866E5,2.1257148E3,3.8674666E3,1.7151832E4,6.5870625E4,4.3174434E4,1.9278064E5],"tree_param":{"num_deleted":"0","num_feature":"29","num_nodes":"15","size_leaf_vector":"1"}},{"base_weights":[9.6094285E-5,-2.9759023E-2,1.0602723E-2,-4.75996E-2,2.6042668E-2,1.5980503E-2,-1.564363E-2,-4.908565E-4,-1.7816828E-3,-2.6376892E-4,1.1613445E-3,2.1684207E-5,4.0741096E-4,-2.925409E-4,1.3060891E-3],"categories":[],"categories_nodes":[],"categories_segments":[],"categories_sizes":[],"default_left":[0,0,0,0,0,0,0,0,0,0,0,0,0,0,0],"id":41,"left_children":[1,3,5,7,9,11,13,-1,-1,-1,-1,-1,-1,-1,-1],"loss_changes":[2.5212366E2,2.0829732E2,8.391768E1,1.5835648E2,1.294776E2,9.343065E1,5.7848053E1,0E0,0E0,0E0,0E0,0E0,0E0,0E0,0E0],"parents":[2147483647,0,0,1,1,2,2,3,3,4,4,5,5,6,6],"right_children":[2,4,6,8,10,12,14,-1,-1,-1,-1,-1,-1,-1,-1],"split_conditions":[-2.0335314E0,8.8405126E-1,1.9E2,2.78E2,-8.759358E1,1.8851855E-1,1.9348332E2,-4.908565E-4,-1.7816828E-3,-2.6376892E-4,1.1613445E-3,2.1684207E-5,4.0741096E-4,-2.925409E-4,1.3060891E-3],"split_indices":[22,15,25,25,22,17,22,0,0,0,0,0,0,0,0],"split_type":[0,0,0,0,0,0,0,0,0,0,0,0,0,0,0],"sum_hessian":[8.037673E5,2.0922944E5,5.945379E5,1.5854162E5,5.068781E4,4.9343525E5,1.0110263E5,1.3698298E5,2.1558639E4,2.8338727E4,2.2349084E4,2.3497547E5,2.5845977E5,9.645312E4,4.649515E3],"tree_param":{"num_deleted":"0","num_feature":"29","num_nodes":"15","size_leaf_vector":"1"}},{"base_weights":[-2.004868E-4,-3.5195928E-2,8.880138E-3,-2.4936134E-2,-1.3949314E-1,-2.3506714E-3,2.4851326E-2,-1.0192926E-3,-1.6204904E-4,-2.6539054E-3,-9.58078E-4,-9.462002E-5,7.454537E-4,9.105047E-4,1.9426676E-4],"categories":[],"categories_nodes":[],"categories_segments":[],"categories_sizes":[],"default_left":[0,0,0,0,0,0,0,0,0,0,0,0,0,0,0],"id":42,"left_children":[1,3,5,7,9,11,13,-1,-1,-1,-1,-1,-1,-1,-1],"loss_changes":[2.5502782E2,1.7691965E2,1.1429242E2,9.62803E1,5.2672882E1,9.168414E1,1.160237E2,0E0,0E0,0E0,0E0,0E0,0E0,0E0,0E0],"parents":[2147483647,0,0,1,1,2,2,3,3,4,4,5,5,6,6],"right_children":[2,4,6,8,10,12,14,-1,-1,-1,-1,-1,-1,-1,-1],"split_conditions":[-2.014682E1,3.7E2,4.9060735E-1,-4.5113072E-1,1E0,1.2414424E2,1E0,-1.0192926E-3,-1.6204904E-4,-2.6539054E-3,-9.58078E-4,-9.462002E-5,7.454537E-4,9.105047E-4,1.9426676E-4],"split_indices":[22,25,15,15,11,22,6,0,0,0,0,0,0,0,0],"split_type":[0,0,0,0,0,0,0,0,0,0,0,0,0,0,0],"sum_hessian":[8.025263E5,1.6533723E5,6.3718906E5,1.5053066E5,1.4806573E4,3.7411516E5,2.630739E5,3.284592E4,1.17684734E5,8.685026E3,6.121547E3,3.46634E5,2.7481154E4,5.6435188E4,2.0663873E5],"tree_param":{"num_deleted":"0","num_feature":"29","num_nodes":"15","size_leaf_vector":"1"}},{"base_weights":[2.8174886E-4,1.0053923E-2,-3.4679092E-2,-4.120516E-3,2.6630692E-2,-8.296391E-2,-1.8349774E-2,-1.1557982E-3,1.7835191E-5,-8.273263E-5,5.706795E-4,-1.6273122E-3,-2.7835762E-4,5.3349257E-5,-7.027276E-4],"categories":[],"categories_nodes":[],"categories_segments":[],"categories_sizes":[],"default_left":[0,0,0,0,0,0,0,0,0,0,0,0,0,0,0],"id":43,"left_children":[1,3,5,7,9,11,13,-1,-1,-1,-1,-1,-1,-1,-1],"loss_changes":[2.7388248E2,1.472146E2,1.380791E2,1.4290584E2,1.3280576E2,9.2890015E1,9.235546E1,0E0,0E0,0E0,0E0,0E0,0E0,0E0,0E0],"parents":[2147483647,0,0,1,1,2,2,3,3,4,4,5,5,6,6],"right_children":[2,4,6,8,10,12,14,-1,-1,-1,-1,-1,-1,-1,-1],"split_conditions":[9.5E1,2.8770073E1,-3.7594715E1,-6.916628E-1,3E0,1E0,6E0,-1.1557982E-3,1.7835191E-5,-8.273263E-5,5.706795E-4,-1.6273122E-3,-2.7835762E-4,5.3349257E-5,-7.027276E-4],"split_indices":[20,22,22,18,27,11,27,0,0,0,0,0,0,0,0],"split_type":[0,0,0,0,0,0,0,0,0,0,0,0,0,0,0],"sum_hessian":[8.016596E5,6.265332E5,1.7512642E5,3.3773984E5,2.8879338E5,4.425701E4,1.30869414E5,2.173238E4,3.1600747E5,8.744531E4,2.0134806E5,2.8973748E4,1.5283264E4,7.716941E4,5.370001E4],"tree_param":{"num_deleted":"0","num_feature":"29","num_nodes":"15","size_leaf_vector":"1"}},{"base_weights":[-4.3520344E-5,1.9874738E-3,-1.587523E-1,-2.6107458E-2,1.1151083E-2,-2.0910743E-1,-6.0917635E-2,-5.6833826E-4,3.6487015E-4,3.981965E-4,3.168619E-5,-2.495411E-3,-6.3978406E-3,1.4155093E-3,-1.3525884E-3],"categories":[],"categories_nodes":[],"categories_segments":[],"categories_sizes":[],"default_left":[0,0,0,0,0,0,0,0,0,0,0,0,0,0,0],"id":44,"left_children":[1,3,5,7,9,11,13,-1,-1,-1,-1,-1,-1,-1,-1],"loss_changes":[2.581376E2,2.035703E2,4.983705E1,1.4699196E2,9.163226E1,5.1024048E1,1.990418E1,0E0,0E0,0E0,0E0,0E0,0E0,0E0,0E0],"parents":[2147483647,0,0,1,1,2,2,3,3,4,4,5,5,6,6],"right_children":[2,4,6,8,10,12,14,-1,-1,-1,-1,-1,-1,-1,-1],"split_conditions":[2.85E2,-3.9828687E0,1E0,9.486833E-1,9E1,4.99E2,6.46E1,-5.6833826E-4,3.6487015E-4,3.981965E-4,3.168619E-5,-2.495411E-3,-6.3978406E-3,1.4155093E-3,-1.3525884E-3],"split_indices":[21,22,11,15,25,21,10,0,0,0,0,0,0,0,0],"split_type":[0,0,0,0,0,0,0,0,0,0,0,0,0,0,0],"sum_hessian":[8.008305E5,7.9071275E5,1.0117752E4,1.944726E5,5.962401E5,6.678973E3,3.438779E3,1.5220395E5,4.2268645E4,2.0242067E5,3.9381944E5,5.9409785E3,7.379947E2,6.204928E2,2.8182861E3],"tree_param":{"num_deleted":"0","num_feature":"29","num_nodes":"15","size_leaf_vector":"1"}},{"base_weights":[-8.960159E-4,2.564307E-3,-9.157395E-2,-2.304477E-2,1.0248195E-2,-7.1145326E-2,-2.381538E-1,2.0995025E-4,-5.031555E-4,5.3823765E-5,4.4721508E-4,-1.4143836E-3,5.7691588E-5,-4.319042E-3,-1.7578985E-3],"categories":[],"categories_nodes":[],"categories_segments":[],"categories_sizes":[],"default_left":[0,0,0,0,0,0,0,0,0,0,0,0,0,0,0],"id":45,"left_children":[1,3,5,7,9,11,13,-1,-1,-1,-1,-1,-1,-1,-1],"loss_changes":[2.508167E2,1.5151286E2,8.7966736E1,8.71723E1,8.228421E1,5.8004547E1,2.8425232E1,0E0,0E0,0E0,0E0,0E0,0E0,0E0,0E0],"parents":[2147483647,0,0,1,1,2,2,3,3,4,4,5,5,6,6],"right_children":[2,4,6,8,10,12,14,-1,-1,-1,-1,-1,-1,-1,-1],"split_conditions":[2.0916E2,-6.14682E0,3.69E2,1E0,7.471577E1,1E0,1E0,2.0995025E-4,-5.031555E-4,5.3823765E-5,4.4721508E-4,-1.4143836E-3,5.7691588E-5,-4.319042E-3,-1.7578985E-3],"split_indices":[21,22,21,6,22,11,11,0,0,0,0,0,0,0,0],"split_type":[0,0,0,0,0,0,0,0,0,0,0,0,0,0,0],"sum_hessian":[7.993505E5,7.69969E5,2.9381496E4,1.7770544E5,5.922636E5,2.5788828E4,3.592667E3,4.498759E4,1.3271784E5,4.57292E5,1.349716E5,1.8459656E4,7.329172E3,2.2100347E3,1.3826323E3],"tree_param":{"num_deleted":"0","num_feature":"29","num_nodes":"15","size_leaf_vector":"1"}},{"base_weights":[-6.46783E-4,2.387051E-3,-9.732701E-2,1.4713979E-2,-1.2042428E-2,-7.382376E-2,-2.3509787E-1,-1.8358087E-3,2.3555142E-4,-6.925979E-4,-2.1474425E-5,-1.7162599E-3,-2.4561674E-4,-4.313565E-3,-1.6639424E-3],"categories":[],"categories_nodes":[],"categories_segments":[],"categories_sizes":[],"default_left":[0,0,0,0,0,0,0,0,0,0,0,0,0,0,0],"id":46,"left_children":[1,3,5,7,9,11,13,-1,-1,-1,-1,-1,-1,-1,-1],"loss_changes":[2.3430994E2,1.3776811E2,7.8683945E1,1.2860938E2,1.4035214E2,5.698683E1,3.0022964E1,0E0,0E0,0E0,0E0,0E0,0E0,0E0,0E0],"parents":[2147483647,0,0,1,1,2,2,3,3,4,4,5,5,6,6],"right_children":[2,4,6,8,10,12,14,-1,-1,-1,-1,-1,-1,-1,-1],"split_conditions":[2.24E2,1.2E2,3.69E2,-1.9733528E0,-3.7594715E1,6.7082036E-1,1E0,-1.8358087E-3,2.3555142E-4,-6.925979E-4,-2.1474425E-5,-1.7162599E-3,-2.4561674E-4,-4.313565E-3,-1.6639424E-3],"split_indices":[21,25,21,15,22,15,11,0,0,0,0,0,0,0,0],"split_type":[0,0,0,0,0,0,0,0,0,0,0,0,0,0,0],"sum_hessian":[7.988409E5,7.745368E5,2.4304059E4,4.1770044E5,3.568364E5,2.0763424E4,3.5406348E3,5.959186E3,4.1174125E5,7.822267E4,2.7861372E5,1.112364E4,9.639784E3,2.173684E3,1.3669507E3],"tree_param":{"num_deleted":"0","num_feature":"29","num_nodes":"15","size_leaf_vector":"1"}},{"base_weights":[-1.3117803E-3,4.235864E-3,-5.106139E-2,-5.4497444E-3,1.9335393E-2,-1.7956927E-1,-3.5437237E-2,7.920462E-5,-4.7601046E-4,1.3601345E-3,1.959903E-4,-3.0175578E-3,-1.299698E-3,-2.2515675E-4,-1.906846E-3],"categories":[],"categories_nodes":[],"categories_segments":[],"categories_sizes":[],"default_left":[0,0,0,0,0,0,0,0,0,0,0,0,0,0,0],"id":47,"left_children":[1,3,5,7,9,11,13,-1,-1,-1,-1,-1,-1,-1,-1],"loss_changes":[2.2019115E2,1.0497322E2,1.6069989E2,1.386717E2,1.164706E2,2.7048615E1,1.3917947E2,0E0,0E0,0E0,0E0,0E0,0E0,0E0,0E0],"parents":[2147483647,0,0,1,1,2,2,3,3,4,4,5,5,6,6],"right_children":[2,4,6,8,10,12,14,-1,-1,-1,-1,-1,-1,-1,-1],"split_conditions":[1.53E2,5.179958E-1,-5.330886E-1,8.5E1,6.8E1,1E0,3.7E2,7.920462E-5,-4.7601046E-4,1.3601345E-3,1.959903E-4,-3.0175578E-3,-1.299698E-3,-2.2515675E-4,-1.906846E-3],"split_indices":[21,15,15,21,25,11,25,0,0,0,0,0,0,0,0],"split_type":[0,0,0,0,0,0,0,0,0,0,0,0,0,0,0],"sum_hessian":[7.97812E5,7.177731E5,8.00389E4,4.3728003E5,2.804931E5,8.675215E3,7.136369E4,3.1481003E5,1.2246998E5,1.799864E4,2.6249444E5,6.131039E3,2.5441755E3,5.9866082E4,1.1497604E4],"tree_param":{"num_deleted":"0","num_feature":"29","num_nodes":"15","size_leaf_vector":"1"}},{"base_weights":[-5.1218737E-4,5.9347567E-3,-4.4890117E-2,-9.843116E-3,1.9397603E-2,-3.559473E-2,-1.8146126E-1,-7.486133E-4,-4.046052E-5,4.2722214E-4,1.0809369E-4,-8.1505027E-4,6.9397305E-5,-3.3571592E-3,-1.1281816E-3],"categories":[],"categories_nodes":[],"categories_segments":[],"categories_sizes":[],"default_left":[0,0,0,0,0,0,0,0,0,0,0,0,0,0,0],"id":48,"left_children":[1,3,5,7,9,11,13,-1,-1,-1,-1,-1,-1,-1,-1],"loss_changes":[2.2808426E2,1.4786014E2,1.2836786E2,9.7223045E1,4.8761612E1,8.6860886E1,3.790117E1,0E0,0E0,0E0,0E0,0E0,0E0,0E0,0E0],"parents":[2147483647,0,0,1,1,2,2,3,3,4,4,5,5,6,6],"right_children":[2,4,6,8,10,12,14,-1,-1,-1,-1,-1,-1,-1,-1],"split_conditions":[2.39E2,2.2406416E1,3.14E2,4.907697E-1,5.225E1,1E0,1E0,-7.486133E-4,-4.046052E-5,4.2722214E-4,1.0809369E-4,-8.1505027E-4,6.9397305E-5,-3.3571592E-3,-1.1281816E-3],"split_indices":[25,22,21,19,20,11,11,0,0,0,0,0,0,0,0],"split_type":[0,0,0,0,0,0,0,0,0,0,0,0,0,0,0],"sum_hessian":[7.9721106E5,6.960886E5,1.0112247E5,3.204893E5,3.7559928E5,9.467959E4,6.4428765E3,4.4053734E4,2.764356E5,1.92399E5,1.832003E5,6.0774195E4,3.39054E4,4.081322E3,2.3615542E3],"tree_param":{"num_deleted":"0","num_feature":"29","num_nodes":"15","size_leaf_vector":"1"}},{"base_weights":[-8.7557316E-7,3.1446454E-3,-7.857637E-2,-4.6589295E-3,3.182732E-2,-9.619439E-3,-1.1804777E-1,5.6609068E-5,-4.4950077E-4,2.7095117E-3,3.447405E-4,-1.8975394E-3,3.0346893E-4,-9.863846E-4,-2.2912608E-3],"categories":[],"categories_nodes":[],"categories_segments":[],"categories_sizes":[],"default_left":[0,0,0,0,0,0,0,0,0,0,0,0,0,0,0],"id":49,"left_children":[1,3,5,7,9,11,13,-1,-1,-1,-1,-1,-1,-1,-1],"loss_changes":[1.9686252E2,1.7141559E2,8.3444275E1,1.4380826E2,1.907826E2,4.3987644E1,4.2314026E1,0E0,0E0,0E0,0E0,0E0,0E0,0E0,0E0],"parents":[2147483647,0,0,1,1,2,2,3,3,4,4,5,5,6,6],"right_children":[2,4,6,8,10,12,14,-1,-1,-1,-1,-1,-1,-1,-1],"split_conditions":[1.91E2,9.318192E-1,3E0,1.6E2,6.5E1,-1.6636878E-1,3.05E2,5.6609068E-5,-4.4950077E-4,2.7095117E-3,3.447405E-4,-1.8975394E-3,3.0346893E-4,-9.863846E-4,-2.2912608E-3],"split_indices":[20,15,27,25,25,15,25,0,0,0,0,0,0,0,0],"split_type":[0,0,0,0,0,0,0,0,0,0,0,0,0,0,0],"sum_hessian":[7.964935E5,7.658366E5,3.0656883E4,6.020423E5,1.6379428E5,1.1160544E4,1.949634E4,4.5711538E5,1.4492694E5,6.9836504E3,1.5681064E5,2.2209973E3,8.939547E3,9.542539E3,9.9538E3],"tree_param":{"num_deleted":"0","num_feature":"29","num_nodes":"15","size_leaf_vector":"1"}},{"base_weights":[-9.607396E-4,-2.4830377E-2,9.942758E-3,-1.33818835E-2,-7.4504696E-2,2.1722096E-3,2.747278E-2,-8.717592E-4,-8.331584E-5,-8.099458E-4,-2.8639655E-3,1.0990854E-4,-4.6028857E-4,6.4764824E-4,1.1352573E-4],"categories":[],"categories_nodes":[],"categories_segments":[],"categories_sizes":[],"default_left":[0,0,0,0,0,0,0,0,0,0,0,0,0,0,0],"id":50,"left_children":[1,3,5,7,9,11,13,-1,-1,-1,-1,-1,-1,-1,-1],"loss_changes":[2.068097E2,1.4169626E2,7.430107E1,7.3558525E1,1.0106082E2,7.521938E1,6.094615E1,0E0,0E0,0E0,0E0,0E0,0E0,0E0,0E0],"parents":[2147483647,0,0,1,1,2,2,3,3,4,4,5,5,6,6],"right_children":[2,4,6,8,10,12,14,-1,-1,-1,-1,-1,-1,-1,-1],"split_conditions":[6.758561E0,1.44E2,6.586287E1,-4.5108652E-1,4.917E2,9E0,7E1,-8.717592E-4,-8.331584E-5,-8.099458E-4,-2.8639655E-3,1.0990854E-4,-4.6028857E-4,6.4764824E-4,1.1352573E-4],"split_indices":[22,21,22,18,25,27,21,0,0,0,0,0,0,0,0],"split_type":[0,0,0,0,0,0,0,0,0,0,0,0,0,0,0],"sum_hessian":[7.9461756E5,2.4916064E5,5.4545694E5,2.0249311E5,4.666754E4,3.7793188E5,1.6752506E5,2.6716818E4,1.7577628E5,4.137231E4,5.295228E3,3.252408E5,5.2691074E4,8.502643E4,8.249864E4],"tree_param":{"num_deleted":"0","num_feature":"29","num_nodes":"15","size_leaf_vector":"1"}},{"base_weights":[-6.0045323E-4,6.259868E-3,-3.9031178E-2,-2.1797491E-2,1.3016703E-2,-9.55173E-2,-1.76313E-2,3.591108E-3,-3.5375636E-4,6.2147534E-4,5.9964535E-5,-2.414439E-3,-9.627536E-4,1.5265413E-4,-6.394157E-4],"categories":[],"categories_nodes":[],"categories_segments":[],"categories_sizes":[],"default_left":[0,0,0,0,0,0,0,0,0,0,0,0,0,0,0],"id":51,"left_children":[1,3,5,7,9,11,13,-1,-1,-1,-1,-1,-1,-1,-1],"loss_changes":[2.0939465E2,1.2776146E2,1.4541948E2,1.26349174E2,1.4882089E2,6.801825E1,6.981422E1,0E0,0E0,0E0,0E0,0E0,0E0,0E0,0E0],"parents":[2147483647,0,0,1,1,2,2,3,3,4,4,5,5,6,6],"right_children":[2,4,6,8,10,12,14,-1,-1,-1,-1,-1,-1,-1,-1],"split_conditions":[2.2E2,-5.601119E-1,-5.9E1,3.8E-1,1E0,-6.73936E-2,5E0,3.591108E-3,-3.5375636E-4,6.2147534E-4,5.9964535E-5,-2.414439E-3,-9.627536E-4,1.5265413E-4,-6.394157E-4],"split_indices":[25,15,22,24,6,15,27,0,0,0,0,0,0,0,0],"split_type":[0,0,0,0,0,0,0,0,0,0,0,0,0,0,0],"sum_hessian":[7.942212E5,6.739197E5,1.20301484E5,1.3079576E5,5.4312394E5,3.305296E4,8.724852E4,1.6101982E3,1.29185555E5,1.1826466E5,4.2485928E5,8.525206E3,2.4527756E4,4.324372E4,4.4004805E4],"tree_param":{"num_deleted":"0","num_feature":"29","num_nodes":"15","size_leaf_vector":"1"}},{"base_weights":[1.9021025E-4,-3.118566E-2,8.771499E-3,-2.2102077E-2,-1.16686955E-1,9.713182E-4,2.5839359E-2,-4.920418E-4,3.7573944E-4,-2.8723956E-3,-1.0612996E-3,9.556813E-5,-5.846208E-4,-1.8401003E-4,4.765164E-4],"categories":[],"categories_nodes":[],"categories_segments":[],"categories_sizes":[],"default_left":[0,0,0,0,0,0,0,0,0,0,0,0,0,0,0],"id":52,"left_children":[1,3,5,7,9,11,13,-1,-1,-1,-1,-1,-1,-1,-1],"loss_changes":[2.1365242E2,1.3235457E2,8.295532E1,9.834411E1,5.9184387E1,1.0699362E2,6.2457413E1,0E0,0E0,0E0,0E0,0E0,0E0,0E0,0E0],"parents":[2147483647,0,0,1,1,2,2,3,3,4,4,5,5,6,6],"right_children":[2,4,6,8,10,12,14,-1,-1,-1,-1,-1,-1,-1,-1],"split_conditions":[-1.52259445E1,3.53E2,5.8584984E1,9.636241E-1,-2.3E2,9E0,3E0,-4.920418E-4,3.7573944E-4,-2.8723956E-3,-1.0612996E-3,9.556813E-5,-5.846208E-4,-1.8401003E-4,4.765164E-4],"split_indices":[22,25,22,15,22,27,8,0,0,0,0,0,0,0,0],"split_type":[0,0,0,0,0,0,0,0,0,0,0,0,0,0,0],"sum_hessian":[7.9352094E5,1.7041777E5,6.231032E5,1.5405261E5,1.636516E4,4.276596E5,1.9544361E5,1.21634555E5,3.2418049E4,5.170225E3,1.1194936E4,3.76123E5,5.153659E4,3.39579E4,1.6148572E5],"tree_param":{"num_deleted":"0","num_feature":"29","num_nodes":"15","size_leaf_vector":"1"}},{"base_weights":[2.4657409E-5,1.9929097E-3,-1.3316406E-1,1.5055053E-2,-1.2842773E-2,-1.7863756E-1,-4.340711E-2,-9.4288844E-5,4.5294335E-4,-6.888674E-4,-2.621311E-5,-2.140573E-3,-6.1748857E-3,-7.4937306E-3,-4.8514994E-4],"categories":[],"categories_nodes":[],"categories_segments":[],"categories_sizes":[],"default_left":[0,0,0,0,0,0,0,0,0,0,0,0,0,0,0],"id":53,"left_children":[1,3,5,7,9,11,13,-1,-1,-1,-1,-1,-1,-1,-1],"loss_changes":[2.078305E2,1.5139539E2,4.71149E1,1.5659647E2,1.4591689E2,5.1691467E1,1.670236E1,0E0,0E0,0E0,0E0,0E0,0E0,0E0,0E0],"parents":[2147483647,0,0,1,1,2,2,3,3,4,4,5,5,6,6],"right_children":[2,4,6,8,10,12,14,-1,-1,-1,-1,-1,-1,-1,-1],"split_conditions":[2.7E2,1.2E2,1E0,3.2885667E-2,-3.3329643E1,4.99E2,9.89E2,-9.4288844E-5,4.5294335E-4,-6.888674E-4,-2.621311E-5,-2.140573E-3,-6.1748857E-3,-7.4937306E-3,-4.8514994E-4],"split_indices":[21,25,11,18,22,21,7,0,0,0,0,0,0,0,0],"split_type":[0,0,0,0,0,0,0,0,0,0,0,0,0,0,0],"sum_hessian":[7.927933E5,7.8124906E5,1.1544252E4,4.1545756E5,3.6579147E5,7.661647E3,3.8826047E3,1.8385723E5,2.3160034E5,8.477997E4,2.810115E5,6.9787344E3,6.829125E2,6.683815E1,3.8157666E3],"tree_param":{"num_deleted":"0","num_feature":"29","num_nodes":"15","size_leaf_vector":"1"}},{"base_weights":[-1.0284248E-4,4.3820194E-3,-5.7467423E-2,-1.3467704E-1,5.452196E-3,-1.1349351E-1,-6.746155E-3,-3.515728E-3,-7.801998E-4,1.6260354E-3,4.77834E-5,-1.4900186E-3,-6.070779E-3,4.3087095E-4,-1.3989332E-3],"categories":[],"categories_nodes":[],"categories_segments":[],"categories_sizes":[],"default_left":[0,0,0,0,0,0,0,0,0,0,0,0,0,0,0],"id":54,"left_children":[1,3,5,7,9,11,13,-1,-1,-1,-1,-1,-1,-1,-1],"loss_changes":[2.0367181E2,1.0927068E2,1.631284E2,5.1537994E1,1.6446547E2,6.1633453E1,1.0534591E2,0E0,0E0,0E0,0E0,0E0,0E0,0E0,0E0],"parents":[2147483647,0,0,1,1,2,2,3,3,4,4,5,5,6,6],"right_children":[2,4,6,8,10,12,14,-1,-1,-1,-1,-1,-1,-1,-1],"split_conditions":[1.7E2,-2.105E1,5.1095235E-1,8.915E1,3.85E1,1.3690287E0,6E0,-3.515728E-3,-7.801998E-4,1.6260354E-3,4.77834E-5,-1.4900186E-3,-6.070779E-3,4.3087095E-4,-1.3989332E-3],"split_indices":[21,23,15,4,23,17,27,0,0,0,0,0,0,0,0],"split_type":[0,0,0,0,0,0,0,0,0,0,0,0,0,0,0],"sum_hessian":[7.9165675E5,7.3425256E5,5.7404207E4,5.6065835E3,7.2864594E5,2.7275162E4,3.0129045E4,2.2644355E3,3.342148E3,1.31787E4,7.1546725E5,2.6687643E4,5.875194E2,2.1479797E4,8.649247E3],"tree_param":{"num_deleted":"0","num_feature":"29","num_nodes":"15","size_leaf_vector":"1"}},{"base_weights":[5.550412E-4,2.3502682E-3,-1.456947E-1,-5.4829028E-3,2.7076624E-2,4.38277E-4,-1.7869458E-1,4.709451E-5,-5.8437017E-4,2.6316259E-3,3.078444E-4,-2.5849924E-3,1.1505891E-3,-2.041466E-3,-4.082363E-3],"categories":[],"categories_nodes":[],"categories_segments":[],"categories_sizes":[],"default_left":[0,0,0,0,0,0,0,0,0,0,0,0,0,0,0],"id":55,"left_children":[1,3,5,7,9,11,13,-1,-1,-1,-1,-1,-1,-1,-1],"loss_changes":[2.0791292E2,1.5151875E2,4.6307785E1,1.9056314E2,1.5405946E2,2.6794868E1,2.9034103E1,0E0,0E0,0E0,0E0,0E0,0E0,0E0,0E0],"parents":[2147483647,0,0,1,1,2,2,3,3,4,4,5,5,6,6],"right_children":[2,4,6,8,10,12,14,-1,-1,-1,-1,-1,-1,-1,-1],"split_conditions":[2.85E2,8.703884E-1,6.895E1,1.1E2,6E1,1.2214085E-1,4.11E2,4.709451E-5,-5.8437017E-4,2.6316259E-3,3.078444E-4,-2.5849924E-3,1.1505891E-3,-2.041466E-3,-4.082363E-3],"split_indices":[21,15,10,21,25,15,21,0,0,0,0,0,0,0,0],"split_type":[0,0,0,0,0,0,0,0,0,0,0,0,0,0,0],"sum_hessian":[7.918916E5,7.8228994E5,9.601686E3,5.940872E5,1.8820272E5,1.7690057E3,7.8326797E3,4.7756397E5,1.1652323E5,5.7676704E3,1.8243505E5,5.4157666E2,1.2274291E3,6.0680474E3,1.7646327E3],"tree_param":{"num_deleted":"0","num_feature":"29","num_nodes":"15","size_leaf_vector":"1"}},{"base_weights":[6.738737E-5,2.4153837E-3,-1.04981616E-1,2.7995449E-2,-4.6945303E-3,-1.6837767E-1,-4.2791117E-2,2.3416651E-4,1.9369863E-3,-4.6350242E-4,3.152402E-5,-2.87543E-3,-1.2336464E-3,-1.7066658E-4,-3.3638333E-3],"categories":[],"categories_nodes":[],"categories_segments":[],"categories_sizes":[],"default_left":[0,0,0,0,0,0,0,0,0,0,0,0,0,0,0],"id":56,"left_children":[1,3,5,7,9,11,13,-1,-1,-1,-1,-1,-1,-1,-1],"loss_changes":[1.9500475E2,1.4064426E2,6.813989E1,2.0917566E2,1.19428345E2,2.5406006E1,5.273299E1,0E0,0E0,0E0,0E0,0E0,0E0,0E0,0E0],"parents":[2147483647,0,0,1,1,2,2,3,3,4,4,5,5,6,6],"right_children":[2,4,6,8,10,12,14,-1,-1,-1,-1,-1,-1,-1,-1],"split_conditions":[2.45E2,8E1,6.210589E-1,9.636241E-1,-3.6596254E-1,1E0,4.11E2,2.3416651E-4,1.9369863E-3,-4.6350242E-4,3.152402E-5,-2.87543E-3,-1.2336464E-3,-1.7066658E-4,-3.3638333E-3],"split_indices":[21,25,15,15,15,11,21,0,0,0,0,0,0,0,0],"split_type":[0,0,0,0,0,0,0,0,0,0,0,0,0,0,0],"sum_hessian":[7.905962E5,7.733125E5,1.728367E4,1.6819112E5,6.051214E5,8.558033E3,8.725637E3,1.5260892E5,1.5582211E4,1.1887474E5,4.8624662E5,5.856073E3,2.7019602E3,7.555887E3,1.1697499E3],"tree_param":{"num_deleted":"0","num_feature":"29","num_nodes":"15","size_leaf_vector":"1"}},{"base_weights":[5.644013E-4,1.2329633E-2,-2.0912599E-2,-3.4989502E-2,1.8220196E-2,-1.791527E-2,-1.9472277E-1,1.5282314E-3,-6.888771E-4,8.672791E-4,1.5649038E-4,-7.971859E-4,-1.3538133E-4,-2.156053E-3,-4.643312E-3],"categories":[],"categories_nodes":[],"categories_segments":[],"categories_sizes":[],"default_left":[0,0,0,0,0,0,0,0,0,0,0,0,0,0,0],"id":57,"left_children":[1,3,5,7,9,11,13,-1,-1,-1,-1,-1,-1,-1,-1],"loss_changes":[1.9964915E2,1.422893E2,1.4568103E2,1.1581219E2,1.3979742E2,8.84581E1,2.638295E1,0E0,0E0,0E0,0E0,0E0,0E0,0E0,0E0],"parents":[2147483647,0,0,1,1,2,2,3,3,4,4,5,5,6,6],"right_children":[2,4,6,8,10,12,14,-1,-1,-1,-1,-1,-1,-1,-1],"split_conditions":[1.45E2,4.8265043E-1,3.39E2,1E0,6.5E1,4E0,4.99E2,1.5282314E-3,-6.888771E-4,8.672791E-4,1.5649038E-4,-7.971859E-4,-1.3538133E-4,-2.156053E-3,-4.643312E-3],"split_indices":[25,19,21,8,25,8,21,0,0,0,0,0,0,0,0],"split_type":[0,0,0,0,0,0,0,0,0,0,0,0,0,0,0],"sum_hessian":[7.901185E5,5.1047666E5,2.796418E5,5.6511605E4,4.5396506E5,2.7490228E5,4.739545E3,5.0722993E3,5.1439305E4,6.296769E4,3.9099738E5,4.794763E4,2.2695464E5,3.6549055E3,1.0846395E3],"tree_param":{"num_deleted":"0","num_feature":"29","num_nodes":"15","size_leaf_vector":"1"}},{"base_weights":[-5.0654897E-4,3.7126907E-3,-5.696543E-2,4.6886625E-3,-1.802621E-1,-2.2831874E-3,-9.334046E-2,-4.699563E-5,3.456688E-4,-3.5515362E-3,-5.9789186E-4,-9.2901246E-5,2.733314E-3,-4.2087518E-4,-1.9304475E-3],"categories":[],"categories_nodes":[],"categories_segments":[],"categories_sizes":[],"default_left":[0,1,0,0,0,0,0,0,0,0,0,0,0,0,0],"id":58,"left_children":[1,3,5,7,9,11,13,-1,-1,-1,-1,-1,-1,-1,-1],"loss_changes":[1.8789104E2,1.317766E2,1.0909137E2,1.1748115E2,3.9101242E1,1.8838303E1,9.284122E1,0E0,0E0,0E0,0E0,0E0,0E0,0E0,0E0],"parents":[2147483647,0,0,1,1,2,2,3,3,4,4,5,5,6,6],"right_children":[2,4,6,8,10,12,14,-1,-1,-1,-1,-1,-1,-1,-1],"split_conditions":[2.9865E2,9.6E-1,1E2,7.440238E-1,3.836769E-1,9.901997E-1,3E0,-4.699563E-5,3.456688E-4,-3.5515362E-3,-5.9789186E-4,-9.2901246E-5,2.733314E-3,-4.2087518E-4,-1.9304475E-3],"split_indices":[25,24,21,15,17,18,27,0,0,0,0,0,0,0,0],"split_type":[0,0,0,0,0,0,0,0,0,0,0,0,0,0,0],"sum_hessian":[7.8874856E5,7.3390394E5,5.484459E4,7.300322E5,3.8717896E3,2.1909422E4,3.2935168E4,5.2062097E5,2.0941122E5,2.5238582E3,1.3479314E3,2.1437973E4,4.7144812E2,1.3607886E4,1.9327281E4],"tree_param":{"num_deleted":"0","num_feature":"29","num_nodes":"15","size_leaf_vector":"1"}},{"base_weights":[-3.9767247E-4,-1.3874699E-2,1.8236488E-2,-8.552241E-3,-8.482233E-2,2.6090773E-2,-7.7067423E-3,6.1347015E-4,-1.9989086E-4,-1.6317847E-4,-1.6691516E-3,-2.7826073E-4,5.1067147E-4,-1.9742547E-4,1.3882584E-3],"categories":[],"categories_nodes":[],"categories_segments":[],"categories_sizes":[],"default_left":[0,0,0,0,0,0,0,0,0,0,0,0,0,0,0],"id":59,"left_children":[1,3,5,7,9,11,13,-1,-1,-1,-1,-1,-1,-1,-1],"loss_changes":[1.9794463E2,1.7271956E2,6.740768E1,1.27585754E2,8.034326E1,1.2122711E2,5.254228E1,0E0,0E0,0E0,0E0,0E0,0E0,0E0,0E0],"parents":[2147483647,0,0,1,1,2,2,3,3,4,4,5,5,6,6],"right_children":[2,4,6,8,10,12,14,-1,-1,-1,-1,-1,-1,-1,-1],"split_conditions":[3.343149E1,3.05E2,9.35E1,6E1,2E0,2E0,1.9348332E2,6.1347015E-4,-1.9989086E-4,-1.6317847E-4,-1.6691516E-3,-2.7826073E-4,5.1067147E-4,-1.9742547E-4,1.3882584E-3],"split_indices":[22,25,20,25,27,27,22,0,0,0,0,0,0,0,0],"split_type":[0,0,0,0,0,0,0,0,0,0,0,0,0,0,0],"sum_hessian":[7.8820394E5,4.5739584E5,3.308081E5,4.254778E5,3.1918033E4,2.5393083E5,7.687728E4,4.193162E4,3.835462E5,1.0208424E4,2.170961E4,4.679942E4,2.071314E5,7.2537445E4,4.3398354E3],"tree_param":{"num_deleted":"0","num_feature":"29","num_nodes":"15","size_leaf_vector":"1"}},{"base_weights":[4.642186E-4,-2.5834704E-2,9.625829E-3,-6.097289E-2,-7.865532E-3,6.7467773E-3,6.0459588E-2,-3.246919E-4,-1.648282E-3,-5.521971E-5,-2.6469321E-3,2.4718272E-3,8.04109E-5,-4.5673596E-3,9.0119767E-4],"categories":[],"categories_nodes":[],"categories_segments":[],"categories_sizes":[],"default_left":[0,0,0,0,0,0,0,0,0,0,0,0,0,0,0],"id":60,"left_children":[1,3,5,7,9,11,13,-1,-1,-1,-1,-1,-1,-1,-1],"loss_changes":[1.8982083E2,1.2851869E2,8.551186E1,1.4768903E2,9.569136E1,9.4195175E1,4.7394127E1,0E0,0E0,0E0,0E0,0E0,0E0,0E0,0E0],"parents":[2147483647,0,0,1,1,2,2,3,3,4,4,5,5,6,6],"right_children":[2,4,6,8,10,12,14,-1,-1,-1,-1,-1,-1,-1,-1],"split_conditions":[-2.0335314E0,-5.7236325E-2,1.4475919E2,8.5E1,6.5328E2,3.5E1,-2.3771822E0,-3.246919E-4,-1.648282E-3,-5.521971E-5,-2.6469321E-3,2.4718272E-3,8.04109E-5,-4.5673596E-3,9.0119767E-4],"split_indices":[22,15,22,21,25,25,17,0,0,0,0,0,0,0,0],"split_type":[0,0,0,0,0,0,0,0,0,0,0,0,0,0,0],"sum_hessian":[7.878308E5,2.035441E5,5.842867E5,6.886947E4,1.3467462E5,5.529695E5,3.1317182E4,4.1348934E4,2.7520537E4,1.3182295E5,2.8516829E3,3.246376E3,5.497231E5,3.1279202E2,3.100439E4],"tree_param":{"num_deleted":"0","num_feature":"29","num_nodes":"15","size_leaf_vector":"1"}},{"base_weights":[-7.927322E-4,2.7646923E-3,-6.690932E-2,-1.264521E-2,1.2609088E-2,-5.2491605E-2,-2.2984779E-1,2.7116666E-5,-7.383776E-4,-2.0225374E-3,1.9549672E-4,-3.1334998E-3,-5.291087E-4,-3.5698155E-3,-1.9682999E-4],"categories":[],"categories_nodes":[],"categories_segments":[],"categories_sizes":[],"default_left":[0,0,0,0,0,0,0,0,0,0,0,0,0,0,0],"id":61,"left_children":[1,3,5,7,9,11,13,-1,-1,-1,-1,-1,-1,-1,-1],"loss_changes":[1.8503317E2,1.1324856E2,9.434802E1,1.701453E2,9.695149E1,9.292149E1,1.7707916E1,0E0,0E0,0E0,0E0,0E0,0E0,0E0,0E0],"parents":[2147483647,0,0,1,1,2,2,3,3,4,4,5,5,6,6],"right_children":[2,4,6,8,10,12,14,-1,-1,-1,-1,-1,-1,-1,-1],"split_conditions":[1.9E2,4.4305142E-2,3.69E2,8.6E1,-2.105E1,-6.6358185E-1,1.785382E0,2.7116666E-5,-7.383776E-4,-2.0225374E-3,1.9549672E-4,-3.1334998E-3,-5.291087E-4,-3.5698155E-3,-1.9682999E-4],"split_indices":[21,15,21,21,23,15,15,0,0,0,0,0,0,0,0],"split_type":[0,0,0,0,0,0,0,0,0,0,0,0,0,0,0],"sum_hessian":[7.866878E5,7.4652194E5,4.0165895E4,2.9100212E5,4.555198E5,3.6901926E4,3.2639688E3,2.1339547E5,7.760664E4,3.8948765E3,4.5162494E5,2.9145093E3,3.3987418E4,2.9232349E3,3.4073398E2],"tree_param":{"num_deleted":"0","num_feature":"29","num_nodes":"15","size_leaf_vector":"1"}},{"base_weights":[2.7358966E-4,-2.818307E-2,8.632161E-3,-1.3665128E-1,-2.2935573E-2,3.7798507E-3,3.6867905E-2,-2.8224334E-3,-6.545338E-4,-8.6692587E-4,-1.4663769E-4,-3.29853E-4,1.4897615E-4,6.385986E-4,-2.9242548E-4],"categories":[],"categories_nodes":[],"categories_segments":[],"categories_sizes":[],"default_left":[0,0,0,0,0,0,0,0,0,0,0,0,0,0,0],"id":62,"left_children":[1,3,5,7,9,11,13,-1,-1,-1,-1,-1,-1,-1,-1],"loss_changes":[1.869561E2,1.0157091E2,8.3239044E1,4.807341E1,8.2700134E1,9.7258514E1,4.5007217E1,0E0,0E0,0E0,0E0,0E0,0E0,0E0,0E0],"parents":[2147483647,0,0,1,1,2,2,3,3,4,4,5,5,6,6],"right_children":[2,4,6,8,10,12,14,-1,-1,-1,-1,-1,-1,-1,-1],"split_conditions":[-1.0269484E1,-2.66E2,9.609743E1,1E0,-3.6596254E-1,-5.025184E-1,8.8284606E-1,-2.8224334E-3,-6.545338E-4,-8.6692587E-4,-1.4663769E-4,-3.29853E-4,1.4897615E-4,6.385986E-4,-2.9242548E-4],"split_indices":[22,22,22,11,15,17,17,0,0,0,0,0,0,0,0],"split_type":[0,0,0,0,0,0,0,0,0,0,0,0,0,0,0],"sum_hessian":[7.8600006E5,1.7845381E5,6.0754625E5,8.233728E3,1.7022008E5,5.1845156E5,8.909472E4,4.7794067E3,3.4543203E3,4.122789E4,1.2899219E5,1.0400643E5,4.1444512E5,7.73772E4,1.1717518E4],"tree_param":{"num_deleted":"0","num_feature":"29","num_nodes":"15","size_leaf_vector":"1"}},{"base_weights":[2.989917E-4,1.11630745E-2,-2.3314595E-2,-5.506103E-3,2.4355322E-2,-6.2229417E-2,-9.424508E-3,-3.6895738E-4,4.947418E-4,7.3077047E-4,1.412501E-4,-6.798924E-4,-1.8949975E-3,1.7653743E-4,-5.466641E-4],"categories":[],"categories_nodes":[],"categories_segments":[],"categories_sizes":[],"default_left":[0,0,0,0,0,0,0,0,0,0,0,0,0,0,0],"id":63,"left_children":[1,3,5,7,9,11,13,-1,-1,-1,-1,-1,-1,-1,-1],"loss_changes":[2.0156642E2,1.1833703E2,1.3382477E2,2.024417E2,1.193168E2,6.507527E1,1.1909441E2,0E0,0E0,0E0,0E0,0E0,0E0,0E0,0E0],"parents":[2147483647,0,0,1,1,2,2,3,3,4,4,5,5,6,6],"right_children":[2,4,6,8,10,12,14,-1,-1,-1,-1,-1,-1,-1,-1],"split_conditions":[1.55E2,8.792248E-2,-3.7594715E1,6E0,3.95E1,4E2,6E0,-3.6895738E-4,4.947418E-4,7.3077047E-4,1.412501E-4,-6.798924E-4,-1.8949975E-3,1.7653743E-4,-5.466641E-4],"split_indices":[25,17,22,27,20,25,27,0,0,0,0,0,0,0,0],"split_type":[0,0,0,0,0,0,0,0,0,0,0,0,0,0,0],"sum_hessian":[7.8570956E5,5.3812894E5,2.4758058E5,2.3773608E5,3.0039288E5,6.512401E4,1.8245656E5,1.573976E5,8.03385E4,1.01769625E5,1.9862327E5,5.4871574E4,1.025244E4,1.0463032E5,7.782624E4],"tree_param":{"num_deleted":"0","num_feature":"29","num_nodes":"15","size_leaf_vector":"1"}},{"base_weights":[-2.8929932E-4,5.8648945E-3,-4.3082878E-2,-3.4026941E-3,2.6014298E-2,-9.37906E-2,-2.0315962E-2,1.7616873E-3,-6.885834E-5,-1.0143328E-5,5.4133823E-4,-2.9276097E-3,-1.0425688E-3,1.6870289E-4,-9.2652993E-4],"categories":[],"categories_nodes":[],"categories_segments":[],"categories_sizes":[],"default_left":[0,0,0,0,0,0,0,0,0,0,0,0,0,0,0],"id":64,"left_children":[1,3,5,7,9,11,13,-1,-1,-1,-1,-1,-1,-1,-1],"loss_changes":[2.0664522E2,1.2810043E2,1.138898E2,9.2046555E1,7.311665E1,6.809839E1,1.0107235E2,0E0,0E0,0E0,0E0,0E0,0E0,0E0,0E0],"parents":[2147483647,0,0,1,1,2,2,3,3,4,4,5,5,6,6],"right_children":[2,4,6,8,10,12,14,-1,-1,-1,-1,-1,-1,-1,-1],"split_conditions":[1.39605E2,4.730137E1,-3.3329643E1,2.51E0,4E0,5.3342146E-1,5E0,1.7616873E-3,-6.885834E-5,-1.0143328E-5,5.4133823E-4,-2.9276097E-3,-1.0425688E-3,1.6870289E-4,-9.2652993E-4],"split_indices":[21,22,22,10,27,19,27,0,0,0,0,0,0,0,0],"split_type":[0,0,0,0,0,0,0,0,0,0,0,0,0,0,0],"sum_hessian":[7.846474E5,6.8599456E5,9.8652805E4,4.6987803E5,2.1611653E5,3.056768E4,6.8085125E4,5.4461147E3,4.6443194E5,6.941779E4,1.4669875E5,4.384991E3,2.6182688E4,3.9916965E4,2.8168158E4],"tree_param":{"num_deleted":"0","num_feature":"29","num_nodes":"15","size_leaf_vector":"1"}},{"base_weights":[9.248038E-4,-2.2155402E-2,1.1253868E-2,-3.4744136E-2,2.225463E-2,1.2569633E-2,-1.13934636E-1,-2.25605E-4,-1.146367E-3,4.6183984E-4,-1.7861894E-3,1.02018224E-4,5.5614935E-4,2.0256417E-3,-1.8835439E-3],"categories":[],"categories_nodes":[],"categories_segments":[],"categories_sizes":[],"default_left":[0,0,0,0,0,0,0,0,0,0,0,0,0,0,0],"id":65,"left_children":[1,3,5,7,9,11,13,-1,-1,-1,-1,-1,-1,-1,-1],"loss_changes":[1.8701625E2,1.3559335E2,8.926915E1,1.6594698E2,8.6159004E1,7.6933205E1,3.005642E1,0E0,0E0,0E0,0E0,0E0,0E0,0E0,0E0],"parents":[2147483647,0,0,1,1,2,2,3,3,4,4,5,5,6,6],"right_children":[2,4,6,8,10,12,14,-1,-1,-1,-1,-1,-1,-1,-1],"split_conditions":[6.4743814E0,9.130506E-1,2.45E2,1.1E2,1.2E1,9.609743E1,-9.876745E-1,-2.25605E-4,-1.146367E-3,4.6183984E-4,-1.7861894E-3,1.02018224E-4,5.5614935E-4,2.0256417E-3,-1.8835439E-3],"split_indices":[22,15,20,21,27,22,17,0,0,0,0,0,0,0,0],"split_type":[0,0,0,0,0,0,0,0,0,0,0,0,0,0,0],"sum_hessian":[7.8447225E5,2.4253306E5,5.419392E5,1.8896744E5,5.356562E4,5.363034E5,5.635797E3,1.354419E5,5.352552E4,4.9985625E4,3.5799966E3,4.4896578E5,8.733759E4,4.154212E2,5.220376E3],"tree_param":{"num_deleted":"0","num_feature":"29","num_nodes":"15","size_leaf_vector":"1"}},{"base_weights":[9.5783966E-4,1.0450623E-2,-2.4101168E-2,-9.499298E-2,1.2909824E-2,-6.1562046E-2,-1.0121251E-2,-1.2470463E-3,-9.962583E-3,2.0088181E-4,-1.4611145E-3,-1.2795746E-3,-1.1812844E-4,-7.567685E-4,-2.1747659E-5],"categories":[],"categories_nodes":[],"categories_segments":[],"categories_sizes":[],"default_left":[0,0,0,1,1,0,0,0,0,0,0,0,0,0,0],"id":66,"left_children":[1,3,5,7,9,11,13,-1,-1,-1,-1,-1,-1,-1,-1],"loss_changes":[1.8639265E2,1.4736095E2,1.1273909E2,4.72017E1,9.3710754E1,9.273041E1,5.9011444E1,0E0,0E0,0E0,0E0,0E0,0E0,0E0,0E0],"parents":[2147483647,0,0,1,1,2,2,3,3,4,4,5,5,6,6],"right_children":[2,4,6,8,10,12,14,-1,-1,-1,-1,-1,-1,-1,-1],"split_conditions":[1.68E2,-9.37714E-1,-3.7594715E1,1.36E0,3.6E-1,1E0,4E0,-1.2470463E-3,-9.962583E-3,2.0088181E-4,-1.4611145E-3,-1.2795746E-3,-1.1812844E-4,-7.567685E-4,-2.1747659E-5],"split_indices":[25,18,22,24,24,11,8,0,0,0,0,0,0,0,0],"split_type":[0,0,0,0,0,0,0,0,0,0,0,0,0,0,0],"sum_hessian":[7.835563E5,5.682819E5,2.1527439E5,1.2950791E4,5.553311E5,5.850358E4,1.5677081E5,1.2828807E4,1.2198487E2,5.4860106E5,6.730042E3,3.7462715E4,2.104086E4,2.5582947E4,1.3118786E5],"tree_param":{"num_deleted":"0","num_feature":"29","num_nodes":"15","size_leaf_vector":"1"}},{"base_weights":[2.3268875E-4,2.6940438E-3,-9.895146E-2,2.285117E-2,-6.2137432E-3,-7.9619676E-2,-2.5809702E-1,1.7753507E-4,1.5083246E-3,-4.825313E-4,6.4385795E-6,-1.9874412E-3,-3.4755073E-4,-4.074975E-3,1.1880625E-3],"categories":[],"categories_nodes":[],"categories_segments":[],"categories_sizes":[],"default_left":[0,0,0,0,0,0,0,0,0,0,0,0,0,0,0],"id":67,"left_children":[1,3,5,7,9,11,13,-1,-1,-1,-1,-1,-1,-1,-1],"loss_changes":[1.9105402E2,1.3711739E2,5.8282593E1,2.0204794E2,9.985688E1,5.772387E1,2.3231522E1,0E0,0E0,0E0,0E0,0E0,0E0,0E0,0E0],"parents":[2147483647,0,0,1,1,2,2,3,3,4,4,5,5,6,6],"right_children":[2,4,6,8,10,12,14,-1,-1,-1,-1,-1,-1,-1,-1],"split_conditions":[2.375E2,9E1,4.11E2,9.636241E-1,-3.6596254E-1,5.2761394E-1,1.8841647E0,1.7753507E-4,1.5083246E-3,-4.825313E-4,6.4385795E-6,-1.9874412E-3,-3.4755073E-4,-4.074975E-3,1.1880625E-3],"split_indices":[21,25,21,15,15,15,15,0,0,0,0,0,0,0,0],"split_type":[0,0,0,0,0,0,0,0,0,0,0,0,0,0,0],"sum_hessian":[7.825975E5,7.6364775E5,1.8949719E4,2.3404158E5,5.296062E5,1.6898518E4,2.0512024E3,2.0900247E5,2.5039104E4,1.0119487E5,4.2841134E5,7.904217E3,8.994301E3,1.871431E3,1.7977126E2],"tree_param":{"num_deleted":"0","num_feature":"29","num_nodes":"15","size_leaf_vector":"1"}},{"base_weights":[-8.019269E-4,-9.245893E-3,1.8968282E-2,-7.7405507E-3,-1.24047175E-1,1.5800927E-2,1.3482791E-1,-1.3636115E-4,1.4351073E-3,-2.998707E-3,3.1040944E-4,-3.226858E-3,2.4832762E-4,-1.2898553E-3,2.3373347E-3],"categories":[],"categories_nodes":[],"categories_segments":[],"categories_sizes":[],"default_left":[0,1,1,1,0,0,0,0,0,0,0,0,0,0,0],"id":68,"left_children":[1,3,5,7,9,11,13,-1,-1,-1,-1,-1,-1,-1,-1],"loss_changes":[1.3044284E2,9.4620224E1,8.581428E1,1.191387E2,9.341298E1,1.0858518E2,4.5385612E1,0E0,0E0,0E0,0E0,0E0,0E0,0E0,0E0],"parents":[2147483647,0,0,1,1,2,2,3,3,4,4,5,5,6,6],"right_children":[2,4,6,8,10,12,14,-1,-1,-1,-1,-1,-1,-1,-1],"split_conditions":[7.3282814E-1,5.617E1,-7.5E-1,-2.54E0,3.755338E-1,-1.214E1,2.4778077E-1,-1.3636115E-4,1.4351073E-3,-2.998707E-3,3.1040944E-4,-3.226858E-3,2.4832762E-4,-1.2898553E-3,2.3373347E-3],"split_indices":[15,23,24,23,17,23,18,0,0,0,0,0,0,0,0],"split_type":[0,0,0,0,0,0,0,0,0,0,0,0,0,0,0],"sum_hessian":[7.813783E5,5.47527E5,2.338513E5,5.4044144E5,7.0855215E3,2.2762953E5,6.221767E3,5.308152E5,9.626286E3,4.382924E3,2.7025972E3,1.7751254E3,2.258544E5,7.712199E2,5.450547E3],"tree_param":{"num_deleted":"0","num_feature":"29","num_nodes":"15","size_leaf_vector":"1"}},{"base_weights":[-4.4497245E-4,2.2444825E-3,-8.868804E-2,1.4753105E-2,-1.0811565E-2,-6.671313E-2,-2.246991E-1,-3.429388E-4,3.5624218E-4,-3.0539336E-3,-1.3358571E-4,-3.886487E-4,-2.1106722E-3,-4.1866302E-3,-1.4463315E-3],"categories":[],"categories_nodes":[],"categories_segments":[],"categories_sizes":[],"default_left":[0,0,0,0,0,0,0,0,0,0,0,0,0,0,0],"id":69,"left_children":[1,3,5,7,9,11,13,-1,-1,-1,-1,-1,-1,-1,-1],"loss_changes":[1.8533195E2,1.237624E2,6.901723E1,1.6242624E2,9.760991E1,6.509959E1,2.8958633E1,0E0,0E0,0E0,0E0,0E0,0E0,0E0,0E0],"parents":[2147483647,0,0,1,1,2,2,3,3,4,4,5,5,6,6],"right_children":[2,4,6,8,10,12,14,-1,-1,-1,-1,-1,-1,-1,-1],"split_conditions":[2.24E2,5.5E1,3.69E2,-2.8644538E-1,-6.654E1,6E0,1E0,-3.429388E-4,3.5624218E-4,-3.0539336E-3,-1.3358571E-4,-3.886487E-4,-2.1106722E-3,-4.1866302E-3,-1.4463315E-3],"split_indices":[21,20,21,18,23,27,11,0,0,0,0,0,0,0,0],"split_type":[0,0,0,0,0,0,0,0,0,0,0,0,0,0,0],"sum_hessian":[7.8091625E5,7.578205E5,2.3095732E4,3.8702394E5,3.7079656E5,1.9884537E4,3.2111958E3,8.28638E4,3.0416016E5,2.2560073E3,3.6854056E5,1.3588355E4,6.296181E3,1.9905852E3,1.2206105E3],"tree_param":{"num_deleted":"0","num_feature":"29","num_nodes":"15","size_leaf_vector":"1"}},{"base_weights":[7.676591E-4,-1.6864005E-2,1.6702754E-2,8.2031934E-4,-3.7896957E-2,1.255102E-1,1.5360055E-2,-1.0014457E-3,8.5068335E-5,-8.318652E-4,9.249925E-5,1.0730001E-3,3.6180827E-3,2.6876092E-4,-2.4876985E-4],"categories":[],"categories_nodes":[],"categories_segments":[],"categories_sizes":[],"default_left":[0,0,0,0,0,0,0,0,0,0,0,0,0,0,0],"id":70,"left_children":[1,3,5,7,9,11,13,-1,-1,-1,-1,-1,-1,-1,-1],"loss_changes":[2.1943596E2,1.3790942E2,5.993313E1,7.659688E1,1.6220775E2,3.2462585E1,5.151613E1,0E0,0E0,0E0,0E0,0E0,0E0,0E0,0E0],"parents":[2147483647,0,0,1,1,2,2,3,3,4,4,5,5,6,6],"right_children":[2,4,6,8,10,12,14,-1,-1,-1,-1,-1,-1,-1,-1],"split_conditions":[2.2697742E1,1.29E2,4E1,-7.0555764E-1,1E0,1.2125451E-1,2.42E2,-1.0014457E-3,8.5068335E-5,-8.318652E-4,9.249925E-5,1.0730001E-3,3.6180827E-3,2.6876092E-4,-2.4876985E-4],"split_indices":[22,25,25,18,11,18,25,0,0,0,0,0,0,0,0],"split_type":[0,0,0,0,0,0,0,0,0,0,0,0,0,0,0],"sum_hessian":[7.810138E5,3.707694E5,4.1024438E5,2.0141902E5,1.693504E5,4.999634E3,4.0524475E5,1.3640194E4,1.8777881E5,1.14148375E5,5.520203E4,3.656837E3,1.342797E3,3.6318038E5,4.2064387E4],"tree_param":{"num_deleted":"0","num_feature":"29","num_nodes":"15","size_leaf_vector":"1"}},{"base_weights":[-6.0926384E-4,-2.285321E-2,9.319605E-3,-4.112812E-2,8.678841E-3,1.8805852E-2,-5.710906E-3,-2.9867244E-4,-1.1768882E-3,8.636325E-4,-1.11353744E-4,8.0227604E-5,6.438315E-4,1.2039005E-4,-4.722583E-4],"categories":[],"categories_nodes":[],"categories_segments":[],"categories_sizes":[],"default_left":[0,0,0,0,0,0,0,0,0,0,0,0,0,0,0],"id":71,"left_children":[1,3,5,7,9,11,13,-1,-1,-1,-1,-1,-1,-1,-1],"loss_changes":[1.7210793E2,1.3858252E2,7.682117E1,1.2939368E2,7.780102E1,1.1739707E2,8.3596596E1,0E0,0E0,0E0,0E0,0E0,0E0,0E0,0E0],"parents":[2147483647,0,0,1,1,2,2,3,3,4,4,5,5,6,6],"right_children":[2,4,6,8,10,12,14,-1,-1,-1,-1,-1,-1,-1,-1],"split_conditions":[6.4743814E0,5.8404547E-1,1.28E2,1.7E2,1E0,6E0,8E0,-2.9867244E-4,-1.1768882E-3,8.636325E-4,-1.11353744E-4,8.0227604E-5,6.438315E-4,1.2039005E-4,-4.722583E-4],"split_indices":[22,15,25,25,6,27,27,0,0,0,0,0,0,0,0],"split_type":[0,0,0,0,0,0,0,0,0,0,0,0,0,0,0],"sum_hessian":[7.792703E5,2.4049061E5,5.3877975E5,1.5225086E5,8.823974E4,3.3031E5,2.0846972E5,1.0420908E5,4.804178E4,2.1073793E4,6.716595E4,2.230286E5,1.0728141E5,1.379977E5,7.047201E4],"tree_param":{"num_deleted":"0","num_feature":"29","num_nodes":"15","size_leaf_vector":"1"}},{"base_weights":[-1.1515676E-4,-8.586119E-3,2.4415817E-2,-3.3260456E-3,-6.261699E-2,1.5728775E-1,2.251289E-2,-3.3037874E-4,1.2031978E-4,-5.301181E-4,-2.0397308E-3,-8.100986E-3,2.53909E-3,-1.4406942E-4,4.1111984E-4],"categories":[],"categories_nodes":[],"categories_segments":[],"categories_sizes":[],"default_left":[0,0,0,0,0,0,0,0,0,0,0,0,0,0,0],"id":72,"left_children":[1,3,5,7,9,11,13,-1,-1,-1,-1,-1,-1,-1,-1],"loss_changes":[1.6179173E2,1.644816E2,5.0527412E1,1.27448E2,1.0557248E2,5.009767E1,4.429164E1,0E0,0E0,0E0,0E0,0E0,0E0,0E0,0E0],"parents":[2147483647,0,0,1,1,2,2,3,3,4,4,5,5,6,6],"right_children":[2,4,6,8,10,12,14,-1,-1,-1,-1,-1,-1,-1,-1],"split_conditions":[5.6670357E1,2.69E2,1.5666667E1,0E0,8E0,-1.508867E0,3E0,-3.3037874E-4,1.2031978E-4,-5.301181E-4,-2.0397308E-3,-8.100986E-3,2.53909E-3,-1.4406942E-4,4.1111984E-4],"split_indices":[22,25,20,15,27,15,8,0,0,0,0,0,0,0,0],"split_type":[0,0,0,0,0,0,0,0,0,0,0,0,0,0,0],"sum_hessian":[7.7858794E5,5.787399E5,1.9984806E5,5.273972E5,5.1342695E4,2.8205623E3,1.970275E5,1.95284E5,3.321132E5,3.95585E4,1.1784192E4,8.862142E1,2.7319407E3,3.4047203E4,1.629803E5],"tree_param":{"num_deleted":"0","num_feature":"29","num_nodes":"15","size_leaf_vector":"1"}},{"base_weights":[1.358224E-4,1.2858068E-3,-1.949429E-1,-4.412147E-3,3.458683E-2,-2.64691E-1,-7.82128E-2,2.375505E-4,-2.0583051E-4,6.796226E-4,1.7284374E-5,-3.0768001E-3,-5.9173997E-3,-1.2873505E-2,-9.529931E-4],"categories":[],"categories_nodes":[],"categories_segments":[],"categories_sizes":[],"default_left":[0,0,0,0,0,0,0,0,0,0,0,0,0,0,0],"id":73,"left_children":[1,3,5,7,9,11,13,-1,-1,-1,-1,-1,-1,-1,-1],"loss_changes":[1.7445222E2,1.4668947E2,3.7083176E1,1.4522882E2,5.2580505E1,2.0148178E1,1.4493701E1,0E0,0E0,0E0,0E0,0E0,0E0,0E0,0E0],"parents":[2147483647,0,0,1,1,2,2,3,3,4,4,5,5,6,6],"right_children":[2,4,6,8,10,12,14,-1,-1,-1,-1,-1,-1,-1,-1],"split_conditions":[3.39E2,8.3966415E1,1E0,8.943E1,1E0,4.99E2,2.059E2,2.375505E-4,-2.0583051E-4,6.796226E-4,1.7284374E-5,-3.0768001E-3,-5.9173997E-3,-1.2873505E-2,-9.529931E-4],"split_indices":[21,22,11,25,11,21,4,0,0,0,0,0,0,0,0],"split_type":[0,0,0,0,0,0,0,0,0,0,0,0,0,0,0],"sum_hessian":[7.776309E5,7.7307456E5,4.5562627E3,6.601251E5,1.1294949E5,2.8512988E3,1.7049639E3,2.144833E5,4.456418E5,7.962613E4,3.332336E4,2.221918E3,6.2938086E2,1.9239931E1,1.6857239E3],"tree_param":{"num_deleted":"0","num_feature":"29","num_nodes":"15","size_leaf_vector":"1"}},{"base_weights":[-2.5048616E-4,-2.7672553E-2,8.013716E-3,-4.046774E-2,1.7389629E-2,-1.5470583E-2,1.2735137E-2,-8.207124E-4,1.4432295E-5,-3.335874E-4,1.0460735E-3,1.2195966E-3,-3.4189614E-4,1.4435331E-4,8.242045E-4],"categories":[],"categories_nodes":[],"categories_segments":[],"categories_sizes":[],"default_left":[0,0,0,0,0,0,0,0,0,0,0,0,0,0,0],"id":74,"left_children":[1,3,5,7,9,11,13,-1,-1,-1,-1,-1,-1,-1,-1],"loss_changes":[1.7608788E2,1.0375043E2,6.62032E1,1.0558508E2,9.4035675E1,9.177151E1,5.560006E1,0E0,0E0,0E0,0E0,0E0,0E0,0E0,0E0],"parents":[2147483647,0,0,1,1,2,2,3,3,4,4,5,5,6,6],"right_children":[2,4,6,8,10,12,14,-1,-1,-1,-1,-1,-1,-1,-1],"split_conditions":[-8.51585E0,9.636241E-1,-6.2001985E-1,1E0,-9.2E1,1E0,1.5097441E2,-8.207124E-4,1.4432295E-5,-3.335874E-4,1.0460735E-3,1.2195966E-3,-3.4189614E-4,1.4435331E-4,8.242045E-4],"split_indices":[22,15,15,11,22,8,22,0,0,0,0,0,0,0,0],"split_type":[0,0,0,0,0,0,0,0,0,0,0,0,0,0,0],"sum_hessian":[7.770112E5,1.7993919E5,5.97072E5,1.4014562E5,3.9793555E4,9.9944875E4,4.971271E5,9.749407E4,4.265156E4,2.315027E4,1.6643287E4,8.019759E3,9.192512E4,4.7231138E5,2.4815742E4],"tree_param":{"num_deleted":"0","num_feature":"29","num_nodes":"15","size_leaf_vector":"1"}},{"base_weights":[-2.7425497E-4,3.9814934E-3,-5.5187497E-2,4.600574E-3,-2.2786753E-1,-1.0082501E-1,-1.3127356E-2,-1.2846548E-5,3.5486917E-4,-4.7866968E-3,-1.2515535E-4,-1.3209389E-3,-5.7835565E-3,9.5462677E-4,-6.342754E-4],"categories":[],"categories_nodes":[],"categories_segments":[],"categories_sizes":[],"default_left":[0,1,0,0,0,0,0,0,0,0,0,0,0,0,0],"id":75,"left_children":[1,3,5,7,9,11,13,-1,-1,-1,-1,-1,-1,-1,-1],"loss_changes":[1.8143484E2,1.0342061E2,1.071857E2,8.227149E1,4.7903435E1,5.409082E1,7.604107E1,0E0,0E0,0E0,0E0,0E0,0E0,0E0,0E0],"parents":[2147483647,0,0,1,1,2,2,3,3,4,4,5,5,6,6],"right_children":[2,4,6,8,10,12,14,-1,-1,-1,-1,-1,-1,-1,-1],"split_conditions":[1.7E2,1.26E0,5.3704333E-1,9.318192E-1,3.755338E-1,1.3690287E0,1.2087E2,-1.2846548E-5,3.5486917E-4,-4.7866968E-3,-1.2515535E-4,-1.3209389E-3,-5.7835565E-3,9.5462677E-4,-6.342754E-4],"split_indices":[21,24,15,15,17,17,10,0,0,0,0,0,0,0,0],"split_type":[0,0,0,0,0,0,0,0,0,0,0,0,0,0,0],"sum_hessian":[7.763661E5,7.2052656E5,5.583952E4,7.1860875E5,1.9178391E3,2.6780184E4,2.9059334E4,5.676347E5,1.5097408E5,1.2606208E3,6.5721826E2,2.6237701E4,5.424826E2,8.23871E3,2.0820625E4],"tree_param":{"num_deleted":"0","num_feature":"29","num_nodes":"15","size_leaf_vector":"1"}},{"base_weights":[1.2926954E-4,-2.9785799E-2,8.2286345E-3,-2.3765638E-1,-2.7652211E-2,-5.2878195E-3,1.7104113E-2,-4.6562003E-3,-6.060515E-4,-1.6890608E-3,-3.205402E-4,-2.591897E-4,2.3857992E-4,-2.372016E-3,2.4909843E-4],"categories":[],"categories_nodes":[],"categories_segments":[],"categories_sizes":[],"default_left":[0,0,0,0,0,0,0,0,0,0,0,0,0,0,0],"id":76,"left_children":[1,3,5,7,9,11,13,-1,-1,-1,-1,-1,-1,-1,-1],"loss_changes":[1.8803084E2,7.332553E1,7.3263E1,3.0978493E1,7.239154E1,7.148694E1,4.7355843E1,0E0,0E0,0E0,0E0,0E0,0E0,0E0,0E0],"parents":[2147483647,0,0,1,1,2,2,3,3,4,4,5,5,6,6],"right_children":[2,4,6,8,10,12,14,-1,-1,-1,-1,-1,-1,-1,-1],"split_conditions":[-1.52259445E1,-2.0623949E0,8.2307205E-2,1E0,-2.66E2,4.3933014E1,2.25E0,-4.6562003E-3,-6.060515E-4,-1.6890608E-3,-3.205402E-4,-2.591897E-4,2.3857992E-4,-2.372016E-3,2.4909843E-4],"split_indices":[22,15,15,11,22,22,3,0,0,0,0,0,0,0,0],"split_type":[0,0,0,0,0,0,0,0,0,0,0,0,0,0,0],"sum_hessian":[7.760451E5,1.6534381E5,6.107013E5,1.6787284E3,1.6366508E5,2.4206352E5,3.686378E5,1.1273948E3,5.513337E2,7.962587E3,1.557025E5,1.5202089E5,9.004262E4,1.355004E3,3.672828E5],"tree_param":{"num_deleted":"0","num_feature":"29","num_nodes":"15","size_leaf_vector":"1"}},{"base_weights":[-6.412606E-4,5.2098003E-3,-4.1402064E-2,-6.4165713E-3,1.8165126E-2,-2.8733537E-2,-1.2455827E-1,7.7815907E-4,-1.4944629E-4,-1.650312E-4,3.5346922E-4,-5.8368937E-4,9.0381305E-4,-1.2850832E-3,-3.092715E-3],"categories":[],"categories_nodes":[],"categories_segments":[],"categories_sizes":[],"default_left":[0,0,0,0,0,0,0,0,0,0,0,0,0,0,0],"id":77,"left_children":[1,3,5,7,9,11,13,-1,-1,-1,-1,-1,-1,-1,-1],"loss_changes":[1.8476892E2,1.020448E2,1.02446075E2,9.426435E1,6.7978455E1,1.0202914E2,4.0568985E1,0E0,0E0,0E0,0E0,0E0,0E0,0E0,0E0],"parents":[2147483647,0,0,1,1,2,2,3,3,4,4,5,5,6,6],"right_children":[2,4,6,8,10,12,14,-1,-1,-1,-1,-1,-1,-1,-1],"split_conditions":[1.39605E2,2.8770073E1,3.7E2,5.5E1,2E0,6.9574815E-1,3.39E2,7.7815907E-4,-1.4944629E-4,-1.650312E-4,3.5346922E-4,-5.8368937E-4,9.0381305E-4,-1.2850832E-3,-3.092715E-3],"split_indices":[21,22,25,25,27,19,21,0,0,0,0,0,0,0,0],"split_type":[0,0,0,0,0,0,0,0,0,0,0,0,0,0,0],"sum_hessian":[7.747302E5,6.774812E5,9.7249016E4,3.570541E5,3.204271E5,8.439336E4,1.2855657E4,2.2945973E4,3.3410812E5,6.1277996E4,2.5914908E5,7.4101E4,1.0292358E4,9.594664E3,3.2609934E3],"tree_param":{"num_deleted":"0","num_feature":"29","num_nodes":"15","size_leaf_vector":"1"}},{"base_weights":[1.4561157E-4,7.165127E-3,-3.3538878E-2,7.882949E-3,-2.190812E-1,-2.7641602E-2,-1.6023506E-1,-2.2645575E-6,3.5551764E-4,-6.9227153E-3,-2.1294132E-3,-6.490116E-4,1.0058654E-4,-2.9239776E-3,-1.0362365E-3],"categories":[],"categories_nodes":[],"categories_segments":[],"categories_sizes":[],"default_left":[0,1,0,0,0,0,0,0,0,0,0,0,0,0,0],"id":78,"left_children":[1,3,5,7,9,11,13,-1,-1,-1,-1,-1,-1,-1,-1],"loss_changes":[1.8323198E2,1.0415067E2,9.9845795E1,9.005484E1,3.7338593E1,8.323595E1,2.4899841E1,0E0,0E0,0E0,0E0,0E0,0E0,0E0,0E0],"parents":[2147483647,0,0,1,1,2,2,3,3,4,4,5,5,6,6],"right_children":[2,4,6,8,10,12,14,-1,-1,-1,-1,-1,-1,-1,-1],"split_conditions":[2.09E2,1.11E0,3.14E2,4.6584286E1,-9.2027056E-1,1E0,1E0,-2.2645575E-6,3.5551764E-4,-6.9227153E-3,-2.1294132E-3,-6.490116E-4,1.0058654E-4,-2.9239776E-3,-1.0362365E-3],"split_indices":[25,24,21,22,17,11,11,0,0,0,0,0,0,0,0],"split_type":[0,0,0,0,0,0,0,0,0,0,0,0,0,0,0],"sum_hessian":[7.74931E5,6.412927E5,1.336383E5,6.3926544E5,2.0272596E3,1.2769571E5,5.942582E3,4.380325E5,2.0123295E5,3.9534833E2,1.6319114E3,8.305825E4,4.4637465E4,3.7988804E3,2.1437017E3],"tree_param":{"num_deleted":"0","num_feature":"29","num_nodes":"15","size_leaf_vector":"1"}},{"base_weights":[7.6147994E-6,-2.43875E-2,9.101993E-3,-6.255614E-2,-1.1946798E-2,2.3004744E-2,-1.4709582E-3,-4.6517432E-4,-1.8811369E-3,-6.869801E-5,-1.3543252E-3,2.0463992E-4,1.1108908E-3,-5.4367067E-4,5.3978358E-5],"categories":[],"categories_nodes":[],"categories_segments":[],"categories_sizes":[],"default_left":[0,0,0,0,0,0,0,0,0,0,0,0,0,0,0],"id":79,"left_children":[1,3,5,7,9,11,13,-1,-1,-1,-1,-1,-1,-1,-1],"loss_changes":[1.7169522E2,9.9791855E1,8.2865524E1,1.08801315E2,9.4609E1,1.1508635E2,6.3727764E1,0E0,0E0,0E0,0E0,0E0,0E0,0E0,0E0],"parents":[2147483647,0,0,1,1,2,2,3,3,4,4,5,5,6,6],"right_children":[2,4,6,8,10,12,14,-1,-1,-1,-1,-1,-1,-1,-1],"split_conditions":[8.0998343E-1,-3.6596254E-1,9.968E1,9.9E1,3.8E2,9.636241E-1,2E0,-4.6517432E-4,-1.8811369E-3,-6.869801E-5,-1.3543252E-3,2.0463992E-4,1.1108908E-3,-5.4367067E-4,5.3978358E-5],"split_indices":[22,15,25,21,25,15,8,0,0,0,0,0,0,0,0],"split_type":[0,0,0,0,0,0,0,0,0,0,0,0,0,0,0],"sum_hessian":[7.7389356E5,2.1015744E5,5.637361E5,5.1659547E4,1.5849789E5,2.4352078E5,3.2021534E5,3.6679953E4,1.4979592E4,1.463483E5,1.2149592E4,2.1196792E5,3.1552857E4,3.995415E4,2.8026122E5],"tree_param":{"num_deleted":"0","num_feature":"29","num_nodes":"15","size_leaf_vector":"1"}},{"base_weights":[-2.7231301E-5,2.533817E-3,-8.464089E-2,-5.1776003E-3,2.126357E-2,-2.3083526E-1,-6.792877E-2,5.55973E-5,-5.0297193E-4,2.5776695E-4,1.8011642E-3,-3.987695E-3,-1.7267568E-3,-4.6771442E-4,-2.0366618E-3],