{"learner":{"attributes":{},"feature_names":["date_time","site_id","visitor_location_country_id","visitor_hist_starrating","visitor_hist_adr_usd","prop_country_id","prop_brand_bool","srch_destination_id","srch_booking_window","srch_saturday_night_bool","orig_destination_distance","random_bool","has_hist_starrating","has_hist_adr_usd","score1d2","normalized_prop_starrating","normalized_score1d2","normalized_prop_review_score","hotel_quality","normalized_hotel_quality","price_per_person","avg_price_per_day","ump","price_diff","starrating_diff","total_price","score2ma","promotion_count","promotion_any"],"feature_types":["float","int","int","float","float","int","int","int","int","int","float","int","int","int","float","float","float","float","float","float","float","float","float","float","float","float","float","int","int"],"gradient_booster":{"model":{"gbtree_model_param":{"num_parallel_tree":"1","num_trees":"100"},"iteration_indptr":[0,1,2,3,4,5,6,7,8,9,10,11,12,13,14,15,16,17,18,19,20,21,22,23,24,25,26,27,28,29,30,31,32,33,34,35,36,37,38,39,40,41,42,43,44,45,46,47,48,49,50,51,52,53,54,55,56,57,58,59,60,61,62,63,64,65,66,67,68,69,70,71,72,73,74,75,76,77,78,79,80,81,82,83,84,85,86,87,88,89,90,91,92,93,94,95,96,97,98,99,100],"tree_info":[0,0,0,0,0,0,0,0,0,0,0,0,0,0,0,0,0,0,0,0,0,0,0,0,0,0,0,0,0,0,0,0,0,0,0,0,0,0,0,0,0,0,0,0,0,0,0,0,0,0,0,0,0,0,0,0,0,0,0,0,0,0,0,0,0,0,0,0,0,0,0,0,0,0,0,0,0,0,0,0,0,0,0,0,0,0,0,0,0,0,0,0,0,0,0,0,0,0,0,0],"trees":[{"base_weights":[-6.3023693E-4,2.4403687E-1,-7.379694E-4,5.999668E-1,8.1814036E-2,-1.0952454E-3,6.92279E-2,3.7877255E-3,6.866069E-1,2.473836E-1,-1.7733593E-1,-8.40494E-4,-8.144372E-2,3.798311E-1,5.76426E-2,1.9879326E-2,7.266337E-2,-3.446401E-1,4.414664E-1,-3.444956E-1,1.4319395E-1,-4.704218E-3,3.9072176E-3,-9.4391756E-2,2.457433E-1,5.1905274E-1,-2.2693163E-1,2.5125746E-2,1.66691E-1,-4.3543782E-2,-2.1486373E-3,5.110526E-1,1.5195578E-1,-5.1211935E-2,2.6268652E-2,3.4285717E-2,-6.5045604E-3,-5.161124E-3,8.952097E-2,1.4252613E-2,-1.1639455E-3,-3.640994E-1,-8.1770375E-2,-1.585417E-2,3.3324492E-1,1.7679831E-1,6.235847E-2,-4.8937416E-3,-3.0172667E-2,3.0001906E-1,8.511549E-3,3.7622355E-2,3.1089655E-1,2.1572469E-2,5.549648E-2,3.885825E-2,-1.0671414E-2,-3.2338777E-3,-3.657967E-4,-3.2983623E-2,1.1928061E-2,7.329565E-4,3.4303365E-3,-7.322484E-3,-4.0350915E-5,-4.820923E-2,-1.6449897E-2,3.5818901E-3,-1.2711047E-2,-9.962253E-3,4.2983405E-2,-2.0890174E-2,4.15824E-2,-2.8358111E-2,4.632286E-2,-7.980975E-6,5.6612816E-2,5.209553E-2,-1.2270595E-3,-4.151107E-2,3.6869887E-2],"categories":[],"categories_nodes":[],"categories_segments":[],"categories_sizes":[],"default_left":[0,0,1,0,0,1,0,0,0,0,0,0,1,0,0,0,0,0,0,0,0,0,1,0,0,0,0,0,0,0,0,0,0,0,0,0,0,0,0,0,0,0,0,0,0,0,0,0,0,0,0,0,0,0,0,0,0,0,0,0,0,0,0,0,0,0,0,0,0,0,0,0,0,0,0,0,0,0,0,0,0],"id":0,"left_children":[1,3,5,7,9,11,13,-1,15,17,19,21,23,25,27,-1,-1,29,31,33,35,37,39,41,43,45,47,49,51,-1,-1,53,55,-1,-1,-1,-1,57,59,61,63,65,67,-1,69,71,-1,-1,-1,73,75,77,79,-1,-1,-1,-1,-1,-1,-1,-1,-1,-1,-1,-1,-1,-1,-1,-1,-1,-1,-1,-1,-1,-1,-1,-1,-1,-1,-1,-1],"loss_changes":[2.086292E0,1.9623654E0,1.9775904E0,4.97447E-1,1.1203177E0,1.6110119E0,1.4244277E0,0E0,3.625393E-2,1.959003E0,6.0454774E-1,1.4392952E0,1.0770224E0,1.3235612E0,1.3739573E0,0E0,0E0,1.2103844E-1,1.6975975E-1,8.5758626E-1,1.9934817E-1,1.8628101E0,1.8469269E0,7.8722954E-1,3.9763522E-1,3.1599617E-1,2.9962078E-2,1.3701541E0,1.6465824E0,0E0,0E0,3.1983852E-3,2.7424416E-1,0E0,0E0,0E0,0E0,1.7585832E0,2.6452034E0,1.6072159E0,1.294555E0,1.6656709E-1,1.2338213E0,0E0,3.9131182E-1,4.725232E-1,0E0,0E0,0E0,1.7602246E0,1.3628094E0,1.1675942E0,1.9131622E0,0E0,0E0,0E0,0E0,0E0,0E0,0E0,0E0,0E0,0E0,0E0,0E0,0E0,0E0,0E0,0E0,0E0,0E0,0E0,0E0,0E0,0E0,0E0,0E0,0E0,0E0,0E0,0E0],"parents":[2147483647,0,0,1,1,2,2,3,3,4,4,5,5,6,6,8,8,9,9,10,10,11,11,12,12,13,13,14,14,17,17,18,18,19,19,20,20,21,21,22,22,23,23,24,24,25,25,26,26,27,27,28,28,31,31,32,32,37,37,38,38,39,39,40,40,41,41,42,42,44,44,45,45,49,49,50,50,51,51,52,52],"right_children":[2,4,6,8,10,12,14,-1,16,18,20,22,24,26,28,-1,-1,30,32,34,36,38,40,42,44,46,48,50,52,-1,-1,54,56,-1,-1,-1,-1,58,60,62,64,66,68,-1,70,72,-1,-1,-1,74,76,78,80,-1,-1,-1,-1,-1,-1,-1,-1,-1,-1,-1,-1,-1,-1,-1,-1,-1,-1,-1,-1,-1,-1,-1,-1,-1,-1,-1,-1],"split_conditions":[6E0,-3.2593706E-1,1.1E0,9.04E2,7.511E1,9.37141E3,1.17E0,3.7877255E-3,5.0227E2,4.0333332E1,4.4284058E1,3.036751E1,4.18E1,2.9044E2,1.4249E2,1.9879326E-2,7.266337E-2,2.671E1,1E0,1.82E2,1E0,2.4E1,1.979E1,-2.02E2,-5.0803643E-1,-1.0809751E1,1.1074E2,5.208E1,-4.4600165E-1,-4.3543782E-2,-2.1486373E-3,9.966E1,5.55E1,-5.1211935E-2,2.6268652E-2,3.4285717E-2,-6.5045604E-3,1.285E1,1.879E1,1.2217E2,-1.227E1,1.1982E2,3.6643476E0,-1.585417E-2,2.29025E1,5.3714287E1,6.235847E-2,-4.8937416E-3,-3.0172667E-2,7.564235E-1,2.1693292E-1,-1.73E2,-2.7374E2,2.1572469E-2,5.549648E-2,3.885825E-2,-1.0671414E-2,-3.2338777E-3,-3.657967E-4,-3.2983623E-2,1.1928061E-2,7.329565E-4,3.4303365E-3,-7.322484E-3,-4.0350915E-5,-4.820923E-2,-1.6449897E-2,3.5818901E-3,-1.2711047E-2,-9.962253E-3,4.2983405E-2,-2.0890174E-2,4.15824E-2,-2.8358111E-2,4.632286E-2,-7.980975E-6,5.6612816E-2,5.209553E-2,-1.2270595E-3,-4.151107E-2,3.6869887E-2],"split_indices":[2,18,24,7,20,10,24,0,4,20,22,22,23,4,25,0,0,21,9,20,6,27,10,22,18,22,20,25,18,0,0,25,20,0,0,0,0,10,21,21,23,21,22,0,20,20,0,0,0,22,18,22,22,0,0,0,0,0,0,0,0,0,0,0,0,0,0,0,0,0,0,0,0,0,0,0,0,0,0,0,0],"split_type":[0,0,0,0,0,0,0,0,0,0,0,0,0,0,0,0,0,0,0,0,0,0,0,0,0,0,0,0,0,0,0,0,0,0,0,0,0,0,0,0,0,0,0,0,0,0,0,0,0,0,0,0,0,0,0,0,0,0,0,0,0,0,0,0,0,0,0,0,0,0,0,0,0,0,0,0,0,0,0,0,0],"sum_hessian":[7.914253E4,3.383637E1,7.9108695E4,9.748645E0,2.4087723E1,7.8707766E4,4.0093146E2,1.493905E0,8.25474E0,1.47252445E1,9.362478E0,7.846001E4,2.4775337E2,1.3273794E1,3.8765768E2,1.0784146E0,7.176326E0,3.4440112E0,1.1281234E1,6.1042695E0,3.2582088E0,4.325708E4,3.5202934E4,2.3900647E2,8.746893E0,1.0914106E1,2.3596869E0,2.9956238E2,8.8095314E1,2.4173388E0,1.0266721E0,8.478201E0,2.8030334E0,4.9063463E0,1.1979231E0,1.3333334E0,1.9248755E0,4.3049273E4,2.0780426E2,1.1579149E4,2.3623783E4,9.439744E0,2.2956673E2,1.411846E0,7.335047E0,3.1831827E0,7.730924E0,1.1876506E0,1.1720364E0,1.610107E1,2.834613E2,4.715286E1,4.094245E1,1.8627896E0,6.615411E0,1.2015988E0,1.6014346E0,2.255131E3,4.079414E4,1.3101498E1,1.9470276E2,8.60828E3,2.9708691E3,2.4569617E2,2.3378088E4,5.0431957E0,4.3965483E0,6.394242E1,1.6562431E2,1.3324085E0,6.0026383E0,1.2661338E0,1.9170488E0,3.357585E0,1.2743486E1,2.8014487E2,3.3164158E0,3.5285852E0,4.3624275E1,2.563455E0,3.8378994E1],"tree_param":{"num_deleted":"0","num_feature":"29","num_nodes":"81","size_leaf_vector":"1"}},{"base_weights":[8.949302E-4,7.350851E-2,-3.866925E-2,7.459334E-2,3.3871424E-3,-4.4692185E-2,-1.6414389E-2,7.74654E-2,6.321705E-2,-5.897259E-2,5.306473E-2,-5.033792E-2,-2.9011657E-2,-1.4304624E-2,-8.6110145E-2,5.5503235E-3,7.799387E-2,-3.87364E-2,6.47651E-2,7.878686E-2,-2.0755163E-1,1.3667583E-1,-3.8299143E-2,2.186218E-1,-5.065229E-2,-2.6906345E-2,-1.5151055E-1,-1.5471533E-1,-1.3093992E-2,-2.1040028E-1,-4.438292E-2,2.4579313E-2,-2.547672E-1,5.73104E-2,7.9607435E-2,-4.2775875E-1,-2.9319783E-3,6.036275E-2,9.444303E-2,-2.4848744E-2,2.5596094E-1,-5.424455E-2,-2.725482E-1,2.7894378E-1,4.6020567E-2,1.08849585E-1,-1.2617914E-1,9.5426746E-2,4.9577585E-1,-4.3959364E-2,-5.948863E-2,6.3334817E-1,-2.7195293E-2,-3.3940828E-1,-8.2069635E-2,-4.4278827E-1,-9.501409E-2,-2.6701713E-2,-3.9582467E-3,-6.428845E-1,-1.2331659E-1,5.3739976E-2,-1.2303286E-1,-3.833937E-3,9.561039E-3,-4.1190725E-2,2.166696E-3,7.867077E-3,3.0772313E-3,2.0266382E-2,7.928449E-3,-5.3225596E-2,2.5393883E-2,-3.7866015E-2,2.7322615E-3,6.6574714E-3,2.2198306E-3,1.4306699E-2,6.809375E-3,6.437506E-3,-2.8655574E-2,8.167857E-3,4.3699246E-2,-2.2089904E-2,1.0920864E-2,-9.832257E-3,-3.9265387E-2,1.9299673E-2,4.6307437E-2,-7.4774297E-3,2.2192186E-2,3.209483E-2,-1.8548096E-2,-1.935445E-2,2.7628789E-2,7.0144944E-2,4.059768E-3,6.586528E-2,2.5232082E-2,-4.4467193E-3,1.3225161E-2,-5.979153E-3,3.7831463E-2,1.154493E-2,7.070855E-2,-1.7216795E-3,-4.463743E-3,-4.6768274E-2,-1.4807129E-2,-3.1412672E-3,-2.3601834E-2,-5.2030068E-2,-5.7506836E-3,1.5532339E-2,-1.4465806E-2,-2.2469559E-3,-1.4454125E-2,1.1600878E-2,-6.3040137E-4,-6.6807285E-2,-2.6325513E-2,3.222741E-2,-1.6950628E-2,-9.90109E-3,1.4647222E-2,3.9626937E-2,-1.4621868E-2],"categories":[],"categories_nodes":[],"categories_segments":[],"categories_sizes":[],"default_left":[0,1,0,0,0,0,0,0,0,0,0,0,0,0,0,0,0,0,0,0,0,0,0,1,0,0,0,0,0,0,0,0,0,0,0,0,0,0,0,0,0,0,0,0,0,0,0,0,0,1,0,0,0,0,0,0,0,0,0,0,0,0,0,0,0,0,0,0,0,0,0,0,0,0,0,0,0,0,0,0,0,0,0,0,0,0,0,0,0,0,0,0,0,0,0,0,0,0,0,0,0,0,0,0,0,0,0,0,0,0,0,0,0,0,0,0,0,0,0,0,0,0,0,0,0,0,0],"id":1,"left_children":[1,3,5,7,9,11,13,15,17,19,21,23,25,27,29,31,33,35,37,39,41,43,45,47,49,51,53,55,57,59,61,63,65,67,69,71,73,75,77,79,81,83,85,87,89,91,93,95,97,99,101,103,105,107,109,111,113,115,117,119,121,123,125,-1,-1,-1,-1,-1,-1,-1,-1,-1,-1,-1,-1,-1,-1,-1,-1,-1,-1,-1,-1,-1,-1,-1,-1,-1,-1,-1,-1,-1,-1,-1,-1,-1,-1,-1,-1,-1,-1,-1,-1,-1,-1,-1,-1,-1,-1,-1,-1,-1,-1,-1,-1,-1,-1,-1,-1,-1,-1,-1,-1,-1,-1,-1,-1],"loss_changes":[4.456E2,4.1611023E0,1.3456924E1,1.7552185E0,2.5882246E0,6.9936523E0,3.1434135E0,1.6340942E0,1.7172012E0,7.599406E0,3.5573225E0,4.9232635E0,5.3912315E0,3.52669E0,3.2484741E0,1.5657179E0,1.4202881E0,2.2707946E0,1.3925552E0,3.5494869E0,1.7640252E0,3.1214242E0,2.897128E0,2.2749474E0,3.4292908E0,3.9411707E0,4.581316E0,3.0082622E0,2.5586483E0,5.856899E0,3.6456828E0,1.3188603E0,9.4429386E-1,1.7509861E0,1.5577393E0,1.1139963E0,1.7197784E0,2.2086487E0,1.7591991E0,2.882632E0,2.2139893E0,1.5059596E0,2.579527E0,1.4043312E0,3.1959338E0,5.297794E0,3.850977E0,1.5771793E0,6.5426254E-1,2.9609604E0,3.3387527E0,2.6353168E-1,3.5776234E0,2.2624884E0,2.0143595E0,8.7119865E-1,1.8641161E0,4.1199107E0,3.4666321E0,7.446861E-2,2.780373E0,2.9961576E0,3.213115E0,0E0,0E0,0E0,0E0,0E0,0E0,0E0,0E0,0E0,0E0,0E0,0E0,0E0,0E0,0E0,0E0,0E0,0E0,0E0,0E0,0E0,0E0,0E0,0E0,0E0,0E0,0E0,0E0,0E0,0E0,0E0,0E0,0E0,0E0,0E0,0E0,0E0,0E0,0E0,0E0,0E0,0E0,0E0,0E0,0E0,0E0,0E0,0E0,0E0,0E0,0E0,0E0,0E0,0E0,0E0,0E0,0E0,0E0,0E0,0E0,0E0,0E0,0E0,0E0],"parents":[2147483647,0,0,1,1,2,2,3,3,4,4,5,5,6,6,7,7,8,8,9,9,10,10,11,11,12,12,13,13,14,14,15,15,16,16,17,17,18,18,19,19,20,20,21,21,22,22,23,23,24,24,25,25,26,26,27,27,28,28,29,29,30,30,31,31,32,32,33,33,34,34,35,35,36,36,37,37,38,38,39,39,40,40,41,41,42,42,43,43,44,44,45,45,46,46,47,47,48,48,49,49,50,50,51,51,52,52,53,53,54,54,55,55,56,56,57,57,58,58,59,59,60,60,61,61,62,62],"right_children":[2,4,6,8,10,12,14,16,18,20,22,24,26,28,30,32,34,36,38,40,42,44,46,48,50,52,54,56,58,60,62,64,66,68,70,72,74,76,78,80,82,84,86,88,90,92,94,96,98,100,102,104,106,108,110,112,114,116,118,120,122,124,126,-1,-1,-1,-1,-1,-1,-1,-1,-1,-1,-1,-1,-1,-1,-1,-1,-1,-1,-1,-1,-1,-1,-1,-1,-1,-1,-1,-1,-1,-1,-1,-1,-1,-1,-1,-1,-1,-1,-1,-1,-1,-1,-1,-1,-1,-1,-1,-1,-1,-1,-1,-1,-1,-1,-1,-1,-1,-1,-1,-1,-1,-1,-1,-1],"split_conditions":[3.036751E1,1.17E0,1.5E1,1.22E2,1E2,1.2131E2,2.63E2,4.945E1,-1.2272E2,8.735E1,9E0,2E0,1.43E2,9.82E2,6E0,4.6905E1,4.217942E-1,2.4983E2,2.91E2,4.870623E-1,7.564235E-1,6.185E1,1.157E2,9.008E1,2.4629593E-1,3.1092557E-1,8.67E3,-6.310694E-1,4.814E1,8.8710535E-1,3.32E2,1.1308E4,5.1370203E-1,3.8491917E-1,-2.5667279E0,1E0,3.2E1,1.0205891E0,3.7062E2,2.13E0,6.27E1,1.54E0,4E0,1.9079E2,1.5094432E-1,2.5774652E-2,1.9778E2,4.0454327E1,1.4926E2,4.3E0,2.24E2,4.0905563E1,6.570337E-1,6.886418E1,2.024E2,4.6905E1,5.491613E-1,1.6075E2,3.5E0,3.61E2,2.1E1,2.8E2,3.3708553E1,-3.833937E-3,9.561039E-3,-4.1190725E-2,2.166696E-3,7.867077E-3,3.0772313E-3,2.0266382E-2,7.928449E-3,-5.3225596E-2,2.5393883E-2,-3.7866015E-2,2.7322615E-3,6.6574714E-3,2.2198306E-3,1.4306699E-2,6.809375E-3,6.437506E-3,-2.8655574E-2,8.167857E-3,4.3699246E-2,-2.2089904E-2,1.0920864E-2,-9.832257E-3,-3.9265387E-2,1.9299673E-2,4.6307437E-2,-7.4774297E-3,2.2192186E-2,3.209483E-2,-1.8548096E-2,-1.935445E-2,2.7628789E-2,7.0144944E-2,4.059768E-3,6.586528E-2,2.5232082E-2,-4.4467193E-3,1.3225161E-2,-5.979153E-3,3.7831463E-2,1.154493E-2,7.070855E-2,-1.7216795E-3,-4.463743E-3,-4.6768274E-2,-1.4807129E-2,-3.1412672E-3,-2.3601834E-2,-5.2030068E-2,-5.7506836E-3,1.5532339E-2,-1.4465806E-2,-2.2469559E-3,-1.4454125E-2,1.1600878E-2,-6.3040137E-4,-6.6807285E-2,-2.6325513E-2,3.222741E-2,-1.6950628E-2,-9.90109E-3,1.4647222E-2,3.9626937E-2,-1.4621868E-2],"split_indices":[22,24,1,20,25,21,20,25,23,25,8,1,8,7,8,20,19,25,21,19,22,20,25,23,17,19,7,17,21,15,25,7,19,19,15,9,2,17,25,24,21,24,8,4,17,17,25,22,23,3,2,22,19,22,21,20,19,20,3,21,1,25,22,0,0,0,0,0,0,0,0,0,0,0,0,0,0,0,0,0,0,0,0,0,0,0,0,0,0,0,0,0,0,0,0,0,0,0,0,0,0,0,0,0,0,0,0,0,0,0,0,0,0,0,0,0,0,0,0,0,0,0,0,0,0,0,0],"split_type":[0,0,0,0,0,0,0,0,0,0,0,0,0,0,0,0,0,0,0,0,0,0,0,0,0,0,0,0,0,0,0,0,0,0,0,0,0,0,0,0,0,0,0,0,0,0,0,0,0,0,0,0,0,0,0,0,0,0,0,0,0,0,0,0,0,0,0,0,0,0,0,0,0,0,0,0,0,0,0,0,0,0,0,0,0,0,0,0,0,0,0,0,0,0,0,0,0,0,0,0,0,0,0,0,0,0,0,0,0,0,0,0,0,0,0,0,0,0,0,0,0,0,0,0,0,0,0],"sum_hessian":[1.551028E5,5.4703188E4,1.0039961E5,5.3869715E4,8.3347217E2,7.901454E4,2.1385072E4,4.3006492E4,1.0863225E4,3.6948038E2,4.639918E2,5.8095254E4,2.0919283E4,2.0757914E4,6.2715936E2,3.138139E2,4.2692676E4,1.6211974E2,1.07011045E4,1.9196452E2,1.7751585E2,2.4201617E2,2.219756E2,6.701362E1,5.802824E4,2.056703E4,3.522529E2,1.7636235E2,2.058155E4,1.5661581E2,4.7054352E2,2.932809E2,2.0533003E1,3.092175E3,3.9600504E4,1.2740838E1,1.4937889E2,9.321421E3,1.3796841E3,1.2166056E2,7.0303955E1,5.3398838E1,1.2411701E2,9.338593E1,1.4863025E2,8.2910065E1,1.3906554E2,4.732289E1,1.9690731E1,3.3022164E4,2.5006076E4,8.038438E0,2.0558992E4,9.400375E1,2.5824915E2,2.9174002E1,1.4718835E2,8.266562E3,1.2314989E4,2.5180311E1,1.314355E2,2.0949559E2,2.610479E2,1.5576549E2,1.3751543E2,1.2778784E1,7.7542195E0,1.7121276E3,1.3800476E3,1.0201585E2,3.949849E4,1.1237469E1,1.5033686E0,1.0273816E1,1.3910507E2,8.0159346E3,1.305486E3,4.8333197E2,8.9635205E2,9.1290794E1,3.0369764E1,3.6559055E1,3.37449E1,2.6266474E1,2.7132366E1,5.138966E1,7.272735E1,6.5064E1,2.8321926E1,8.845878E1,6.017147E1,4.8133762E1,3.47763E1,1.1957076E2,1.9494772E1,2.9477854E0,4.4375103E1,1.0775942E1,8.914789E0,3.2928016E4,9.414884E1,2.498965E4,1.6425674E1,1.3216224E0,6.7168155E0,1.307874E4,7.4802515E3,5.5411186E1,3.8592567E1,1.9521689E2,6.3032257E1,2.3995956E1,5.178045E0,2.4005934E1,1.2318241E2,7.981114E3,2.854475E2,2.3525285E2,1.2079736E4,2.290103E1,2.279282E0,1.1783468E1,1.1965204E2,7.9112236E1,1.3038336E2,1.04694E1,2.5057852E2],"tree_param":{"num_deleted":"0","num_feature":"29","num_nodes":"127","size_leaf_vector":"1"}},{"base_weights":[4.922036E-4,-4.3613363E-2,1.6188191E-1,-6.734645E-2,1.3356045E-1,1.2358918E-1,1.638268E-1,1.3949265E-1,-7.548884E-2,1.4528601E-1,8.484211E-2,8.267666E-3,1.3493292E-1,1.618414E-1,1.8674926E-1,-5.104654E-2,1.4450563E-1,1.5452014E-1,-8.092451E-2,8.589401E-2,1.493916E-1,1.8892193E-2,1.70075E-1,-9.3279906E-2,1.3681145E-1,1.9624838E-1,1.1503862E-1,1.6855495E-1,1.5027882E-1,2.1656993E-1,1.454794E-1,-2.4313058E-3,-5.1847893E-1,1.3983859E-1,2.633726E-1,1.3885494E-1,2.4056895E-1,-8.144674E-2,1.01844646E-1,7.666084E-2,4.4650763E-1,7.9155505E-2,1.5280442E-1,-3.881949E-2,4.7752615E-2,1.8935174E-1,4.8523985E-2,-2.0881093E-1,4.5723334E-2,2.1050188E-3,3.3300957E-1,2.2206755E-1,1.4126558E-2,1.292009E-1,-1.5917111E-2,1.6684265E-1,2.3180212E-1,1.634397E-1,1.3353142E-1,3.7997168E-1,2.0434403E-1,1.1907044E-1,2.3668428E-1,3.5787728E-3,-4.898537E-2,1.4170592E-2,-6.86211E-2,1.5125801E-2,7.923587E-3,4.4472095E-2,1.821881E-2,1.3438046E-2,4.4689454E-2,-4.778871E-3,2.565383E-2,5.1212567E-3,-8.205998E-3,1.1403525E-2,-3.342183E-2,3.587487E-2,6.5278397E-3,5.196005E-2,-1.1130785E-2,-2.4725455E-3,1.4121977E-2,1.5139525E-2,3.3538144E-2,-7.3637986E-3,6.290877E-3,7.3732915E-3,-1.9176638E-3,1.0002933E-2,2.1496518E-2,-9.383262E-3,1.6813224E-2,-3.8410407E-2,-9.923145E-3,-4.409291E-3,4.154879E-2,3.6065947E-2,-1.5264302E-2,2.027701E-2,6.207956E-2,2.4773845E-2,1.1613292E-3,8.327784E-3,-3.683363E-2,-1.3401066E-2,1.36442995E-2,-1.54204015E-2,1.4572458E-2,1.6736705E-2,-2.9602877E-3,1.755679E-2,3.1717967E-2,-1.3314791E-2,1.6436141E-2,1.1203729E-2,1.5748441E-2,3.1794842E-2,5.9319854E-2,-2.6442667E-3,2.1287566E-2,1.2242472E-2,-3.0937318E-2,1.1592041E-2,3.0119568E-2],"categories":[],"categories_nodes":[],"categories_segments":[],"categories_sizes":[],"default_left":[0,0,0,0,0,0,0,0,0,0,0,1,0,0,0,1,0,0,1,1,0,0,0,0,0,0,1,0,0,0,0,0,0,0,0,0,0,0,0,0,0,0,0,0,0,0,0,0,0,0,0,0,0,0,0,1,0,0,0,0,0,0,0,0,0,0,0,0,0,0,0,0,0,0,0,0,0,0,0,0,0,0,0,0,0,0,0,0,0,0,0,0,0,0,0,0,0,0,0,0,0,0,0,0,0,0,0,0,0,0,0,0,0,0,0,0,0,0,0,0,0,0,0,0,0,0,0],"id":2,"left_children":[1,3,5,7,9,11,13,15,17,19,21,23,25,27,29,31,33,35,37,39,41,43,45,47,49,51,53,55,57,59,61,63,65,67,69,71,73,75,77,79,81,83,85,87,89,91,93,95,97,99,101,103,105,107,109,111,113,115,117,119,121,123,125,-1,-1,-1,-1,-1,-1,-1,-1,-1,-1,-1,-1,-1,-1,-1,-1,-1,-1,-1,-1,-1,-1,-1,-1,-1,-1,-1,-1,-1,-1,-1,-1,-1,-1,-1,-1,-1,-1,-1,-1,-1,-1,-1,-1,-1,-1,-1,-1,-1,-1,-1,-1,-1,-1,-1,-1,-1,-1,-1,-1,-1,-1,-1,-1],"loss_changes":[1.0713046E3,4.970263E2,2.385498E0,1.7556415E2,7.964218E0,2.046711E0,1.3686523E0,3.7787247E0,1.2540094E2,2.7311096E0,1.523646E1,1.8566445E0,1.7158566E0,2.1710815E0,2.97583E0,2.3156004E0,2.0975342E0,3.0881348E0,9.359741E0,2.396226E0,2.5106049E0,2.5495343E0,2.7616577E0,1.2864184E0,1.6576641E0,1.6318645E0,2.002164E0,1.8991699E0,2.2711487E0,2.7521896E0,2.4480648E0,1.7566218E0,1.1603055E0,2.5514755E0,2.0422802E0,2.6434364E0,1.6483097E0,7.9520264E0,1.5243812E0,2.2657127E0,7.9238486E-1,3.161082E0,2.531189E0,1.8127403E0,1.7752578E0,2.3128777E0,2.7948291E0,7.993932E-1,1.2441145E0,2.1751742E0,8.312862E-1,1.6420174E0,1.20076E0,1.8735905E0,2.3949385E0,1.7999878E0,2.1964664E0,1.6131287E0,2.3420792E0,1.1001015E0,2.6048584E0,1.1864834E0,1.755619E0,0E0,0E0,0E0,0E0,0E0,0E0,0E0,0E0,0E0,0E0,0E0,0E0,0E0,0E0,0E0,0E0,0E0,0E0,0E0,0E0,0E0,0E0,0E0,0E0,0E0,0E0,0E0,0E0,0E0,0E0,0E0,0E0,0E0,0E0,0E0,0E0,0E0,0E0,0E0,0E0,0E0,0E0,0E0,0E0,0E0,0E0,0E0,0E0,0E0,0E0,0E0,0E0,0E0,0E0,0E0,0E0,0E0,0E0,0E0,0E0,0E0,0E0,0E0,0E0],"parents":[2147483647,0,0,1,1,2,2,3,3,4,4,5,5,6,6,7,7,8,8,9,9,10,10,11,11,12,12,13,13,14,14,15,15,16,16,17,17,18,18,19,19,20,20,21,21,22,22,23,23,24,24,25,25,26,26,27,27,28,28,29,29,30,30,31,31,32,32,33,33,34,34,35,35,36,36,37,37,38,38,39,39,40,40,41,41,42,42,43,43,44,44,45,45,46,46,47,47,48,48,49,49,50,50,51,51,52,52,53,53,54,54,55,55,56,56,57,57,58,58,59,59,60,60,61,61,62,62],"right_children":[2,4,6,8,10,12,14,16,18,20,22,24,26,28,30,32,34,36,38,40,42,44,46,48,50,52,54,56,58,60,62,64,66,68,70,72,74,76,78,80,82,84,86,88,90,92,94,96,98,100,102,104,106,108,110,112,114,116,118,120,122,124,126,-1,-1,-1,-1,-1,-1,-1,-1,-1,-1,-1,-1,-1,-1,-1,-1,-1,-1,-1,-1,-1,-1,-1,-1,-1,-1,-1,-1,-1,-1,-1,-1,-1,-1,-1,-1,-1,-1,-1,-1,-1,-1,-1,-1,-1,-1,-1,-1,-1,-1,-1,-1,-1,-1,-1,-1,-1,-1,-1,-1,-1,-1,-1,-1],"split_conditions":[3.036751E1,1.22E2,1.86E0,4.217942E-1,2.91E2,-1.2500132E0,1.2224161E2,4.7E1,1.285E1,-1.1778942E0,3.82E2,1.8418E2,-1.5825689E-1,1E1,6.390835E-1,6.42319E3,1.9E1,2.9E1,1.1E0,3.33E1,3.226E1,4.6509793E-1,7.3E1,1E0,7.485E1,1.02E0,2.48675E3,1.725251E0,3.227486E-1,-7.492688E-1,1.6E1,2.2E2,4.027763E-1,2.1290073E1,2.1E1,1.5E1,2.6805E1,4.945E1,1.14185E2,1.23175E2,3.8348E2,5.6579036E-1,2.62E2,1.32E2,7.05282E-1,1.0133E2,-2.02E2,4.614391E1,1.4231E2,5.301E1,1.18E0,1.55E2,1.2974E2,7E1,2.05E2,9.37141E3,2.2168E2,-3.0601606E0,6.531105E-1,1.46E2,2.9965E1,6.9E2,7.35E1,3.5787728E-3,-4.898537E-2,1.4170592E-2,-6.86211E-2,1.5125801E-2,7.923587E-3,4.4472095E-2,1.821881E-2,1.3438046E-2,4.4689454E-2,-4.778871E-3,2.565383E-2,5.1212567E-3,-8.205998E-3,1.1403525E-2,-3.342183E-2,3.587487E-2,6.5278397E-3,5.196005E-2,-1.1130785E-2,-2.4725455E-3,1.4121977E-2,1.5139525E-2,3.3538144E-2,-7.3637986E-3,6.290877E-3,7.3732915E-3,-1.9176638E-3,1.0002933E-2,2.1496518E-2,-9.383262E-3,1.6813224E-2,-3.8410407E-2,-9.923145E-3,-4.409291E-3,4.154879E-2,3.6065947E-2,-1.5264302E-2,2.027701E-2,6.207956E-2,2.4773845E-2,1.1613292E-3,8.327784E-3,-3.683363E-2,-1.3401066E-2,1.36442995E-2,-1.54204015E-2,1.4572458E-2,1.6736705E-2,-2.9602877E-3,1.755679E-2,3.1717967E-2,-1.3314791E-2,1.6436141E-2,1.1203729E-2,1.5748441E-2,3.1794842E-2,5.9319854E-2,-2.6442667E-3,2.1287566E-2,1.2242472E-2,-3.0937318E-2,1.1592041E-2,3.0119568E-2],"split_indices":[22,20,24,19,21,17,22,25,10,15,25,10,17,27,17,10,27,8,24,23,21,17,8,9,21,24,10,15,17,15,27,2,19,22,27,27,20,25,20,20,20,19,8,2,19,10,22,22,23,23,24,21,25,25,5,10,25,15,17,5,20,25,21,0,0,0,0,0,0,0,0,0,0,0,0,0,0,0,0,0,0,0,0,0,0,0,0,0,0,0,0,0,0,0,0,0,0,0,0,0,0,0,0,0,0,0,0,0,0,0,0,0,0,0,0,0,0,0,0,0,0,0,0,0,0,0,0],"split_type":[0,0,0,0,0,0,0,0,0,0,0,0,0,0,0,0,0,0,0,0,0,0,0,0,0,0,0,0,0,0,0,0,0,0,0,0,0,0,0,0,0,0,0,0,0,0,0,0,0,0,0,0,0,0,0,0,0,0,0,0,0,0,0,0,0,0,0,0,0,0,0,0,0,0,0,0,0,0,0,0,0,0,0,0,0,0,0,0,0,0,0,0,0,0,0,0,0,0,0,0,0,0,0,0,0,0,0,0,0,0,0,0,0,0,0,0,0,0,0,0,0,0,0,0,0,0,0],"sum_hessian":[1.505005E5,1.1819907E5,3.2301436E4,1.0423678E5,1.3962283E4,1.5644038E3,3.0737031E4,3.9473428E3,1.00289445E5,1.1252129E4,2.710154E3,1.4025789E2,1.4241459E3,2.829443E4,2.4426023E3,1.0095506E2,3.8463877E3,2.3147307E3,9.797471E4,7.289524E2,1.0523177E4,1.5286024E3,1.1815516E3,7.851031E1,6.174758E1,3.4670746E2,1.0774385E3,1.7892188E4,1.0402241E4,1.4155269E3,1.0270753E3,9.2354904E1,8.600157E0,3.7031677E3,1.4321999E2,1.9604448E3,3.542858E2,9.769612E4,2.7859082E2,7.119365E2,1.7015886E1,4.8875415E2,1.0034422E4,5.0947302E2,1.01912933E3,1.01933746E3,1.6221423E2,4.2600864E1,3.5909443E1,3.7210316E1,2.4537266E1,3.0346613E2,4.3241333E1,9.723017E2,1.0513676E2,1.74241E4,4.6808716E2,5.81992E3,4.582322E3,9.6444626E1,1.3190823E3,7.9824414E2,2.288312E2,8.649905E1,5.8558564E0,1.7737873E0,6.8263693E0,3.1147563E3,5.884114E2,4.2903996E1,1.00315994E2,1.9337915E3,2.6653336E1,1.8486359E1,3.3579944E2,4.491576E2,9.724696E4,2.7173273E2,6.858089E0,2.6429285E1,6.8550726E2,1.510511E1,1.9107766E0,1.8302129E2,3.0573285E2,9.959382E3,7.504041E1,3.7976657E2,1.2970644E2,7.3407697E2,2.8505237E2,2.2825237E2,7.910851E2,7.416238E1,8.805186E1,1.5423233E1,2.7177631E1,2.960026E1,6.309184E0,1.0816842E1,2.6393475E1,1.8065975E1,6.4712906E0,2.703162E2,3.314992E1,3.728269E1,5.9586453E0,2.5567095E1,9.4673456E2,5.668656E1,4.8450195E1,1.737786E4,4.6240856E1,2.8405173E2,1.840354E2,1.7586185E1,5.8023335E3,2.418113E3,2.1642087E3,7.6642136E1,1.9802488E1,4.6950123E1,1.2721322E3,7.9275195E2,5.4921775E0,8.065109E1,1.4818011E2],"tree_param":{"num_deleted":"0","num_feature":"29","num_nodes":"127","size_leaf_vector":"1"}},{"base_weights":[-6.266331E-4,3.3450013E-3,-9.300576E-3,2.354525E-3,3.9929617E-2,-1.6613027E-2,1.5723695E-3,2.5393206E-3,-2.644561E-1,3.3204876E-2,2.1692921E-1,5.6703053E-2,-1.8038064E-2,3.5728835E-2,-2.6451142E-3,-3.3559473E-4,1.4390956E-2,-3.338675E-1,-2.794663E-2,4.3060545E-2,-6.830196E-2,2.5565583E-1,-1.2970886E-1,3.4283385E-2,2.5885513E-1,-5.0914362E-2,-1.3633598E-2,2.4922465E-3,1.2923194E-1,-3.900914E-2,2.8383392E-3,-1.6200086E-2,2.0335787E-3,-5.3656446E-3,2.1751933E-2,-2.0170566E-1,-5.2532107E-1,-2.8106508E-1,1.8729576E-1,-7.037901E-2,5.3354308E-2,-2.1220009E-1,-1.859624E-2,1.658254E-1,4.238542E-1,-3.026546E-1,2.3911636E-1,-2.4009736E-1,4.9960736E-2,5.3259456E-1,9.086214E-2,-8.9322925E-2,-2.7993156E-2,-1.0198469E-2,-4.984471E-2,1.1788515E-2,-2.3599099E-1,1.0811286E-1,3.4325573E-1,7.212753E-2,-4.132626E-2,5.143869E-4,9.364678E-2,-1.0015388E-3,-8.392329E-3,2.620153E-4,-5.894013E-3,1.006135E-2,-1.1450158E-3,1.6482553E-3,6.831518E-3,-4.0088873E-2,1.3151827E-2,-6.294813E-2,-2.6697094E-2,-4.8131994E-3,-3.0955682E-2,-1.3305559E-2,4.4873938E-2,8.622423E-3,-1.865466E-2,4.9161697E-3,2.989958E-2,-2.9815137E-2,1.3234995E-2,-7.331089E-3,1.4085034E-2,1.1125571E-2,4.6423838E-2,1.2731113E-2,4.8043508E-2,-4.5703497E-2,-3.9513703E-3,3.0618474E-2,3.4762349E-3,-3.056383E-2,4.9361546E-2,7.327056E-3,-1.6503407E-2,-9.589547E-3,6.328414E-2,-4.138017E-2,2.2176385E-2,-8.50061E-3,-6.689711E-2,-4.903741E-3,2.7074914E-3,-8.4785226E-4,-8.650366E-3,4.4489005E-3,-6.4550634E-3,1.466055E-3,-5.3959813E-2,-2.904795E-2,2.874582E-2,4.648391E-2,9.459817E-3,4.1131612E-2,-7.127382E-3,-5.4481095E-3,8.949705E-3,6.5395543E-3,-2.9470056E-4,1.5314748E-2,-1.0869898E-3],"categories":[],"categories_nodes":[],"categories_segments":[],"categories_sizes":[],"default_left":[0,1,0,1,0,0,0,0,0,0,0,0,0,0,0,0,0,0,0,0,0,0,0,0,0,0,0,0,0,0,1,0,0,0,0,0,0,0,0,0,0,0,0,0,0,0,0,0,0,0,0,0,0,1,0,1,0,0,0,0,0,0,0,0,0,0,0,0,0,0,0,0,0,0,0,0,0,0,0,0,0,0,0,0,0,0,0,0,0,0,0,0,0,0,0,0,0,0,0,0,0,0,0,0,0,0,0,0,0,0,0,0,0,0,0,0,0,0,0,0,0,0,0,0,0],"id":3,"left_children":[1,3,5,7,9,11,13,15,17,19,21,23,25,27,29,31,33,35,37,39,41,43,45,47,49,51,53,55,57,59,61,63,65,67,69,71,73,75,77,79,81,83,85,87,89,91,93,95,97,99,101,103,105,107,109,111,113,115,117,-1,119,121,123,-1,-1,-1,-1,-1,-1,-1,-1,-1,-1,-1,-1,-1,-1,-1,-1,-1,-1,-1,-1,-1,-1,-1,-1,-1,-1,-1,-1,-1,-1,-1,-1,-1,-1,-1,-1,-1,-1,-1,-1,-1,-1,-1,-1,-1,-1,-1,-1,-1,-1,-1,-1,-1,-1,-1,-1,-1,-1,-1,-1,-1,-1],"loss_changes":[5.006027E0,3.6117444E0,3.6287005E0,4.785691E0,3.120081E0,2.8519692E0,2.6438782E0,3.304431E0,1.0935225E0,2.5363712E0,1.3216977E0,2.3501863E0,3.8753767E0,6.268326E0,3.257629E0,2.9336162E0,2.7534893E0,1.2058849E0,9.4254774E-1,2.6998672E0,1.6018295E0,1.2393503E0,7.2997576E-1,2.0324461E0,2.3342366E0,2.7813072E0,2.9359488E0,3.3042626E0,2.3537607E0,3.8010466E0,2.995976E0,4.246911E0,2.4289942E0,3.3156364E0,3.3833194E0,2.1962705E0,3.8494492E-1,3.75728E-2,8.4930116E-1,3.5183282E0,2.1659236E0,1.7435639E0,1.475626E0,8.951863E-1,4.3436432E-1,2.8498608E-1,4.2118445E-2,1.3799609E0,2.242918E0,1.2891755E0,2.2924786E0,2.8991127E0,2.2979164E0,2.829179E0,2.8400354E0,2.2791834E0,1.6784053E0,2.2841463E0,1.356677E0,0E0,3.6793973E0,3.109176E0,2.2046888E0,0E0,0E0,0E0,0E0,0E0,0E0,0E0,0E0,0E0,0E0,0E0,0E0,0E0,0E0,0E0,0E0,0E0,0E0,0E0,0E0,0E0,0E0,0E0,0E0,0E0,0E0,0E0,0E0,0E0,0E0,0E0,0E0,0E0,0E0,0E0,0E0,0E0,0E0,0E0,0E0,0E0,0E0,0E0,0E0,0E0,0E0,0E0,0E0,0E0,0E0,0E0,0E0,0E0,0E0,0E0,0E0,0E0,0E0,0E0,0E0,0E0,0E0],"parents":[2147483647,0,0,1,1,2,2,3,3,4,4,5,5,6,6,7,7,8,8,9,9,10,10,11,11,12,12,13,13,14,14,15,15,16,16,17,17,18,18,19,19,20,20,21,21,22,22,23,23,24,24,25,25,26,26,27,27,28,28,29,29,30,30,31,31,32,32,33,33,34,34,35,35,36,36,37,37,38,38,39,39,40,40,41,41,42,42,43,43,44,44,45,45,46,46,47,47,48,48,49,49,50,50,51,51,52,52,53,53,54,54,55,55,56,56,57,57,58,58,60,60,61,61,62,62],"right_children":[2,4,6,8,10,12,14,16,18,20,22,24,26,28,30,32,34,36,38,40,42,44,46,48,50,52,54,56,58,60,62,64,66,68,70,72,74,76,78,80,82,84,86,88,90,92,94,96,98,100,102,104,106,108,110,112,114,116,118,-1,120,122,124,-1,-1,-1,-1,-1,-1,-1,-1,-1,-1,-1,-1,-1,-1,-1,-1,-1,-1,-1,-1,-1,-1,-1,-1,-1,-1,-1,-1,-1,-1,-1,-1,-1,-1,-1,-1,-1,-1,-1,-1,-1,-1,-1,-1,-1,-1,-1,-1,-1,-1,-1,-1,-1,-1,-1,-1,-1,-1,-1,-1,-1,-1],"split_conditions":[1.22E2,1.3354E2,8E0,1.3102E2,1.996E2,-2.0188503E0,6.792E3,1.2E1,8.4E1,2.48E4,6.9782007E-1,6.0989E2,-1.9723563E-1,7.433226E-1,6.948E3,-8.278991E-1,-3.9132679E-1,6.638E1,5.7E1,2.083E3,1.6051E2,1.8945E4,1.0584E2,8.8E1,-9.9098426E-1,1.3909E2,7E0,7.097371E-1,6.386E3,-2.9398E2,-1.727E1,1.9281E2,1.7414229E0,-1.4334987E0,2.25E2,-3.5493028E-1,4.0905563E1,1.282E1,3.9949512E1,1.8210516E1,3.4028E2,6.1E1,1.0035E2,2.9848E2,-6.0874254E-2,2.3358E2,6.867E3,2.25E2,2.6736E2,1.7E2,-8.519736E-1,9.45611E-1,3.1034E2,1.351E1,-6.272045E-2,3.776E1,4.94E2,-4.46E2,1.84E2,7.212753E-2,1.2611681E2,8.059E3,1.7116565E-1,-1.0015388E-3,-8.392329E-3,2.620153E-4,-5.894013E-3,1.006135E-2,-1.1450158E-3,1.6482553E-3,6.831518E-3,-4.0088873E-2,1.3151827E-2,-6.294813E-2,-2.6697094E-2,-4.8131994E-3,-3.0955682E-2,-1.3305559E-2,4.4873938E-2,8.622423E-3,-1.865466E-2,4.9161697E-3,2.989958E-2,-2.9815137E-2,1.3234995E-2,-7.331089E-3,1.4085034E-2,1.1125571E-2,4.6423838E-2,1.2731113E-2,4.8043508E-2,-4.5703497E-2,-3.9513703E-3,3.0618474E-2,3.4762349E-3,-3.056383E-2,4.9361546E-2,7.327056E-3,-1.6503407E-2,-9.589547E-3,6.328414E-2,-4.138017E-2,2.2176385E-2,-8.50061E-3,-6.689711E-2,-4.903741E-3,2.7074914E-3,-8.4785226E-4,-8.650366E-3,4.4489005E-3,-6.4550634E-3,1.466055E-3,-5.3959813E-2,-2.904795E-2,2.874582E-2,4.648391E-2,9.459817E-3,4.1131612E-2,-7.127382E-3,-5.4481095E-3,8.949705E-3,6.5395543E-3,-2.9470056E-4,1.5314748E-2,-1.0869898E-3],"split_indices":[20,4,27,4,21,17,7,27,20,7,18,25,18,17,7,18,18,20,21,7,4,7,20,2,18,20,27,17,7,23,23,25,17,18,5,18,22,23,22,22,25,23,20,25,18,21,7,5,21,20,18,17,25,23,17,23,25,22,21,0,22,7,18,0,0,0,0,0,0,0,0,0,0,0,0,0,0,0,0,0,0,0,0,0,0,0,0,0,0,0,0,0,0,0,0,0,0,0,0,0,0,0,0,0,0,0,0,0,0,0,0,0,0,0,0,0,0,0,0,0,0,0,0,0,0],"split_type":[0,0,0,0,0,0,0,0,0,0,0,0,0,0,0,0,0,0,0,0,0,0,0,0,0,0,0,0,0,0,0,0,0,0,0,0,0,0,0,0,0,0,0,0,0,0,0,0,0,0,0,0,0,0,0,0,0,0,0,0,0,0,0,0,0,0,0,0,0,0,0,0,0,0,0,0,0,0,0,0,0,0,0,0,0,0,0,0,0,0,0,0,0,0,0,0,0,0,0,0,0,0,0,0,0,0,0,0,0,0,0,0,0,0,0,0,0,0,0,0,0,0,0,0,0],"sum_hessian":[1.4531208E5,9.967389E4,4.5638176E4,9.704753E4,2.6263591E3,2.7286492E4,1.8351686E4,9.698135E4,6.617973E1,2.5313723E3,9.498677E1,5.195131E2,2.6766979E4,2.0161184E3,1.6335566E4,7.8049445E4,1.8931906E4,5.084575E1,1.5333987E1,2.3078687E3,2.2350359E2,8.567732E1,9.309447E0,4.6870142E2,5.081171E1,3.161087E3,2.3605893E4,1.4881631E3,5.279553E2,2.1397178E3,1.4195849E4,1.01405205E4,6.790893E4,5.1390776E3,1.3792828E4,3.1295666E1,1.9550083E1,6.9064302E0,8.427557E0,1.9151328E2,2.1163555E3,5.6542843E1,1.6696075E2,5.7144054E1,2.853327E1,6.4597955E0,2.849652E0,2.4559137E1,4.4414227E2,1.8498552E1,3.231316E1,1.1803326E3,1.9807543E3,2.1561742E4,2.0441503E3,1.4332446E3,5.4918465E1,4.8190756E2,4.6047745E1,5.5586367E0,2.1341592E3,1.3842597E4,3.5325143E2,9.293002E3,8.4751855E2,6.726281E4,6.46119E2,2.781835E2,4.860894E3,1.2391846E4,1.4009829E3,1.94603E1,1.1835366E1,1.2908971E1,6.6411123E0,1.0458069E0,5.8606234E0,4.007802E0,4.419755E0,8.167141E1,1.0984187E2,2.0820195E3,3.433581E1,4.536162E1,1.118122E1,1.2470724E2,4.225351E1,4.9470406E1,7.67365E0,5.0926294E0,2.344064E1,3.6068637E0,2.8529317E0,1.7703296E0,1.0793223E0,2.3080816E1,1.4783212E0,4.0129312E2,4.284916E1,2.5506766E0,1.5947876E1,6.210135E0,2.6103024E1,1.1727455E3,7.587165E0,1.4331758E3,5.475785E2,2.1087533E4,4.7420944E2,2.7541666E2,1.7687336E3,1.4267863E3,6.458362E0,5.0143803E1,4.7746596E0,1.6371792E1,4.655358E2,3.956022E1,6.487527E0,1.9396979E3,1.9446123E2,7.001894E2,1.3142407E4,2.2480566E2,1.2844576E2],"tree_param":{"num_deleted":"0","num_feature":"29","num_nodes":"125","size_leaf_vector":"1"}},{"base_weights":[-5.401158E-4,-9.4827655E-4,7.523998E-2,-2.767143E-3,1.2731439E-2,1.9123153E-1,2.7830547E-2,3.091653E-2,-3.464253E-3,-9.624456E-4,2.9692357E-2,-1.6696699E-2,2.5017646E-1,-5.7695787E-2,1.0289129E-1,-6.638537E-2,4.1456055E-2,-6.683881E-4,-1.11659635E-2,9.275688E-3,-2.8448945E-2,2.046825E-1,2.6827384E-2,-2.2804265E-1,2.64334E-1,3.0625567E-1,5.4625653E-2,-1.3814123E-1,6.073495E-2,2.1268412E-2,1.755547E-1,-2.7651054E-1,-2.3275591E-2,2.5471438E-2,1.2333898E-1,-1.57702E-2,1.6446336E-3,-3.1398E-2,-6.909158E-3,-3.8288493E-2,2.0742325E-2,-3.6947884E-2,1.3239425E-1,9.1276295E-2,4.0796706E-1,3.703142E-2,2.6323472E-3,-3.9124548E-1,-3.0917794E-2,1.1822112E-1,4.8246494E-1,3.3158094E-1,-3.065675E-1,-2.3533252E-1,2.7798164E-1,-2.203314E-1,-3.7320063E-2,1.8247042E-2,5.6910314E-2,5.455195E-2,-3.7090075E-1,1.3253361E-1,4.2505416E-1,-1.3207576E-2,-4.230137E-2,5.325683E-3,-1.6840233E-2,2.0400113E-3,2.1910064E-2,-2.552525E-3,1.5856715E-2,-2.9754136E-3,5.732135E-4,3.5968766E-4,-1.7808456E-3,-2.58179E-3,-1.0633282E-2,-2.924459E-3,-2.68019E-4,7.432114E-3,-5.9609865E-3,2.2510507E-3,-2.7108232E-2,-5.7793176E-3,8.7860366E-4,2.6060814E-2,-1.0791367E-3,1.6593061E-2,-1.6957987E-2,4.540292E-2,-7.1751834E-3,-3.619146E-3,4.348153E-3,4.7686655E-4,-5.248787E-2,3.3972897E-3,-5.3372215E-2,-4.687577E-2,6.126871E-3,1.1118675E-3,4.517431E-2,2.0878598E-4,5.8927294E-2,-8.7875305E-3,3.5984945E-2,-4.1442197E-2,-5.1456587E-3,-3.908641E-2,1.8539188E-2,3.7917953E-2,-2.64132E-2,-1.5621523E-2,-5.124339E-2,7.333157E-3,-2.8843274E-2,-2.1662844E-2,8.728702E-3,1.0860456E-2,-2.18383E-2,-4.5305703E-2,1.07524665E-2,2.5972703E-2,4.3513463E-3,1.8222112E-2,5.7126652E-2],"categories":[],"categories_nodes":[],"categories_segments":[],"categories_sizes":[],"default_left":[1,0,0,0,0,0,0,0,0,0,0,0,0,0,0,0,0,0,0,0,0,1,0,0,0,0,0,0,1,0,0,0,0,0,0,0,0,0,0,0,1,0,0,0,0,0,1,0,0,0,0,0,0,0,0,0,0,0,0,0,1,0,0,0,0,0,0,0,0,0,0,0,0,0,0,0,0,0,0,0,0,0,0,0,0,0,0,0,0,0,0,0,0,0,0,0,0,0,0,0,0,0,0,0,0,0,0,0,0,0,0,0,0,0,0,0,0,0,0,0,0,0,0,0,0],"id":4,"left_children":[1,3,5,7,9,11,13,15,17,19,21,23,25,27,29,31,33,35,37,39,41,43,45,47,49,51,53,55,57,59,61,63,65,67,69,71,73,75,77,79,81,83,85,87,89,91,93,95,97,99,101,103,105,107,109,111,113,115,-1,117,119,121,123,-1,-1,-1,-1,-1,-1,-1,-1,-1,-1,-1,-1,-1,-1,-1,-1,-1,-1,-1,-1,-1,-1,-1,-1,-1,-1,-1,-1,-1,-1,-1,-1,-1,-1,-1,-1,-1,-1,-1,-1,-1,-1,-1,-1,-1,-1,-1,-1,-1,-1,-1,-1,-1,-1,-1,-1,-1,-1,-1,-1,-1,-1],"loss_changes":[4.5070887E0,3.6062436E0,4.287512E0,3.0039794E0,3.950622E0,2.7781124E0,3.5708876E0,2.6628985E0,2.6987946E0,2.6488988E0,3.8038578E0,3.085064E0,1.9177332E0,2.4874084E0,1.7525105E0,2.2934723E0,3.060999E0,3.212056E0,2.8746476E0,3.7413836E0,3.496993E0,2.7809916E0,1.8458891E0,9.403055E-1,6.544291E-1,2.2258615E0,2.6903164E0,1.2783141E0,2.2780209E0,1.8554099E0,1.6236715E0,8.5677767E-1,2.3610315E0,1.9201247E0,2.0078797E0,3.6725671E0,3.0284271E0,2.4233832E0,2.6049604E0,3.2039623E0,2.8579414E0,2.314401E0,2.3605309E0,1.581355E0,9.935231E-1,2.4853764E0,2.5032163E0,9.9411774E-1,6.137539E-1,5.198187E-1,4.4155908E-1,1.5958338E0,1.4242607E-1,1.261911E0,1.3813161E0,1.5180001E0,1.9920019E0,1.6211671E0,0E0,1.9485123E0,4.8607695E-1,1.5167129E0,6.971078E-1,0E0,0E0,0E0,0E0,0E0,0E0,0E0,0E0,0E0,0E0,0E0,0E0,0E0,0E0,0E0,0E0,0E0,0E0,0E0,0E0,0E0,0E0,0E0,0E0,0E0,0E0,0E0,0E0,0E0,0E0,0E0,0E0,0E0,0E0,0E0,0E0,0E0,0E0,0E0,0E0,0E0,0E0,0E0,0E0,0E0,0E0,0E0,0E0,0E0,0E0,0E0,0E0,0E0,0E0,0E0,0E0,0E0,0E0,0E0,0E0,0E0,0E0],"parents":[2147483647,0,0,1,1,2,2,3,3,4,4,5,5,6,6,7,7,8,8,9,9,10,10,11,11,12,12,13,13,14,14,15,15,16,16,17,17,18,18,19,19,20,20,21,21,22,22,23,23,24,24,25,25,26,26,27,27,28,28,29,29,30,30,31,31,32,32,33,33,34,34,35,35,36,36,37,37,38,38,39,39,40,40,41,41,42,42,43,43,44,44,45,45,46,46,47,47,48,48,49,49,50,50,51,51,52,52,53,53,54,54,55,55,56,56,57,57,59,59,60,60,61,61,62,62],"right_children":[2,4,6,8,10,12,14,16,18,20,22,24,26,28,30,32,34,36,38,40,42,44,46,48,50,52,54,56,58,60,62,64,66,68,70,72,74,76,78,80,82,84,86,88,90,92,94,96,98,100,102,104,106,108,110,112,114,116,-1,118,120,122,124,-1,-1,-1,-1,-1,-1,-1,-1,-1,-1,-1,-1,-1,-1,-1,-1,-1,-1,-1,-1,-1,-1,-1,-1,-1,-1,-1,-1,-1,-1,-1,-1,-1,-1,-1,-1,-1,-1,-1,-1,-1,-1,-1,-1,-1,-1,-1,-1,-1,-1,-1,-1,-1,-1,-1,-1,-1,-1,-1,-1,-1,-1],"split_conditions":[1.06E0,8.9198555E1,1.4189E2,3.22E0,1.1841E2,-1.8417013E0,1.0668E2,-1.1918671E0,1.68E2,1.95E2,1.9498E2,2.58E0,1.2371E2,1.740775E-1,2.2929415E1,-8.029E1,2.1087E4,1.393E1,-1.1742E2,4.25E1,2.2E2,-8E-1,1.8357E4,-7.4863607E-1,4.6607555E1,-8.2324E-3,-2.7600127E-1,3.76E0,7.00174E3,1.9972612E1,1E0,-1.0972E2,8.529E1,7.875406E1,-4.750845E-1,2.5430073E1,6.886418E1,-1.2561E2,-1.0643622E0,9.427159E1,1.2726E2,2.0506E4,2.68E2,-1.482E1,2.18E2,1.505E3,1.5228E2,2.17E0,6.84E0,-1.9868349E0,-4.762E1,7.926E1,9.2026985E-1,1.99E2,1.9778E2,2.58E0,-3.4775344E-1,7.306E3,5.6910314E-2,2.13E0,7.27903E3,3.9470016E1,1.5E1,-1.3207576E-2,-4.230137E-2,5.325683E-3,-1.6840233E-2,2.0400113E-3,2.1910064E-2,-2.552525E-3,1.5856715E-2,-2.9754136E-3,5.732135E-4,3.5968766E-4,-1.7808456E-3,-2.58179E-3,-1.0633282E-2,-2.924459E-3,-2.68019E-4,7.432114E-3,-5.9609865E-3,2.2510507E-3,-2.7108232E-2,-5.7793176E-3,8.7860366E-4,2.6060814E-2,-1.0791367E-3,1.6593061E-2,-1.6957987E-2,4.540292E-2,-7.1751834E-3,-3.619146E-3,4.348153E-3,4.7686655E-4,-5.248787E-2,3.3972897E-3,-5.3372215E-2,-4.687577E-2,6.126871E-3,1.1118675E-3,4.517431E-2,2.0878598E-4,5.8927294E-2,-8.7875305E-3,3.5984945E-2,-4.1442197E-2,-5.1456587E-3,-3.908641E-2,1.8539188E-2,3.7917953E-2,-2.64132E-2,-1.5621523E-2,-5.124339E-2,7.333157E-3,-2.8843274E-2,-2.1662844E-2,8.728702E-3,1.0860456E-2,-2.18383E-2,-4.5305703E-2,1.07524665E-2,2.5972703E-2,4.3513463E-3,1.8222112E-2,5.7126652E-2],"split_indices":[24,22,4,3,21,15,23,15,2,25,4,24,25,17,22,22,7,10,22,20,2,24,7,18,22,18,18,3,10,22,11,22,21,22,15,22,22,22,15,22,23,7,25,23,21,7,23,3,10,15,23,10,17,25,25,24,18,7,0,24,10,22,1,0,0,0,0,0,0,0,0,0,0,0,0,0,0,0,0,0,0,0,0,0,0,0,0,0,0,0,0,0,0,0,0,0,0,0,0,0,0,0,0,0,0,0,0,0,0,0,0,0,0,0,0,0,0,0,0,0,0,0,0,0,0],"split_type":[0,0,0,0,0,0,0,0,0,0,0,0,0,0,0,0,0,0,0,0,0,0,0,0,0,0,0,0,0,0,0,0,0,0,0,0,0,0,0,0,0,0,0,0,0,0,0,0,0,0,0,0,0,0,0,0,0,0,0,0,0,0,0,0,0,0,0,0,0,0,0,0,0,0,0,0,0,0,0,0,0,0,0,0,0,0,0,0,0,0,0,0,0,0,0,0,0,0,0,0,0,0,0,0,0,0,0,0,0,0,0,0,0,0,0,0,0,0,0,0,0,0,0,0,0],"sum_hessian":[1.4571352E5,1.4493388E5,7.7964386E2,1.27925586E5,1.7008295E4,2.2532701E2,5.543169E2,2.5929592E3,1.25332625E5,9.410998E3,7.597297E3,4.9926846E1,1.7540016E2,2.5920392E2,2.9511295E2,2.5289642E2,2.3400627E3,9.195304E4,3.3379582E4,6.857419E3,2.5535796E3,1.2124614E2,7.476051E3,2.8604044E1,2.13228E1,1.3586989E2,3.9530273E1,1.5425679E2,1.04947136E2,1.3959662E2,1.5551633E2,4.213048E1,2.1076595E2,1.9589592E3,3.8110342E2,1.2212343E4,7.9740695E4,5.8011426E3,2.7578441E4,1.3315876E3,5.525831E3,2.426152E3,1.2742734E2,7.875831E1,4.2487827E1,5.2580044E3,2.2180461E3,1.5109711E1,1.3494333E1,1.3692792E1,7.6300077E0,1.3091853E2,4.9513597E0,1.7177292E1,2.2352983E1,8.432723E1,6.992956E1,9.780849E1,7.138651E0,1.294694E2,1.0127217E1,1.339505E2,2.1565828E1,2.2172525E1,1.9957956E1,1.3840909E2,7.235685E1,1.910039E3,4.8920296E1,7.2981155E1,3.0812225E2,7.39964E3,4.8127026E3,7.2468805E4,7.271896E3,5.400345E3,4.007977E2,4.389458E3,2.3188982E4,2.1158864E2,1.119999E3,5.4934688E3,3.2362373E1,1.6663668E3,7.597854E2,6.679578E1,6.0631565E1,6.1516754E1,1.7241556E1,3.8814453E1,3.6733751E0,4.2530038E2,4.832704E3,2.2100867E3,7.959467E0,3.983274E0,1.1126437E1,1.6365678E0,1.1857766E1,1.1146653E1,2.5461385E0,1.5733396E0,6.0566683E0,8.132823E0,1.22785706E2,3.041157E0,1.9102024E0,1.2592956E1,4.5843363E0,1.9089958E1,3.2630236E0,7.040763E1,1.39196005E1,4.9031868E1,2.0897688E1,2.173337E1,7.607511E1,1.08570045E2,2.0899353E1,8.688273E0,1.4389442E0,5.4360996E1,7.95895E1,8.949145E0,1.2616682E1],"tree_param":{"num_deleted":"0","num_feature":"29","num_nodes":"125","size_leaf_vector":"1"}},{"base_weights":[2.9641046E-4,-8.628051E-4,2.148432E-2,-7.7509304E-4,-2.4466877E-1,3.7470352E-2,-1.9555226E-2,1.5178027E-2,-2.097093E-3,2.1027759E-1,-3.073428E-1,3.6483932E-2,4.509014E-1,-2.4084816E-2,3.308534E-1,1.1003389E-2,7.207959E-2,-3.8263234E-3,1.2357624E-2,3.5684243E-2,-1.9537317E-2,-3.5947883E-1,-1.03401154E-1,1.0345792E-1,3.044759E-2,-3.149305E-2,6.396163E-1,-2.8120525E-2,1.6825417E-1,4.116947E-1,-3.059577E-2,1.6376114E-2,-3.3073958E-2,5.6322806E-2,3.4576675E-1,-2.6076694E-3,-3.952467E-2,1.1685714E-2,3.2708874E-1,-2.9229444E-1,-5.999564E-2,4.165142E-2,-2.0797303E-1,1.7269228E-1,-2.5689548E-2,5.509377E-3,5.0394196E-2,2.0012554E-2,6.860027E-2,-2.0147957E-1,-2.2800213E-2,2.821689E-1,-3.8026142E-1,2.0478432E-1,5.328669E-1,9.90417E-3,-2.9571095E-2,9.001055E-4,4.8587034E-3,-1.7243695E-3,-2.9106352E-2,2.2460097E-3,1.8278366E-2,-5.3528428E-2,4.2548005E-2,-8.29394E-5,-1.4963981E-3,4.3590214E-2,-4.2299535E-3,-2.810307E-4,2.385703E-3,2.1599418E-2,6.45881E-2,-5.884853E-2,-2.4529181E-2,-1.7504309E-3,-2.844561E-2,1.4552248E-2,6.2362015E-2,2.924839E-3,-4.4793226E-2,-1.6319333E-3,6.552645E-3,2.7532429E-2,4.5793643E-3,-1.3452602E-2,-4.8935454E-2,-2.1042563E-3,-4.468825E-2,1.036509E-2,4.358311E-2,-4.2339144E-3,-4.8559733E-2,-6.569564E-3,2.486436E-2,6.2716074E-2,1.646633E-2],"categories":[],"categories_nodes":[],"categories_segments":[],"categories_sizes":[],"default_left":[0,0,0,0,0,0,0,0,0,0,0,0,0,0,0,0,0,0,1,0,0,0,0,0,1,0,0,0,1,0,0,0,0,0,0,0,0,0,0,0,0,0,0,0,0,0,0,0,0,0,1,0,0,0,0,0,0,0,0,0,0,0,0,0,0,0,0,0,0,0,0,0,0,0,0,0,0,0,0,0,0,0,0,0,0,0,0,0,0,0,0,0,0,0,0,0,0],"id":5,"left_children":[1,3,5,7,9,11,13,15,17,19,21,23,25,27,29,31,33,35,37,-1,-1,39,41,43,45,-1,47,49,51,53,55,57,59,61,63,65,67,69,71,73,-1,-1,75,77,79,81,83,-1,-1,85,87,89,91,93,95,-1,-1,-1,-1,-1,-1,-1,-1,-1,-1,-1,-1,-1,-1,-1,-1,-1,-1,-1,-1,-1,-1,-1,-1,-1,-1,-1,-1,-1,-1,-1,-1,-1,-1,-1,-1,-1,-1,-1,-1,-1,-1],"loss_changes":[3.566121E0,2.943654E0,4.941899E0,2.9022832E0,1.476156E0,2.1941524E0,3.3601387E0,2.5007982E0,3.1765404E0,4.6138817E-1,4.2977953E-1,2.183498E0,2.0534122E0,1.6239132E0,8.021307E-1,2.3242826E0,3.0838952E0,4.9377947E0,2.8677008E0,0E0,0E0,3.8318443E-1,6.490625E-1,3.999199E0,2.4684844E0,0E0,7.9030514E-2,1.8805999E0,2.7948687E0,4.4623637E-1,2.3101804E-1,2.077479E0,4.3504066E0,2.9149404E0,2.9654393E0,2.41171E0,4.961373E0,2.3909302E0,8.8367033E-1,2.589922E-1,0E0,0E0,1.3020292E-1,3.4742079E0,3.650205E0,2.8920043E0,2.840703E0,0E0,0E0,1.104749E0,1.4696162E0,9.475596E-1,2.5788617E-1,1.3265476E-1,3.6007786E-1,0E0,0E0,0E0,0E0,0E0,0E0,0E0,0E0,0E0,0E0,0E0,0E0,0E0,0E0,0E0,0E0,0E0,0E0,0E0,0E0,0E0,0E0,0E0,0E0,0E0,0E0,0E0,0E0,0E0,0E0,0E0,0E0,0E0,0E0,0E0,0E0,0E0,0E0,0E0,0E0,0E0,0E0],"parents":[2147483647,0,0,1,1,2,2,3,3,4,4,5,5,6,6,7,7,8,8,9,9,10,10,11,11,12,12,13,13,14,14,15,15,16,16,17,17,18,18,21,21,22,22,23,23,24,24,26,26,27,27,28,28,29,29,30,30,31,31,32,32,33,33,34,34,35,35,36,36,37,37,38,38,39,39,42,42,43,43,44,44,45,45,46,46,49,49,50,50,51,51,52,52,53,53,54,54],"right_children":[2,4,6,8,10,12,14,16,18,20,22,24,26,28,30,32,34,36,38,-1,-1,40,42,44,46,-1,48,50,52,54,56,58,60,62,64,66,68,70,72,74,-1,-1,76,78,80,82,84,-1,-1,86,88,90,92,94,96,-1,-1,-1,-1,-1,-1,-1,-1,-1,-1,-1,-1,-1,-1,-1,-1,-1,-1,-1,-1,-1,-1,-1,-1,-1,-1,-1,-1,-1,-1,-1,-1,-1,-1,-1,-1,-1,-1,-1,-1,-1,-1],"split_conditions":[1.2224161E2,3.3E1,6.454966E-1,9.9E1,7.253E1,8.63E2,2.7E1,1.48E2,1.996E2,3.037E1,1.9123E2,2.955E1,1.146E2,1.72E2,1.4793756E0,6.800865E-1,2.3358E2,3.9484E2,5.7E-1,3.5684243E-2,-1.9537317E-2,4.1876423E1,1.8207453E-1,1.5E1,6.436E1,-3.149305E-2,4.43E0,2.317E1,6.42319E3,8.033E1,8.5E1,2.89E2,1.19E2,7.433226E-1,-2.7374E2,1.46395E2,3.4810904E-1,1.425E2,-1.6628553E1,4.672409E-1,-5.999564E-2,4.165142E-2,1.0584E2,3.04E2,1.9579E2,2.06E2,1.4285714E1,2.0012554E-2,6.860027E-2,2.4514E4,5.8E-1,6.800865E-1,9.6125E1,6.5814376E-1,2.9E1,9.90417E-3,-2.9571095E-2,9.001055E-4,4.8587034E-3,-1.7243695E-3,-2.9106352E-2,2.2460097E-3,1.8278366E-2,-5.3528428E-2,4.2548005E-2,-8.29394E-5,-1.4963981E-3,4.3590214E-2,-4.2299535E-3,-2.810307E-4,2.385703E-3,2.1599418E-2,6.45881E-2,-5.884853E-2,-2.4529181E-2,-1.7504309E-3,-2.844561E-2,1.4552248E-2,6.2362015E-2,2.924839E-3,-4.4793226E-2,-1.6319333E-3,6.552645E-3,2.7532429E-2,4.5793643E-3,-1.3452602E-2,-4.8935454E-2,-2.1042563E-3,-4.468825E-2,1.036509E-2,4.358311E-2,-4.2339144E-3,-4.8559733E-2,-6.569564E-3,2.486436E-2,6.2716074E-2,1.646633E-2],"split_indices":[22,27,17,2,25,25,27,8,21,20,25,10,21,8,15,19,21,25,24,0,0,22,17,27,10,0,3,21,10,20,2,25,8,17,22,20,19,20,22,19,0,0,20,25,20,2,21,0,0,7,24,19,20,19,27,0,0,0,0,0,0,0,0,0,0,0,0,0,0,0,0,0,0,0,0,0,0,0,0,0,0,0,0,0,0,0,0,0,0,0,0,0,0,0,0,0,0],"split_type":[0,0,0,0,0,0,0,0,0,0,0,0,0,0,0,0,0,0,0,0,0,0,0,0,0,0,0,0,0,0,0,0,0,0,0,0,0,0,0,0,0,0,0,0,0,0,0,0,0,0,0,0,0,0,0,0,0,0,0,0,0,0,0,0,0,0,0,0,0,0,0,0,0,0,0,0,0,0,0,0,0,0,0,0,0,0,0,0,0,0,0,0,0,0,0,0,0],"sum_hessian":[1.451906E5,1.3766002E5,7.530583E3,1.376115E5,4.8504192E1,5.4195903E3,2.1109924E3,1.0530089E4,1.27081414E5,5.5877805E0,4.2916412E1,5.407776E3,1.1814336E1,2.0849722E3,2.6020323E1,9.811456E3,7.186335E2,1.1350362E5,1.3577801E4,4.193101E0,1.3946795E0,3.357148E1,9.3449335E0,4.457694E2,4.962007E3,2.203481E0,9.610855E0,2.04296E3,4.201214E1,2.1150757E1,4.869566E0,8.746007E3,1.0654495E3,6.806526E2,3.7980915E1,1.0975783E5,3.7457898E3,1.354991E4,2.7890175E1,2.797213E1,5.5993495E0,1.0653138E0,8.279619E0,2.8997842E2,1.5579102E2,2.20566E3,2.7563467E3,1.4248958E0,8.185959E0,5.9732838E1,1.983227E3,3.51896E1,6.8225365E0,8.8052225E0,1.2345533E1,3.6910944E0,1.1784714E0,7.117624E3,1.6283821E3,1.0048581E3,6.059135E1,5.3781757E2,1.4283504E2,2.6770473E0,3.5303867E1,9.59501E4,1.3807724E4,2.0829988E1,3.7249597E3,6.184704E3,7.365206E3,2.1926605E1,5.96357E0,2.2531931E0,2.5718937E1,2.7242303E0,5.5553894E0,2.7474677E2,1.5231632E1,1.3867833E2,1.7112686E1,1.6179326E3,5.877275E2,5.4066856E1,2.7022798E3,4.9652126E1,1.0080712E1,1.9760867E3,7.1404643E0,1.7052866E1,1.8136736E1,1.9544659E0,4.8680706E0,1.1591122E0,7.6461105E0,9.26862E0,3.0769138E0],"tree_param":{"num_deleted":"0","num_feature":"29","num_nodes":"97","size_leaf_vector":"1"}},{"base_weights":[-3.647848E-4,-5.678089E-4,7.328507E-2,-1.210605E-3,2.125917E-2,4.4366187E-1,4.088761E-2,-2.0891458E-3,1.596973E-2,2.6232863E-3,6.499714E-2,5.870545E-1,5.1090244E-2,-3.8380515E-2,1.2054291E-1,-1.2108355E-3,-2.611896E-2,-1.2411745E-1,1.9356498E-2,3.637136E-2,-2.6005208E-2,-2.9211394E-2,8.530785E-2,2.1452972E-1,6.7265934E-1,2.1854092E-1,-2.3702842E-1,6.657155E-2,-2.0274682E-1,4.057139E-1,7.788774E-2,-2.280312E-3,3.2824516E-2,-2.929214E-2,1.8553694E-1,-1.795731E-1,6.44898E-2,2.7981302E-2,-3.0926146E-2,-7.1107656E-2,3.828521E-2,-4.957845E-2,6.8568416E-2,1.3429917E-1,-1.0665308E-1,9.020053E-2,-3.8917166E-1,5.2289363E-2,-5.314787E-2,7.27865E-1,2.605921E-3,-1.5640743E-2,3.6330765E-1,-6.505807E-3,-3.127495E-2,2.0313023E-1,-6.745979E-2,-6.7972906E-2,-3.5598403E-1,-9.041858E-2,6.108911E-2,1.0556633E-1,-3.1654894E-1,3.5633406E-5,-8.79246E-4,4.829678E-3,-1.9124441E-3,-3.2887168E-3,1.4541513E-2,3.0985052E-2,-1.6878474E-3,-5.1507145E-2,-1.3927265E-2,2.77832E-2,-2.1620205E-2,2.4174345E-3,2.1716936E-2,-3.6588658E-2,-2.294901E-3,-1.2124353E-2,4.6039093E-3,-8.018233E-4,-1.1060293E-2,1.3908935E-2,-5.916606E-3,3.5397254E-2,2.3519695E-3,-2.489513E-2,2.2295152E-3,-8.0145244E-4,1.0591374E-2,-5.7792164E-2,4.4830386E-3,-2.6412321E-2,1.8458307E-2,2.0884765E-2,7.583284E-2,4.840494E-2,1.4990873E-2,1.4725168E-3,3.361082E-2,-2.6617473E-2,1.1205731E-3,-3.303733E-2,5.7834107E-3,-4.4554323E-2,-1.0685361E-2,-2.8945139E-2,8.593973E-3,2.4395345E-2,3.8396192E-3,2.606444E-3,-5.3601395E-2],"categories":[],"categories_nodes":[],"categories_segments":[],"categories_sizes":[],"default_left":[0,1,0,0,0,0,0,0,0,0,0,0,0,0,0,0,0,0,0,0,0,0,0,0,0,0,0,1,0,0,1,1,0,0,0,0,0,0,0,0,0,0,0,0,0,0,0,0,0,0,0,0,0,0,0,0,0,0,0,0,0,0,0,0,0,0,0,0,0,0,0,0,0,0,0,0,0,0,0,0,0,0,0,0,0,0,0,0,0,0,0,0,0,0,0,0,0,0,0,0,0,0,0,0,0,0,0,0,0,0,0,0,0],"id":6,"left_children":[1,3,5,7,9,11,13,15,17,19,21,23,25,27,29,31,33,35,37,39,41,43,45,47,49,51,53,55,57,59,61,63,65,67,69,71,73,75,77,-1,79,81,83,85,87,89,91,-1,93,95,-1,-1,97,-1,-1,99,101,103,105,107,-1,109,111,-1,-1,-1,-1,-1,-1,-1,-1,-1,-1,-1,-1,-1,-1,-1,-1,-1,-1,-1,-1,-1,-1,-1,-1,-1,-1,-1,-1,-1,-1,-1,-1,-1,-1,-1,-1,-1,-1,-1,-1,-1,-1,-1,-1,-1,-1,-1,-1,-1,-1],"loss_changes":[2.1664324E0,2.027202E0,4.761119E0,2.1184728E0,3.3689256E0,1.7677293E0,2.3241854E0,2.8181224E0,3.2419543E0,2.8022773E0,2.3654323E0,5.986109E-1,5.168623E-1,3.20289E0,2.2001817E0,4.689079E0,3.1676664E0,1.698837E0,2.892544E0,1.9314499E0,3.5020075E0,2.7971065E0,2.394071E0,5.0829715E-1,6.4051247E-1,4.1597512E-1,3.2037392E-2,2.0927515E0,1.4688952E0,2.4611816E0,1.7893679E0,2.1444826E0,3.1553574E0,2.9188535E0,1.7586384E0,1.6173573E0,2.2990928E0,4.09436E0,2.6014402E0,0E0,1.6491507E0,3.1865106E0,2.8325295E0,1.7213012E0,2.752233E0,1.5542955E0,8.909148E-1,0E0,2.5057754E-1,1.101675E-1,0E0,0E0,5.8187604E-2,0E0,0E0,1.410929E0,9.108279E-1,1.329726E0,7.019582E-1,2.9816726E-1,0E0,1.3946456E0,8.2577634E-1,0E0,0E0,0E0,0E0,0E0,0E0,0E0,0E0,0E0,0E0,0E0,0E0,0E0,0E0,0E0,0E0,0E0,0E0,0E0,0E0,0E0,0E0,0E0,0E0,0E0,0E0,0E0,0E0,0E0,0E0,0E0,0E0,0E0,0E0,0E0,0E0,0E0,0E0,0E0,0E0,0E0,0E0,0E0,0E0,0E0,0E0,0E0,0E0,0E0,0E0],"parents":[2147483647,0,0,1,1,2,2,3,3,4,4,5,5,6,6,7,7,8,8,9,9,10,10,11,11,12,12,13,13,14,14,15,15,16,16,17,17,18,18,19,19,20,20,21,21,22,22,23,23,24,24,25,25,26,26,27,27,28,28,29,29,30,30,31,31,32,32,33,33,34,34,35,35,36,36,37,37,38,38,40,40,41,41,42,42,43,43,44,44,45,45,46,46,48,48,49,49,52,52,55,55,56,56,57,57,58,58,59,59,61,61,62,62],"right_children":[2,4,6,8,10,12,14,16,18,20,22,24,26,28,30,32,34,36,38,40,42,44,46,48,50,52,54,56,58,60,62,64,66,68,70,72,74,76,78,-1,80,82,84,86,88,90,92,-1,94,96,-1,-1,98,-1,-1,100,102,104,106,108,-1,110,112,-1,-1,-1,-1,-1,-1,-1,-1,-1,-1,-1,-1,-1,-1,-1,-1,-1,-1,-1,-1,-1,-1,-1,-1,-1,-1,-1,-1,-1,-1,-1,-1,-1,-1,-1,-1,-1,-1,-1,-1,-1,-1,-1,-1,-1,-1,-1,-1,-1,-1],"split_conditions":[2.6E1,-2.1E-1,-6.854309E-1,2.6736E2,4.4740917E1,5.1754055E1,1.5075E2,2.28E2,1.34E0,1.2625E2,2E0,-1.1193542E0,4.5E1,1.27E2,3.45E1,2.024E2,1.8600595E0,4.2462E2,7.9800904E-1,-2E-1,2.68E2,-4.365771E-1,1.431129E0,-1.230391E0,7.5E1,6.3644054E1,7.5E1,5.905E1,9.07886E1,-7.492688E-1,0E0,3.1434E2,1E0,2.2E1,2.68E2,-3.01E2,6E0,7.797122E-1,6.310694E-1,-7.1107656E-2,2.2E0,1.4697742E1,3.9484E2,-1.0084047E0,3.521789E-1,-1.0317701E0,1.9281E2,5.2289363E-2,2.1E1,2.981E1,2.605921E-3,-1.5640743E-2,1E0,-6.505807E-3,-3.127495E-2,6.142E1,1E0,1.3199E2,1.39E2,1.1046019E2,6.108911E-2,-3.7996586E-2,1E0,3.5633406E-5,-8.79246E-4,4.829678E-3,-1.9124441E-3,-3.2887168E-3,1.4541513E-2,3.0985052E-2,-1.6878474E-3,-5.1507145E-2,-1.3927265E-2,2.77832E-2,-2.1620205E-2,2.4174345E-3,2.1716936E-2,-3.6588658E-2,-2.294901E-3,-1.2124353E-2,4.6039093E-3,-8.018233E-4,-1.1060293E-2,1.3908935E-2,-5.916606E-3,3.5397254E-2,2.3519695E-3,-2.489513E-2,2.2295152E-3,-8.0145244E-4,1.0591374E-2,-5.7792164E-2,4.4830386E-3,-2.6412321E-2,1.8458307E-2,2.0884765E-2,7.583284E-2,4.840494E-2,1.4990873E-2,1.4725168E-3,3.361082E-2,-2.6617473E-2,1.1205731E-3,-3.303733E-2,5.7834107E-3,-4.4554323E-2,-1.0685361E-2,-2.8945139E-2,8.593973E-3,2.4395345E-2,3.8396192E-3,2.606444E-3,-5.3601395E-2],"split_indices":[27,24,18,21,22,22,25,21,10,25,8,18,8,25,21,21,17,25,18,24,25,17,17,18,8,22,8,10,22,15,24,10,11,27,25,22,8,18,17,0,3,22,25,15,17,17,25,0,8,21,0,0,9,0,0,21,6,25,21,22,0,15,6,0,0,0,0,0,0,0,0,0,0,0,0,0,0,0,0,0,0,0,0,0,0,0,0,0,0,0,0,0,0,0,0,0,0,0,0,0,0,0,0,0,0,0,0,0,0,0,0,0,0],"split_type":[0,0,0,0,0,0,0,0,0,0,0,0,0,0,0,0,0,0,0,0,0,0,0,0,0,0,0,0,0,0,0,0,0,0,0,0,0,0,0,0,0,0,0,0,0,0,0,0,0,0,0,0,0,0,0,0,0,0,0,0,0,0,0,0,0,0,0,0,0,0,0,0,0,0,0,0,0,0,0,0,0,0,0,0,0,0,0,0,0,0,0,0,0,0,0,0,0,0,0,0,0,0,0,0,0,0,0,0,0,0,0,0,0],"sum_hessian":[1.4488192E5,1.4448462E5,3.9729593E2,1.4035225E5,4.132375E3,3.0935728E1,3.663602E2,1.3352512E5,6.827119E3,2.898459E3,1.233916E3,2.2296274E1,8.639454E0,1.838861E2,1.824741E2,1.2881777E5,4.70735E3,1.603158E2,6.666803E3,1.3301593E3,1.5682997E3,2.187651E2,1.01515094E3,4.82135E0,1.7474924E1,5.6166325E0,3.022821E0,1.1258969E2,7.1296394E1,2.2635183E1,1.5983893E2,1.2489422E5,3.9235574E3,4.6386685E3,6.868206E1,1.23926056E2,3.6389732E1,5.6910767E3,9.7572656E2,2.4508328E0,1.3277085E3,1.2557656E3,3.1253403E2,7.00748E1,1.486903E2,1.0055915E3,9.559431E0,1.7973557E0,3.0239944E0,1.5984513E1,1.4904102E0,1.5421158E0,4.074517E0,1.4924632E0,1.5303578E0,5.551368E1,5.707601E1,3.870153E1,3.2594868E1,6.785851E0,1.5849333E1,1.5004243E2,9.796484E0,8.8900875E4,3.599334E4,3.0232078E3,9.003497E2,4.545936E3,9.2731964E1,4.222114E1,2.6460913E1,1.2026399E1,1.1189966E2,2.0681087E1,1.5708647E1,5.579922E3,1.1115485E2,2.1652899E1,9.5407367E2,6.0863495E1,1.266845E3,7.476894E2,5.080763E2,2.0130606E2,1.1122797E2,2.2755613E1,4.7319187E1,7.024368E1,7.8446625E1,1.387607E2,8.668308E2,6.430959E0,3.1284716E0,1.5433366E0,1.4806578E0,1.3217095E0,1.4662804E1,1.7922003E0,2.2823164E0,2.3429361E1,3.2084316E1,1.5510843E1,4.1565166E1,1.2015119E1,2.668641E1,2.3395933E1,9.198934E0,2.8867173E0,3.8991337E0,4.816949E1,1.0187295E2,4.1691446E0,5.6273394E0],"tree_param":{"num_deleted":"0","num_feature":"29","num_nodes":"113","size_leaf_vector":"1"}},{"base_weights":[-4.927443E-4,-7.595253E-3,1.869749E-3,-8.416494E-3,7.723406E-2,1.0163732E-3,2.6776118E-2,-7.376761E-3,-7.3746525E-2,1.8349777E-1,6.1317245E-3,2.8664412E-4,2.556206E-2,-2.8871749E-2,3.8579304E-2,-2.7720658E-3,-1.9822385E-2,-1.5450267E-1,3.222412E-2,-1.0629129E-1,2.3293327E-1,-2.192803E-1,4.154025E-2,1.640816E-2,-7.131785E-4,-5.339922E-2,3.329664E-2,-5.1256436E-1,-1.8422041E-2,4.9984567E-2,-1.96918E-2,-1.1422076E-3,-8.929198E-2,-2.1330561E-2,1.2099229E-1,-1.8538456E-1,1.7578202E-1,3.7059328E-1,-1.078212E-2,5.83888E-2,-1.8644038E-1,6.586739E-2,3.2625583E-1,-1.20216615E-1,-5.64946E-2,-1.20897576E-1,9.180854E-2,-8.249822E-3,4.8778515E-2,-3.357374E-2,6.777849E-5,7.114389E-2,-6.733572E-2,3.623566E-2,-2.2742075E-1,-5.740675E-1,4.3163546E-3,1.5338784E-1,-4.7511112E-2,3.687503E-2,1.1107491E-1,1.2641457E-2,-1.5996194E-1,-2.5902165E-3,2.701714E-4,8.165095E-3,-1.2010551E-2,2.0292413E-3,-2.54432E-3,-3.786807E-2,1.7334385E-2,-2.333627E-2,-2.3885856E-3,3.1511065E-2,-6.043246E-2,4.6517994E-2,-8.629153E-3,-2.6667774E-2,3.303906E-3,-3.7516054E-2,1.4387608E-2,2.6172007E-2,-2.277274E-2,1.4824002E-2,4.6669804E-2,-4.5764368E-2,2.806566E-4,-1.3421534E-4,-3.1123165E-2,-3.6447009E-3,2.2584697E-2,-4.9822433E-3,9.571502E-4,-1.4410749E-3,6.066963E-3,-6.86419E-4,-9.707199E-3,4.275718E-5,-4.2176726E-3,1.1436822E-3,-1.7373066E-2,-1.850781E-2,3.913596E-3,-1.1840089E-2,-4.89942E-2,-6.374735E-2,3.8651682E-3,-3.9690208E-2,2.0682774E-2,1.0359349E-2,-7.314252E-3,6.861201E-3,-5.647773E-5,1.8888405E-2,2.368894E-3,-2.8551752E-2,3.2721416E-3,-2.5771797E-2,4.8478623E-3],"categories":[],"categories_nodes":[],"categories_segments":[],"categories_sizes":[],"default_left":[0,0,1,0,0,0,0,0,0,0,0,0,0,0,1,0,1,0,0,0,0,0,0,0,0,0,1,0,0,0,0,0,0,0,0,0,0,0,0,0,0,0,0,0,0,0,0,0,0,0,1,0,0,0,0,1,0,0,0,0,1,0,0,0,0,0,0,0,0,0,0,0,0,0,0,0,0,0,0,0,0,0,0,0,0,0,0,0,0,0,0,0,0,0,0,0,0,0,0,0,0,0,0,0,0,0,0,0,0,0,0,0,0,0,0,0,0,0,0],"id":7,"left_children":[1,3,5,7,9,11,13,15,17,19,21,23,25,27,29,31,33,35,37,39,41,43,45,47,49,51,53,55,57,59,61,63,65,67,69,71,73,75,77,-1,79,81,83,85,-1,87,89,91,93,95,97,-1,99,101,103,105,-1,107,109,111,113,115,117,-1,-1,-1,-1,-1,-1,-1,-1,-1,-1,-1,-1,-1,-1,-1,-1,-1,-1,-1,-1,-1,-1,-1,-1,-1,-1,-1,-1,-1,-1,-1,-1,-1,-1,-1,-1,-1,-1,-1,-1,-1,-1,-1,-1,-1,-1,-1,-1,-1,-1,-1,-1,-1,-1,-1,-1],"loss_changes":[2.4215217E0,2.5100648E0,2.3016722E0,2.4228127E0,2.6091647E0,1.8754519E0,2.3574624E0,2.0125396E0,4.786973E0,2.0083199E0,1.6694016E0,1.6390193E0,1.8479986E0,3.166491E0,1.9682946E0,3.6149E0,2.0167687E0,3.2689366E0,3.5327668E0,1.2630315E0,1.8275352E0,9.045603E-1,1.4859314E0,4.7400427E0,2.4571242E0,2.9267097E0,2.1184127E0,4.776647E-1,3.0863965E0,1.9787631E0,2.2028766E0,2.3949258E0,2.5064244E0,1.6069613E0,2.6985765E0,2.2465067E0,3.1950753E0,1.2230887E0,2.4323125E0,0E0,1.266544E0,2.5757039E0,1.8268442E0,9.7031236E-1,0E0,9.807216E-1,2.3892336E0,2.4982588E0,1.9301648E0,3.769016E0,1.4215345E0,0E0,2.2326596E0,1.7557459E0,8.245003E-1,4.908414E-1,0E0,2.7123957E0,2.0511801E0,2.4239635E0,2.9664693E0,2.3759308E0,1.8662491E0,0E0,0E0,0E0,0E0,0E0,0E0,0E0,0E0,0E0,0E0,0E0,0E0,0E0,0E0,0E0,0E0,0E0,0E0,0E0,0E0,0E0,0E0,0E0,0E0,0E0,0E0,0E0,0E0,0E0,0E0,0E0,0E0,0E0,0E0,0E0,0E0,0E0,0E0,0E0,0E0,0E0,0E0,0E0,0E0,0E0,0E0,0E0,0E0,0E0,0E0,0E0,0E0,0E0,0E0,0E0,0E0],"parents":[2147483647,0,0,1,1,2,2,3,3,4,4,5,5,6,6,7,7,8,8,9,9,10,10,11,11,12,12,13,13,14,14,15,15,16,16,17,17,18,18,19,19,20,20,21,21,22,22,23,23,24,24,25,25,26,26,27,27,28,28,29,29,30,30,31,31,32,32,33,33,34,34,35,35,36,36,37,37,38,38,40,40,41,41,42,42,43,43,45,45,46,46,47,47,48,48,49,49,50,50,52,52,53,53,54,54,55,55,57,57,58,58,59,59,60,60,61,61,62,62],"right_children":[2,4,6,8,10,12,14,16,18,20,22,24,26,28,30,32,34,36,38,40,42,44,46,48,50,52,54,56,58,60,62,64,66,68,70,72,74,76,78,-1,80,82,84,86,-1,88,90,92,94,96,98,-1,100,102,104,106,-1,108,110,112,114,116,118,-1,-1,-1,-1,-1,-1,-1,-1,-1,-1,-1,-1,-1,-1,-1,-1,-1,-1,-1,-1,-1,-1,-1,-1,-1,-1,-1,-1,-1,-1,-1,-1,-1,-1,-1,-1,-1,-1,-1,-1,-1,-1,-1,-1,-1,-1,-1,-1,-1,-1,-1,-1,-1,-1,-1,-1],"split_conditions":[3E0,2.032224E0,-2.086E1,2.25E2,8.207707E-1,1.477374E2,-9.0764195E-1,1.22E2,2.5E1,6E0,8.737048E-1,2.8446667E1,6.792E3,2.1E0,1.71928E3,2.7696E4,8.05862E3,2.0663E2,7.00174E3,1.285E1,6.3485E1,1.8628E2,1E0,1.4083E4,3.14E1,-6.292019E-1,-1.1687E2,-5.1774085E-1,1.411E1,7.668721E1,7.123486E-1,-8.364E1,2.9965E1,1E0,3.3426666E1,5.988364E-1,1.4083E4,2.1328E2,2.636E1,5.83888E-2,6.9782007E-1,5.062E1,9.252464E0,6.983E1,-5.64946E-2,1.4483E2,1.2957E2,7.289E1,-3.353145E1,1.8958199E-1,-6.811E1,7.114389E-2,1.7E1,-1.9868349E0,2.4E2,3.233E2,4.3163546E-3,2.317E1,-1E-1,5.8514215E-2,-6E-2,2.15E1,6.390835E-1,-2.5902165E-3,2.701714E-4,8.165095E-3,-1.2010551E-2,2.0292413E-3,-2.54432E-3,-3.786807E-2,1.7334385E-2,-2.333627E-2,-2.3885856E-3,3.1511065E-2,-6.043246E-2,4.6517994E-2,-8.629153E-3,-2.6667774E-2,3.303906E-3,-3.7516054E-2,1.4387608E-2,2.6172007E-2,-2.277274E-2,1.4824002E-2,4.6669804E-2,-4.5764368E-2,2.806566E-4,-1.3421534E-4,-3.1123165E-2,-3.6447009E-3,2.2584697E-2,-4.9822433E-3,9.571502E-4,-1.4410749E-3,6.066963E-3,-6.86419E-4,-9.707199E-3,4.275718E-5,-4.2176726E-3,1.1436822E-3,-1.7373066E-2,-1.850781E-2,3.913596E-3,-1.1840089E-2,-4.89942E-2,-6.374735E-2,3.8651682E-3,-3.9690208E-2,2.0682774E-2,1.0359349E-2,-7.314252E-3,6.861201E-3,-5.647773E-5,1.8888405E-2,2.368894E-3,-2.8551752E-2,3.2721416E-3,-2.5771797E-2,4.8478623E-3],"split_indices":[27,15,23,5,18,22,17,20,8,1,18,20,7,3,10,7,10,20,10,10,20,20,27,7,20,15,23,18,23,22,15,22,20,8,21,15,7,20,20,0,18,20,22,21,0,20,20,10,22,17,23,0,8,15,20,10,0,21,24,18,24,21,17,0,0,0,0,0,0,0,0,0,0,0,0,0,0,0,0,0,0,0,0,0,0,0,0,0,0,0,0,0,0,0,0,0,0,0,0,0,0,0,0,0,0,0,0,0,0,0,0,0,0,0,0,0,0,0,0],"split_type":[0,0,0,0,0,0,0,0,0,0,0,0,0,0,0,0,0,0,0,0,0,0,0,0,0,0,0,0,0,0,0,0,0,0,0,0,0,0,0,0,0,0,0,0,0,0,0,0,0,0,0,0,0,0,0,0,0,0,0,0,0,0,0,0,0,0,0,0,0,0,0,0,0,0,0,0,0,0,0,0,0,0,0,0,0,0,0,0,0,0,0,0,0,0,0,0,0,0,0,0,0,0,0,0,0,0,0,0,0,0,0,0,0,0,0,0,0,0,0],"sum_hessian":[1.4431133E5,3.6019996E4,1.08291336E5,3.567552E4,3.4447757E2,1.04704836E5,3.586499E3,3.511773E4,5.57789E2,1.3746014E2,2.0701743E2,1.01682875E5,3.0219612E3,6.273445E2,2.9591545E3,2.563455E4,9.483179E3,3.1629486E2,2.4149414E2,1.9864582E1,1.17595566E2,2.7399336E1,1.7961809E2,5.9370024E3,9.5745875E4,2.6907788E2,2.7528833E3,1.2250421E1,6.1509406E2,2.474892E3,4.8426242E2,2.516157E4,4.729793E2,9.383526E3,9.9652504E1,2.8965097E2,2.664388E1,2.6373405E1,2.1512074E2,1.4128901E0,1.8451693E1,4.275731E1,7.483826E1,2.2343683E1,5.0556526E0,4.2116634E1,1.3750145E2,3.3703767E3,2.5666255E3,2.2216777E3,9.3524195E4,3.9196205E0,2.6515826E2,2.7230479E3,2.9835394E1,1.1000032E1,1.2503879E0,8.844355E1,5.266505E2,2.0389518E3,4.359404E2,3.942865E2,8.997594E1,3.3805576E3,2.1781014E4,7.198443E1,4.0099487E2,8.4343164E2,8.540095E3,8.85945E0,9.079305E1,2.2296686E2,6.668413E1,2.3112083E1,3.531798E0,2.1834879E1,4.538525E0,3.070895E1,1.8441179E2,1.1656314E1,6.7953787E0,2.5713072E1,1.7044235E1,3.3910694E1,4.0927563E1,5.243065E0,1.7100618E1,2.6486559E1,1.56300745E1,7.0638565E1,6.686289E1,1.0107526E3,2.359624E3,4.0646466E2,2.160161E3,1.5646431E3,6.570347E2,9.273537E4,7.8883044E2,1.5286948E2,1.1228879E2,3.4411232E1,2.6886367E3,2.210616E1,7.729235E0,9.931854E0,1.0681784E0,7.25979E0,8.118376E1,7.593717E1,4.5071335E2,1.1030692E3,9.3588257E2,2.2999217E2,2.0594824E2,2.4044256E1,3.7024225E2,6.108937E1,2.8886566E1],"tree_param":{"num_deleted":"0","num_feature":"29","num_nodes":"119","size_leaf_vector":"1"}},{"base_weights":[9.084112E-4,8.321916E-4,2.600224E-1,-1.1843288E-3,1.0754567E-2,3.443446E-1,-1.3420337E-1,1.507206E-1,-1.3286402E-3,7.45948E-2,8.253724E-3,4.308351E-1,2.176954E-1,1.5132183E-2,-2.266819E-1,-1.6693568E-1,2.0888087E-1,-5.4453895E-3,3.7369411E-3,3.0247265E-2,1.4022729E-1,1.2332811E-1,6.8283346E-3,7.209433E-2,2.6609617E-1,3.047836E-1,-5.241241E-2,-3.939485E-2,-2.393761E-2,-2.721764E-1,1.9348885E-1,6.2390747E-3,2.8298414E-1,1.619899E-1,-5.7519795E-3,3.2293422E-3,1.1146311E-1,7.5905666E-2,-5.1787354E-2,1.5589666E-1,-1.7887147E-1,1.7984885E-1,-6.489822E-2,-1.5222265E-2,1.2242836E-2,-8.980705E-3,3.7052866E-2,5.0542645E-2,4.0808296E-1,-3.5747495E-3,3.5778148E-4,-1.5096116E-2,-5.1116135E-2,4.264939E-2,-2.5060749E-2,1.5976587E-2,-2.0654885E-2,4.1149773E-2,2.0519158E-2,1.1567539E-2,5.1019665E-2,-2.680365E-4,-1.5878994E-3,4.6008737E-3,2.1591014E-4,2.085625E-2,-6.5542483E-3,-1.8812368E-3,1.3473204E-2,-8.530199E-3,3.6677685E-2,5.101768E-4,1.9418377E-2,-4.9645048E-2,-4.197635E-3,2.31103E-2,-2.6793345E-3,-1.7824678E-2,1.6140891E-2,6.0605038E-2,-1.6865246E-3,-3.3276652E-3,1.448424E-3,-1.824823E-2,4.0567644E-2,5.1787584E-3,4.9630705E-2],"categories":[],"categories_nodes":[],"categories_segments":[],"categories_sizes":[],"default_left":[1,0,0,0,0,1,0,0,0,0,0,0,0,0,0,0,0,0,0,0,0,0,0,0,0,0,0,0,0,0,0,0,0,1,0,0,0,0,0,0,0,0,1,0,0,0,0,0,0,0,0,0,0,0,0,0,0,0,0,0,0,0,0,0,0,0,0,0,0,0,0,0,0,0,0,0,0,0,0,0,0,0,0,0,0,0,0],"id":8,"left_children":[1,3,5,7,9,11,13,15,17,19,21,23,25,-1,27,29,31,33,35,37,39,41,43,-1,45,47,-1,-1,49,51,53,55,57,59,61,63,65,67,69,71,73,75,77,79,81,-1,-1,83,85,-1,-1,-1,-1,-1,-1,-1,-1,-1,-1,-1,-1,-1,-1,-1,-1,-1,-1,-1,-1,-1,-1,-1,-1,-1,-1,-1,-1,-1,-1,-1,-1,-1,-1,-1,-1,-1,-1],"loss_changes":[2.8538303E0,2.8906727E0,1.4587684E0,2.6323225E0,3.8952124E0,2.9273129E-1,2.510082E-1,2.1404274E0,2.5015662E0,2.6727834E0,3.8509617E0,7.6141644E-1,1.2153835E0,0E0,2.1437442E-1,7.4275476E-1,1.4514475E0,3.398035E0,2.9404902E0,2.0645354E0,1.8808804E0,3.06772E0,2.7697036E0,0E0,5.650295E-1,3.8003528E-1,0E0,0E0,1.4433295E-3,3.42793E-1,5.928259E-1,9.129521E-1,6.2377167E-1,1.8921645E0,2.05473E0,2.4507344E0,4.34819E0,1.9740927E0,2.7991033E0,2.041566E0,7.535342E-1,2.3488212E0,1.7492944E0,4.678528E0,1.900662E0,0E0,0E0,5.3323674E-1,3.1085157E-1,0E0,0E0,0E0,0E0,0E0,0E0,0E0,0E0,0E0,0E0,0E0,0E0,0E0,0E0,0E0,0E0,0E0,0E0,0E0,0E0,0E0,0E0,0E0,0E0,0E0,0E0,0E0,0E0,0E0,0E0,0E0,0E0,0E0,0E0,0E0,0E0,0E0,0E0],"parents":[2147483647,0,0,1,1,2,2,3,3,4,4,5,5,6,6,7,7,8,8,9,9,10,10,11,11,12,12,14,14,15,15,16,16,17,17,18,18,19,19,20,20,21,21,22,22,24,24,25,25,28,28,29,29,30,30,31,31,32,32,33,33,34,34,35,35,36,36,37,37,38,38,39,39,40,40,41,41,42,42,43,43,44,44,47,47,48,48],"right_children":[2,4,6,8,10,12,14,16,18,20,22,24,26,-1,28,30,32,34,36,38,40,42,44,-1,46,48,-1,-1,50,52,54,56,58,60,62,64,66,68,70,72,74,76,78,80,82,-1,-1,84,86,-1,-1,-1,-1,-1,-1,-1,-1,-1,-1,-1,-1,-1,-1,-1,-1,-1,-1,-1,-1,-1,-1,-1,-1,-1,-1,-1,-1,-1,-1,-1,-1,-1,-1,-1,-1,-1,-1],"split_conditions":[7.3543E2,5.6E1,1.6E1,6.745E1,6.72E1,1.08596E3,6.3155E1,5.75E1,1.0721E2,8E0,-2.3142164E0,1E0,4.02E0,1.5132183E-2,7.511E1,1.5288E2,-4.3070328E-1,1.4E1,2.4E1,1.7E1,5.899E1,2.19E2,-6.679758E-1,7.209433E-2,8.272E1,1E0,-5.241241E-2,-3.939485E-2,-2.4496137E-1,1.35635E2,1.7794E2,1.1982E2,7.685E1,-5.696E1,9.821E1,3.48E0,2.1954E2,9.9895E2,5.062E1,-1.638378E0,7.78584E3,1.9614E2,2.29343E3,8.558E1,-1.2123386E0,-8.980705E-3,3.7052866E-2,-3.8081816E-1,8.033E1,-3.5747495E-3,3.5778148E-4,-1.5096116E-2,-5.1116135E-2,4.264939E-2,-2.5060749E-2,1.5976587E-2,-2.0654885E-2,4.1149773E-2,2.0519158E-2,1.1567539E-2,5.1019665E-2,-2.680365E-4,-1.5878994E-3,4.6008737E-3,2.1591014E-4,2.085625E-2,-6.5542483E-3,-1.8812368E-3,1.3473204E-2,-8.530199E-3,3.6677685E-2,5.101768E-4,1.9418377E-2,-4.9645048E-2,-4.197635E-3,2.31103E-2,-2.6793345E-3,-1.7824678E-2,1.6140891E-2,6.0605038E-2,-1.6865246E-3,-3.3276652E-3,1.448424E-3,-1.824823E-2,4.0567644E-2,5.1787584E-3,4.9630705E-2],"split_indices":[4,8,1,4,25,10,20,21,21,27,15,6,3,0,20,20,15,2,27,1,20,2,17,0,21,6,0,0,15,20,20,21,20,23,20,3,25,10,20,15,10,25,10,4,15,0,0,17,20,0,0,0,0,0,0,0,0,0,0,0,0,0,0,0,0,0,0,0,0,0,0,0,0,0,0,0,0,0,0,0,0,0,0,0,0,0,0],"split_type":[0,0,0,0,0,0,0,0,0,0,0,0,0,0,0,0,0,0,0,0,0,0,0,0,0,0,0,0,0,0,0,0,0,0,0,0,0,0,0,0,0,0,0,0,0,0,0,0,0,0,0,0,0,0,0,0,0,0,0,0,0,0,0,0,0,0,0,0,0,0,0,0,0,0,0,0,0,0,0,0,0,0,0,0,0,0,0],"sum_hessian":[1.4451086E5,1.4446936E5,4.149314E1,1.2006873E5,2.4400639E4,3.4286106E1,7.2070327E0,1.12968094E2,1.1995576E5,9.187378E2,2.34819E4,1.8945892E1,1.5340215E1,1.6075305E0,5.5995026E0,1.7193178E1,9.577492E1,6.617549E4,5.378026E4,5.4914453E2,3.695933E2,2.862578E2,2.3195643E4,5.6390853E0,1.3306807E1,1.4255756E1,1.0844588E0,2.5514464E0,3.0480561E0,1.3497015E1,3.6961627E0,2.5935694E1,6.983922E1,1.1998831E2,6.605551E4,5.3529066E4,2.5119565E2,3.5283832E2,1.9630618E2,3.5278137E2,1.6811916E1,2.20185E2,6.60728E1,4.5724585E3,1.8623184E4,3.0505745E0,1.0256232E1,4.5490036E0,9.706753E0,1.923354E0,1.124702E0,1.0037556E1,3.4594598E0,2.450231E0,1.2459316E0,1.52104845E1,1.0725209E1,2.471699E1,4.512223E1,1.07078186E2,1.2910124E1,5.068389E4,1.5371614E4,1.3054624E3,5.2223605E4,1.6209657E2,8.9099075E1,1.3544104E2,2.173973E2,1.8249031E2,1.3815884E1,7.166395E1,2.811174E2,4.2728815E0,1.2539035E1,1.7633073E2,4.3854267E1,4.4164745E1,2.1908058E1,1.108987E1,4.5613687E3,8.7333057E2,1.7749854E4,3.0402613E0,1.5087421E0,2.241479E0,7.465274E0],"tree_param":{"num_deleted":"0","num_feature":"29","num_nodes":"87","size_leaf_vector":"1"}},{"base_weights":[9.234662E-4,1.7413987E-3,-1.9542087E-2,2.2794704E-3,-3.1772472E-2,-4.4204285E-3,-4.7070745E-2,8.6403155E-4,1.6437784E-2,-5.2188575E-2,5.5711333E-2,-2.2963709E-1,5.412456E-4,-5.1395617E-2,3.16355E-1,1.2348795E-4,2.2326026E-2,-1.3503367E-1,1.8082883E-2,-2.058401E-2,-1.16695814E-1,-7.1573616E-3,1.9344406E-1,-1.5841267E-1,-4.9485564E-1,1.1981423E-1,-5.291997E-3,-4.4737387E-1,-4.8921987E-2,4.0745994E-1,-3.1098146E-2,-1.4015847E-3,1.0563238E-2,2.0053795E-2,2.4641849E-1,-2.0325229E-2,-4.3758386E-1,2.6552573E-2,-6.312423E-3,3.067599E-1,-2.6773095E-2,-2.211495E-1,-3.7592713E-2,-2.4318995E-2,5.746627E-1,7.156041E-2,4.5411387E-1,-9.199488E-2,-4.8804832E-1,-5.9603226E-1,9.0387605E-2,6.660396E-2,2.856421E-1,7.416812E-2,-1.3412002E-2,3.9110888E-2,-5.9597123E-2,2.3211677E-1,-5.335097E-2,-4.362724E-2,5.136495E-1,-3.2320881E-6,-1.6871275E-3,3.6426142E-3,4.461275E-4,3.9800913E-3,-5.153176E-4,1.6671231E-2,5.5508297E-2,4.615265E-3,-3.5680845E-2,-2.1163921E-3,-4.9565803E-2,1.1823949E-3,4.691E-3,-1.9415598E-3,1.2077233E-2,3.7835192E-2,-4.333758E-2,-1.0704597E-3,-1.6799303E-2,-3.63801E-2,-1.4116734E-2,-5.381296E-3,4.0144008E-2,9.741047E-3,-9.174192E-3,1.799919E-2,6.9946155E-2,3.1131668E-2,-1.4499815E-3,5.172915E-2,-1.5102628E-3,-1.49200335E-2,2.8847558E-2,-6.284068E-2,1.4790027E-2,-6.698961E-2,-3.7336093E-3,-1.6169872E-2,3.0745184E-2,3.3973113E-2,3.1335484E-3,9.938871E-3,4.5091648E-2,-2.2275982E-2,1.1789822E-2,-6.013337E-3,2.7198152E-4,-2.0582672E-2,3.4168985E-2,-8.559087E-4,5.202324E-2,1.43945515E-2,-5.787512E-3,-1.07659E-2,2.3354793E-3,5.7905585E-2,-1.4440613E-2],"categories":[],"categories_nodes":[],"categories_segments":[],"categories_sizes":[],"default_left":[0,0,0,0,0,0,0,1,0,0,0,0,0,0,0,0,0,0,0,0,0,0,0,0,0,0,0,0,0,0,0,0,0,0,0,0,0,0,0,0,0,0,0,0,0,0,0,0,0,0,0,0,0,0,0,0,0,0,0,0,0,0,0,0,0,0,0,0,0,0,0,0,0,0,0,0,0,0,0,0,0,0,0,0,0,0,0,0,0,0,0,0,0,0,0,0,0,0,0,0,0,0,0,0,0,0,0,0,0,0,0,0,0,0,0,0,0,0,0],"id":9,"left_children":[1,3,5,7,9,11,13,15,17,19,21,23,25,27,29,31,33,35,37,39,41,43,45,47,49,51,53,55,57,59,-1,61,63,65,67,69,71,73,75,77,79,81,83,85,87,89,91,93,95,97,99,101,103,105,107,109,-1,111,113,115,117,-1,-1,-1,-1,-1,-1,-1,-1,-1,-1,-1,-1,-1,-1,-1,-1,-1,-1,-1,-1,-1,-1,-1,-1,-1,-1,-1,-1,-1,-1,-1,-1,-1,-1,-1,-1,-1,-1,-1,-1,-1,-1,-1,-1,-1,-1,-1,-1,-1,-1,-1,-1,-1,-1,-1,-1,-1,-1],"loss_changes":[2.4165351E0,2.5032659E0,2.309258E0,2.7378886E0,3.9207022E0,4.00282E0,3.107768E0,1.9740468E0,3.0965393E0,3.6244683E0,3.5994601E0,1.3801999E0,2.4397676E0,1.8828802E0,1.4567382E0,1.9115797E0,2.104485E0,4.6251287E0,2.5383615E0,2.4296753E0,4.8234453E0,2.8723202E0,4.1061115E0,1.3199412E0,9.939034E-1,1.4236882E0,2.1581264E0,8.871529E-1,2.4192595E0,1.0164928E0,0E0,2.219037E0,2.4149802E0,2.0421448E0,9.2835593E-1,2.2056246E0,8.76039E-1,2.7335672E0,5.2754436E0,1.3434191E0,2.6621394E0,2.8215876E0,2.3998947E0,2.298969E0,2.8008056E-1,1.8604327E0,1.2325592E0,1.1991414E0,1.0053642E0,5.389943E-1,2.252702E-1,1.1943007E0,1.168503E0,4.053135E0,2.2869985E0,3.4709707E-1,0E0,2.0977297E0,1.7082734E0,2.342832E-2,8.100128E-1,0E0,0E0,0E0,0E0,0E0,0E0,0E0,0E0,0E0,0E0,0E0,0E0,0E0,0E0,0E0,0E0,0E0,0E0,0E0,0E0,0E0,0E0,0E0,0E0,0E0,0E0,0E0,0E0,0E0,0E0,0E0,0E0,0E0,0E0,0E0,0E0,0E0,0E0,0E0,0E0,0E0,0E0,0E0,0E0,0E0,0E0,0E0,0E0,0E0,0E0,0E0,0E0,0E0,0E0,0E0,0E0,0E0,0E0],"parents":[2147483647,0,0,1,1,2,2,3,3,4,4,5,5,6,6,7,7,8,8,9,9,10,10,11,11,12,12,13,13,14,14,15,15,16,16,17,17,18,18,19,19,20,20,21,21,22,22,23,23,24,24,25,25,26,26,27,27,28,28,29,29,31,31,32,32,33,33,34,34,35,35,36,36,37,37,38,38,39,39,40,40,41,41,42,42,43,43,44,44,45,45,46,46,47,47,48,48,49,49,50,50,51,51,52,52,53,53,54,54,55,55,57,57,58,58,59,59,60,60],"right_children":[2,4,6,8,10,12,14,16,18,20,22,24,26,28,30,32,34,36,38,40,42,44,46,48,50,52,54,56,58,60,-1,62,64,66,68,70,72,74,76,78,80,82,84,86,88,90,92,94,96,98,100,102,104,106,108,110,-1,112,114,116,118,-1,-1,-1,-1,-1,-1,-1,-1,-1,-1,-1,-1,-1,-1,-1,-1,-1,-1,-1,-1,-1,-1,-1,-1,-1,-1,-1,-1,-1,-1,-1,-1,-1,-1,-1,-1,-1,-1,-1,-1,-1,-1,-1,-1,-1,-1,-1,-1,-1,-1,-1,-1,-1,-1,-1,-1,-1,-1],"split_conditions":[1.2743871E0,6.0989E2,1.8139E4,2.9848E2,1.3284986E1,9.8851554E-2,2.25E2,-2E-1,-1.07E0,1.0853039E0,2.5E2,4.326786E-2,-3.01E2,1.0817E2,2.8139E4,1.1645814E0,6.3247E2,1.6E1,1.252606E0,-2.5667279E0,6.095167E-1,1.82E2,6.095167E-1,2.1328E2,8.9E1,1.4E1,3.4117195E-1,8.423E1,1.404E2,-7.2307694E-1,-3.1098146E-2,1.812E2,6.867E3,8.723E1,7.4774055E1,7.668721E1,1.04E2,1.7938E2,1.2224161E2,1.6E1,1.4E1,1.2E1,2.25E2,4.6607555E1,1E0,2.4535927E1,4.0331E2,3.04E2,4.3701925E0,-1.0643622E0,-1.0809751E1,2E0,3.4948E2,4.379E1,1.431129E0,1.1635E2,-5.9597123E-2,3E0,2.923E1,-1.5063763E0,3.3015E2,-3.2320881E-6,-1.6871275E-3,3.6426142E-3,4.461275E-4,3.9800913E-3,-5.153176E-4,1.6671231E-2,5.5508297E-2,4.615265E-3,-3.5680845E-2,-2.1163921E-3,-4.9565803E-2,1.1823949E-3,4.691E-3,-1.9415598E-3,1.2077233E-2,3.7835192E-2,-4.333758E-2,-1.0704597E-3,-1.6799303E-2,-3.63801E-2,-1.4116734E-2,-5.381296E-3,4.0144008E-2,9.741047E-3,-9.174192E-3,1.799919E-2,6.9946155E-2,3.1131668E-2,-1.4499815E-3,5.172915E-2,-1.5102628E-3,-1.49200335E-2,2.8847558E-2,-6.284068E-2,1.4790027E-2,-6.698961E-2,-3.7336093E-3,-1.6169872E-2,3.0745184E-2,3.3973113E-2,3.1335484E-3,9.938871E-3,4.5091648E-2,-2.2275982E-2,1.1789822E-2,-6.013337E-3,2.7198152E-4,-2.0582672E-2,3.4168985E-2,-8.559087E-4,5.202324E-2,1.43945515E-2,-5.787512E-3,-1.07659E-2,2.3354793E-3,5.7905585E-2,-1.4440613E-2],"split_indices":[17,25,7,25,22,18,8,24,24,15,20,18,22,4,7,15,4,1,15,15,18,8,18,20,20,27,18,4,4,15,0,21,7,21,22,22,20,21,22,1,27,8,5,22,6,22,21,25,22,15,22,27,25,20,17,20,0,27,20,15,20,0,0,0,0,0,0,0,0,0,0,0,0,0,0,0,0,0,0,0,0,0,0,0,0,0,0,0,0,0,0,0,0,0,0,0,0,0,0,0,0,0,0,0,0,0,0,0,0,0,0,0,0,0,0,0,0,0,0],"split_type":[0,0,0,0,0,0,0,0,0,0,0,0,0,0,0,0,0,0,0,0,0,0,0,0,0,0,0,0,0,0,0,0,0,0,0,0,0,0,0,0,0,0,0,0,0,0,0,0,0,0,0,0,0,0,0,0,0,0,0,0,0,0,0,0,0,0,0,0,0,0,0,0,0,0,0,0,0,0,0,0,0,0,0,0,0,0,0,0,0,0,0,0,0,0,0,0,0,0,0,0,0,0,0,0,0,0,0,0,0,0,0,0,0,0,0,0,0,0,0],"sum_hessian":[1.4435873E5,1.3881186E5,5.546882E3,1.3661934E5,2.1925178E3,3.5809854E3,1.9658964E3,1.2420349E5,1.2415845E4,1.7779912E3,4.145265E2,7.621484E1,3.5047705E3,1.9436252E3,2.227113E1,1.2006178E5,4.141712E3,1.3252585E2,1.2283319E4,1.1942175E3,5.837738E2,2.8526437E2,1.2926212E2,6.1339436E1,1.4875411E1,1.6250346E2,3.342267E3,1.0949646E1,1.9326757E3,1.9752993E1,2.5181372E0,1.0475909E5,1.5302686E4,4.1012163E3,4.049563E1,9.6867004E1,3.5658836E1,9.1177E3,3.1656194E3,2.12589E1,1.1729586E3,2.5080124E2,3.3297256E2,2.780219E2,7.2424617E0,8.8946945E1,4.031517E1,5.211745E1,9.221986E0,1.2667094E1,2.2083168E0,1.24088135E2,3.8415333E1,3.0912466E2,3.0331423E3,2.7344103E0,8.215236E0,2.9187517E1,1.903488E3,3.8762145E0,1.5876779E1,9.624151E4,8.517593E3,2.9202715E3,1.2382414E4,2.2993381E3,1.8018784E3,3.3408646E1,7.08698E0,8.160702E1,1.525999E1,4.53134E0,3.1127495E1,5.291136E3,3.8265635E3,2.8705015E3,2.9511813E2,1.9829622E1,1.4292772E0,1.0540957E3,1.18862915E2,8.882666E1,1.6197458E2,3.2195523E2,1.101734E1,9.894172E1,1.790802E2,2.3266838E0,4.9157777E0,2.2802828E1,6.614412E1,3.544079E1,4.8743815E0,4.5833958E1,6.283491E0,7.56434E0,1.6576458E0,1.1012168E1,1.6549265E0,1.1397454E0,1.0685716E0,1.3203611E1,1.1088452E2,1.8814259E1,1.9601074E1,3.9156628E1,2.6996802E2,7.777823E2,2.25536E3,1.6878524E0,1.0465578E0,1.6431686E1,1.275583E1,4.197905E1,1.861509E3,1.6712728E0,2.2049417E0,1.4550597E1,1.326182E0],"tree_param":{"num_deleted":"0","num_feature":"29","num_nodes":"119","size_leaf_vector":"1"}},{"base_weights":[-2.7717964E-4,-1.1828427E-3,2.0410305E-2,-2.7542862E-3,1.1206595E-2,-5.31092E-2,3.4584675E-2,6.759476E-2,-3.0301292E-3,4.3620825E-2,6.214115E-3,-8.585323E-2,3.336338E-2,-7.6415345E-2,3.8336407E-2,1.3175015E-1,-3.368301E-2,-5.3145967E-2,-2.638614E-3,5.2871477E-2,-1.0682875E-1,-1.1382584E-1,8.155902E-3,-1.0144665E-1,1.6959582E-1,6.346717E-2,-2.9728797E-1,5.043539E-2,-2.2732064E-1,3.4119192E-1,3.633578E-2,-3.114547E-2,1.7645344E-1,6.685176E-2,-2.2055522E-1,-3.5346813E-2,-2.125539E-1,-4.51159E-3,7.1353083E-3,2.4313383E-2,1.0164366E-1,-6.017344E-1,-5.6925986E-2,-1.8624929E-1,8.706297E-2,8.620807E-3,-3.0567372E-1,7.44729E-2,-1.1747429E-1,-4.4247676E-2,3.3194408E-1,-4.7673368E-1,7.9101756E-2,-4.0797096E-1,9.201767E-2,-8.065444E-2,2.0791538E-1,-7.995922E-3,-3.383062E-1,-3.522183E-2,4.1291723E-1,-5.1819414E-1,3.7213508E-2,1.3976695E-2,-1.2135959E-2,2.0087936E-3,2.6861135E-2,1.661544E-2,-1.0906583E-2,-3.189413E-2,1.2781873E-2,-5.4849074E-3,1.4257105E-2,-1.2625213E-2,-5.887915E-2,-9.0429894E-5,-1.0698987E-3,1.5763404E-3,-6.7408E-4,1.884519E-3,4.1763328E-2,2.7143404E-2,7.759773E-3,-7.431226E-2,2.0233395E-2,2.9929865E-2,-9.803795E-3,2.0352906E-2,-2.1571605E-2,3.4174553E-4,3.8474597E-2,-8.565242E-3,1.0187424E-3,2.499936E-2,-3.7343618E-2,1.7958377E-2,-1.4872293E-2,-6.5401816E-3,-1.9692972E-2,-3.4946263E-2,6.5573105E-3,-5.8563645E-3,4.1494347E-2,-1.4735688E-2,-5.3893138E-2,-9.401957E-4,1.4312691E-2,8.763113E-3,-4.4498898E-2,-1.6095253E-2,4.072836E-2,-5.8762062E-2,-1.6058882E-3,-1.3589327E-2,3.5226222E-2,-2.5707958E-2,3.4209494E-2,-2.6724905E-2,-6.358127E-2,9.775206E-3,5.1023174E-2,-1.5513413E-2,-5.7541795E-2,1.7810607E-2,3.4189392E-3],"categories":[],"categories_nodes":[],"categories_segments":[],"categories_sizes":[],"default_left":[0,0,0,0,0,1,0,0,0,0,0,0,0,0,0,0,0,0,0,0,0,0,1,0,0,0,0,0,0,0,0,0,0,0,0,0,0,0,0,0,0,0,0,0,0,0,0,0,0,0,0,0,0,0,0,0,0,0,1,0,0,0,0,0,0,0,0,0,0,0,0,0,0,0,0,0,0,0,0,0,0,0,0,0,0,0,0,0,0,0,0,0,0,0,0,0,0,0,0,0,0,0,0,0,0,0,0,0,0,0,0,0,0,0,0,0,0,0,0,0,0,0,0,0,0],"id":10,"left_children":[1,3,5,7,9,11,13,15,17,19,21,23,25,27,29,31,33,35,37,39,41,43,45,47,49,51,53,55,57,59,61,63,65,67,69,71,73,75,77,79,81,83,85,87,89,91,93,95,97,99,101,103,105,107,109,111,113,115,117,-1,119,121,123,-1,-1,-1,-1,-1,-1,-1,-1,-1,-1,-1,-1,-1,-1,-1,-1,-1,-1,-1,-1,-1,-1,-1,-1,-1,-1,-1,-1,-1,-1,-1,-1,-1,-1,-1,-1,-1,-1,-1,-1,-1,-1,-1,-1,-1,-1,-1,-1,-1,-1,-1,-1,-1,-1,-1,-1,-1,-1,-1,-1,-1,-1],"loss_changes":[2.69287E0,2.680941E0,6.2838397E0,2.371544E0,2.5080056E0,2.7628868E0,2.107832E0,3.105883E0,2.388226E0,2.8844955E0,3.1318676E0,2.8346887E0,2.6909845E0,3.1812086E0,2.950396E0,2.1349072E0,3.5073762E0,2.669537E0,2.2111025E0,2.7126617E0,2.9330869E0,3.1281092E0,1.9313484E0,1.8901157E0,1.4404259E0,2.1227567E0,1.010381E0,1.8908788E0,1.842529E0,1.7355118E0,2.384253E0,1.0009648E0,3.303267E0,2.143116E0,2.2776356E0,2.9569492E0,2.9963284E0,2.2623E0,2.325597E0,2.6392052E0,2.9168196E0,1.3896244E0,1.6439391E0,1.8532252E0,1.4269116E0,1.95049E0,8.306656E-1,1.3481741E0,2.5189219E0,6.465441E-1,7.8474855E-1,6.575978E-2,1.3657552E0,3.648839E-1,5.2922845E-1,1.6365538E0,2.1083865E0,2.3983579E0,8.9363146E-1,0E0,8.528762E-1,7.165527E-2,2.0613089E0,0E0,0E0,0E0,0E0,0E0,0E0,0E0,0E0,0E0,0E0,0E0,0E0,0E0,0E0,0E0,0E0,0E0,0E0,0E0,0E0,0E0,0E0,0E0,0E0,0E0,0E0,0E0,0E0,0E0,0E0,0E0,0E0,0E0,0E0,0E0,0E0,0E0,0E0,0E0,0E0,0E0,0E0,0E0,0E0,0E0,0E0,0E0,0E0,0E0,0E0,0E0,0E0,0E0,0E0,0E0,0E0,0E0,0E0,0E0,0E0,0E0,0E0],"parents":[2147483647,0,0,1,1,2,2,3,3,4,4,5,5,6,6,7,7,8,8,9,9,10,10,11,11,12,12,13,13,14,14,15,15,16,16,17,17,18,18,19,19,20,20,21,21,22,22,23,23,24,24,25,25,26,26,27,27,28,28,29,29,30,30,31,31,32,32,33,33,34,34,35,35,36,36,37,37,38,38,39,39,40,40,41,41,42,42,43,43,44,44,45,45,46,46,47,47,48,48,49,49,50,50,51,51,52,52,53,53,54,54,55,55,56,56,57,57,58,58,60,60,61,61,62,62],"right_children":[2,4,6,8,10,12,14,16,18,20,22,24,26,28,30,32,34,36,38,40,42,44,46,48,50,52,54,56,58,60,62,64,66,68,70,72,74,76,78,80,82,84,86,88,90,92,94,96,98,100,102,104,106,108,110,112,114,116,118,-1,120,122,124,-1,-1,-1,-1,-1,-1,-1,-1,-1,-1,-1,-1,-1,-1,-1,-1,-1,-1,-1,-1,-1,-1,-1,-1,-1,-1,-1,-1,-1,-1,-1,-1,-1,-1,-1,-1,-1,-1,-1,-1,-1,-1,-1,-1,-1,-1,-1,-1,-1,-1,-1,-1,-1,-1,-1,-1,-1,-1,-1,-1,-1,-1],"split_conditions":[2.78E2,9.620495E1,2E0,-9.819E1,-1.36987E-1,4.5449E2,-1.1687E2,1.89E2,-2.78E1,1.75E2,-1.10055245E-1,5.0139122E1,7.3407155E-1,-2.1806E2,-6.811E1,7.15E1,1.46E2,2.6995E4,1.5E1,1.09E2,1.7623E2,9.417819E-2,5E0,2.954E3,1.8667E2,6E1,1E0,-1.2093E2,3.03E0,-2.7261006E-2,3.51E0,2.4983E2,3.8081816E-1,-1.1227E2,5.761641E1,2.1995E4,2.7E-1,3.461208E-1,8.833E1,2.6E1,1.35E2,1.2816E4,3E0,1.979E1,1.03E2,1.77475E1,9.921E1,-9.8E1,4.7475284E-1,1E0,2.9848E2,3E0,5.251727E-1,5.0477E2,4.2462E2,2.84E0,4.2462E2,1.08E2,2.39649E3,-3.522183E-2,6.867E3,1.7673E4,-7.008754E-1,1.3976695E-2,-1.2135959E-2,2.0087936E-3,2.6861135E-2,1.661544E-2,-1.0906583E-2,-3.189413E-2,1.2781873E-2,-5.4849074E-3,1.4257105E-2,-1.2625213E-2,-5.887915E-2,-9.0429894E-5,-1.0698987E-3,1.5763404E-3,-6.7408E-4,1.884519E-3,4.1763328E-2,2.7143404E-2,7.759773E-3,-7.431226E-2,2.0233395E-2,2.9929865E-2,-9.803795E-3,2.0352906E-2,-2.1571605E-2,3.4174553E-4,3.8474597E-2,-8.565242E-3,1.0187424E-3,2.499936E-2,-3.7343618E-2,1.7958377E-2,-1.4872293E-2,-6.5401816E-3,-1.9692972E-2,-3.4946263E-2,6.5573105E-3,-5.8563645E-3,4.1494347E-2,-1.4735688E-2,-5.3893138E-2,-9.401957E-4,1.4312691E-2,8.763113E-3,-4.4498898E-2,-1.6095253E-2,4.072836E-2,-5.8762062E-2,-1.6058882E-3,-1.3589327E-2,3.5226222E-2,-2.5707958E-2,3.4209494E-2,-2.6724905E-2,-6.358127E-2,9.775206E-3,5.1023174E-2,-1.5513413E-2,-5.7541795E-2,1.7810607E-2,3.4189392E-3],"split_indices":[21,22,27,23,18,10,23,21,23,21,18,22,18,23,23,21,5,7,1,2,25,17,3,7,10,2,9,22,3,18,3,25,17,23,22,7,24,17,21,27,2,7,27,10,2,21,21,22,18,27,25,3,17,10,25,3,25,2,10,0,7,7,18,0,0,0,0,0,0,0,0,0,0,0,0,0,0,0,0,0,0,0,0,0,0,0,0,0,0,0,0,0,0,0,0,0,0,0,0,0,0,0,0,0,0,0,0,0,0,0,0,0,0,0,0,0,0,0,0,0,0,0,0,0,0],"split_type":[0,0,0,0,0,0,0,0,0,0,0,0,0,0,0,0,0,0,0,0,0,0,0,0,0,0,0,0,0,0,0,0,0,0,0,0,0,0,0,0,0,0,0,0,0,0,0,0,0,0,0,0,0,0,0,0,0,0,0,0,0,0,0,0,0,0,0,0,0,0,0,0,0,0,0,0,0,0,0,0,0,0,0,0,0,0,0,0,0,0,0,0,0,0,0,0,0,0,0,0,0,0,0,0,0,0,0,0,0,0,0,0,0,0,0,0,0,0,0,0,0,0,0,0,0],"sum_hessian":[1.4372561E5,1.3769834E5,6.0272573E3,1.2219965E5,1.5498702E4,9.7376984E2,5.053488E3,4.763278E2,1.2172332E5,2.067499E3,1.3431203E4,7.0631946E2,2.6745038E2,1.6458714E2,4.8889004E3,2.914225E2,1.8490532E2,9.425115E2,1.20780805E5,1.94835E3,1.1914907E2,2.1288966E2,1.3218313E4,6.662522E2,4.0067284E1,2.4587318E2,2.1577196E1,8.978217E1,7.480496E1,3.0970898E1,4.8579297E3,6.2818726E1,2.2860376E2,1.2064316E2,6.426216E1,8.4894214E2,9.356937E1,1.013581E5,1.9422705E4,1.2297689E3,7.185811E2,9.900795E0,1.0924828E2,1.565308E2,5.6358845E1,1.3199732E4,1.8581488E1,5.532774E1,6.1092444E2,1.7605263E1,2.246202E1,6.0863833E0,2.397868E2,1.6763298E1,4.8138976E0,4.9262676E1,4.05195E1,2.5494974E1,4.930999E1,2.5366802E0,2.8434217E1,6.74572E0,4.851184E3,2.1512878E1,4.1305847E1,8.5222916E1,1.4338084E2,7.7149185E1,4.3493973E1,5.0176147E1,1.4086011E1,7.657023E2,8.3239845E1,7.719733E1,1.6372038E1,6.4029598E4,3.7328504E4,1.1975971E4,7.4467344E3,1.2139398E3,1.5829083E1,8.7865715E1,6.307154E2,8.484643E0,1.4161515E0,1.0654002E1,9.859428E1,1.0586632E1,1.4594418E2,4.478598E1,1.1572867E1,2.1488809E2,1.2984844E4,1.7273724E0,1.6854115E1,3.774682E1,1.7580921E1,3.7015814E2,2.4076631E2,4.081051E0,1.3524213E1,3.9888933E0,1.847313E1,1.50192E0,4.584463E0,1.0101045E2,1.3877635E2,1.0700514E0,1.5693247E1,2.942388E0,1.8715093E0,4.6523848E0,4.461029E1,1.1998871E1,2.852063E1,1.5051656E1,1.0443318E1,4.1335598E1,7.974392E0,7.181272E0,2.1252945E1,1.4237369E0,5.321983E0,1.00721245E2,4.7504624E3],"tree_param":{"num_deleted":"0","num_feature":"29","num_nodes":"125","size_leaf_vector":"1"}},{"base_weights":[-6.871993E-5,2.4178592E-3,-6.8797716E-3,1.9534517E-3,6.49283E-2,-1.3849371E-2,3.727086E-3,2.1610458E-3,-8.695847E-2,1.1623296E-1,-4.167493E-2,-1.3234206E-2,-1.5709141E-1,1.1440103E-1,1.9315761E-3,1.9739892E-3,1.3584936E-1,-1.2172023E-1,2.4830343E-2,2.099688E-1,8.10306E-2,-1.3370332E-1,9.1193765E-2,-1.8894974E-2,2.6831967E-3,2.4470385E-2,-3.9399812E-1,3.2424664E-3,2.831011E-1,2.898782E-3,-1.9540833E-1,-1.7377745E-2,2.9060016E-3,3.58123E-1,5.316729E-2,-8.432957E-2,-3.2218236E-1,-3.525605E-1,9.5003724E-2,5.851951E-2,3.0798027E-1,-8.7233916E-2,1.09210975E-1,2.4034815E-1,-1.8069011E-1,2.5726047E-1,-5.1374387E-2,-1.7701115E-2,-1.7070732E-1,-1.1699388E-3,1.1820594E-1,3.5902244E-1,-1.4490953E-1,2.6352912E-2,-4.2794457E-1,3.831223E-1,-2.7433062E-2,-3.6285903E-2,3.6398652E-1,1.0216371E-3,8.570471E-2,-5.9598632E-2,-3.6024815E-1,1.1955479E-3,-4.401821E-3,5.1862574E-3,2.5741482E-4,4.5582447E-2,-1.5577278E-2,-3.66382E-3,2.7470637E-2,1.0592746E-2,-1.19370725E-2,-4.9818616E-2,-3.0714532E-3,2.1154752E-2,-6.619154E-2,-1.1498059E-2,3.0021036E-2,-7.563273E-3,3.9605748E-2,3.53753E-2,1.9984308E-3,-1.5440523E-2,3.5158128E-2,4.8201058E-2,9.165629E-3,3.2993335E-2,-4.9186062E-2,-1.3301022E-2,-3.975306E-2,3.3761304E-2,-6.579276E-3,-6.756136E-2,-4.4848464E-4,-2.0527695E-3,2.2993463E-3,-4.6022125E-2,-7.580253E-3,-1.9967845E-5,-3.4041435E-2,3.4212675E-3,2.2548014E-2,-2.2427274E-2,4.2622205E-2,-3.7680235E-2,5.165246E-3,6.918575E-3,-4.8647746E-2,-1.7120032E-2,5.3365763E-2,-2.9358676E-2,1.1693294E-3,-2.2034654E-2,1.9996157E-2,3.8053293E-2,-4.371692E-2,5.4234103E-4,-3.9140196E-3,1.0564226E-2,-3.015373E-2,-4.707358E-2,3.6275312E-3,1.0258098E-2,-4.1497547E-2],"categories":[],"categories_nodes":[],"categories_segments":[],"categories_sizes":[],"default_left":[1,0,0,1,0,0,0,1,0,0,0,0,0,0,1,0,0,0,0,0,0,0,0,0,1,0,0,0,0,0,0,1,0,0,0,0,0,0,0,0,0,0,0,0,0,0,0,0,0,1,0,0,0,0,0,0,0,0,0,0,0,0,0,0,0,0,0,0,0,0,0,0,0,0,0,0,0,0,0,0,0,0,0,0,0,0,0,0,0,0,0,0,0,0,0,0,0,0,0,0,0,0,0,0,0,0,0,0,0,0,0,0,0,0,0,0,0,0,0,0,0,0,0,0,0],"id":11,"left_children":[1,3,5,7,9,11,13,15,17,19,21,23,25,27,29,31,33,35,37,39,41,43,45,47,49,51,53,55,57,59,61,63,65,67,69,71,73,75,77,79,81,83,85,87,89,91,93,95,97,99,101,103,105,-1,107,109,111,113,115,117,119,121,123,-1,-1,-1,-1,-1,-1,-1,-1,-1,-1,-1,-1,-1,-1,-1,-1,-1,-1,-1,-1,-1,-1,-1,-1,-1,-1,-1,-1,-1,-1,-1,-1,-1,-1,-1,-1,-1,-1,-1,-1,-1,-1,-1,-1,-1,-1,-1,-1,-1,-1,-1,-1,-1,-1,-1,-1,-1,-1,-1,-1,-1,-1],"loss_changes":[2.4258173E0,3.0459106E0,2.8318741E0,1.9226078E0,4.2366467E0,2.0349302E0,3.0183663E0,2.5982835E0,9.4590855E-1,1.7074795E0,3.095135E0,2.0741901E0,4.257679E0,4.5463576E0,2.853849E0,1.8716083E0,2.6490004E0,1.3613839E0,1.579673E0,2.090612E0,1.8188031E0,2.6685388E0,2.4699576E0,3.0745711E0,2.688551E0,3.2736814E0,1.0705185E0,1.7256639E0,2.5011034E0,2.3123794E0,1.6110988E0,3.7265868E0,1.608269E0,2.0385098E0,2.1386492E0,1.0625782E0,1.4604559E0,1.7745372E0,2.1898007E0,2.613133E0,1.1267204E0,1.6840539E0,2.0976055E0,1.2837985E0,1.3249369E0,1.2707772E0,1.6556193E0,1.9385691E0,3.6023643E0,1.924085E0,1.7488883E0,8.558903E-1,1.7723477E0,0E0,1.2320142E0,1.0146073E0,1.4313627E0,9.2983115E-1,1.1862135E0,2.5721033E0,2.5778394E0,1.6403484E0,8.7194633E-1,0E0,0E0,0E0,0E0,0E0,0E0,0E0,0E0,0E0,0E0,0E0,0E0,0E0,0E0,0E0,0E0,0E0,0E0,0E0,0E0,0E0,0E0,0E0,0E0,0E0,0E0,0E0,0E0,0E0,0E0,0E0,0E0,0E0,0E0,0E0,0E0,0E0,0E0,0E0,0E0,0E0,0E0,0E0,0E0,0E0,0E0,0E0,0E0,0E0,0E0,0E0,0E0,0E0,0E0,0E0,0E0,0E0,0E0,0E0,0E0,0E0,0E0],"parents":[2147483647,0,0,1,1,2,2,3,3,4,4,5,5,6,6,7,7,8,8,9,9,10,10,11,11,12,12,13,13,14,14,15,15,16,16,17,17,18,18,19,19,20,20,21,21,22,22,23,23,24,24,25,25,26,26,27,27,28,28,29,29,30,30,31,31,32,32,33,33,34,34,35,35,36,36,37,37,38,38,39,39,40,40,41,41,42,42,43,43,44,44,45,45,46,46,47,47,48,48,49,49,50,50,51,51,52,52,54,54,55,55,56,56,57,57,58,58,59,59,60,60,61,61,62,62],"right_children":[2,4,6,8,10,12,14,16,18,20,22,24,26,28,30,32,34,36,38,40,42,44,46,48,50,52,54,56,58,60,62,64,66,68,70,72,74,76,78,80,82,84,86,88,90,92,94,96,98,100,102,104,106,-1,108,110,112,114,116,118,120,122,124,-1,-1,-1,-1,-1,-1,-1,-1,-1,-1,-1,-1,-1,-1,-1,-1,-1,-1,-1,-1,-1,-1,-1,-1,-1,-1,-1,-1,-1,-1,-1,-1,-1,-1,-1,-1,-1,-1,-1,-1,-1,-1,-1,-1,-1,-1,-1,-1,-1,-1,-1,-1,-1,-1,-1,-1,-1,-1,-1,-1,-1,-1],"split_conditions":[3.2803E2,2.2E2,9E0,2.1721E2,1E0,1.0499741E0,1E0,1.6726E2,1.9847895E-1,1.1455E2,1.5E1,1.3978E2,1.57671E3,1.1984E2,1.9341E2,-2.2842612E0,9.252464E0,3.7942164E-2,3.624E1,3.74525E1,1.3888E2,-7.316028E-1,1.67E2,3E2,-5E-1,5E0,1.6718278E0,5.208E1,3.8349E2,3.29E2,1.4102E2,3.336E1,1.0123E2,4.53E0,9.703E1,2.464E1,5.635E1,3.11E1,1.6440489E1,1.1E1,1.3025919E2,4.4046885E-1,1.434E2,1.12E2,8.495228E1,8.107987E1,-2.6644688E0,2.4889E4,1E1,3.47E0,1.8139E4,1.6718278E0,3.2E1,2.6352912E-2,7.8604335E-1,-1.7407764E0,3.5125E1,2.3689416E-1,1.7019066E2,2.7761E4,1.48E2,3.845E1,6.289E1,1.1955479E-3,-4.401821E-3,5.1862574E-3,2.5741482E-4,4.5582447E-2,-1.5577278E-2,-3.66382E-3,2.7470637E-2,1.0592746E-2,-1.19370725E-2,-4.9818616E-2,-3.0714532E-3,2.1154752E-2,-6.619154E-2,-1.1498059E-2,3.0021036E-2,-7.563273E-3,3.9605748E-2,3.53753E-2,1.9984308E-3,-1.5440523E-2,3.5158128E-2,4.8201058E-2,9.165629E-3,3.2993335E-2,-4.9186062E-2,-1.3301022E-2,-3.975306E-2,3.3761304E-2,-6.579276E-3,-6.756136E-2,-4.4848464E-4,-2.0527695E-3,2.2993463E-3,-4.6022125E-2,-7.580253E-3,-1.9967845E-5,-3.4041435E-2,3.4212675E-3,2.2548014E-2,-2.2427274E-2,4.2622205E-2,-3.7680235E-2,5.165246E-3,6.918575E-3,-4.8647746E-2,-1.7120032E-2,5.3365763E-2,-2.9358676E-2,1.1693294E-3,-2.2034654E-2,1.9996157E-2,3.8053293E-2,-4.371692E-2,5.4234103E-4,-3.9140196E-3,1.0564226E-2,-3.015373E-2,-4.707358E-2,3.6275312E-3,1.0258098E-2,-4.1497547E-2],"split_indices":[10,2,27,23,11,18,8,23,18,25,27,21,10,20,23,17,22,18,21,20,25,18,25,20,24,8,15,25,10,21,25,10,4,3,21,21,21,21,22,27,22,18,25,21,22,22,17,7,8,3,7,15,8,0,17,17,20,18,22,7,8,21,20,0,0,0,0,0,0,0,0,0,0,0,0,0,0,0,0,0,0,0,0,0,0,0,0,0,0,0,0,0,0,0,0,0,0,0,0,0,0,0,0,0,0,0,0,0,0,0,0,0,0,0,0,0,0,0,0,0,0,0,0,0,0],"split_type":[0,0,0,0,0,0,0,0,0,0,0,0,0,0,0,0,0,0,0,0,0,0,0,0,0,0,0,0,0,0,0,0,0,0,0,0,0,0,0,0,0,0,0,0,0,0,0,0,0,0,0,0,0,0,0,0,0,0,0,0,0,0,0,0,0,0,0,0,0,0,0,0,0,0,0,0,0,0,0,0,0,0,0,0,0,0,0,0,0,0,0,0,0,0,0,0,0,0,0,0,0,0,0,0,0,0,0,0,0,0,0,0,0,0,0,0,0,0,0,0,0,0,0,0,0],"sum_hessian":[1.4323053E5,1.0492511E5,3.8305418E4,1.0415237E5,7.727455E2,2.3115973E4,1.5189447E4,1.0391073E5,2.4163806E2,5.216176E2,2.5112788E2,2.301821E4,9.776124E1,2.4148955E2,1.4947958E4,1.03766555E5,1.4417545E2,1.8425378E2,5.738427E1,1.4105522E2,3.805624E2,1.4836208E2,1.027658E2,1.6979527E4,6.038683E3,5.585302E1,4.190822E1,1.4618541E2,9.530414E1,1.4876032E4,7.192537E1,4.767132E3,9.899942E4,3.81868E1,1.0598864E2,1.5648628E2,2.7767513E1,8.36631E0,4.901796E1,5.6047134E1,8.500809E1,5.429175E1,3.2627063E2,1.6097582E1,1.322645E2,4.7099144E1,5.5666656E1,1.684815E4,1.3137794E2,5.8447285E3,1.9395468E2,1.8396803E1,3.745622E1,1.7253778E0,4.0182842E1,1.0064095E1,1.361213E2,1.9370094E1,7.593405E1,1.454727E4,3.2876276E2,4.0181683E1,3.1743687E1,2.269161E3,2.497971E3,6.6550714E2,9.8333914E4,3.2181484E1,6.0053163E0,7.601073E1,2.9977915E1,2.4024046E1,1.3246223E2,1.6870796E1,1.0896717E1,3.0750775E0,5.2912326E0,2.4444263E1,2.4573698E1,4.0662155E1,1.5384979E1,7.315314E1,1.1854945E1,4.7646442E1,6.6453123E0,1.34829445E1,3.127877E2,1.4832265E1,1.2653171E0,1.0974636E2,2.2518143E1,3.768159E1,9.417554E0,2.9524288E0,5.2714226E1,1.5754373E4,1.093777E3,3.1484106E1,9.989384E1,5.8290576E3,1.5670884E1,1.0952109E2,8.44336E1,1.6590204E0,1.6737782E1,1.6763094E1,2.0693123E1,4.2136393E0,3.5969204E1,2.120054E0,7.944041E0,1.661252E1,1.195088E2,1.0925406E1,8.444688E0,7.49119E1,1.0221466E0,1.3111142E4,1.436128E3,3.1335648E2,1.5406278E1,6.858853E0,3.332283E1,3.2641711E0,2.8479517E1],"tree_param":{"num_deleted":"0","num_feature":"29","num_nodes":"125","size_leaf_vector":"1"}},{"base_weights":[1.5000686E-4,1.9543197E-2,-6.833371E-4,1.669025E-2,1.3985191E-1,-6.0658712E-2,-4.3835308E-4,-1.8305E-1,1.8257562E-2,2.7514452E-1,1.7934436E-2,-2.4702838E-3,-1.6805294E-1,2.6676902E-3,-4.859425E-3,1.8855533E-1,-3.4323913E-1,1.328086E-1,1.5074037E-2,-6.551629E-2,3.521348E-1,-3.9615434E-1,1.1658663E-1,3.0057956E-2,-2.6241216E-1,-2.2202224E-1,2.8274193E-1,4.4663216E-4,2.4919834E-2,3.493402E-2,-5.8729853E-3,4.932699E-1,-6.262085E-2,-2.9690947E-2,-4.0622774E-1,2.0316431E-1,-6.478713E-2,1.00992825E-2,8.562627E-2,2.5263223E-1,-5.3262997E-2,-1.1049693E-1,3.9815018E-1,-5.252967E-1,4.124841E-3,2.662264E-1,-9.636011E-2,1.8490638E-1,-1.2094203E-3,-3.0606365E-1,1.3784638E-1,5.801029E-2,-2.3676658E-1,-8.53159E-2,4.626417E-1,-1.6759419E-3,2.0812774E-2,-1.8955E-1,2.6510963E-2,-2.1933414E-2,6.5053724E-2,-8.888022E-3,6.5236865E-3,1.600856E-2,5.546537E-2,-2.1043023E-2,3.6076944E-2,2.0147793E-2,-2.5016552E-2,-5.159855E-2,-9.348368E-3,1.4701824E-2,4.781015E-2,3.5954945E-2,-1.3318223E-2,3.39829E-3,-5.726989E-4,4.8321676E-3,2.7648611E-2,4.192581E-2,-2.6257781E-2,1.53154E-2,-4.2830948E-2,-1.35161625E-2,4.1945443E-2,-1.47937825E-2,-5.549368E-2,1.704794E-2,-2.320298E-2,3.8177077E-2,-2.2358168E-3,-5.749003E-2,-1.4251106E-3,2.036954E-3,4.1744184E-2,-2.2761364E-2,2.434722E-3,-5.085779E-2,-1.8116338E-2,8.7757705E-4,2.7427305E-2,-2.6066123E-2,1.643939E-2,-2.277927E-2,3.2375313E-2,5.704969E-2,2.1560818E-2,-9.678391E-5,-6.095006E-3,-4.321859E-4,4.1502547E-3,3.5184126E-2,-2.8934365E-2,3.1793613E-3,-3.4672786E-3,-2.2854252E-2,-4.4907542E-4,2.2896284E-3,1.3891431E-2,-9.901287E-4,3.1888813E-3,1.0970666E-3,-4.415326E-3],"categories":[],"categories_nodes":[],"categories_segments":[],"categories_sizes":[],"default_left":[0,0,0,0,0,0,0,0,0,0,0,0,0,0,0,0,0,0,0,0,0,0,0,0,0,0,0,0,0,0,0,0,0,0,0,0,0,0,0,0,0,0,0,0,0,0,0,0,0,0,0,0,0,0,0,0,0,0,0,0,0,0,0,0,0,0,0,0,0,0,0,0,0,0,0,0,0,0,0,0,0,0,0,0,0,0,0,0,0,0,0,0,0,0,0,0,0,0,0,0,0,0,0,0,0,0,0,0,0,0,0,0,0,0,0,0,0,0,0,0,0,0,0],"id":12,"left_children":[1,3,5,7,9,11,13,15,17,19,21,23,25,27,29,31,33,35,37,39,41,43,45,47,49,51,53,55,57,59,61,63,65,67,69,71,73,75,77,79,-1,81,83,85,87,89,91,93,95,97,99,-1,101,103,105,107,109,111,113,115,117,119,121,-1,-1,-1,-1,-1,-1,-1,-1,-1,-1,-1,-1,-1,-1,-1,-1,-1,-1,-1,-1,-1,-1,-1,-1,-1,-1,-1,-1,-1,-1,-1,-1,-1,-1,-1,-1,-1,-1,-1,-1,-1,-1,-1,-1,-1,-1,-1,-1,-1,-1,-1,-1,-1,-1,-1,-1,-1,-1,-1,-1],"loss_changes":[2.3156917E0,2.0239525E0,2.0185544E0,1.8090124E0,2.2484624E0,3.492128E0,1.8789119E0,2.7432952E0,2.0853655E0,1.7196174E0,3.0253983E0,3.0814455E0,4.8406935E0,3.9719281E0,2.277458E0,1.1176972E0,6.159439E-1,2.1630387E0,1.9541807E0,2.0319355E0,1.1705275E0,7.392607E-1,1.9270589E0,1.5687866E0,7.5034094E-1,2.2182693E0,1.4589247E0,3.158889E0,2.4939427E0,2.403708E0,2.057991E0,4.473436E-2,6.1855906E-1,3.764947E-1,8.579612E-1,1.6938405E0,1.2483518E0,1.9674306E0,2.5979745E0,8.2029843E-1,0E0,5.323229E-1,6.060171E-1,3.857398E-2,2.1517922E-1,1.1859219E0,9.882691E-1,2.0741465E0,1.5708987E0,8.4009886E-1,7.991427E-2,0E0,1.7057962E0,5.3316003E-1,2.6479983E-1,2.7775402E0,3.58683E0,3.0103304E0,2.3413906E0,1.751787E0,2.8525977E0,1.8302212E0,2.4280677E0,0E0,0E0,0E0,0E0,0E0,0E0,0E0,0E0,0E0,0E0,0E0,0E0,0E0,0E0,0E0,0E0,0E0,0E0,0E0,0E0,0E0,0E0,0E0,0E0,0E0,0E0,0E0,0E0,0E0,0E0,0E0,0E0,0E0,0E0,0E0,0E0,0E0,0E0,0E0,0E0,0E0,0E0,0E0,0E0,0E0,0E0,0E0,0E0,0E0,0E0,0E0,0E0,0E0,0E0,0E0,0E0,0E0,0E0,0E0,0E0],"parents":[2147483647,0,0,1,1,2,2,3,3,4,4,5,5,6,6,7,7,8,8,9,9,10,10,11,11,12,12,13,13,14,14,15,15,16,16,17,17,18,18,19,19,20,20,21,21,22,22,23,23,24,24,25,25,26,26,27,27,28,28,29,29,30,30,31,31,32,32,33,33,34,34,35,35,36,36,37,37,38,38,39,39,41,41,42,42,43,43,44,44,45,45,46,46,47,47,48,48,49,49,50,50,52,52,53,53,54,54,55,55,56,56,57,57,58,58,59,59,60,60,61,61,62,62],"right_children":[2,4,6,8,10,12,14,16,18,20,22,24,26,28,30,32,34,36,38,40,42,44,46,48,50,52,54,56,58,60,62,64,66,68,70,72,74,76,78,80,-1,82,84,86,88,90,92,94,96,98,100,-1,102,104,106,108,110,112,114,116,118,120,122,-1,-1,-1,-1,-1,-1,-1,-1,-1,-1,-1,-1,-1,-1,-1,-1,-1,-1,-1,-1,-1,-1,-1,-1,-1,-1,-1,-1,-1,-1,-1,-1,-1,-1,-1,-1,-1,-1,-1,-1,-1,-1,-1,-1,-1,-1,-1,-1,-1,-1,-1,-1,-1,-1,-1,-1,-1,-1,-1,-1],"split_conditions":[2.2115E2,2.1434E2,1.425E1,4.54E2,6.05E1,9E0,3.461208E-1,2.2929415E1,1.505E3,-4.630589E-1,3.6643476E0,1.46E2,7.8E1,6.340021E-1,2.73325E1,9.87E1,-4.1968602E-1,1.4428E2,6.378591E-1,-7.316028E-1,-7.674887E-1,7.95E3,1.209E2,-1.6753063E0,1.1046019E2,1.5E1,8.363636E0,2.6151E4,3.2E1,8.67E3,1.9658E2,2E-2,1.2334964E1,5.794E1,7.097371E-1,1.3409E2,-1.3463825E0,-7.6894574E-2,1.1046019E2,3.3304237E1,-5.3262997E-2,-3.3375853E-1,-1.59E2,6.638E1,1.94E4,3.37622E-1,1.2581E2,-8.77578E-1,-4.294909E0,7.603E3,-1.3333334E0,5.801029E-2,5.888E1,-5.683054E-1,6.3644054E1,3.0693567E-1,1.6E1,2E0,2.3358E2,1E2,7E0,1.82E2,1.2224161E2,1.600856E-2,5.546537E-2,-2.1043023E-2,3.6076944E-2,2.0147793E-2,-2.5016552E-2,-5.159855E-2,-9.348368E-3,1.4701824E-2,4.781015E-2,3.5954945E-2,-1.3318223E-2,3.39829E-3,-5.726989E-4,4.8321676E-3,2.7648611E-2,4.192581E-2,-2.6257781E-2,1.53154E-2,-4.2830948E-2,-1.35161625E-2,4.1945443E-2,-1.47937825E-2,-5.549368E-2,1.704794E-2,-2.320298E-2,3.8177077E-2,-2.2358168E-3,-5.749003E-2,-1.4251106E-3,2.036954E-3,4.1744184E-2,-2.2761364E-2,2.434722E-3,-5.085779E-2,-1.8116338E-2,8.7757705E-4,2.7427305E-2,-2.6066123E-2,1.643939E-2,-2.277927E-2,3.2375313E-2,5.704969E-2,2.1560818E-2,-9.678391E-5,-6.095006E-3,-4.321859E-4,4.1502547E-3,3.5184126E-2,-2.8934365E-2,3.1793613E-3,-3.4672786E-3,-2.2854252E-2,-4.4907542E-4,2.2896284E-3,1.3891431E-2,-9.901287E-4,3.1888813E-3,1.0970666E-3,-4.415326E-3],"split_indices":[4,4,20,7,20,27,17,22,7,18,22,5,8,19,20,21,17,4,18,18,17,7,20,17,22,2,21,7,2,7,21,24,22,20,17,20,17,17,22,22,0,15,22,20,7,17,20,18,22,7,15,0,21,18,22,18,8,27,21,2,27,8,22,0,0,0,0,0,0,0,0,0,0,0,0,0,0,0,0,0,0,0,0,0,0,0,0,0,0,0,0,0,0,0,0,0,0,0,0,0,0,0,0,0,0,0,0,0,0,0,0,0,0,0,0,0,0,0,0,0,0,0,0],"split_type":[0,0,0,0,0,0,0,0,0,0,0,0,0,0,0,0,0,0,0,0,0,0,0,0,0,0,0,0,0,0,0,0,0,0,0,0,0,0,0,0,0,0,0,0,0,0,0,0,0,0,0,0,0,0,0,0,0,0,0,0,0,0,0,0,0,0,0,0,0,0,0,0,0,0,0,0,0,0,0,0,0,0,0,0,0,0,0,0,0,0,0,0,0,0,0,0,0,0,0,0,0,0,0,0,0,0,0,0,0,0,0,0,0,0,0,0,0,0,0,0,0,0,0],"sum_hessian":[1.432853E5,5.9025054E3,1.373828E5,5.7668906E3,1.3561478E2,5.5788727E2,1.368249E5,4.3997555E1,5.722893E3,6.3685623E1,7.192915E1,3.6250015E2,1.9538712E2,8.036472E4,5.6460188E4,1.3199768E1,3.0797787E1,1.5364523E2,5.5692476E3,1.1767354E1,5.191827E1,1.3259067E1,5.8670086E1,3.2296924E2,3.95309E1,1.7494958E2,2.0437527E1,7.307217E4,7.2925483E3,1.4015216E3,5.5058668E4,5.5287366E0,7.671031E0,5.3981156E0,2.5399672E1,1.1328199E2,4.036324E1,5.2034844E3,3.6576318E2,7.2729506E0,4.494403E0,4.570078E0,4.7348194E1,9.788629E0,3.4704375E0,3.4309948E1,2.4360138E1,5.3433193E1,2.6953604E2,3.5855858E1,3.6750398E0,2.465702E0,1.7248389E2,6.882449E0,1.3555078E1,6.6176164E4,6.89601E3,5.2834286E1,7.2397144E3,4.8537747E2,9.161441E2,4.428761E4,1.0771057E4,1.4214135E0,4.107323E0,6.0588274E0,1.6122038E0,2.6772091E0,2.7209067E0,1.8320288E1,7.0793843E0,9.5345764E1,1.7936224E1,5.0118427E0,3.53514E1,2.0733777E3,3.1301067E3,3.0700964E2,5.875352E1,5.636326E0,1.6366249E0,2.7810633E0,1.7890148E0,1.6134769E0,4.5734715E1,1.1491764E0,8.639452E0,2.1992917E0,1.2711457E0,2.4269817E1,1.0040131E1,2.6886609E0,2.1671476E1,3.192874E1,2.1504456E1,2.6537369E1,2.4299867E2,1.2506254E1,2.3349606E1,2.4353387E0,1.239701E0,1.6311818E2,9.365706E0,5.433226E0,1.4492229E0,8.524065E0,5.0310125E0,6.5395945E4,7.8021936E2,3.1139133E3,3.7820962E3,7.830003E0,4.500428E1,6.664755E3,5.749596E2,3.684494E1,4.4853253E2,5.8407904E2,3.3206506E2,4.3214527E4,1.0730822E3,9.90285E3,8.682066E2],"tree_param":{"num_deleted":"0","num_feature":"29","num_nodes":"123","size_leaf_vector":"1"}},{"base_weights":[8.149837E-4,-6.547827E-4,1.00962715E-2,8.9831665E-2,-9.0580236E-4,3.6108762E-2,5.615958E-3,1.8261349E-2,1.7344354E-1,-3.603529E-3,4.6925955E-3,1.3110809E-1,2.3332817E-2,-2.074889E-1,6.422266E-3,2.1568953E-1,-3.371716E-2,-1.7582455E-1,2.1823074E-1,-3.6871932E-3,2.9204494E-1,9.271051E-3,-1.012407E-2,5.4340664E-2,2.514691E-1,1.3916473E-2,1.3824809E-1,-2.8468403E-1,3.2667005E-1,4.530569E-1,6.0817744E-3,-3.5603017E-2,4.3917355E-1,1.9234604E-1,-7.148565E-2,-3.9909098E-1,1.0851599E-1,2.5632006E-1,1.1446277E-2,-2.438417E-3,-2.2118613E-2,-4.6253953E-2,4.4069082E-1,1.3912855E-2,-8.192759E-3,-2.3040816E-2,1.5174715E-2,1.10056296E-1,-4.6624792E-1,-1.5763704E-1,2.8043503E-1,1.862685E-2,-2.2483599E-1,2.3254034E-1,-7.356309E-2,-5.765517E-1,-2.0141692E-1,-4.5965206E-2,5.22025E-1,5.218288E-1,-1.1777297E-2,-2.6816535E-1,6.5058023E-3,1.0003374E-2,-3.6685407E-2,5.349362E-2,-1.1519054E-2,-1.4775462E-2,5.0774194E-2,-4.4683423E-2,-4.7419085E-3,-4.5525737E-2,1.0649937E-4,3.4993142E-2,-1.8478002E-2,1.4104477E-2,3.2785915E-2,1.1338073E-2,-3.973586E-2,-4.588308E-4,9.787797E-4,-1.5232444E-2,-1.8259345E-3,1.724499E-2,-3.414477E-2,5.368979E-2,-1.1839642E-2,9.454411E-4,4.082145E-3,2.3804015E-2,-1.0634828E-3,1.157392E-2,-2.630549E-3,5.89947E-3,-1.1839655E-3,-6.823418E-3,1.6360996E-2,-5.8674406E-2,4.044918E-2,3.0426024E-2,-3.750513E-2,6.0452074E-2,2.4934007E-2,8.3976117E-4,1.1987208E-2,-7.5985068E-3,-5.9311964E-2,6.706278E-2,1.8354494E-2,-2.4697132E-2,1.1025528E-2,-6.34903E-2,-2.4660241E-3,2.1211335E-2,-3.4297008E-2,6.664633E-2,1.7230947E-2,2.174919E-2,8.147498E-2,2.6759354E-2,-3.1871065E-2,5.488941E-4,1.1414941E-2],"categories":[],"categories_nodes":[],"categories_segments":[],"categories_sizes":[],"default_left":[0,0,0,0,0,0,0,0,0,0,0,0,0,0,0,0,0,0,0,1,0,0,0,0,0,1,0,0,0,0,0,0,0,0,0,0,0,0,0,0,0,0,0,0,0,0,0,0,0,0,0,0,0,0,0,0,0,0,0,0,0,0,1,0,0,0,0,0,0,0,0,0,0,0,0,0,0,0,0,0,0,0,0,0,0,0,0,0,0,0,0,0,0,0,0,0,0,0,0,0,0,0,0,0,0,0,0,0,0,0,0,0,0,0,0,0,0,0,0,0,0,0,0],"id":13,"left_children":[1,3,5,7,9,11,13,15,17,19,21,23,25,27,29,31,33,35,37,39,41,43,45,47,49,51,53,55,57,59,61,63,65,67,69,71,73,75,77,79,81,83,85,87,89,91,93,95,97,99,101,103,105,107,109,111,113,-1,115,117,-1,119,121,-1,-1,-1,-1,-1,-1,-1,-1,-1,-1,-1,-1,-1,-1,-1,-1,-1,-1,-1,-1,-1,-1,-1,-1,-1,-1,-1,-1,-1,-1,-1,-1,-1,-1,-1,-1,-1,-1,-1,-1,-1,-1,-1,-1,-1,-1,-1,-1,-1,-1,-1,-1,-1,-1,-1,-1,-1,-1,-1,-1],"loss_changes":[1.9466877E0,2.7983541E0,2.273466E0,2.0363781E0,1.8555164E0,3.4757745E0,2.8612041E0,1.9032224E0,2.4954052E0,2.0517936E0,2.7102606E0,3.123807E0,2.733285E0,2.6811392E0,2.5189638E0,2.185627E0,1.2698234E0,1.2117982E0,1.0971122E0,1.9076737E0,1.2004755E0,2.4742167E0,3.0823154E0,6.1017866E0,1.6079378E0,2.6328628E0,3.8383276E0,1.2296581E0,1.5289265E0,5.568056E-1,1.9286926E0,8.9544964E-1,1.1513088E0,2.3631139E0,1.1240921E0,2.3701847E-1,6.93561E-1,9.2599535E-1,9.939622E-1,2.0404522E0,2.6399524E0,5.797969E-1,9.456165E-1,2.8923554E0,3.8566303E0,2.832021E0,3.7750077E0,1.8180821E0,2.3733153E0,1.0546207E0,1.0947723E0,2.3738713E0,2.4382043E0,2.7237406E0,1.9300859E0,3.6288047E-1,2.6846955E0,0E0,2.4832118E-1,8.4312415E-1,0E0,7.786583E-1,1.8104544E0,0E0,0E0,0E0,0E0,0E0,0E0,0E0,0E0,0E0,0E0,0E0,0E0,0E0,0E0,0E0,0E0,0E0,0E0,0E0,0E0,0E0,0E0,0E0,0E0,0E0,0E0,0E0,0E0,0E0,0E0,0E0,0E0,0E0,0E0,0E0,0E0,0E0,0E0,0E0,0E0,0E0,0E0,0E0,0E0,0E0,0E0,0E0,0E0,0E0,0E0,0E0,0E0,0E0,0E0,0E0,0E0,0E0,0E0,0E0,0E0],"parents":[2147483647,0,0,1,1,2,2,3,3,4,4,5,5,6,6,7,7,8,8,9,9,10,10,11,11,12,12,13,13,14,14,15,15,16,16,17,17,18,18,19,19,20,20,21,21,22,22,23,23,24,24,25,25,26,26,27,27,28,28,29,29,30,30,31,31,32,32,33,33,34,34,35,35,36,36,37,37,38,38,39,39,40,40,41,41,42,42,43,43,44,44,45,45,46,46,47,47,48,48,49,49,50,50,51,51,52,52,53,53,54,54,55,55,56,56,58,58,59,59,61,61,62,62],"right_children":[2,4,6,8,10,12,14,16,18,20,22,24,26,28,30,32,34,36,38,40,42,44,46,48,50,52,54,56,58,60,62,64,66,68,70,72,74,76,78,80,82,84,86,88,90,92,94,96,98,100,102,104,106,108,110,112,114,-1,116,118,-1,120,122,-1,-1,-1,-1,-1,-1,-1,-1,-1,-1,-1,-1,-1,-1,-1,-1,-1,-1,-1,-1,-1,-1,-1,-1,-1,-1,-1,-1,-1,-1,-1,-1,-1,-1,-1,-1,-1,-1,-1,-1,-1,-1,-1,-1,-1,-1,-1,-1,-1,-1,-1,-1,-1,-1,-1,-1,-1,-1,-1,-1],"split_conditions":[1.2374369E0,8.488E1,1.2898983E0,-4.021E1,1.2217E2,5.0265E1,-2.0300612E-1,8.833E1,6E1,2.24E2,1.35E2,4.496E1,8.207707E-1,1.725251E0,-1.2693669E-1,7.3255E1,4.312E1,4.2555E1,3.6181328E-1,2.48675E3,8.735E1,4.06202E-1,2.8E2,4.379E1,4.311E1,7.78584E3,3.6E1,1.2E1,-5.922267E-1,2.756E2,1.5E1,1.9847895E-1,1.1984E2,8.3740555E-2,6.027E1,-2.6934618E-1,2.6805E1,4.814E1,-2.7E0,2.19E2,1E0,7.568E1,1.9281E2,3.1146872E-1,3.3345E1,3.407E1,1.58E2,9.837E1,6.8712217E-1,4.1171208E-1,6E1,9.5E1,6.572677E-1,1.71E2,1.64E2,-3.5493028E-1,5.525E1,-4.5965206E-2,2.6803E2,9.006E1,-1.1777297E-2,6E0,4.656E1,1.0003374E-2,-3.6685407E-2,5.349362E-2,-1.1519054E-2,-1.4775462E-2,5.0774194E-2,-4.4683423E-2,-4.7419085E-3,-4.5525737E-2,1.0649937E-4,3.4993142E-2,-1.8478002E-2,1.4104477E-2,3.2785915E-2,1.1338073E-2,-3.973586E-2,-4.588308E-4,9.787797E-4,-1.5232444E-2,-1.8259345E-3,1.724499E-2,-3.414477E-2,5.368979E-2,-1.1839642E-2,9.454411E-4,4.082145E-3,2.3804015E-2,-1.0634828E-3,1.157392E-2,-2.630549E-3,5.89947E-3,-1.1839655E-3,-6.823418E-3,1.6360996E-2,-5.8674406E-2,4.044918E-2,3.0426024E-2,-3.750513E-2,6.0452074E-2,2.4934007E-2,8.3976117E-4,1.1987208E-2,-7.5985068E-3,-5.9311964E-2,6.706278E-2,1.8354494E-2,-2.4697132E-2,1.1025528E-2,-6.34903E-2,-2.4660241E-3,2.1211335E-2,-3.4297008E-2,6.664633E-2,1.7230947E-2,2.174919E-2,8.147498E-2,2.6759354E-2,-3.1871065E-2,5.488941E-4,1.1414941E-2],"split_indices":[15,4,15,23,21,20,18,10,25,2,2,20,18,15,18,20,21,21,15,10,25,18,25,20,10,